{"learner":{"attributes":{"best_iteration":"595","best_ntree_limit":"596"},"feature_names":["Avg_CCS1_WHCO2InjTp_F_diff1","Pressure diff 7061-6416 ft_lag1","Avg_CCS1_WHCO2InjPs_psi_pct_change5","Avg_CCS1_WHCO2InjPs_psi_pct_change1","Pressure diff 6837-6720 ft_lag5","Avg_PLT_CO2VentRate_TPH_pct_change1","Avg_CCS1_DH6325Ps_psi_diff1","Avg_CCS1_WHCO2InjPs_psi_diff1","Avg_CCS1_WHCO2InjPs_psi","Avg_CCS1_WHCO2InjPs_psi_diff3","Avg_CCS1_DH6325Ps_psi_pct_change1","Temperature diff 6416-5482 ft_lag1","Avg_CCS1_WHCO2InjPs_psi ema 5","Avg_PLT_CO2VentRate_TPH_diff1","Temperature diff 6720-5653 ft sma 5","Avg_CCS1_WHCO2InjPs_psi_diff2"],"feature_types":["float","float","float","float","float","float","float","float","float","float","float","float","float","float","float","float"],"gradient_booster":{"model":{"gbtree_model_param":{"num_parallel_tree":"1","num_trees":"596","size_leaf_vector":"0"},"tree_info":[0,0,0,0,0,0,0,0,0,0,0,0,0,0,0,0,0,0,0,0,0,0,0,0,0,0,0,0,0,0,0,0,0,0,0,0,0,0,0,0,0,0,0,0,0,0,0,0,0,0,0,0,0,0,0,0,0,0,0,0,0,0,0,0,0,0,0,0,0,0,0,0,0,0,0,0,0,0,0,0,0,0,0,0,0,0,0,0,0,0,0,0,0,0,0,0,0,0,0,0,0,0,0,0,0,0,0,0,0,0,0,0,0,0,0,0,0,0,0,0,0,0,0,0,0,0,0,0,0,0,0,0,0,0,0,0,0,0,0,0,0,0,0,0,0,0,0,0,0,0,0,0,0,0,0,0,0,0,0,0,0,0,0,0,0,0,0,0,0,0,0,0,0,0,0,0,0,0,0,0,0,0,0,0,0,0,0,0,0,0,0,0,0,0,0,0,0,0,0,0,0,0,0,0,0,0,0,0,0,0,0,0,0,0,0,0,0,0,0,0,0,0,0,0,0,0,0,0,0,0,0,0,0,0,0,0,0,0,0,0,0,0,0,0,0,0,0,0,0,0,0,0,0,0,0,0,0,0,0,0,0,0,0,0,0,0,0,0,0,0,0,0,0,0,0,0,0,0,0,0,0,0,0,0,0,0,0,0,0,0,0,0,0,0,0,0,0,0,0,0,0,0,0,0,0,0,0,0,0,0,0,0,0,0,0,0,0,0,0,0,0,0,0,0,0,0,0,0,0,0,0,0,0,0,0,0,0,0,0,0,0,0,0,0,0,0,0,0,0,0,0,0,0,0,0,0,0,0,0,0,0,0,0,0,0,0,0,0,0,0,0,0,0,0,0,0,0,0,0,0,0,0,0,0,0,0,0,0,0,0,0,0,0,0,0,0,0,0,0,0,0,0,0,0,0,0,0,0,0,0,0,0,0,0,0,0,0,0,0,0,0,0,0,0,0,0,0,0,0,0,0,0,0,0,0,0,0,0,0,0,0,0,0,0,0,0,0,0,0,0,0,0,0,0,0,0,0,0,0,0,0,0,0,0,0,0,0,0,0,0,0,0,0,0,0,0,0,0,0,0,0,0,0,0,0,0,0,0,0,0,0,0,0,0,0,0,0,0,0,0,0,0,0,0,0,0,0,0,0,0,0,0,0,0,0,0,0,0,0,0,0,0,0,0,0,0,0,0,0,0,0,0,0,0,0,0,0,0,0,0,0,0,0,0,0,0,0,0,0,0,0,0,0,0,0,0,0,0,0,0,0,0,0,0,0,0,0,0,0,0,0,0,0,0,0,0,0,0,0,0,0,0,0,0,0,0,0,0,0,0,0,0,0,0,0,0],"trees":[{"base_weights":[-1.3269589E0,-1.5786707E0,1.4440389E0,1.5570765E0,-1.8464375E0,5.6153005E-1,1.7564987E0,1.8313084E0,4.722917E-1,-1.8786117E0,1.223638E0,1.0434717E0,4.7328476E-2,8.669457E-1,1.8658627E0,1.8747799E0,9.649939E-2,-2.6133105E-1,7.34017E-1,1.319302E0,-1.9021726E0,1.2295393E-1,1.557393E0,1.2142801E0,7.886637E-2,5.954792E-1,-6.1869156E-1,1.2142802E0,-4.2341214E-1,1.8750948E0,-0E0],"categories":[],"categories_nodes":[],"categories_segments":[],"categories_sizes":[],"default_left":[1,1,0,1,1,1,1,1,0,1,1,1,1,0,0,0,0,0,0,0,0,0,0,0,0,0,0,0,0,0,0],"id":0,"left_children":[1,3,5,7,9,11,13,15,17,19,21,23,25,27,29,-1,-1,-1,-1,-1,-1,-1,-1,-1,-1,-1,-1,-1,-1,-1,-1],"loss_changes":[3.8944375E3,4.3019834E3,1.2121057E2,1.1359448E2,4.770879E2,3.0878052E1,2.2339844E1,2.1265259E1,1.8524742E1,3.642754E2,1.6289406E1,9.079819E0,2.7059025E1,2.472157E1,3.3469238E0,0E0,0E0,0E0,0E0,0E0,0E0,0E0,0E0,0E0,0E0,0E0,0E0,0E0,0E0,0E0,0E0],"parents":[2147483647,0,0,1,1,2,2,3,3,4,4,5,5,6,6,7,7,8,8,9,9,10,10,11,11,12,12,13,13,14,14],"right_children":[2,4,6,8,10,12,14,16,18,20,22,24,26,28,30,-1,-1,-1,-1,-1,-1,-1,-1,-1,-1,-1,-1,-1,-1,-1,-1],"split_conditions":[1.4599589E1,-1.7277836E1,2.575603E-3,-1.0358038E1,1.5541666E0,4.278527E0,2.8124626E1,-2.2281792E1,-1.5060937E-1,-1.7416667E0,1.0987268E3,1.316717E3,1.8868834E-2,9.720853E-2,1.0623915E0,9.3738995E-2,4.8249695E-3,-1.3066553E-2,3.6700852E-2,6.59651E-2,-9.510863E-2,6.1476966E-3,7.7869646E-2,6.0714006E-2,3.9433185E-3,2.977396E-2,-3.0934578E-2,6.0714014E-2,-2.1170607E-2,9.375474E-2,-0E0],"split_indices":[7,7,10,6,13,11,7,7,2,13,8,8,2,2,3,0,0,0,0,0,0,0,0,0,0,0,0,0,0,0,0],"split_type":[0,0,0,0,0,0,0,0,0,0,0,0,0,0,0,0,0,0,0,0,0,0,0,0,0,0,0,0,0,0,0],"sum_hessian":[5.561946E3,5.101086E3,4.608599E2,3.99133E2,4.7019526E3,1.2499924E2,3.3586066E2,3.1511078E2,8.402223E1,4.6554307E3,4.6522358E1,6.0863186E1,6.4136055E1,4.265879E1,2.9320184E2,3.0645172E2,8.659044E0,2.1090828E1,6.2931404E1,3.1727007E1,4.6237036E3,1.3113567E1,3.340879E1,4.972688E1,1.1136306E1,3.6295223E1,2.7840828E1,3.445427E1,8.204522E0,2.912246E2,1.9772612E0],"tree_param":{"num_deleted":"0","num_feature":"16","num_nodes":"31","size_leaf_vector":"0"}},{"base_weights":[-1.2498388E0,1.1632841E0,-1.492599E0,1.6586435E0,3.2972E-1,-1.7400115E0,8.7626195E-1,-2.0508814E-1,1.7743256E0,-7.714004E-1,1.5034686E0,-6.463003E-2,-1.8115712E0,-1.5357637E0,1.3303964E0,3.0421114E-1,-7.774364E-1,1.8120837E0,3.22391E-1,-1.2007587E0,4.5705554E-1,-2.0318377E-1,1.5972344E0,-1.5583999E0,7.806637E-1,-1.8356487E0,-1.036458E0,-1.7067741E0,4.5457962E-1,4.4541708E-1,1.6699457E0],"categories":[],"categories_nodes":[],"categories_segments":[],"categories_sizes":[],"default_left":[1,0,1,1,1,0,1,1,1,1,1,1,1,1,0,0,0,0,0,0,0,0,0,0,0,0,0,0,0,0,0],"id":1,"left_children":[1,3,5,7,9,11,13,15,17,19,21,23,25,27,29,-1,-1,-1,-1,-1,-1,-1,-1,-1,-1,-1,-1,-1,-1,-1,-1],"loss_changes":[3.2698418E3,2.0636902E2,2.9741602E3,7.209448E1,2.6185663E2,5.470752E2,5.373982E2,8.243793E0,1.1450012E1,5.876178E1,1.8660507E1,2.5121101E2,6.9640625E1,3.176831E1,1.168288E2,0E0,0E0,0E0,0E0,0E0,0E0,0E0,0E0,0E0,0E0,0E0,0E0,0E0,0E0,0E0,0E0],"parents":[2147483647,0,0,1,1,2,2,3,3,4,4,5,5,6,6,7,7,8,8,9,9,10,10,11,11,12,12,13,13,14,14],"right_children":[2,4,6,8,10,12,14,16,18,20,22,24,26,28,30,-1,-1,-1,-1,-1,-1,-1,-1,-1,-1,-1,-1,-1,-1,-1,-1],"split_conditions":[-3.1956936E1,-2.23016E-2,1.1654085E-2,-7.70728E2,1.5070327E-4,-9.614365E-3,5.988528E2,2.0816583E2,1.029E0,4.22422E-1,8.840746E2,4.5488434E1,2.8139795E-3,1.4586788E1,3.4154346E-3,1.5210557E-2,-3.887182E-2,9.0604186E-2,1.611955E-2,-6.0037937E-2,2.2852777E-2,-1.0159189E-2,7.986172E-2,-7.792E-2,3.9033186E-2,-9.1782436E-2,-5.18229E-2,-8.5338704E-2,2.2728981E-2,2.2270855E-2,8.3497286E-2],"split_indices":[9,3,3,9,3,3,12,1,6,6,8,12,10,6,10,0,0,0,0,0,0,0,0,0,0,0,0,0,0,0,0],"split_type":[0,0,0,0,0,0,0,0,0,0,0,0,0,0,0,0,0,0,0,0,0,0,0,0,0,0,0,0,0,0,0],"sum_hessian":[5.561362E3,5.0622513E2,5.0551367E3,3.136717E2,1.9255342E2,4.5786733E3,4.7646368E2,1.7600761E1,2.9607092E2,9.979523E1,9.27582E1,1.8851811E2,4.3901553E3,7.325846E1,4.0320523E2,9.628322E0,7.9724402E0,2.8668655E2,9.384382E0,7.463594E1,2.5159288E1,3.9715493E0,8.878665E1,6.703009E1,1.21488014E2,4.250006E3,1.4014929E2,6.858078E1,4.677678E0,1.158265E2,2.8737872E2],"tree_param":{"num_deleted":"0","num_feature":"16","num_nodes":"31","size_leaf_vector":"0"}},{"base_weights":[-1.1894864E0,1.4441977E0,-1.4020342E0,1.6839247E0,5.6331205E-1,-1.6773638E0,1.1750458E0,-2.2261098E-1,1.7128068E0,1.0165148E-1,1.2888414E0,-1.7074565E0,1.2074659E0,1.3291919E-1,1.5572855E0,2.1224684E-1,-5.6882596E-1,1.7580849E0,1.8432704E-1,5.44614E-1,-5.6998366E-1,1.3888755E0,-0E0,1.4308217E0,-1.7313372E0,-2.522702E-1,1.5039115E0,-4.2687315E-1,5.440579E-1,6.7011E-1,1.6776342E0],"categories":[],"categories_nodes":[],"categories_segments":[],"categories_sizes":[],"default_left":[1,1,1,1,1,1,0,0,1,1,1,1,1,0,1,0,0,0,0,0,0,0,0,0,0,0,0,0,0,0,0],"id":2,"left_children":[1,3,5,7,9,11,13,15,17,19,21,23,25,27,29,-1,-1,-1,-1,-1,-1,-1,-1,-1,-1,-1,-1,-1,-1,-1,-1],"loss_changes":[3.0978442E3,8.044122E1,3.6339834E3,2.113031E1,3.043668E1,4.115713E2,1.946695E2,2.2721922E0,1.8468384E1,2.1024324E1,4.9883614E0,3.552705E2,2.4890915E1,3.3304276E1,3.0617004E1,0E0,0E0,0E0,0E0,0E0,0E0,0E0,0E0,0E0,0E0,0E0,0E0,0E0,0E0,0E0,0E0],"parents":[2147483647,0,0,1,1,2,2,3,3,4,4,5,5,6,6,7,7,8,8,9,9,10,10,11,11,12,12,13,13,14,14],"right_children":[2,4,6,8,10,12,14,16,18,20,22,24,26,28,30,-1,-1,-1,-1,-1,-1,-1,-1,-1,-1,-1,-1,-1,-1,-1,-1],"split_conditions":[-1.8019909E1,-1.0289146E1,1.1211694E1,-2.710202E2,1.0500405E1,1.5541666E0,2.4579824E-3,-6.911765E-1,-2.2281792E1,-4.076835E-1,-7.992585E-1,-1.7291667E0,1.0209774E3,2.0478334E-2,1.7967599E-2,1.0612342E-2,-2.8441299E-2,8.7904245E-2,9.216352E-3,2.72307E-2,-2.8499184E-2,6.944378E-2,-0E0,7.1541086E-2,-8.656686E-2,-1.261351E-2,7.519557E-2,-2.1343658E-2,2.7202895E-2,3.35055E-2,8.388171E-2],"split_indices":[7,6,7,9,6,13,10,5,7,6,5,13,12,3,3,0,0,0,0,0,0,0,0,0,0,0,0,0,0,0,0],"split_type":[0,0,0,0,0,0,0,0,0,0,0,0,0,0,0,0,0,0,0,0,0,0,0,0,0,0,0,0,0,0,0],"sum_hessian":[5.5109907E3,4.0902872E2,5.101962E3,3.1705185E2,9.1976875E1,4.6114214E3,4.9054056E2,3.7141676E0,3.1333768E2,6.0536083E1,3.1440788E1,4.5661772E3,4.5244255E1,1.3415076E2,3.563898E2,1.2236265E0,2.490541E0,3.0295782E2,1.0379844E1,3.794487E1,2.2591211E1,2.8966536E1,2.4742541E0,3.1942913E1,4.5342344E3,7.193639E0,3.8050617E1,5.5694893E1,7.845587E1,4.7486065E1,3.0890372E2],"tree_param":{"num_deleted":"0","num_feature":"16","num_nodes":"31","size_leaf_vector":"0"}},{"base_weights":[-1.1371411E0,-1.3648635E0,1.2747482E0,1.3007929E0,-1.6152432E0,6.4389825E-1,1.6218765E0,1.4852247E0,9.212959E-2,-1.6437674E0,1.1011099E0,8.806066E-1,-7.130589E-2,1.6389229E0,2.2206578E-1,-3.7007548E-2,1.5873762E0,-6.87982E-1,7.7628237E-1,1.3298354E0,-1.665916E0,-0E0,1.2668557E0,-3.4829968E-1,1.0080388E0,-7.952141E-1,1.0621408E0,8.359961E-1,1.6911726E0,6.3964075E-1,-3.5073963E-1],"categories":[],"categories_nodes":[],"categories_segments":[],"categories_sizes":[],"default_left":[1,1,0,0,1,1,1,1,0,1,1,0,1,0,1,0,0,0,0,0,0,0,0,0,0,0,0,0,0,0,0],"id":3,"left_children":[1,3,5,7,9,11,13,15,17,19,21,23,25,27,29,-1,-1,-1,-1,-1,-1,-1,-1,-1,-1,-1,-1,-1,-1,-1,-1],"loss_changes":[3.0132197E3,3.3486357E3,9.6338745E1,9.400018E1,3.640088E2,3.1190323E1,3.514038E0,5.9940063E1,3.6499294E1,3.0969922E2,7.8959465E0,2.3535133E1,4.312619E1,2.838684E0,3.8305352E0,0E0,0E0,0E0,0E0,0E0,0E0,0E0,0E0,0E0,0E0,0E0,0E0,0E0,0E0,0E0,0E0],"parents":[2147483647,0,0,1,1,2,2,3,3,4,4,5,5,6,6,7,7,8,8,9,9,10,10,11,11,12,12,13,13,14,14],"right_children":[2,4,6,8,10,12,14,16,18,20,22,24,26,28,30,-1,-1,-1,-1,-1,-1,-1,-1,-1,-1,-1,-1,-1,-1,-1,-1],"split_conditions":[1.3678844E1,-1.5868002E1,5.9152143E-3,-1.979975E-2,1.2208333E0,-2.7525252E-1,3.4636163E2,-2.7361884E2,-1.7443415E-2,-2.0083332E0,2.0708332E0,1.3984359E-2,7.75E-1,2.3689553E-2,-6.0823E0,-1.8503774E-3,7.9368815E-2,-3.4399103E-2,3.881412E-2,6.6491775E-2,-8.32958E-2,-0E0,6.334279E-2,-1.7414985E-2,5.0401937E-2,-3.9760705E-2,5.3107042E-2,4.1799806E-2,8.455863E-2,3.198204E-2,-1.7536981E-2],"split_indices":[7,7,10,3,13,5,9,9,2,13,13,3,13,3,13,0,0,0,0,0,0,0,0,0,0,0,0,0,0,0,0],"split_type":[0,0,0,0,0,0,0,0,0,0,0,0,0,0,0,0,0,0,0,0,0,0,0,0,0,0,0,0,0,0,0],"sum_hessian":[5.465147E3,4.9960244E3,4.6912247E2,4.2682986E2,4.569195E3,1.726018E2,2.9652066E2,3.6861145E2,5.821843E1,4.524031E3,4.5163986E1,1.2986333E2,4.2738483E1,2.914036E2,5.117086E0,2.2765512E1,3.4584595E2,2.6505564E1,3.1712864E1,3.0931204E1,4.4930996E3,7.347663E0,3.7816322E1,1.0649578E1,1.1921375E2,2.7529987E1,1.5208496E1,2.4166882E1,2.672367E2,3.631855E0,1.485231E0],"tree_param":{"num_deleted":"0","num_feature":"16","num_nodes":"31","size_leaf_vector":"0"}},{"base_weights":[-1.1197739E0,1.4442128E0,-1.3123425E0,1.5892218E0,6.02697E-1,-1.5456194E0,1.070309E0,-0E0,1.6159855E0,-1.0355365E-1,1.2892798E0,-1.5758142E0,9.4526565E-1,1.5046613E-1,1.434567E0,4.274267E-1,-5.237453E-1,1.6294246E0,2.7553055E-1,8.496096E-1,-6.685665E-1,1.3243313E0,1.1678898E-2,1.2467028E0,-1.593523E0,1.1540655E0,-2.4674986E-1,5.549517E-1,-4.751069E-1,7.241082E-1,1.548412E0],"categories":[],"categories_nodes":[],"categories_segments":[],"categories_sizes":[],"default_left":[1,1,1,0,1,1,0,0,1,1,0,1,1,1,1,0,0,0,0,0,0,0,0,0,0,0,0,0,0,0,0],"id":4,"left_children":[1,3,5,7,9,11,13,15,17,19,21,23,25,27,29,-1,-1,-1,-1,-1,-1,-1,-1,-1,-1,-1,-1,-1,-1,-1,-1],"loss_changes":[2.6532026E3,3.8912292E1,2.7787354E3,1.4278564E1,3.305642E1,3.4966602E2,1.4710419E2,3.3918982E0,1.4672852E0,2.1848019E1,9.664917E-2,2.3468164E2,1.654884E1,3.5092648E1,1.7908997E1,0E0,0E0,0E0,0E0,0E0,0E0,0E0,0E0,0E0,0E0,0E0,0E0,0E0,0E0,0E0,0E0],"parents":[2147483647,0,0,1,1,2,2,3,3,4,4,5,5,6,6,7,7,8,8,9,9,10,10,11,11,12,12,13,13,14,14],"right_children":[2,4,6,8,10,12,14,16,18,20,22,24,26,28,30,-1,-1,-1,-1,-1,-1,-1,-1,-1,-1,-1,-1,-1,-1,-1,-1],"split_conditions":[-2.2845219E1,-3.626923E0,1.216482E1,-1.9859737E-1,1.0581049E1,1.0697129E0,2.575603E-3,-9.9650234E-1,-2.4255068E1,-9.434738E-2,7.3937416E-2,-1.7291667E0,5.304004E0,2.0682149E-2,2.4597515E1,2.1371335E-2,-2.6187265E-2,8.147123E-2,1.3776528E-2,4.248048E-2,-3.3428326E-2,6.6216566E-2,5.839449E-4,6.233514E-2,-7.967615E-2,5.7703275E-2,-1.2337494E-2,2.7747586E-2,-2.3755345E-2,3.620541E-2,7.74206E-2],"split_indices":[7,6,7,2,6,13,10,2,7,14,2,13,14,2,7,0,0,0,0,0,0,0,0,0,0,0,0,0,0,0,0],"split_type":[0,0,0,0,0,0,0,0,0,0,0,0,0,0,0,0,0,0,0,0,0,0,0,0,0,0,0,0,0,0,0],"sum_hessian":[5.349721E3,3.7109003E2,4.9786313E3,3.1174033E2,5.93497E1,4.536641E3,4.4199005E2,4.9369454E0,3.0680338E2,3.0630817E1,2.8718882E1,4.4845176E3,5.2123833E1,1.2816125E2,3.1382877E2,2.7000268E0,2.2369184E0,3.0195218E2,4.8511987E0,9.803752E0,2.0827066E1,2.701219E1,1.7066913E0,2.5445301E1,4.4590723E3,4.5203796E1,6.920038E0,7.914825E1,4.9013016E1,4.9639015E1,2.6418976E2],"tree_param":{"num_deleted":"0","num_feature":"16","num_nodes":"31","size_leaf_vector":"0"}},{"base_weights":[-1.0711633E0,9.51117E-1,-1.2970326E0,1.4194884E0,2.560736E-1,-1.4982342E0,1.1016065E0,4.6404593E-2,1.5219291E0,-6.103729E-1,1.3636916E0,5.223649E-1,-1.5461677E0,2.9213816E-1,1.3816706E0,-7.7289766E-1,5.981098E-1,1.567519E0,3.080877E-1,-1.0478508E0,5.197313E-1,-0E0,1.416575E0,1.3112319E0,3.839513E-2,-1.5727414E0,-7.9535556E-1,7.3857E-1,-2.0700991E-1,5.410657E-1,1.4830183E0],"categories":[],"categories_nodes":[],"categories_segments":[],"categories_sizes":[],"default_left":[1,1,1,0,1,1,0,1,1,1,0,1,1,1,1,0,0,0,0,0,0,0,0,0,0,0,0,0,0,0,0],"id":5,"left_children":[1,3,5,7,9,11,13,15,17,19,21,23,25,27,29,-1,-1,-1,-1,-1,-1,-1,-1,-1,-1,-1,-1,-1,-1,-1,-1],"loss_changes":[2.4359292E3,1.7125644E2,2.3188408E3,4.291162E1,2.1899097E2,4.330537E2,8.085748E1,1.4776527E1,1.2077332E1,6.658676E1,5.863327E0,3.8735382E1,7.753418E1,2.427612E1,1.7377197E1,0E0,0E0,0E0,0E0,0E0,0E0,0E0,0E0,0E0,0E0,0E0,0E0,0E0,0E0,0E0,0E0],"parents":[2147483647,0,0,1,1,2,2,3,3,4,4,5,5,6,6,7,7,8,8,9,9,10,10,11,11,12,12,13,13,14,14],"right_children":[2,4,6,8,10,12,14,16,18,20,22,24,26,28,30,-1,-1,-1,-1,-1,-1,-1,-1,-1,-1,-1,-1,-1,-1,-1,-1],"split_conditions":[-2.7174063E1,-2.631538E1,1.5158211E1,-1.9821665E-1,3.0033997E-1,-1.1005612E1,2.575603E-3,6.765355E1,-3.3740454E0,4.04095E-1,-1.7079103E-1,-8.674913E0,2.6655174E-3,4.2795844E0,2.7298103E1,-3.8644884E-2,2.9905489E-2,7.837595E-2,1.54043855E-2,-5.2392542E-2,2.5986565E-2,-0E0,7.082875E-2,6.556159E-2,1.9197565E-3,-7.863707E-2,-3.976778E-2,3.69285E-2,-1.0350496E-2,2.7053285E-2,7.415091E-2],"split_indices":[9,7,7,2,7,7,10,4,6,6,2,6,10,11,7,0,0,0,0,0,0,0,0,0,0,0,0,0,0,0,0],"split_type":[0,0,0,0,0,0,0,0,0,0,0,0,0,0,0,0,0,0,0,0,0,0,0,0,0,0,0,0,0,0,0],"sum_hessian":[5.313671E3,5.318013E2,4.7818696E3,3.1373398E2,2.1806732E2,4.413917E3,3.6795242E2,2.296362E1,2.9077036E2,1.2310718E2,9.496014E1,1.0065226E2,4.313265E3,9.8125824E1,2.698266E2,7.704689E0,1.5258929E1,2.7804672E2,1.2723642E1,8.965094E1,3.3456245E1,4.402181E0,9.055796E1,3.4235607E1,6.641665E1,4.1592505E3,1.5401456E2,5.158972E1,4.65361E1,3.3503124E1,2.3632349E2],"tree_param":{"num_deleted":"0","num_feature":"16","num_nodes":"31","size_leaf_vector":"0"}},{"base_weights":[-1.0361125E0,-1.2476683E0,1.0219994E0,1.1939511E0,-1.4594027E0,2.1264976E-1,1.3202616E0,1.3459448E0,8.128011E-3,-1.4803892E0,1.1410578E0,-4.0801737E-1,6.029258E-1,6.965721E-1,1.4629077E0,1.5060146E0,4.6216688E-1,-4.2942718E-1,8.7856007E-1,1.2818781E0,-1.5001119E0,1.2073071E-1,1.2924296E0,-9.664974E-1,1.0734667E0,8.924388E-1,-4.2839894E-1,9.713686E-1,-8.887937E-1,-1.8084896E-1,1.4882934E0],"categories":[],"categories_nodes":[],"categories_segments":[],"categories_sizes":[],"default_left":[1,1,1,1,1,0,1,1,1,1,1,1,1,1,1,0,0,0,0,0,0,0,0,0,0,0,0,0,0,0,0],"id":6,"left_children":[1,3,5,7,9,11,13,15,17,19,21,23,25,27,29,-1,-1,-1,-1,-1,-1,-1,-1,-1,-1,-1,-1,-1,-1,-1,-1],"loss_changes":[2.2679683E3,2.4451143E3,1.14482666E2,6.679468E1,2.455791E2,3.4815598E1,2.4201172E1,4.1891663E1,2.091019E1,2.4446094E2,3.5487747E0,5.075892E1,2.854265E1,3.7797726E1,1.4416504E1,0E0,0E0,0E0,0E0,0E0,0E0,0E0,0E0,0E0,0E0,0E0,0E0,0E0,0E0,0E0,0E0],"parents":[2147483647,0,0,1,1,2,2,3,3,4,4,5,5,6,6,7,7,8,8,9,9,10,10,11,11,12,12,13,13,14,14],"right_children":[2,4,6,8,10,12,14,16,18,20,22,24,26,28,30,-1,-1,-1,-1,-1,-1,-1,-1,-1,-1,-1,-1,-1,-1,-1,-1],"split_conditions":[1.1189243E1,-1.7116566E1,6.4737406E0,-2.4304611E1,2.0833333E0,2.0048799E-2,2.7992989E1,-3.626923E0,8.516321E1,-2.0083332E0,1.01294324E3,9.0416664E-1,1.4683229E-1,1.6362231E2,7.549636E2,7.530073E-2,2.3108345E-2,-2.1471359E-2,4.3928005E-2,6.409391E-2,-7.50056E-2,6.036536E-3,6.462148E-2,-4.832487E-2,5.3673334E-2,4.462194E-2,-2.1419948E-2,4.856843E-2,-4.4439685E-2,-9.042448E-3,7.441467E-2],"split_indices":[7,7,6,7,13,3,7,6,4,13,8,13,3,9,12,0,0,0,0,0,0,0,0,0,0,0,0,0,0,0,0],"split_type":[0,0,0,0,0,0,0,0,0,0,0,0,0,0,0,0,0,0,0,0,0,0,0,0,0,0,0,0,0,0,0],"sum_hessian":[5.188705E3,4.707292E3,4.8141327E2,3.734084E2,4.3338833E3,1.3284612E2,3.4856714E2,3.2963834E2,4.377007E1,4.301705E3,3.2178127E1,5.02085E1,8.263761E1,7.166291E1,2.7690424E2,2.7515115E2,5.4487183E1,3.0049143E1,1.3720925E1,2.7868755E1,4.2738364E3,6.171698E0,2.600643E1,3.821539E1,1.199311E1,6.58072E1,1.6830408E1,6.3264324E1,8.398583E0,3.1465943E0,2.7375766E2],"tree_param":{"num_deleted":"0","num_feature":"16","num_nodes":"31","size_leaf_vector":"0"}},{"base_weights":[-9.780929E-1,-1.1718327E0,1.1710652E0,1.1938184E0,-1.3945185E0,5.7768434E-1,1.3669012E0,1.3187777E0,1.8237513E-1,-1.4290124E0,7.9408944E-1,9.9625796E-1,1.2674645E-1,3.455174E-1,1.4111394E0,2.9108465E-2,1.4110316E0,7.992366E-1,-6.598446E-1,1.2708198E0,-1.4536488E0,-0E0,1.1760077E0,-2.4942389E-2,1.0709952E0,6.0362035E-1,-1.159782E0,6.1705446E-1,-4.9084732E-1,1.4223646E0,-0E0],"categories":[],"categories_nodes":[],"categories_segments":[],"categories_sizes":[],"default_left":[1,1,1,0,1,1,1,0,1,1,1,0,1,0,1,0,0,0,0,0,0,0,0,0,0,0,0,0,0,0,0],"id":7,"left_children":[1,3,5,7,9,11,13,15,17,19,21,23,25,27,29,-1,-1,-1,-1,-1,-1,-1,-1,-1,-1,-1,-1,-1,-1,-1,-1],"loss_changes":[2.1613901E3,2.510544E3,4.4071106E1,4.9233032E1,3.342207E2,2.025729E1,1.0189636E1,4.166913E1,2.9723425E1,2.9399414E2,2.2159332E1,5.652088E0,4.160609E1,6.3587766E0,5.3285522E0,0E0,0E0,0E0,0E0,0E0,0E0,0E0,0E0,0E0,0E0,0E0,0E0,0E0,0E0,0E0,0E0],"parents":[2147483647,0,0,1,1,2,2,3,3,4,4,5,5,6,6,7,7,8,8,9,9,10,10,11,11,12,12,13,13,14,14],"right_children":[2,4,6,8,10,12,14,16,18,20,22,24,26,28,30,-1,-1,-1,-1,-1,-1,-1,-1,-1,-1,-1,-1,-1,-1,-1,-1],"split_conditions":[1.7193455E1,-1.6895464E1,6.398203E0,-1.979975E-2,7.4583334E-1,-3.367319E0,1.7845191E-2,-1.960113E-1,1.5599849E0,-1.7416667E0,2.2958333E0,1.5962724E-2,8.5138984E-2,1.690257E-2,2.68538E2,1.4554233E-3,7.055158E-2,3.996183E-2,-3.299223E-2,6.354099E-2,-7.268244E-2,-0E0,5.8800388E-2,-1.2471195E-3,5.3549763E-2,3.0181019E-2,-5.79891E-2,3.0852724E-2,-2.4542367E-2,7.111823E-2,-0E0],"split_indices":[7,7,6,3,13,6,3,2,14,13,13,3,2,3,7,0,0,0,0,0,0,0,0,0,0,0,0,0,0,0,0],"split_type":[0,0,0,0,0,0,0,0,0,0,0,0,0,0,0,0,0,0,0,0,0,0,0,0,0,0,0,0,0,0,0],"sum_hessian":[5.1694575E3,4.744495E3,4.2496225E2,4.0592706E2,4.3385684E3,1.11617615E2,3.1334464E2,3.59059E2,4.6868076E1,4.2734087E3,6.5159424E1,5.3600227E1,5.8017384E1,1.5775376E1,2.9756927E2,2.5132664E1,3.3392633E2,2.7886133E1,1.8981943E1,3.598894E1,4.23742E3,2.2147425E1,4.3012E1,2.9699743E0,5.0630253E1,4.4831264E1,1.318612E1,1.38013315E1,1.9740453E0,2.954462E2,2.1230621E0],"tree_param":{"num_deleted":"0","num_feature":"16","num_nodes":"31","size_leaf_vector":"0"}},{"base_weights":[-9.7362417E-1,-1.1661414E0,9.9583197E-1,1.1465778E0,-1.3693314E0,1.8144354E-1,1.3089049E0,1.2788098E0,1.395194E-1,-1.4021647E0,8.594634E-1,-8.137898E-1,4.9513924E-1,1.3290577E0,-0E0,4.1686498E-2,1.3592612E0,-6.865284E-1,8.241725E-1,1.0984808E0,-1.420912E0,2.9089767E-1,1.3277614E0,4.743113E-1,-1.1309642E0,1.0583354E0,1.9139758E-1,6.707481E-1,1.3924518E0,-5.344864E-1,3.811586E-1],"categories":[],"categories_nodes":[],"categories_segments":[],"categories_sizes":[],"default_left":[1,1,0,0,1,1,1,1,1,1,0,1,0,1,1,0,0,0,0,0,0,0,0,0,0,0,0,0,0,0,0],"id":8,"left_children":[1,3,5,7,9,11,13,15,17,19,21,23,25,27,29,-1,-1,-1,-1,-1,-1,-1,-1,-1,-1,-1,-1,-1,-1,-1,-1],"loss_changes":[1.9209736E3,2.171461E3,1.12561615E2,4.751071E1,3.164497E2,4.296848E1,9.776733E0,3.1082153E1,3.119563E1,2.0387402E2,1.352623E1,1.674336E1,1.5594814E1,6.644226E0,3.0405788E0,0E0,0E0,0E0,0E0,0E0,0E0,0E0,0E0,0E0,0E0,0E0,0E0,0E0,0E0,0E0,0E0],"parents":[2147483647,0,0,1,1,2,2,3,3,4,4,5,5,6,6,7,7,8,8,9,9,10,10,11,11,12,12,13,13,14,14],"right_children":[2,4,6,8,10,12,14,16,18,20,22,24,26,28,30,-1,-1,-1,-1,-1,-1,-1,-1,-1,-1,-1,-1,-1,-1,-1,-1],"split_conditions":[1.216482E1,-1.7116566E1,2.575603E-3,-1.979975E-2,7.208333E-1,1.8288162E1,3.6240594E2,-2.7603827E2,1.2387816E3,-1.7291667E0,1.2719536E-3,-4.0378716E1,-3.7605998E-3,1.778667E-2,7.1446753E0,2.0843248E-3,6.7963056E-2,-3.432642E-2,4.1208625E-2,5.492404E-2,-7.10456E-2,1.4544884E-2,6.638807E-2,2.3715565E-2,-5.6548208E-2,5.2916773E-2,9.569879E-3,3.3537406E-2,6.962259E-2,-2.6724322E-2,1.905793E-2],"split_indices":[7,7,10,3,13,7,9,7,8,13,3,9,10,3,11,0,0,0,0,0,0,0,0,0,0,0,0,0,0,0,0],"split_type":[0,0,0,0,0,0,0,0,0,0,0,0,0,0,0,0,0,0,0,0,0,0,0,0,0,0,0,0,0,0,0],"sum_hessian":[5.0457075E3,4.5987227E3,4.4698474E2,3.6913E2,4.229593E3,1.2719853E2,3.1978622E2,3.242165E2,4.4913513E1,4.1704595E3,5.913362E1,2.7809881E1,9.938865E1,3.1554617E2,4.240041E0,2.1019205E1,3.031973E2,1.9686756E1,2.5226757E1,2.8493502E1,4.141966E3,3.1333082E1,2.7800539E1,4.3823614E0,2.3427519E1,2.931641E1,7.0072235E1,3.418922E1,2.8135696E2,1.921664E0,2.3183768E0],"tree_param":{"num_deleted":"0","num_feature":"16","num_nodes":"31","size_leaf_vector":"0"}},{"base_weights":[-9.332562E-1,-1.1067259E0,1.0932573E0,1.0698465E0,-1.3124368E0,1.1812458E0,-2.0518547E-1,1.2459745E0,1.3521832E-1,-1.3511173E0,9.9943465E-1,4.4765612E-1,1.294646E0,6.0578483E-1,-6.760868E-1,-7.855631E-1,1.2856063E0,-4.561684E-1,7.343596E-1,1.135617E0,-1.3720078E0,1.6250663E-1,1.273465E0,7.9969114E-1,-4.5670614E-1,-0E0,1.307535E0,9.1486156E-1,-2.679106E-1,5.9229994E-1,-1.1546104E0],"categories":[],"categories_nodes":[],"categories_segments":[],"categories_sizes":[],"default_left":[1,1,1,1,1,1,1,1,1,1,1,1,1,1,1,0,0,0,0,0,0,0,0,0,0,0,0,0,0,0,0],"id":9,"left_children":[1,3,5,7,9,11,13,15,17,19,21,23,25,27,29,-1,-1,-1,-1,-1,-1,-1,-1,-1,-1,-1,-1,-1,-1,-1,-1],"loss_changes":[1.7499131E3,2.0545376E3,4.7111206E1,6.3155273E1,3.8091895E2,2.611615E1,1.2999345E1,3.2334717E1,2.6573612E1,2.217461E2,1.3867378E1,2.073722E1,4.006714E0,5.200456E0,1.683038E1,0E0,0E0,0E0,0E0,0E0,0E0,0E0,0E0,0E0,0E0,0E0,0E0,0E0,0E0,0E0,0E0],"parents":[2147483647,0,0,1,1,2,2,3,3,4,4,5,5,6,6,7,7,8,8,9,9,10,10,11,11,12,12,13,13,14,14],"right_children":[2,4,6,8,10,12,14,16,18,20,22,24,26,28,30,-1,-1,-1,-1,-1,-1,-1,-1,-1,-1,-1,-1,-1,-1,-1,-1],"split_conditions":[1.8253391E1,-1.58953E1,3.919313E2,-2.4907787E1,8.041667E-1,2.9606394E1,2.9415276E-2,-1.3042319E3,-1.6296389E0,-2.0083332E0,2.0708332E0,4.615199E1,4.53311E2,5.7002103E-1,-1.2511468E0,-3.9278157E-2,6.4280316E-2,-2.2808421E-2,3.671798E-2,5.6780852E-2,-6.8600394E-2,8.125331E-3,6.367325E-2,3.9984558E-2,-2.2835307E-2,-0E0,6.537675E-2,4.5743078E-2,-1.339553E-2,2.9614998E-2,-5.7730522E-2],"split_indices":[7,7,9,7,13,7,3,9,0,13,13,15,12,6,13,0,0,0,0,0,0,0,0,0,0,0,0,0,0,0,0],"split_type":[0,0,0,0,0,0,0,0,0,0,0,0,0,0,0,0,0,0,0,0,0,0,0,0,0,0,0,0,0,0,0],"sum_hessian":[4.9556216E3,4.567413E3,3.8820804E2,3.921642E2,4.175249E3,3.6471472E2,2.3493315E1,3.2767853E2,6.448569E1,4.1090107E3,6.623843E1,5.3322952E1,3.1139178E2,7.3241463E0,1.6169168E1,3.986547E0,3.23692E2,3.2213356E1,3.227233E1,3.160986E1,4.077401E3,1.9203262E1,4.7035164E1,3.9594658E1,1.3728294E1,3.8633504E0,3.0752844E2,6.0816813E0,1.2424653E0,3.5310612E0,1.2638106E1],"tree_param":{"num_deleted":"0","num_feature":"16","num_nodes":"31","size_leaf_vector":"0"}},{"base_weights":[-9.145508E-1,-1.1159316E0,9.0296733E-1,1.003138E0,-1.3098811E0,7.279089E-2,1.2154844E0,1.2832899E0,2.1819799E-1,-1.3364831E0,5.0993085E-1,-4.572401E-1,4.8036036E-1,7.044519E-1,1.3149701E0,1.3589977E0,4.2246807E-1,6.7302E-1,-3.7599736E-1,9.524236E-1,-1.3514546E0,1.3464126E-1,1.1340618E0,-7.0195377E-1,8.9489615E-1,8.964088E-1,-4.246722E-2,1.2443923E0,-0E0,-1.0981493E-1,1.3349893E0],"categories":[],"categories_nodes":[],"categories_segments":[],"categories_sizes":[],"default_left":[1,1,1,1,1,1,1,1,1,1,1,1,1,1,1,0,0,0,0,0,0,0,0,0,0,0,0,0,0,0,0],"id":10,"left_children":[1,3,5,7,9,11,13,15,17,19,21,23,25,27,29,-1,-1,-1,-1,-1,-1,-1,-1,-1,-1,-1,-1,-1,-1,-1,-1],"loss_changes":[1.7743447E3,1.7963467E3,1.2394177E2,7.791025E1,1.9746631E2,3.1077532E1,1.11796875E1,1.2870056E1,2.9567049E1,1.4171387E2,1.2158651E1,2.338821E1,1.8858456E1,2.6892654E1,1.0120422E1,0E0,0E0,0E0,0E0,0E0,0E0,0E0,0E0,0E0,0E0,0E0,0E0,0E0,0E0,0E0,0E0],"parents":[2147483647,0,0,1,1,2,2,3,3,4,4,5,5,6,6,7,7,8,8,9,9,10,10,11,11,12,12,13,13,14,14],"right_children":[2,4,6,8,10,12,14,16,18,20,22,24,26,28,30,-1,-1,-1,-1,-1,-1,-1,-1,-1,-1,-1,-1,-1,-1,-1,-1],"split_conditions":[1.1231486E1,-1.5185452E1,6.377761E0,-9.998032E0,7.208333E-1,2.6080246E1,2.5508526E1,-2.631538E1,4.314187E0,-1.7416667E0,3.179523E0,2.0583334E0,4.30422E0,2.3368984E1,5.6099664E2,6.794988E-2,2.1123404E-2,3.3651E-2,-1.879987E-2,4.762118E-2,-6.7572735E-2,6.732063E-3,5.670309E-2,-3.509769E-2,4.474481E-2,4.482044E-2,-2.1233612E-3,6.2219616E-2,-0E0,-5.4907463E-3,6.674947E-2],"split_indices":[7,7,6,6,13,7,7,7,11,13,7,13,11,15,12,0,0,0,0,0,0,0,0,0,0,0,0,0,0,0,0],"split_type":[0,0,0,0,0,0,0,0,0,0,0,0,0,0,0,0,0,0,0,0,0,0,0,0,0,0,0,0,0,0,0],"sum_hessian":[4.828412E3,4.349021E3,4.7939096E2,3.6248917E2,3.986532E3,1.3367046E2,3.457205E2,2.6386502E2,9.862417E1,3.930947E3,5.5584988E1,5.6774334E1,7.6896126E1,6.45582E1,2.811623E2,2.3880705E2,2.5057951E1,5.6441296E1,4.2182877E1,2.3076416E1,3.9078706E3,3.9509064E1,1.6075922E1,5.073586E1,6.0384784E0,4.189638E1,3.499974E1,3.4658127E1,2.9900074E1,2.8929048E0,2.7826938E2],"tree_param":{"num_deleted":"0","num_feature":"16","num_nodes":"31","size_leaf_vector":"0"}},{"base_weights":[-8.928052E-1,8.402807E-1,-1.0713229E0,1.2087121E0,1.7736289E-1,-1.27681E0,6.53855E-1,2.485098E-2,1.3257955E0,-2.7586827E-1,1.1995451E0,-7.553732E-2,-1.3213763E0,-2.7366915E-1,1.1735097E0,6.4954096E-1,-3.1693897E-1,-0E0,1.3292712E0,-5.7321304E-1,8.81912E-1,2.2963335E-1,1.3563179E0,-1.205272E0,6.6026276E-1,-1.3362981E0,8.154051E-1,5.945614E-1,-6.6997844E-1,1.2467723E0,5.142457E-1],"categories":[],"categories_nodes":[],"categories_segments":[],"categories_sizes":[],"default_left":[1,0,1,0,1,0,1,1,1,1,1,1,1,1,0,0,0,0,0,0,0,0,0,0,0,0,0,0,0,0,0],"id":11,"left_children":[1,3,5,7,9,11,13,15,17,19,21,23,25,27,29,-1,-1,-1,-1,-1,-1,-1,-1,-1,-1,-1,-1,-1,-1,-1,-1],"loss_changes":[1.4498928E3,1.046391E2,1.5070205E3,3.7298157E1,7.831277E1,2.0093994E2,2.212369E2,7.994812E0,1.5988159E-1,4.2374466E1,4.7377853E0,1.2226144E2,1.2241553E2,5.929475E1,9.160309E0,0E0,0E0,0E0,0E0,0E0,0E0,0E0,0E0,0E0,0E0,0E0,0E0,0E0,0E0,0E0,0E0],"parents":[2147483647,0,0,1,1,2,2,3,3,4,4,5,5,6,6,7,7,8,8,9,9,10,10,11,11,12,12,13,13,14,14],"right_children":[2,4,6,8,10,12,14,16,18,20,22,24,26,28,30,-1,-1,-1,-1,-1,-1,-1,-1,-1,-1,-1,-1,-1,-1,-1,-1],"split_conditions":[-2.1705885E1,-2.5909625E-2,9.9646095E-3,-2.2478278E-1,2.625E-1,-9.5346235E-3,7.9958615E0,-4.1666668E-2,-1.116259E2,5.1103635E0,1.1490322E3,5.429354E0,2.0708332E0,-4.3818994E0,2.0811023E-1,3.2477047E-2,-1.584695E-2,-0E0,6.646356E-2,-2.8660653E-2,4.4095602E-2,1.1481668E-2,6.781589E-2,-6.02636E-2,3.301314E-2,-6.681491E-2,4.0770255E-2,2.972807E-2,-3.3498924E-2,6.2338617E-2,2.5712285E-2],"split_indices":[15,3,3,3,13,3,6,13,14,6,8,12,13,6,2,0,0,0,0,0,0,0,0,0,0,0,0,0,0,0,0],"split_type":[0,0,0,0,0,0,0,0,0,0,0,0,0,0,0,0,0,0,0,0,0,0,0,0,0,0,0,0,0,0,0],"sum_hessian":[4.6660537E3,4.3349158E2,4.232562E3,2.750187E2,1.5847289E2,3.7837556E3,4.488066E2,2.6065525E1,2.4895317E2,1.11643105E2,4.6829773E1,1.3663753E2,3.6471182E3,1.613169E2,2.8748972E2,8.66048E0,1.7405045E1,1.2358143E0,2.4771736E2,9.152548E1,2.0117624E1,9.118491E0,3.7711285E1,5.3170036E1,8.34675E1,3.6241506E3,2.2967527E1,4.898234E1,1.1233455E2,2.5336157E2,3.4128155E1],"tree_param":{"num_deleted":"0","num_feature":"16","num_nodes":"31","size_leaf_vector":"0"}},{"base_weights":[-8.6207443E-1,-1.0474705E0,9.351596E-1,9.783498E-1,-1.2397807E0,2.1727386E-1,1.1405392E0,1.2179114E0,3.5750496E-1,-1.2704372E0,7.857733E-1,1.193604E0,-2.5664456E-2,1.217875E0,-2.761745E-1,-6.309942E-1,1.251502E0,-3.9662308E-1,6.3322884E-1,8.9645225E-1,-1.2855512E0,1.8647967E-1,1.1841755E0,4.4786906E-1,-7.7088696E-1,1.2307092E0,-0E0,3.700155E-1,-6.399321E-1],"categories":[],"categories_nodes":[],"categories_segments":[],"categories_sizes":[],"default_left":[1,1,1,1,1,1,1,0,1,1,0,0,1,1,1,0,0,0,0,0,0,0,0,0,0,0,0,0,0],"id":12,"left_children":[1,3,5,7,9,11,13,15,17,19,21,-1,23,25,27,-1,-1,-1,-1,-1,-1,-1,-1,-1,-1,-1,-1,-1,-1],"loss_changes":[1.5380132E3,1.6322578E3,6.115039E1,5.0412506E1,2.4233203E2,2.5855503E1,3.9209106E1,2.0688232E1,2.4289589E1,1.2928662E2,1.1724636E1,0E0,3.2716362E1,5.881439E0,6.3174505E0,0E0,0E0,0E0,0E0,0E0,0E0,0E0,0E0,0E0,0E0,0E0,0E0,0E0,0E0],"parents":[2147483647,0,0,1,1,2,2,3,3,4,4,5,5,6,6,7,7,8,8,9,9,10,10,12,12,13,13,14,14],"right_children":[2,4,6,8,10,12,14,16,18,20,22,-1,24,26,28,-1,-1,-1,-1,-1,-1,-1,-1,-1,-1,-1,-1,-1,-1],"split_conditions":[1.3721059E1,-1.7116566E1,2.9169653E1,-1.0289146E1,7.4583334E-1,-1.775E0,3.9839268E-1,-1.960113E-1,6.2131363E1,-1.7416667E0,1.3658311E-3,5.96802E-2,3.863913E2,1.3165569E3,-9.915841E0,-3.154971E-2,6.25751E-2,-1.9831154E-2,3.1661443E-2,4.4822615E-2,-6.427756E-2,9.323983E-3,5.9208777E-2,2.2393454E-2,-3.854435E-2,6.153546E-2,-0E0,1.8500775E-2,-3.1996604E-2],"split_indices":[7,7,7,6,13,13,2,2,4,13,3,0,1,15,6,0,0,0,0,0,0,0,0,0,0,0,0,0,0],"split_type":[0,0,0,0,0,0,0,0,0,0,0,0,0,0,0,0,0,0,0,0,0,0,0,0,0,0,0,0,0],"sum_hessian":[4.5958496E3,4.1684863E3,4.2736334E2,3.5918192E2,3.8093047E3,9.8438614E1,3.289247E2,2.5454356E2,1.0463834E2,3.754833E3,5.4471523E1,1.6535477E1,8.1903145E1,3.132335E2,1.5691235E1,2.4240642E0,2.521195E2,2.6456999E1,7.818134E1,2.3530533E1,3.7313025E3,2.568517E1,2.8786356E1,5.0480022E1,3.1423119E1,3.105139E2,2.7195883E0,4.6304545E0,1.106078E1],"tree_param":{"num_deleted":"0","num_feature":"16","num_nodes":"29","size_leaf_vector":"0"}},{"base_weights":[-8.355078E-1,-1.0188222E0,8.2533664E-1,8.775031E-1,-1.234688E0,1.2958883E-1,1.101078E0,1.1044537E0,5.6677416E-2,-1.2598646E0,5.31742E-1,-2.6853178E-2,1.1857941E0,1.1517692E0,1.0622139E-1,1.226107E0,3.207199E-1,-1.0780886E0,6.7121047E-1,1.0733275E0,-1.2748239E0,-1.5562026E-1,9.093193E-1,6.110079E-1,-3.9871615E-1,-2.3873714E-1,1.1667733E0,9.031268E-1,-1.166938E0],"categories":[],"categories_nodes":[],"categories_segments":[],"categories_sizes":[],"default_left":[1,1,0,0,1,1,0,0,1,1,1,1,0,0,1,0,0,0,0,0,0,0,0,0,0,0,0,0,0],"id":13,"left_children":[1,3,5,7,9,11,13,15,17,19,21,23,-1,25,27,-1,-1,-1,-1,-1,-1,-1,-1,-1,-1,-1,-1,-1,-1],"loss_changes":[1.3543594E3,1.6415576E3,8.303848E1,7.506064E1,1.637417E2,2.319965E1,1.40433655E1,2.7057037E1,6.960918E1,1.306626E2,1.5322533E1,2.9328794E1,0E0,8.554413E0,2.7086054E1,0E0,0E0,0E0,0E0,0E0,0E0,0E0,0E0,0E0,0E0,0E0,0E0,0E0,0E0],"parents":[2147483647,0,0,1,1,2,2,3,3,4,4,5,5,6,6,7,7,8,8,9,9,10,10,11,11,13,13,14,14],"right_children":[2,4,6,8,10,12,14,16,18,20,22,24,-1,26,28,-1,-1,-1,-1,-1,-1,-1,-1,-1,-1,-1,-1,-1,-1],"split_conditions":[1.1211694E1,-1.2584176E1,1.9701347E-3,-1.979975E-2,7.208333E-1,2.1750002E0,2.7439797E-1,-4.913593E-4,-2.8694257E-2,-1.9333334E0,2.0833335E0,-1.2180276E-2,5.9289705E-2,9.440972E-3,-2.1666667E-1,6.130535E-2,1.6035995E-2,-5.3904433E-2,3.3560526E-2,5.366638E-2,-6.37412E-2,-7.7810134E-3,4.5465965E-2,3.0550396E-2,-1.9935807E-2,-1.1936857E-2,5.833867E-2,4.515634E-2,-5.8346897E-2],"split_indices":[7,7,10,3,13,13,2,10,2,13,13,2,0,3,13,0,0,0,0,0,0,0,0,0,0,0,0,0,0],"split_type":[0,0,0,0,0,0,0,0,0,0,0,0,0,0,0,0,0,0,0,0,0,0,0,0,0,0,0,0,0],"sum_hessian":[4.4290024E3,3.9910308E3,4.3797183E2,4.0584366E2,3.5851873E3,1.2742663E2,3.105452E2,3.1562918E2,9.021447E1,3.5367783E3,4.8408714E1,1.1440709E2,1.3019545E1,2.9378226E2,1.6762934E1,2.6967178E2,4.5957394E1,2.979593E1,6.041854E1,1.9852304E1,3.516926E3,1.7266535E1,3.1142178E1,3.9959465E1,7.4447624E1,1.628811E0,2.9215347E2,1.1686614E1,5.076319E0],"tree_param":{"num_deleted":"0","num_feature":"16","num_nodes":"29","size_leaf_vector":"0"}},{"base_weights":[-8.2803905E-1,-1.0041019E0,7.968424E-1,8.4938926E-1,-1.2056589E0,2.9294482E-1,1.1672565E0,1.0910039E0,1.08756125E-1,-1.2346677E0,5.888522E-1,1.2278615E0,1.30277E-1,4.372939E-1,1.2445709E0,1.2337328E0,3.9732537E-1,-7.60258E-1,7.318165E-1,1.0265723E0,-1.2530028E0,-2.45267E-1,7.8823847E-1,-0E0,1.2584023E0,-9.351895E-2,1.056695E0,7.221748E-1,-4.824861E-1,-0E0,1.2630093E0],"categories":[],"categories_nodes":[],"categories_segments":[],"categories_sizes":[],"default_left":[1,1,1,1,1,1,0,1,0,1,0,0,1,0,1,0,0,0,0,0,0,0,0,0,0,0,0,0,0,0,0],"id":14,"left_children":[1,3,5,7,9,11,13,15,17,19,21,23,25,27,29,-1,-1,-1,-1,-1,-1,-1,-1,-1,-1,-1,-1,-1,-1,-1,-1],"loss_changes":[1.2449111E3,1.4683125E3,7.638306E1,6.736902E1,1.882583E2,2.6492569E1,9.301025E0,2.461554E1,5.778712E1,1.5094434E2,1.1331846E1,9.851456E-2,3.6075806E1,1.0419904E1,6.2006226E0,0E0,0E0,0E0,0E0,0E0,0E0,0E0,0E0,0E0,0E0,0E0,0E0,0E0,0E0,0E0,0E0],"parents":[2147483647,0,0,1,1,2,2,3,3,4,4,5,5,6,6,7,7,8,8,9,9,10,10,11,11,12,12,13,13,14,14],"right_children":[2,4,6,8,10,12,14,16,18,20,22,24,26,28,30,-1,-1,-1,-1,-1,-1,-1,-1,-1,-1,-1,-1,-1,-1,-1,-1],"split_conditions":[1.1214207E1,-1.2594572E1,1.8418201E1,-2.512068E1,7.208333E-1,-1.775E0,2.249495E-2,-3.5048447E0,-2.5539322E-2,-2.0666666E0,5.513959E-1,-2.1340858E-2,7.75E-1,1.08285114E-1,7.804811E2,6.1686642E-2,1.986627E-2,-3.8012903E-2,3.6590826E-2,5.1328618E-2,-6.265014E-2,-1.226335E-2,3.9411925E-2,-0E0,6.2920116E-2,-4.6759476E-3,5.283475E-2,3.6108743E-2,-2.4124306E-2,-0E0,6.3150465E-2],"split_indices":[7,7,6,7,13,13,3,6,2,13,5,2,13,2,12,0,0,0,0,0,0,0,0,0,0,0,0,0,0,0,0],"split_type":[0,0,0,0,0,0,0,0,0,0,0,0,0,0,0,0,0,0,0,0,0,0,0,0,0,0,0,0,0,0,0],"sum_hessian":[4.3318916E3,3.9106787E3,4.2121298E2,3.8149274E2,3.529186E3,1.8339001E2,2.3782295E2,2.8485104E2,9.6641685E1,3.475127E3,5.405911E1,2.1415834E1,1.6197418E2,2.7202757E1,2.106202E2,2.3181856E2,5.303249E1,3.9225662E1,5.7416023E1,2.530106E1,3.449826E3,9.239656E0,4.4819454E1,1.2044287E0,2.0211407E1,1.3321027E2,2.8763926E1,2.2420065E1,4.7826915E0,2.3625686E0,2.0825763E2],"tree_param":{"num_deleted":"0","num_feature":"16","num_nodes":"31","size_leaf_vector":"0"}},{"base_weights":[-7.9196775E-1,7.7360404E-1,-9.7423923E-1,1.1691893E0,4.1676778E-1,-1.1497618E0,6.657874E-1,1.2440068E0,1.6354814E-1,-6.0190134E-2,1.2396922E0,5.3241426E-1,-1.1997759E0,5.4161146E-2,9.7239757E-1,-0E0,1.2484903E0,-5.3247446E-1,8.8819593E-1,5.550611E-1,-4.6911162E-1,-7.145538E-2,1.3074249E0,1.1819295E0,1.2613094E-1,9.843872E-1,-1.2211003E0,1.0978827E0,-1.3834374E-1,1.0480087E0,-5.503112E-1],"categories":[],"categories_nodes":[],"categories_segments":[],"categories_sizes":[],"default_left":[1,1,1,0,1,1,1,0,0,1,0,1,1,1,1,0,0,0,0,0,0,0,0,0,0,0,0,0,0,0,0],"id":15,"left_children":[1,3,5,7,9,11,13,15,17,19,21,23,25,27,29,-1,-1,-1,-1,-1,-1,-1,-1,-1,-1,-1,-1,-1,-1,-1,-1],"loss_changes":[1.2023047E3,5.810788E1,1.0878958E3,1.2972137E1,9.595032E1,2.9014062E2,6.74465E1,3.1939697E-1,1.3237999E1,4.0528404E1,9.628937E0,2.4634428E1,1.6025488E2,2.759243E1,3.1331223E1,0E0,0E0,0E0,0E0,0E0,0E0,0E0,0E0,0E0,0E0,0E0,0E0,0E0,0E0,0E0,0E0],"parents":[2147483647,0,0,1,1,2,2,3,3,4,4,5,5,6,6,7,7,8,8,9,9,10,10,11,11,12,12,13,13,14,14],"right_children":[2,4,6,8,10,12,14,16,18,20,22,24,26,28,30,-1,-1,-1,-1,-1,-1,-1,-1,-1,-1,-1,-1,-1,-1,-1,-1],"split_conditions":[-2.7174063E1,-2.5473827E1,1.085178E1,-1.979975E-2,3.6578245E0,-1.1005583E1,3.29002E1,-1.7525354E-1,3.912187E-3,-2.2838076E1,-9.7332585E-1,-8.462273E0,-1.15E0,-1.7708333E0,1.315635E3,-0E0,6.242452E-2,-2.6623724E-2,4.4409797E-2,2.7753055E-2,-2.345558E-2,-3.5727692E-3,6.5371245E-2,5.9096474E-2,6.306547E-3,4.9219362E-2,-6.1055016E-2,5.4894138E-2,-6.917187E-3,5.2400436E-2,-2.751556E-2],"split_indices":[9,6,7,3,6,7,7,3,3,7,2,6,13,13,15,0,0,0,0,0,0,0,0,0,0,0,0,0,0,0,0],"split_type":[0,0,0,0,0,0,0,0,0,0,0,0,0,0,0,0,0,0,0,0,0,0,0,0,0,0,0,0,0,0,0],"sum_hessian":[4.1943955E3,4.351432E2,3.7592524E3,1.9963956E2,2.3550362E2,3.3977185E3,3.615338E2,1.8378673E2,1.5852835E1,1.5125627E2,8.424735E1,9.6133675E1,3.301585E3,1.23773994E2,2.3775983E2,1.1485989E0,1.8263812E2,8.058582E0,7.794253E0,5.8702248E1,9.255402E1,3.3996382E0,8.084771E1,3.2372917E1,6.376076E1,2.9285639E1,3.2722993E3,1.6421108E1,1.0735289E2,2.2862285E2,9.136966E0],"tree_param":{"num_deleted":"0","num_feature":"16","num_nodes":"31","size_leaf_vector":"0"}},{"base_weights":[-7.694532E-1,7.581906E-1,-9.4426304E-1,1.0942351E0,2.5147048E-1,-1.1361519E0,5.7982457E-1,-6.6566184E-2,1.1898909E0,-5.0554043E-1,1.052009E0,-6.889622E-2,-1.2104939E0,-1.0530244E0,7.6591384E-1,4.105854E-1,-9.455996E-1,1.1975343E0,1.794747E-2,-7.9454726E-1,4.3463522E-1,-3.546217E-1,1.1221611E0,-3.9113012E-1,9.946266E-1,5.446467E-1,-1.226977E0,3.3036438E-1,-1.1524625E0,2.6607442E-1,9.969936E-1],"categories":[],"categories_nodes":[],"categories_segments":[],"categories_sizes":[],"default_left":[1,0,1,0,1,0,1,1,1,1,0,1,1,0,0,0,0,0,0,0,0,0,0,0,0,0,0,0,0,0,0],"id":16,"left_children":[1,3,5,7,9,11,13,15,17,19,21,23,25,27,29,-1,-1,-1,-1,-1,-1,-1,-1,-1,-1,-1,-1,-1,-1,-1,-1],"loss_changes":[1.0982009E3,6.930751E1,1.0801692E3,2.9462555E1,1.10074646E2,2.5783203E2,1.2962534E2,1.2164353E1,7.6916504E-1,2.745754E1,1.1438393E1,7.645848E1,9.245752E1,8.770031E0,4.076297E1,0E0,0E0,0E0,0E0,0E0,0E0,0E0,0E0,0E0,0E0,0E0,0E0,0E0,0E0,0E0,0E0],"parents":[2147483647,0,0,1,1,2,2,3,3,4,4,5,5,6,6,7,7,8,8,9,9,10,10,11,11,12,12,13,13,14,14],"right_children":[2,4,6,8,10,12,14,16,18,20,22,24,26,28,30,-1,-1,-1,-1,-1,-1,-1,-1,-1,-1,-1,-1,-1,-1,-1,-1],"split_conditions":[-2.7730038E1,-2.143626E-2,9.466458E-3,-2.398737E-1,-4.9107233E-3,-6.0393894E-3,4.671751E0,-6.388889E-1,-1.9623482E1,1.8333334E-2,-1.7346916E-1,1.2499999E-2,-7.4583334E-1,-4.5588237E-1,2.5451828E-2,2.052927E-2,-4.727998E-2,5.9876718E-2,8.9737354E-4,-3.9727364E-2,2.1731762E-2,-1.7731085E-2,5.6108057E-2,-1.9556506E-2,4.973133E-2,2.7232334E-2,-6.134885E-2,1.6518218E-2,-5.7623126E-2,1.3303721E-2,4.984968E-2],"split_indices":[9,3,3,3,3,3,12,5,15,13,2,13,13,5,3,0,0,0,0,0,0,0,0,0,0,0,0,0,0,0,0],"split_type":[0,0,0,0,0,0,0,0,0,0,0,0,0,0,0,0,0,0,0,0,0,0,0,0,0,0,0,0,0,0,0],"sum_hessian":[4.0932861E3,4.1800238E2,3.6752837E3,2.4665562E2,1.7134676E2,3.2660088E3,4.0927505E2,1.8098114E1,2.2855751E2,8.837258E1,8.2974174E1,2.1418924E2,3.0518196E3,3.8938663E1,3.703364E2,1.2720305E1,5.3778086E0,2.2612027E2,2.4372318E0,6.9000244E1,1.9372337E1,2.301269E0,8.0672905E1,1.6753091E2,4.6658314E1,2.63388E1,3.0254807E3,1.1581628E0,3.7780502E1,1.2185069E2,2.4848569E2],"tree_param":{"num_deleted":"0","num_feature":"16","num_nodes":"31","size_leaf_vector":"0"}},{"base_weights":[-7.845039E-1,8.136044E-1,-9.3869317E-1,1.0966748E0,2.5494567E-1,-1.1353265E0,7.02756E-1,-1.6382669E-1,1.121546E0,-5.621282E-2,9.841776E-1,-1.16582485E-2,-1.1753571E0,1.749701E-1,1.1107936E0,1.6967455E-1,-4.9182478E-1,1.1987575E0,4.2634633E-1,9.0114975E-1,-4.8635232E-1,1.0933551E0,-0E0,1.1968929E0,-3.2873642E-1,-1.209739E0,-2.735744E-1,6.3665235E-1,-1.1443964E-1,4.4776577E-1,1.176734E0],"categories":[],"categories_nodes":[],"categories_segments":[],"categories_sizes":[],"default_left":[1,1,1,1,1,0,0,1,1,1,1,1,1,1,0,0,0,0,0,0,0,0,0,0,0,0,0,0,0,0,0],"id":17,"left_children":[1,3,5,7,9,11,13,15,17,19,21,23,25,27,29,-1,-1,-1,-1,-1,-1,-1,-1,-1,-1,-1,-1,-1,-1,-1,-1],"loss_changes":[9.8171606E2,5.279973E1,1.1734026E3,9.100616E0,2.9756767E1,1.4433936E2,8.173012E1,1.6192645E0,8.025238E0,3.9648636E1,4.113304E0,4.603123E1,9.373779E1,2.4542885E1,5.269623E0,0E0,0E0,0E0,0E0,0E0,0E0,0E0,0E0,0E0,0E0,0E0,0E0,0E0,0E0,0E0,0E0],"parents":[2147483647,0,0,1,1,2,2,3,3,4,4,5,5,6,6,7,7,8,8,9,9,10,10,11,11,12,12,13,13,14,14],"right_children":[2,4,6,8,10,12,14,16,18,20,22,24,26,28,30,-1,-1,-1,-1,-1,-1,-1,-1,-1,-1,-1,-1,-1,-1,-1,-1],"split_conditions":[-1.35149555E1,-9.499878E0,1.216482E1,-2.7300726E2,9.315042E0,-2.5879461E-3,5.9413603E-3,-1.3726149E3,-2.631538E1,-6.835206E0,-6.727774E-1,-1.5948489E0,2.7528876E-3,2.1323647E1,2.2604251E-2,8.483727E-3,-2.459124E-2,5.9937876E-2,2.1317316E-2,4.5057487E-2,-2.4317617E-2,5.4667752E-2,-0E0,5.9844643E-2,-1.643682E-2,-6.048695E-2,-1.3678721E-2,3.1832617E-2,-5.721982E-3,2.2388289E-2,5.88367E-2],"split_indices":[7,6,7,9,6,10,10,9,7,14,5,0,10,15,3,0,0,0,0,0,0,0,0,0,0,0,0,0,0,0,0],"split_type":[0,0,0,0,0,0,0,0,0,0,0,0,0,0,0,0,0,0,0,0,0,0,0,0,0,0,0,0,0,0,0],"sum_hessian":[3.9630535E3,3.4626718E2,3.6167864E3,2.254349E2,1.2083228E2,3.2317927E3,3.8499365E2,3.0435264E0,2.2239137E2,8.696722E1,3.386507E1,1.1225332E2,3.1195393E3,1.7204839E2,2.1294527E2,1.1940883E0,1.8494381E0,1.9560648E2,2.6784904E1,2.4542654E1,6.242456E1,2.9931688E1,3.9333813E0,1.9791182E1,9.246214E1,3.0022573E3,1.17282135E2,6.531326E1,1.0673512E2,2.4157747E1,1.887875E2],"tree_param":{"num_deleted":"0","num_feature":"16","num_nodes":"31","size_leaf_vector":"0"}},{"base_weights":[-7.4140966E-1,-9.1142476E-1,6.815536E-1,8.722304E-1,-1.0976106E0,5.3481273E-2,1.0697161E0,1.1983086E0,2.2057082E-1,-1.1296774E0,6.0130525E-1,1.0520186E0,-4.745642E-1,1.1060398E0,-0E0,-0E0,1.2192593E0,-3.1263348E-1,8.189919E-1,6.0234016E-1,-1.1526875E0,-0E0,1.0954463E0,-3.9660245E-1,1.1677941E0,-6.2666804E-1,8.869704E-1,-0E0,1.1123626E0,3.9849523E-1,-4.5233938E-1],"categories":[],"categories_nodes":[],"categories_segments":[],"categories_sizes":[],"default_left":[1,0,1,0,1,0,0,0,0,1,1,0,1,1,1,0,0,0,0,0,0,0,0,0,0,0,0,0,0,0,0],"id":18,"left_children":[1,3,5,7,9,11,13,15,17,19,21,23,25,27,29,-1,-1,-1,-1,-1,-1,-1,-1,-1,-1,-1,-1,-1,-1,-1,-1],"loss_changes":[9.418899E2,1.1567834E3,1.00078766E2,6.740097E1,1.7515918E2,9.02068E1,1.0058624E1,4.375E0,3.9194504E1,1.2706055E2,1.7877321E1,1.3044197E1,2.5481958E1,1.8362732E0,3.3073497E0,0E0,0E0,0E0,0E0,0E0,0E0,0E0,0E0,0E0,0E0,0E0,0E0,0E0,0E0,0E0,0E0],"parents":[2147483647,0,0,1,1,2,2,3,3,4,4,5,5,6,6,7,7,8,8,9,9,10,10,11,11,12,12,13,13,14,14],"right_children":[2,4,6,8,10,12,14,16,18,20,22,24,26,28,30,-1,-1,-1,-1,-1,-1,-1,-1,-1,-1,-1,-1,-1,-1,-1,-1],"split_conditions":[2.605935E-3,-3.6389343E-3,1.1867275E-2,-2.0234872E-2,7.0416665E-1,-3.751371E-3,3.5719723E-1,-4.8461115E-1,2.1362095E-3,-7.483181E-1,4.7530998E-2,3.0618478E-3,3.0416667E-1,-2.0829099E2,-2.3809524E-2,-0E0,6.0962964E-2,-1.5631674E-2,4.0949594E-2,3.0117009E-2,-5.763438E-2,-0E0,5.4772317E-2,-1.9830123E-2,5.8389705E-2,-3.13334E-2,4.434852E-2,-0E0,5.5618133E-2,1.9924762E-2,-2.261697E-2],"split_indices":[10,10,3,3,13,3,2,3,3,13,6,10,13,4,13,0,0,0,0,0,0,0,0,0,0,0,0,0,0,0,0],"split_type":[0,0,0,0,0,0,0,0,0,0,0,0,0,0,0,0,0,0,0,0,0,0,0,0,0,0,0,0,0,0,0],"sum_hessian":[3.874521E3,3.463235E3,4.1128586E2,3.2508978E2,3.1381453E3,1.6025229E2,2.5103357E2,2.1285323E2,1.1223655E2,3.0822327E3,5.5912678E1,5.437021E1,1.0588207E2,2.4271515E2,8.318414E0,4.4795446E0,2.0837369E2,5.9731476E1,5.2505074E1,3.8190895E1,3.0440417E3,2.766159E1,2.8251087E1,2.4869652E0,5.1883244E1,9.8330246E1,7.551828E0,1.3240802E0,2.4139107E2,4.6217866E0,3.6966271E0],"tree_param":{"num_deleted":"0","num_feature":"16","num_nodes":"31","size_leaf_vector":"0"}},{"base_weights":[-7.3963314E-1,-9.065985E-1,6.8269885E-1,5.584774E-1,-1.1058736E0,2.7147046E-1,1.0678743E0,1.097013E0,6.491759E-2,2.6059765E-1,-1.1305921E0,4.531594E-1,-3.7789023E-1,4.1495365E-1,1.1307935E0,1.1636397E0,1.1705623E-1,-1.6133037E-1,7.8815836E-1,1.407258E0,-1.8005086E-1,-1.1640294E0,-2.3288424E-1,3.1539136E-1,1.0818764E0,4.9865302E-1,-5.8316284E-1,6.4441E-1,-5.471103E-1,-0E0,1.1429641E0],"categories":[],"categories_nodes":[],"categories_segments":[],"categories_sizes":[],"default_left":[1,1,0,1,0,1,0,1,1,1,1,1,1,1,1,0,0,0,0,0,0,0,0,0,0,0,0,0,0,0,0],"id":19,"left_children":[1,3,5,7,9,11,13,15,17,19,21,23,25,27,29,-1,-1,-1,-1,-1,-1,-1,-1,-1,-1,-1,-1,-1,-1,-1,-1],"loss_changes":[8.9890454E2,9.8979297E2,6.031749E1,1.0670208E2,1.0285132E2,2.460437E1,4.4378204E0,1.0666885E1,3.705365E1,3.0898254E1,8.503027E1,1.0777798E1,9.705553E0,7.846282E0,2.6421967E0,0E0,0E0,0E0,0E0,0E0,0E0,0E0,0E0,0E0,0E0,0E0,0E0,0E0,0E0,0E0,0E0],"parents":[2147483647,0,0,1,1,2,2,3,3,4,4,5,5,6,6,7,7,8,8,9,9,10,10,11,11,12,12,13,13,14,14],"right_children":[2,4,6,8,10,12,14,16,18,20,22,24,26,28,30,-1,-1,-1,-1,-1,-1,-1,-1,-1,-1,-1,-1,-1,-1,-1,-1],"split_conditions":[1.0849243E1,-8.770364E0,6.6293553E-3,-2.3179012E1,-3.65273E-3,1.3278467E3,2.249495E-2,-2.5311123E1,5.1155996E0,1.0720369E3,2.7528876E-3,1.5034559E0,-4.3969826E1,1.3368496E3,7.549636E2,5.8181982E-2,5.8528115E-3,-8.066519E-3,3.940792E-2,7.03629E-2,-9.002543E-3,-5.820147E-2,-1.16442125E-2,1.576957E-2,5.409382E-2,2.493265E-2,-2.9158143E-2,3.22205E-2,-2.7355516E-2,-0E0,5.7148207E-2],"split_indices":[7,7,10,6,10,8,3,7,6,8,10,5,6,8,12,0,0,0,0,0,0,0,0,0,0,0,0,0,0,0,0],"split_type":[0,0,0,0,0,0,0,0,0,0,0,0,0,0,0,0,0,0,0,0,0,0,0,0,0,0,0,0,0,0,0],"sum_hessian":[3.7662036E3,3.3727927E3,3.9341086E2,4.0214935E2,2.9706436E3,1.9564879E2,1.9776205E2,1.8842007E2,2.1372926E2,5.1215336E1,2.9194282E3,1.5525864E2,4.039015E1,2.2117186E1,1.7564487E2,1.7459203E2,1.3828048E1,1.6470682E2,4.902244E1,1.180294E1,3.9412395E1,2.8120876E3,1.0734042E2,1.348158E2,2.0442848E1,5.3836226E0,3.5006523E1,2.0030224E1,2.0869634E0,1.8041288E0,1.7384074E2],"tree_param":{"num_deleted":"0","num_feature":"16","num_nodes":"31","size_leaf_vector":"0"}},{"base_weights":[-7.123683E-1,-8.848985E-1,6.873633E-1,5.7968444E-1,-1.0950074E0,8.6969495E-2,9.491783E-1,9.543508E-1,-5.1972377E-3,-1.1183261E0,9.377017E-1,5.3136057E-1,-3.3489072E-1,1.0338755E0,-3.4228995E-1,-4.3864274E-1,1.0146698E0,-3.2884693E-1,9.648139E-1,6.6073287E-1,-1.1407883E0,-1.5889596E-2,1.2163427E0,-2.4367271E-2,1.0065902E0,6.3817245E-1,-7.989634E-1,-1.7578456E-1,1.0570947E0,3.5813582E-1,-9.4998467E-1],"categories":[],"categories_nodes":[],"categories_segments":[],"categories_sizes":[],"default_left":[1,1,1,1,1,1,1,0,1,1,1,1,1,1,1,0,0,0,0,0,0,0,0,0,0,0,0,0,0,0,0],"id":20,"left_children":[1,3,5,7,9,11,13,15,17,19,21,23,25,27,29,-1,-1,-1,-1,-1,-1,-1,-1,-1,-1,-1,-1,-1,-1,-1,-1],"loss_changes":[8.879121E2,1.0081367E3,6.208284E1,9.130057E1,1.4084326E2,2.5343388E1,3.306378E1,2.4002151E1,5.271254E1,1.1723242E2,1.0500101E1,1.8561905E1,3.354856E1,9.240265E0,1.0911701E1,0E0,0E0,0E0,0E0,0E0,0E0,0E0,0E0,0E0,0E0,0E0,0E0,0E0,0E0,0E0,0E0],"parents":[2147483647,0,0,1,1,2,2,3,3,4,4,5,5,6,6,7,7,8,8,9,9,10,10,11,11,12,12,13,13,14,14],"right_children":[2,4,6,8,10,12,14,16,18,20,22,24,26,28,30,-1,-1,-1,-1,-1,-1,-1,-1,-1,-1,-1,-1,-1,-1,-1,-1],"split_conditions":[1.1211694E1,-8.75679E0,2.9606394E1,-7.0517006E0,2.0708332E0,2.1323647E1,3.9839268E-1,-1.8697676E-1,9.478126E0,-7.375E-1,1.0247877E3,3.0291939E0,-2.1447042E-1,4.396599E2,4.14337E0,-2.1932138E-2,5.0733488E-2,-1.6442347E-2,4.8240695E-2,3.3036646E-2,-5.7039417E-2,-7.944798E-4,6.0817134E-2,-1.2183635E-3,5.0329514E-2,3.1908624E-2,-3.9948173E-2,-8.789228E-3,5.2854735E-2,1.790679E-2,-4.7499236E-2],"split_indices":[7,7,7,6,13,15,2,2,6,13,8,6,13,12,14,0,0,0,0,0,0,0,0,0,0,0,0,0,0,0,0],"split_type":[0,0,0,0,0,0,0,0,0,0,0,0,0,0,0,0,0,0,0,0,0,0,0,0,0,0,0,0,0,0,0],"sum_hessian":[3.6583054E3,3.2591394E3,3.9916626E2,4.0719522E2,2.851944E3,1.2439171E2,2.7477454E2,2.4731818E2,1.5987704E2,2.8223083E3,2.9635601E1,6.1100533E1,6.329118E1,2.595259E2,1.5248644E1,8.275125E0,2.3904306E2,1.231299E2,3.674714E1,3.286322E1,2.7894453E3,6.9560356E0,2.2679565E1,2.9381521E1,3.171901E1,1.9136124E1,4.4155056E1,3.4578981E0,2.56068E2,7.273271E0,7.975373E0],"tree_param":{"num_deleted":"0","num_feature":"16","num_nodes":"31","size_leaf_vector":"0"}},{"base_weights":[-7.203907E-1,5.940802E-1,-8.858306E-1,1.003882E0,1.4574288E-1,-1.0456434E0,6.867911E-1,1.2313416E-1,1.0905333E0,-2.3976645E-1,8.9077246E-1,5.225855E-1,-1.0872943E0,7.6028866E-1,-9.389889E-1,6.064257E-1,-8.5279197E-1,-0E0,1.1065371E0,-4.8979685E-1,1.1371306E0,1.1342939E0,-0E0,9.529033E-1,-5.4973423E-1,-1.1319782E0,-4.7845447E-1,2.7409363E-1,9.963783E-1,1.2619262E-2,-1.1189007E0],"categories":[],"categories_nodes":[],"categories_segments":[],"categories_sizes":[],"default_left":[1,1,1,1,1,1,1,1,0,1,1,1,1,1,0,0,0,0,0,0,0,0,0,0,0,0,0,0,0,0,0],"id":21,"left_children":[1,3,5,7,9,11,13,15,17,19,21,23,25,27,29,-1,-1,-1,-1,-1,-1,-1,-1,-1,-1,-1,-1,-1,-1,-1,-1],"loss_changes":[7.6744556E2,7.0752106E1,7.894087E2,1.3723877E1,5.79563E1,1.8887866E2,3.813147E1,1.4125993E1,3.9553986E0,4.7611347E1,1.46963005E1,3.8193336E1,7.0994385E1,2.9677948E1,3.6120577E0,0E0,0E0,0E0,0E0,0E0,0E0,0E0,0E0,0E0,0E0,0E0,0E0,0E0,0E0,0E0,0E0],"parents":[2147483647,0,0,1,1,2,2,3,3,4,4,5,5,6,6,7,7,8,8,9,9,10,10,11,11,12,12,13,13,14,14],"right_children":[2,4,6,8,10,12,14,16,18,20,22,24,26,28,30,-1,-1,-1,-1,-1,-1,-1,-1,-1,-1,-1,-1,-1,-1,-1,-1],"split_conditions":[-1.5701727E1,-3.3073982E1,1.8300446E1,9.94253E2,-6.318636E-3,-8.982654E0,1.094629E0,-7.5E-1,-7.689896E-1,9.7619045E-1,1.3051353E3,1.3293904E3,4.8074997E-3,4.579967E1,-1.483159E-2,3.0321285E-2,-4.26396E-2,-0E0,5.5326857E-2,-2.4489842E-2,5.685653E-2,5.6714695E-2,-0E0,4.7645163E-2,-2.7486712E-2,-5.659891E-2,-2.3922725E-2,1.3704682E-2,4.9818914E-2,6.3096307E-4,-5.5945035E-2],"split_indices":[15,7,7,12,3,7,3,5,3,5,12,8,3,7,2,0,0,0,0,0,0,0,0,0,0,0,0,0,0,0,0],"split_type":[0,0,0,0,0,0,0,0,0,0,0,0,0,0,0,0,0,0,0,0,0,0,0,0,0,0,0,0,0,0,0],"sum_hessian":[3.5105972E3,3.9032733E2,3.1202698E3,1.9952544E2,1.908019E2,2.8345308E3,2.8573914E2,1.9989746E1,1.7953569E2,1.2708927E2,6.371262E1,7.1220276E1,2.7633103E3,2.7651544E2,9.2237215E0,1.5320551E1,4.6691957E0,2.068848E0,1.7746684E2,1.1089883E2,1.6190445E1,4.8798283E1,1.4914336E1,5.1887424E1,1.9332851E1,2.56884E3,1.9447028E2,9.529948E1,1.8121596E2,1.3220425E0,7.901679E0],"tree_param":{"num_deleted":"0","num_feature":"16","num_nodes":"31","size_leaf_vector":"0"}},{"base_weights":[-6.909522E-1,8.422486E-1,-8.35178E-1,1.0456029E0,3.730339E-1,-1.0385418E0,6.050553E-1,1.061101E0,-0E0,5.472892E-1,-0E0,-4.538924E-3,-1.095836E0,4.2840753E-2,9.869332E-1,-0E0,1.0678086E0,1.7125502E-1,-2.6508814E-1,6.3579667E-1,-2.963354E-1,-2.2991315E-1,5.1180923E-1,-2.6817587E-1,7.8275967E-1,8.185467E-1,-1.1151193E0,3.680764E-1,-5.776686E-1,5.046675E-1,1.1189703E0],"categories":[],"categories_nodes":[],"categories_segments":[],"categories_sizes":[],"default_left":[0,0,1,1,1,1,1,1,1,1,1,1,1,1,0,0,0,0,0,0,0,0,0,0,0,0,0,0,0,0,0],"id":22,"left_children":[1,3,5,7,9,11,13,15,17,19,21,23,25,27,29,-1,-1,-1,-1,-1,-1,-1,-1,-1,-1,-1,-1,-1,-1,-1,-1],"loss_changes":[7.677117E2,2.5164246E1,9.296687E2,3.9387512E0,6.593704E0,1.6316162E2,8.330141E1,1.336029E0,6.196517E-1,6.382845E0,4.807197E0,3.1986563E1,1.0182251E2,3.426656E1,1.0402954E1,0E0,0E0,0E0,0E0,0E0,0E0,0E0,0E0,0E0,0E0,0E0,0E0,0E0,0E0,0E0,0E0],"parents":[2147483647,0,0,1,1,2,2,3,3,4,4,5,5,6,6,7,7,8,8,9,9,10,10,11,11,12,12,13,13,14,14],"right_children":[2,4,6,8,10,12,14,16,18,20,22,24,26,28,30,-1,-1,-1,-1,-1,-1,-1,-1,-1,-1,-1,-1,-1,-1,-1,-1],"split_conditions":[-3.746475E-3,-8.089591E-3,2.7246259E-3,7.056831E1,8.191397E1,-1.639898E1,6.2951696E-1,-2.7107098E2,6.362689E0,9.019661E0,4.9450674E0,4.9684875E-2,-1.0714662E0,1.3150215E3,6.8572047E-3,-0E0,5.3390432E-2,8.562751E-3,-1.3254407E-2,3.1789836E-2,-1.481677E-2,-1.1495657E-2,2.5590463E-2,-1.3408794E-2,3.9137986E-2,4.0927336E-2,-5.575597E-2,1.840382E-2,-2.8883431E-2,2.5233377E-2,5.5948514E-2],"split_indices":[10,10,10,0,4,15,0,6,11,14,15,13,13,8,10,0,0,0,0,0,0,0,0,0,0,0,0,0,0,0,0],"split_type":[0,0,0,0,0,0,0,0,0,0,0,0,0,0,0,0,0,0,0,0,0,0,0,0,0,0,0,0,0,0,0],"sum_hessian":[3.450937E3,2.9403625E2,3.1569006E3,1.9936125E2,9.467501E1,2.768125E3,3.887758E2,1.9693341E2,2.4278429E0,6.3321114E1,3.13539E1,1.4652924E2,2.6215957E3,1.6056528E2,2.282105E2,1.3572664E0,1.9557614E2,1.1957232E0,1.2321196E0,5.9496277E1,3.8248367E0,2.3817457E1,7.5364437E0,1.1319236E2,3.3336876E1,2.3559658E1,2.5980361E3,1.07739845E2,5.2825436E1,5.5861332E1,1.7234917E2],"tree_param":{"num_deleted":"0","num_feature":"16","num_nodes":"31","size_leaf_vector":"0"}},{"base_weights":[-6.871098E-1,-8.636434E-1,5.123161E-1,5.2440125E-1,-1.078005E0,4.3555506E-2,8.568755E-1,9.027742E-1,-6.314283E-2,8.8946617E-1,-1.0985518E0,3.1510144E-1,-8.2756656E-1,9.850769E-1,6.589522E-3,1.0672647E0,1.5439993E-1,-4.637202E-1,8.6150974E-1,-4.0045518E-1,1.0700214E0,-1.1171886E0,7.970309E-1,6.506621E-1,-2.4008474E-1,5.174109E-1,-1.0578257E0,4.5844007E-1,1.0890871E0,-9.523528E-1,3.4259802E-1],"categories":[],"categories_nodes":[],"categories_segments":[],"categories_sizes":[],"default_left":[1,1,1,1,1,1,1,1,1,0,1,1,1,0,1,0,0,0,0,0,0,0,0,0,0,0,0,0,0,0,0],"id":23,"left_children":[1,3,5,7,9,11,13,15,17,19,21,23,25,27,29,-1,-1,-1,-1,-1,-1,-1,-1,-1,-1,-1,-1,-1,-1,-1,-1],"loss_changes":[7.071511E2,8.672329E2,6.825829E1,8.80761E1,1.06851074E2,4.535392E1,2.5786926E1,2.7409195E1,5.9696583E1,9.397453E0,9.287549E1,2.8785015E1,1.7297497E1,7.6054535E0,1.3356149E1,0E0,0E0,0E0,0E0,0E0,0E0,0E0,0E0,0E0,0E0,0E0,0E0,0E0,0E0,0E0,0E0],"parents":[2147483647,0,0,1,1,2,2,3,3,4,4,5,5,6,6,7,7,8,8,9,9,10,10,11,11,12,12,13,13,14,14],"right_children":[2,4,6,8,10,12,14,16,18,20,22,24,26,28,30,-1,-1,-1,-1,-1,-1,-1,-1,-1,-1,-1,-1,-1,-1,-1,-1],"split_conditions":[7.06406E0,-8.754293E0,2.9385574E1,-2.512068E1,-1.7291667E0,1.3368096E3,2.7104492E2,-3.190467E0,-4.4695956E-1,-9.97537E-1,2.0500002E0,2.6841324E1,-1.0208333E0,2.1393355E-3,1.5889877E0,5.3363234E-2,7.719997E-3,-2.3186011E-2,4.3075487E-2,-2.002276E-2,5.350107E-2,-5.5859428E-2,3.9851546E-2,3.2533105E-2,-1.2004237E-2,2.5870545E-2,-5.2891284E-2,2.2922004E-2,5.4454356E-2,-4.761764E-2,1.7129902E-2],"split_indices":[7,7,7,7,13,8,9,6,0,5,13,9,13,10,0,0,0,0,0,0,0,0,0,0,0,0,0,0,0,0,0],"split_type":[0,0,0,0,0,0,0,0,0,0,0,0,0,0,0,0,0,0,0,0,0,0,0,0,0,0,0,0,0,0,0],"sum_hessian":[3.3226233E3,2.8982825E3,4.2434076E2,3.8612564E2,2.5121567E3,1.8338559E2,2.4095517E2,2.3427446E2,1.5185118E2,2.3275455E1,2.4888813E3,1.4311362E2,4.0271988E1,2.0767447E2,3.3280704E1,1.892181E2,4.505637E1,1.0844476E2,4.340642E1,1.4301516E0,2.1845304E1,2.467205E3,2.16762E1,8.978681E1,5.33268E1,4.340448E0,3.5931538E1,4.0295956E1,1.6737851E2,5.483512E0,2.7797194E1],"tree_param":{"num_deleted":"0","num_feature":"16","num_nodes":"31","size_leaf_vector":"0"}},{"base_weights":[-6.656916E-1,-8.35002E-1,6.0795915E-1,7.299145E-1,-9.968066E-1,1.02491416E-1,8.6067146E-1,9.614396E-1,2.3231956E-1,1.4248742E-1,-1.0478362E0,4.0576917E-1,-5.2052444E-1,9.175377E-1,-2.3805076E-2,1.0532582E0,7.002509E-2,-1.2445715E-1,9.275804E-1,1.3144361E0,-7.649498E-2,-1.0729631E0,4.7491544E-1,-2.0078292E-1,6.458981E-1,-9.311939E-1,7.941681E-1,6.3669014E-1,1.1112012E0,-9.303538E-1,4.4406706E-1],"categories":[],"categories_nodes":[],"categories_segments":[],"categories_sizes":[],"default_left":[1,1,0,0,0,1,1,1,1,1,1,0,1,1,1,0,0,0,0,0,0,0,0,0,0,0,0,0,0,0,0],"id":24,"left_children":[1,3,5,7,9,11,13,15,17,19,21,23,25,27,29,-1,-1,-1,-1,-1,-1,-1,-1,-1,-1,-1,-1,-1,-1,-1,-1],"loss_changes":[6.9625854E2,7.2337744E2,4.7077957E1,2.8629578E1,1.51521E2,2.6166162E1,1.3629562E1,1.32668E1,2.4509953E1,3.1016193E1,9.760547E1,1.4738341E1,2.8033539E1,7.608612E0,1.0600891E1,0E0,0E0,0E0,0E0,0E0,0E0,0E0,0E0,0E0,0E0,0E0,0E0,0E0,0E0,0E0,0E0],"parents":[2147483647,0,0,1,1,2,2,3,3,4,4,5,5,6,6,7,7,8,8,9,9,10,10,11,11,12,12,13,13,14,14],"right_children":[2,4,6,8,10,12,14,16,18,20,22,24,26,28,30,-1,-1,-1,-1,-1,-1,-1,-1,-1,-1,-1,-1,-1,-1,-1,-1],"split_conditions":[1.0491809E1,-1.7091711E1,1.5571276E-3,-3.1662711E-3,-2.5879461E-3,-3.0154163E-1,2.8659283E2,-2.632439E1,8.542447E1,1.0576382E3,7.4583334E-1,1.864414E-2,1.3291667E0,4.579967E1,1.3291605E0,5.266291E-2,3.5012544E-3,-6.2228576E-3,4.6379022E-2,6.57218E-2,-3.8247488E-3,-5.3648155E-2,2.3745773E-2,-1.0039146E-2,3.2294907E-2,-4.6559695E-2,3.9708406E-2,3.183451E-2,5.556006E-2,-4.6517693E-2,2.2203354E-2],"split_indices":[7,7,10,10,10,5,9,7,4,8,13,3,13,7,0,0,0,0,0,0,0,0,0,0,0,0,0,0,0,0,0],"split_type":[0,0,0,0,0,0,0,0,0,0,0,0,0,0,0,0,0,0,0,0,0,0,0,0,0,0,0,0,0,0,0],"sum_hessian":[3.2109429E3,2.8363987E3,3.745442E2,2.635642E2,2.5728345E3,1.2850238E2,2.4604182E2,1.7531953E2,8.824467E1,1.0907401E2,2.4637605E3,8.8681656E1,3.9820724E1,2.3206522E2,1.3976608E1,1.5710738E2,1.8212168E1,6.008063E1,2.8164036E1,1.3953258E1,9.512075E1,2.425865E3,3.7895447E1,2.4202456E1,6.4479195E1,3.203357E1,7.787155E0,1.055704E2,1.2649481E2,3.8029523E0,1.01736555E1],"tree_param":{"num_deleted":"0","num_feature":"16","num_nodes":"31","size_leaf_vector":"0"}},{"base_weights":[-6.5027434E-1,6.17721E-1,-8.064503E-1,7.020702E-2,8.377898E-1,-9.7002447E-1,5.1354784E-1,9.295248E-1,-2.474801E-1,1.0427248E0,9.651592E-3,3.3541664E-1,-1.0442511E0,1.0809163E-1,1.006034E0,1.0231506E0,-0E0,6.5238476E-1,-5.051597E-1,-3.1428847E-1,1.0690682E0,-3.0716065E-1,6.0503614E-1,1.1642798E0,-5.359512E-2,9.895214E-1,-1.0685904E0,-5.1103957E-2,1.111238E0,1.0607688E0,-0E0],"categories":[],"categories_nodes":[],"categories_segments":[],"categories_sizes":[],"default_left":[1,0,1,0,1,1,1,1,1,1,1,1,1,1,1,0,0,0,0,0,0,0,0,0,0,0,0,0,0,0,0],"id":25,"left_children":[1,3,5,7,9,11,13,15,17,19,21,23,25,27,29,-1,-1,-1,-1,-1,-1,-1,-1,-1,-1,-1,-1,-1,-1,-1,-1],"loss_changes":[6.2453577E2,4.054637E1,6.0723987E2,3.07967E1,4.0543198E1,2.4398364E2,6.0477745E1,3.0947113E0,2.0180767E1,9.430511E0,1.1543625E1,4.5648018E1,1.2220654E2,2.9671347E1,7.2734375E0,0E0,0E0,0E0,0E0,0E0,0E0,0E0,0E0,0E0,0E0,0E0,0E0,0E0,0E0,0E0,0E0],"parents":[2147483647,0,0,1,1,2,2,3,3,4,4,5,5,6,6,7,7,8,8,9,9,10,10,11,11,12,12,13,13,14,14],"right_children":[2,4,6,8,10,12,14,16,18,20,22,24,26,28,30,-1,-1,-1,-1,-1,-1,-1,-1,-1,-1,-1,-1,-1,-1,-1,-1],"split_conditions":[-2.8529202E1,-1.4316463E-1,1.1211694E1,-6.711043E-1,-4.5256058E1,-8.056871E0,2.5718428E1,-2.2234943E1,-3.0155272E0,-7.9186145E2,4.794695E-1,-8.462273E0,-1.7291667E0,1.5791667E0,2.8861157E2,5.115753E-2,-0E0,3.2619238E-2,-2.5257984E-2,-1.5714424E-2,5.3453412E-2,-1.5358033E-2,3.0251807E-2,5.821399E-2,-2.679756E-3,4.947607E-2,-5.342952E-2,-2.5551978E-3,5.55619E-2,5.3038444E-2,-0E0],"split_indices":[9,2,7,5,9,7,6,7,14,9,6,6,13,13,9,0,0,0,0,0,0,0,0,0,0,0,0,0,0,0,0],"split_type":[0,0,0,0,0,0,0,0,0,0,0,0,0,0,0,0,0,0,0,0,0,0,0,0,0,0,0,0,0,0,0],"sum_hessian":[3.1352056E3,3.4148703E2,2.7937185E3,1.0109919E2,2.4038785E2,2.4875452E3,3.0617334E2,2.5538315E1,7.5560875E1,1.9069453E2,4.9693317E1,1.3215938E2,2.3553857E3,1.7238193E2,1.3379141E2,2.3161322E1,2.3769941E0,1.4251695E1,6.130918E1,1.8677895E0,1.8882674E2,3.2918064E1,1.6775251E1,3.985238E1,9.230701E1,2.5024197E1,2.3303616E3,1.5200734E2,2.0374578E1,1.26301865E2,7.489551E0],"tree_param":{"num_deleted":"0","num_feature":"16","num_nodes":"31","size_leaf_vector":"0"}},{"base_weights":[-6.207347E-1,-7.87741E-1,6.4407474E-1,7.5717235E-1,-9.586045E-1,1.09274745E-1,9.384236E-1,1.082924E0,2.5817466E-1,7.922811E-1,-9.904648E-1,4.3387264E-1,-8.5677344E-1,6.1617297E-1,1.1278918E0,-3.215937E-1,1.1092507E0,-1.890481E-1,7.545219E-1,-1.08485594E-1,1.0925503E0,-1.0270574E0,6.2889624E-1,1.0807381E0,9.077326E-2,3.219977E-1,-1.0350076E0,1.406226E0,3.579057E-1,1.146444E0,-0E0],"categories":[],"categories_nodes":[],"categories_segments":[],"categories_sizes":[],"default_left":[1,1,1,0,1,1,1,1,0,1,1,1,1,1,1,0,0,0,0,0,0,0,0,0,0,0,0,0,0,0,0],"id":26,"left_children":[1,3,5,7,9,11,13,15,17,19,21,23,25,27,29,-1,-1,-1,-1,-1,-1,-1,-1,-1,-1,-1,-1,-1,-1,-1,-1],"loss_changes":[6.475658E2,7.165033E2,5.4818893E1,4.1323242E1,1.3988623E2,4.3457924E1,8.771606E0,8.532898E0,2.6771126E1,1.3940506E1,1.4543188E2,2.1508352E1,9.65069E0,1.5678349E1,3.7501678E0,0E0,0E0,0E0,0E0,0E0,0E0,0E0,0E0,0E0,0E0,0E0,0E0,0E0,0E0,0E0,0E0],"parents":[2147483647,0,0,1,1,2,2,3,3,4,4,5,5,6,6,7,7,8,8,9,9,10,10,11,11,12,12,13,13,14,14],"right_children":[2,4,6,8,10,12,14,16,18,20,22,24,26,28,30,-1,-1,-1,-1,-1,-1,-1,-1,-1,-1,-1,-1,-1,-1,-1,-1],"split_conditions":[8.901352E0,-1.17442665E1,2.0296505E1,-1.979975E-2,-7.4583334E-1,1.3305745E3,2.3578482E0,-2.7361884E2,2.2061397E-3,-3.2208353E-1,7.0416665E-1,3.991108E0,-2.025E0,-4.399843E0,6.532828E2,-1.6079685E-2,5.5462535E-2,-9.452405E-3,3.7726097E-2,-5.4242797E-3,5.4627515E-2,-5.135287E-2,3.1444814E-2,5.4036904E-2,4.538663E-3,1.6099885E-2,-5.175038E-2,7.03113E-2,1.7895285E-2,5.73222E-2,-0E0],"split_indices":[6,6,6,3,13,8,0,9,3,0,13,9,13,0,9,0,0,0,0,0,0,0,0,0,0,0,0,0,0,0,0],"split_type":[0,0,0,0,0,0,0,0,0,0,0,0,0,0,0,0,0,0,0,0,0,0,0,0,0,0,0,0,0,0,0],"sum_hessian":[3.0479832E3,2.6948323E3,3.5315094E2,2.6607007E2,2.4287622E3,1.2900902E2,2.2414192E2,1.5622774E2,1.0984235E2,4.071191E1,2.3880503E3,9.939968E1,2.9609339E1,9.281657E1,1.3132536E2,1.1438154E0,1.5508392E2,5.834908E1,5.1493267E1,1.0144116E1,3.0567795E1,2.3376724E3,5.037787E1,2.9713957E1,6.968572E1,2.6223774E0,2.6986961E1,1.6437424E1,7.637914E1,1.2980223E2,1.5231295E0],"tree_param":{"num_deleted":"0","num_feature":"16","num_nodes":"31","size_leaf_vector":"0"}},{"base_weights":[-6.090922E-1,6.3665026E-1,-7.7388525E-1,9.6674037E-1,2.866784E-1,-9.76425E-1,2.7535555E-1,-2.1942289E-1,1.029085E0,-2.7777672E-1,1.0419955E0,4.1812792E-2,-1.0658071E0,-1.2212413E-1,7.6388305E-1,2.3473357E-1,-6.4775914E-1,1.0812205E0,4.159087E-1,-5.4323316E-1,4.4744435E-1,1.4578735E0,3.2319096E-1,-5.8162385E-1,5.4109216E-1,5.7027024E-1,-1.0839928E0,-2.8210983E-1,9.9744976E-1,-6.61692E-2,8.522743E-1],"categories":[],"categories_nodes":[],"categories_segments":[],"categories_sizes":[],"default_left":[1,0,1,1,1,0,1,1,1,1,0,1,1,1,0,0,0,0,0,0,0,0,0,0,0,0,0,0,0,0,0],"id":27,"left_children":[1,3,5,7,9,11,13,15,17,19,21,23,25,27,29,-1,-1,-1,-1,-1,-1,-1,-1,-1,-1,-1,-1,-1,-1,-1,-1],"loss_changes":[6.1093677E2,3.7590057E1,5.5884326E2,1.4926743E1,7.7932686E1,2.0129492E2,8.402905E1,3.5252628E0,1.6423798E0,2.149353E1,1.9111511E1,5.7961254E1,6.3758057E1,4.3435658E1,1.52571335E1,0E0,0E0,0E0,0E0,0E0,0E0,0E0,0E0,0E0,0E0,0E0,0E0,0E0,0E0,0E0,0E0],"parents":[2147483647,0,0,1,1,2,2,3,3,4,4,5,5,6,6,7,7,8,8,9,9,10,10,11,11,12,12,13,13,14,14],"right_children":[2,4,6,8,10,12,14,16,18,20,22,24,26,28,30,-1,-1,-1,-1,-1,-1,-1,-1,-1,-1,-1,-1,-1,-1,-1,-1],"split_conditions":[-2.7355186E1,-2.8457657E-2,4.6628565E-3,-1.3046265E3,-5.0268164E-3,-6.0393894E-3,1.0854349E1,-4.712666E0,-9.252645E-1,1.4124293E-2,-5.138223E-2,1.1129591E3,-7.4583334E-1,7.208333E-1,9.344144E-3,1.1736679E-2,-3.2387957E-2,5.4061025E-2,2.0795435E-2,-2.7161658E-2,2.2372218E-2,7.289367E-2,1.6159547E-2,-2.9081194E-2,2.7054608E-2,2.8513512E-2,-5.4199643E-2,-1.4105491E-2,4.9872488E-2,-3.30846E-3,4.2613715E-2],"split_indices":[9,3,3,15,3,3,6,6,6,13,2,8,13,13,3,0,0,0,0,0,0,0,0,0,0,0,0,0,0,0,0],"split_type":[0,0,0,0,0,0,0,0,0,0,0,0,0,0,0,0,0,0,0,0,0,0,0,0,0,0,0,0,0,0,0],"sum_hessian":[2.9583042E3,3.432376E2,2.6150667E3,1.7063101E2,1.726066E2,2.1930352E3,4.220314E2,7.090491E0,1.6354051E2,9.9835724E1,7.2770874E1,1.762844E2,2.0167509E3,2.3363916E2,1.8839226E2,3.4052722E0,3.6852186E0,1.4570454E2,1.783598E1,7.5012215E1,2.4823513E1,4.1961246E1,3.0809631E1,7.7137436E1,9.914695E1,1.989738E1,1.9968535E3,2.084808E2,2.5158346E1,1.7163103E1,1.7122916E2],"tree_param":{"num_deleted":"0","num_feature":"16","num_nodes":"31","size_leaf_vector":"0"}},{"base_weights":[-6.0057545E-1,-7.6281136E-1,5.561864E-1,4.648847E-1,-9.864707E-1,2.336746E-1,9.48524E-1,8.3350813E-1,-0E0,4.4408926E-1,-1.0198939E0,4.5718235E-1,-5.551239E-1,-0E0,1.0118096E0,-0E0,9.631334E-1,-3.189825E-1,6.9868624E-1,1.6085861E0,-3.1958976E-1,-1.0416518E0,5.5712354E-1,1.5738824E-1,8.881702E-1,1.9175027E-1,-8.0679697E-1,3.071614E-1,-3.8870364E-1,1.0409331E0,-1.9990389E-1],"categories":[],"categories_nodes":[],"categories_segments":[],"categories_sizes":[],"default_left":[1,1,0,0,0,1,0,1,1,1,1,1,1,1,1,0,0,0,0,0,0,0,0,0,0,0,0,0,0,0,0],"id":28,"left_children":[1,3,5,7,9,11,13,15,17,19,21,23,25,27,29,-1,-1,-1,-1,-1,-1,-1,-1,-1,-1,-1,-1,-1,-1,-1,-1],"loss_changes":[5.428699E2,6.9721277E2,4.2807274E1,6.7769485E1,1.0523242E2,3.707412E1,9.927078E0,2.4433075E1,4.0503033E1,4.982804E1,7.5263916E1,1.9240326E1,1.007892E1,2.3556361E0,7.116379E0,0E0,0E0,0E0,0E0,0E0,0E0,0E0,0E0,0E0,0E0,0E0,0E0,0E0,0E0,0E0,0E0],"parents":[2147483647,0,0,1,1,2,2,3,3,4,4,5,5,6,6,7,7,8,8,9,9,10,10,11,11,12,12,13,13,14,14],"right_children":[2,4,6,8,10,12,14,16,18,20,22,24,26,28,30,-1,-1,-1,-1,-1,-1,-1,-1,-1,-1,-1,-1,-1,-1,-1,-1],"split_conditions":[9.854002E0,-7.4760656E0,6.8450607E-3,-1.977583E-2,-3.6515063E-3,1.3274148E3,1.9062199E-2,9.5707605E2,-4.5501733E-1,-4.6179196E-1,6.128882E-3,1.2490549E3,-7.2527957E-1,3.8598597E-1,3.4610602E2,-0E0,4.815667E-2,-1.5949126E-2,3.4934312E-2,8.042931E-2,-1.597949E-2,-5.2082594E-2,2.7856177E-2,7.869412E-3,4.440851E-2,9.587514E-3,-4.033985E-2,1.535807E-2,-1.9435182E-2,5.2046657E-2,-9.995195E-3],"split_indices":[7,7,10,3,10,8,3,8,0,0,10,8,0,0,9,0,0,0,0,0,0,0,0,0,0,0,0,0,0,0,0],"split_type":[0,0,0,0,0,0,0,0,0,0,0,0,0,0,0,0,0,0,0,0,0,0,0,0,0,0,0,0,0,0,0],"sum_hessian":[2.8753037E3,2.5238945E3,3.5140918E2,3.874216E2,2.136473E3,1.9864478E2,1.5276439E2,2.1462126E2,1.7280032E2,4.6690666E1,2.0897822E3,1.5741164E2,4.123314E1,9.421472E0,1.4334291E2,2.8798834E1,1.8582243E2,1.21117065E2,5.168326E1,1.682012E1,2.9870546E1,2.0636418E3,2.6140434E1,9.822955E1,5.9182087E1,9.690964E0,3.1542175E1,5.19985E0,4.2216215E0,1.4147261E2,1.8703039E0],"tree_param":{"num_deleted":"0","num_feature":"16","num_nodes":"31","size_leaf_vector":"0"}},{"base_weights":[-5.829538E-1,-7.612817E-1,4.8666674E-1,4.1740793E-1,-9.803557E-1,5.5605974E-2,8.2575357E-1,8.2791764E-1,-1.4650878E-2,1.18821695E-1,-1.0211958E0,6.22222E-1,-2.3587655E-1,8.840458E-1,-3.8463852E-1,9.676595E-1,3.985094E-2,-3.2238716E-1,7.0852065E-1,1.3221793E0,-5.503192E-1,-1.0609471E0,-0E0,1.2353381E0,-2.4781685E-1,-6.773134E-1,1.7031485E-1,-1.1532049E-2,9.2973506E-1,-7.532159E-1,1.4947593E-1],"categories":[],"categories_nodes":[],"categories_segments":[],"categories_sizes":[],"default_left":[1,1,1,1,1,1,1,1,1,1,1,1,0,1,0,0,0,0,0,0,0,0,0,0,0,0,0,0,0,0,0],"id":29,"left_children":[1,3,5,7,9,11,13,15,17,19,21,23,25,27,29,-1,-1,-1,-1,-1,-1,-1,-1,-1,-1,-1,-1,-1,-1,-1,-1],"loss_changes":[5.3659515E2,6.2346826E2,5.7743225E1,6.8207436E1,9.262537E1,3.1499714E1,1.7983673E1,2.0378342E1,4.274786E1,6.586035E1,7.9539795E1,3.72031E1,2.3303555E1,9.799271E0,3.7208934E0,0E0,0E0,0E0,0E0,0E0,0E0,0E0,0E0,0E0,0E0,0E0,0E0,0E0,0E0,0E0,0E0],"parents":[2147483647,0,0,1,1,2,2,3,3,4,4,5,5,6,6,7,7,8,8,9,9,10,10,11,11,12,12,13,13,14,14],"right_children":[2,4,6,8,10,12,14,16,18,20,22,24,26,28,30,-1,-1,-1,-1,-1,-1,-1,-1,-1,-1,-1,-1,-1,-1,-1,-1],"split_conditions":[7.222934E0,-7.4760656E0,3.0708546E1,-2.5813744E1,-1.638062E0,1.9830386E-1,9.138721E2,-1.211303E0,-4.313944E-1,4.2637362E0,1.6547232E0,2.343857E1,1.3061883E-3,5.9112573E2,1.1635756E4,4.8382975E-2,1.992547E-3,-1.6119359E-2,3.542603E-2,6.6108964E-2,-2.751596E-2,-5.3047355E-2,-0E0,6.1766904E-2,-1.2390843E-2,-3.386567E-2,8.515743E-3,-5.7660247E-4,4.6486754E-2,-3.7660796E-2,7.4737966E-3],"split_indices":[7,7,7,7,0,0,7,6,0,11,0,15,10,12,3,0,0,0,0,0,0,0,0,0,0,0,0,0,0,0,0],"split_type":[0,0,0,0,0,0,0,0,0,0,0,0,0,0,0,0,0,0,0,0,0,0,0,0,0,0,0,0,0,0,0],"sum_hessian":[2.797029E3,2.3993792E3,3.9765002E2,3.7463397E2,2.0247451E3,1.7894148E2,2.1870854E2,1.9094545E2,1.8368854E2,7.131543E1,1.9534297E3,6.00218E1,1.1891969E2,2.1073392E2,7.9746146E0,1.6014056E2,3.0804878E1,1.3176953E2,5.1919003E1,2.4274986E1,4.704044E1,1.8800867E3,7.334292E1,3.4652348E1,2.5369452E1,5.6567894E1,6.2351795E1,9.348112E0,2.013858E2,4.6127033E0,3.361911E0],"tree_param":{"num_deleted":"0","num_feature":"16","num_nodes":"31","size_leaf_vector":"0"}},{"base_weights":[-5.9553814E-1,-7.8253233E-1,4.5525682E-1,3.669803E-1,-9.920244E-1,4.8402917E-2,7.881413E-1,7.586508E-1,-1.18187286E-1,4.0802717E-1,-1.0192444E0,-1.7413773E-1,1.2106439E0,8.693803E-1,-9.969989E-2,-1.2216398E-1,8.841729E-1,-6.056334E-1,2.9177848E-1,8.5028607E-1,-5.002469E-1,5.925915E-1,-1.0429394E0,9.2997384E-1,-3.3213067E-1,-0E0,9.102061E-1,3.237848E-1,-7.2100675E-1],"categories":[],"categories_nodes":[],"categories_segments":[],"categories_sizes":[],"default_left":[1,1,1,0,1,1,1,1,1,1,1,1,0,1,1,0,0,0,0,0,0,0,0,0,0,0,0,0,0],"id":30,"left_children":[1,3,5,7,9,11,13,15,17,19,21,23,-1,25,27,-1,-1,-1,-1,-1,-1,-1,-1,-1,-1,-1,-1,-1,-1],"loss_changes":[5.3329626E2,5.557383E2,5.460292E1,6.89453E1,7.6832886E1,5.1625973E1,1.7376358E1,2.33479E1,3.370933E1,1.8533836E1,7.650818E1,2.9622917E1,0E0,7.0204773E0,7.419116E0,0E0,0E0,0E0,0E0,0E0,0E0,0E0,0E0,0E0,0E0,0E0,0E0,0E0,0E0],"parents":[2147483647,0,0,1,1,2,2,3,3,4,4,5,5,6,6,7,7,8,8,9,9,10,10,11,11,13,13,14,14],"right_children":[2,4,6,8,10,12,14,16,18,20,22,24,-1,26,28,-1,-1,-1,-1,-1,-1,-1,-1,-1,-1,-1,-1,-1,-1],"split_conditions":[6.853136E0,-7.4760656E0,2.9606394E1,-1.979975E-2,-2.753638E1,2.0791667E0,3.5758814E-1,-2.7428412E2,-2.2075611E1,1.209873E3,-7.4583334E-1,-1.1625E0,6.0532194E-2,-1.9498966E1,5.1509514E0,-6.1081992E-3,4.4208646E-2,-3.0281669E-2,1.4588924E-2,4.2514306E-2,-2.5012344E-2,2.9629577E-2,-5.214697E-2,4.6498694E-2,-1.6606534E-2,-0E0,4.5510303E-2,1.618924E-2,-3.605034E-2],"split_indices":[7,7,7,3,9,13,2,9,9,12,13,13,0,4,14,0,0,0,0,0,0,0,0,0,0,0,0,0,0],"split_type":[0,0,0,0,0,0,0,0,0,0,0,0,0,0,0,0,0,0,0,0,0,0,0,0,0,0,0,0,0],"sum_hessian":[2.698348E3,2.292597E3,4.0575092E2,3.520911E2,1.9405059E3,1.8651814E2,2.1923277E2,1.9439824E2,1.5769286E2,3.497346E1,1.9055325E3,1.5938942E2,2.7128717E1,2.0198143E2,1.7251345E1,2.327061E1,1.7112762E2,7.206316E1,8.56297E1,2.4475838E1,1.04976225E1,2.5256052E1,1.8802764E3,1.6102076E1,1.4328734E2,9.677242E0,1.9230418E2,1.0725574E1,6.525771E0],"tree_param":{"num_deleted":"0","num_feature":"16","num_nodes":"29","size_leaf_vector":"0"}},{"base_weights":[-5.562566E-1,-7.45505E-1,5.107943E-1,5.172849E-1,-9.515606E-1,6.9497633E-1,-4.1382724E-1,1.0281932E0,1.541826E-1,-1.027856E0,-3.0178636E-1,1.1149348E0,5.006118E-1,7.4894977E-1,-7.226962E-1,-7.458808E-1,1.1026757E0,4.8228702E-1,-1.1781673E-1,-4.909475E-1,-1.0836763E0,1.5984719E-1,-6.783392E-1,-2.0957153E-1,1.1577876E0,2.160364E-1,8.915453E-1,7.9983616E-1,-0E0,-9.3828106E-1,5.4045755E-1],"categories":[],"categories_nodes":[],"categories_segments":[],"categories_sizes":[],"default_left":[1,0,1,0,0,1,1,0,1,1,1,1,0,1,0,0,0,0,0,0,0,0,0,0,0,0,0,0,0,0,0],"id":31,"left_children":[1,3,5,7,9,11,13,15,17,19,21,23,25,27,29,-1,-1,-1,-1,-1,-1,-1,-1,-1,-1,-1,-1,-1,-1,-1,-1],"loss_changes":[5.3649805E2,5.884535E2,6.9972725E1,5.7064095E1,9.3151855E1,2.3099792E1,2.7391565E1,2.167192E1,1.7878149E1,4.7617554E1,3.7913944E1,7.889183E0,2.4748058E1,6.041107E-1,1.8615887E1,0E0,0E0,0E0,0E0,0E0,0E0,0E0,0E0,0E0,0E0,0E0,0E0,0E0,0E0,0E0,0E0],"parents":[2147483647,0,0,1,1,2,2,3,3,4,4,5,5,6,6,7,7,8,8,9,9,10,10,11,11,12,12,13,13,14,14],"right_children":[2,4,6,8,10,12,14,16,18,20,22,24,26,28,30,-1,-1,-1,-1,-1,-1,-1,-1,-1,-1,-1,-1,-1,-1,-1,-1],"split_conditions":[1.8979575E-3,-2.1771186E-3,1.3181014E3,-2.6999917E-2,3.7161596E-3,2.9487624E0,-1.2E0,-1.9859737E-1,1.1932871E3,-8.878479E0,4.7518854E0,-9.9771845E-1,3.386484E-2,1.413879E3,2.1859178E-2,-3.729404E-2,5.5133786E-2,2.4114352E-2,-5.8908365E-3,-2.4547376E-2,-5.418382E-2,7.99236E-3,-3.391696E-2,-1.0478577E-2,5.788938E-2,1.080182E-2,4.4577267E-2,3.9991807E-2,-0E0,-4.6914052E-2,2.7022878E-2],"split_indices":[10,10,12,3,3,9,13,2,12,15,11,2,3,12,3,0,0,0,0,0,0,0,0,0,0,0,0,0,0,0,0],"split_type":[0,0,0,0,0,0,0,0,0,0,0,0,0,0,0,0,0,0,0,0,0,0,0,0,0,0,0,0,0,0,0],"sum_hessian":[2.6411594E3,2.245372E3,3.9578748E2,3.1324966E2,1.9321224E3,3.319811E2,6.3806343E1,1.2518868E2,1.8806099E2,1.725114E3,2.0700839E2,9.591451E1,2.360666E2,1.1216959E1,5.2589386E1,2.6871645E0,1.2250152E2,8.5153656E1,1.0290734E2,1.6876212E2,1.5563519E3,9.309759E1,1.1391081E2,1.6649611E0,9.424955E1,1.4259056E2,9.347604E1,1.0163431E1,1.0535282E0,4.6697124E1,5.8922606E0],"tree_param":{"num_deleted":"0","num_feature":"16","num_nodes":"31","size_leaf_vector":"0"}},{"base_weights":[-5.571267E-1,-7.283416E-1,4.4952902E-1,3.9351225E-1,-9.562279E-1,-1.2605766E-5,7.1450377E-1,7.691223E-1,-8.108118E-3,-1.0005006E0,1.3389847E-1,3.103371E-1,-5.7071286E-1,3.9439306E-1,9.415769E-1,3.4970132E-1,1.0741495E0,-2.856774E-1,1.0948757E0,4.7885936E-1,-1.0215455E0,-3.488914E-1,1.6389178E0,-2.2401331E-1,5.946555E-1,-9.155764E-1,8.3851975E-1,6.23663E-1,-6.370769E-1,-3.009836E-1,9.9142295E-1],"categories":[],"categories_nodes":[],"categories_segments":[],"categories_sizes":[],"default_left":[1,1,0,1,1,1,1,1,1,0,1,1,1,1,1,0,0,0,0,0,0,0,0,0,0,0,0,0,0,0,0],"id":32,"left_children":[1,3,5,7,9,11,13,15,17,19,21,23,25,27,29,-1,-1,-1,-1,-1,-1,-1,-1,-1,-1,-1,-1,-1,-1,-1,-1],"loss_changes":[4.3845703E2,5.5655115E2,4.48369E1,5.641747E1,8.85863E1,2.6113285E1,1.3848793E1,2.124591E1,5.6432194E1,5.6996094E1,5.7860332E1,1.5228721E1,2.9455246E1,2.7448055E1,1.0340942E1,0E0,0E0,0E0,0E0,0E0,0E0,0E0,0E0,0E0,0E0,0E0,0E0,0E0,0E0,0E0,0E0],"parents":[2147483647,0,0,1,1,2,2,3,3,4,4,5,5,6,6,7,7,8,8,9,9,10,10,11,11,12,12,13,13,14,14],"right_children":[2,4,6,8,10,12,14,16,18,20,22,24,26,28,30,-1,-1,-1,-1,-1,-1,-1,-1,-1,-1,-1,-1,-1,-1,-1,-1],"split_conditions":[7.1558523E0,-7.4760656E0,1.5573665E-3,-8.375904E0,1.6547232E0,-4.0260226E-1,2.8954342E-2,1.2534939E3,8.256721E2,-5.096676E-3,9.677235E-1,6.505214E1,1.4083333E0,7.845912E1,7.1086096E2,1.7485065E-2,5.3707477E-2,-1.428387E-2,5.4743785E-2,2.3942968E-2,-5.1077276E-2,-1.7444571E-2,8.194589E-2,-1.12006655E-2,2.9732777E-2,-4.5778822E-2,4.192599E-2,3.1183152E-2,-3.1853847E-2,-1.5049181E-2,4.957115E-2],"split_indices":[7,7,10,6,0,5,3,12,4,10,6,4,13,15,12,0,0,0,0,0,0,0,0,0,0,0,0,0,0,0,0],"split_type":[0,0,0,0,0,0,0,0,0,0,0,0,0,0,0,0,0,0,0,0,0,0,0,0,0,0,0,0,0,0,0],"sum_hessian":[2.5278115E3,2.1624001E3,3.6541138E2,3.6373914E2,1.798661E3,1.3596553E2,2.2944585E2,1.8687833E2,1.768608E2,1.7297404E3,6.892057E1,8.841426E1,4.755127E1,1.0272291E2,1.2672293E2,8.458384E1,1.02294495E2,1.4498619E2,3.1874613E1,2.2069479E1,1.7076709E3,5.4586437E1,1.4334128E1,2.9852524E1,5.8561737E1,4.0179714E1,7.3715553E0,8.645291E1,1.627E1,3.142166E0,1.23580765E2],"tree_param":{"num_deleted":"0","num_feature":"16","num_nodes":"31","size_leaf_vector":"0"}},{"base_weights":[-5.5432016E-1,-7.109302E-1,5.551549E-1,6.0695153E-1,-9.049673E-1,9.603468E-2,8.220856E-1,8.339125E-1,8.76498E-2,8.50925E-1,-9.320223E-1,3.6232325E-1,-9.1545993E-1,9.395406E-1,3.865081E-1,7.252652E-1,1.3936527E0,-3.219575E-1,6.896121E-1,-3.4213173E-1,9.982675E-1,-9.64768E-1,4.773613E-1,9.533438E-1,-0E0,-1.0338213E0,3.230378E-2,3.5578558E-1,9.854635E-1,-1.7219651E-1,9.039412E-1],"categories":[],"categories_nodes":[],"categories_segments":[],"categories_sizes":[],"default_left":[1,0,0,1,1,1,1,0,1,1,1,0,0,1,1,0,0,0,0,0,0,0,0,0,0,0,0,0,0,0,0],"id":33,"left_children":[1,3,5,7,9,11,13,15,17,19,21,23,25,27,29,-1,-1,-1,-1,-1,-1,-1,-1,-1,-1,-1,-1,-1,-1,-1,-1],"loss_changes":[4.3176642E2,5.5789746E2,3.6418465E1,3.1808151E1,9.402161E1,3.3488884E1,6.714279E0,4.5930786E0,2.4242527E1,7.7768307E0,8.9009766E1,2.0834743E1,4.0504494E0,8.3114624E-1,1.631674E1,0E0,0E0,0E0,0E0,0E0,0E0,0E0,0E0,0E0,0E0,0E0,0E0,0E0,0E0,0E0,0E0],"parents":[2147483647,0,0,1,1,2,2,3,3,4,4,5,5,6,6,7,7,8,8,9,9,10,10,11,11,12,12,13,13,14,14],"right_children":[2,4,6,8,10,12,14,16,18,20,22,24,26,28,30,-1,-1,-1,-1,-1,-1,-1,-1,-1,-1,-1,-1,-1,-1,-1,-1],"split_conditions":[2.6899995E-3,-2.7119443E-3,5.9165563E-3,-3.6272892E-1,-1.15E0,1.3338284E3,-4.8287672E-1,2.3395175E-4,1.9150996E0,8.150901E2,7.208333E-1,-1.7294073E-3,2.6000824E-2,-1.8183079E1,2.625E-1,3.626326E-2,6.9682635E-2,-1.6097875E-2,3.4480605E-2,-1.7106587E-2,4.9913373E-2,-4.82384E-2,2.3868065E-2,4.766719E-2,-0E0,-5.1691066E-2,1.615189E-3,1.778928E-2,4.9273174E-2,-8.609826E-3,4.5197062E-2],"split_indices":[10,10,10,0,13,8,5,3,0,12,13,3,3,14,13,0,0,0,0,0,0,0,0,0,0,0,0,0,0,0,0],"split_type":[0,0,0,0,0,0,0,0,0,0,0,0,0,0,0,0,0,0,0,0,0,0,0,0,0,0,0,0,0,0,0],"sum_hessian":[2.4676626E3,2.1647856E3,3.0287692E2,2.7579794E2,1.8889877E3,1.1522879E2,1.8764815E2,1.8847157E2,8.732637E1,2.5792797E1,1.863195E3,9.453807E1,2.069072E1,1.4143018E2,4.621796E1,1.6894414E2,1.952744E1,5.236141E1,3.4964966E1,1.3625996E0,2.4430199E1,1.8231232E3,4.007174E1,3.23014E1,6.223667E1,1.8928007E1,1.7627118E0,1.5092506E1,1.2633768E2,2.2897522E1,2.3320438E1],"tree_param":{"num_deleted":"0","num_feature":"16","num_nodes":"31","size_leaf_vector":"0"}},{"base_weights":[-5.403164E-1,5.1159763E-1,-7.044939E-1,8.575335E-1,1.9068159E-1,-8.715652E-1,5.524417E-1,9.6742517E-1,1.1556031E-1,-1.1796494E-1,1.1447332E0,1.8467812E-1,-9.2938226E-1,2.4443623E-1,8.5197663E-1,2.7343214E-2,1.025478E0,5.171299E-1,-6.0507476E-1,-3.4028044E-1,5.043632E-1,-0E0,1.1844895E0,-5.3576046E-1,1.0861588E0,5.177184E-1,-9.5549166E-1,6.21122E-1,-1.1625613E-1,9.011008E-1,-6.063963E-4],"categories":[],"categories_nodes":[],"categories_segments":[],"categories_sizes":[],"default_left":[1,1,1,0,0,1,0,0,1,1,1,1,1,1,0,0,0,0,0,0,0,0,0,0,0,0,0,0,0,0,0],"id":34,"left_children":[1,3,5,7,9,11,13,15,17,19,21,23,25,27,29,-1,-1,-1,-1,-1,-1,-1,-1,-1,-1,-1,-1,-1,-1,-1,-1],"loss_changes":[4.1887317E2,3.4542908E1,4.418152E2,1.0987839E1,5.413454E1,1.14473145E2,2.0712387E1,6.0688324E0,9.2419615E0,1.982517E1,2.6275368E0,6.788205E1,6.918445E1,1.8633118E1,6.0089645E0,0E0,0E0,0E0,0E0,0E0,0E0,0E0,0E0,0E0,0E0,0E0,0E0,0E0,0E0,0E0,0E0],"parents":[2147483647,0,0,1,1,2,2,3,3,4,4,5,5,6,6,7,7,8,8,9,9,10,10,11,11,12,12,13,13,14,14],"right_children":[2,4,6,8,10,12,14,16,18,20,22,24,26,28,30,-1,-1,-1,-1,-1,-1,-1,-1,-1,-1,-1,-1,-1,-1,-1,-1],"split_conditions":[-1.7037052E1,-3.3073982E1,1.6635075E1,-2.6660954E-4,1.5124872E-3,-1.6955566E0,6.8394407E-3,-1.9859737E-1,4.3309135E0,-7.972524E0,-5.9922234E1,2.549356E-1,-9.831551E0,4.2781973E0,3.5719723E-1,1.3671607E-3,5.12739E-2,2.5856495E-2,-3.0253738E-2,-1.7014023E-2,2.5218159E-2,-0E0,5.9224475E-2,-2.6788024E-2,5.4307938E-2,2.588592E-2,-4.7774583E-2,3.10561E-2,-5.8128065E-3,4.5055043E-2,-3.0319816E-5],"split_indices":[15,7,7,10,10,0,10,2,11,7,14,15,7,11,2,0,0,0,0,0,0,0,0,0,0,0,0,0,0,0,0],"split_type":[0,0,0,0,0,0,0,0,0,0,0,0,0,0,0,0,0,0,0,0,0,0,0,0,0,0,0,0,0,0,0],"sum_hessian":[2.4088777E3,3.2295795E2,2.0859197E3,1.4989731E2,1.7306065E2,1.843245E3,2.426747E2,1.2806319E2,2.183412E1,1.3327748E2,3.9783173E1,9.419303E1,1.7490519E3,1.2576844E2,1.16906265E2,8.877977E0,1.191852E2,1.5818824E1,6.0152955E0,1.0105157E2,3.222591E1,1.0829782E0,3.870019E1,5.2864407E1,4.1328625E1,2.86508E1,1.7204011E3,6.1110527E1,6.4657906E1,1.1137729E2,5.528973E0],"tree_param":{"num_deleted":"0","num_feature":"16","num_nodes":"31","size_leaf_vector":"0"}},{"base_weights":[-5.030111E-1,-1.18176535E-1,-9.464151E-1,-3.36939E-1,5.632731E-1,9.6611613E-1,-1.020197E0,5.126142E-1,-7.647637E-1,2.3975344E-1,8.378926E-1,1.1479363E0,1.792696E-1,-1.0444608E0,1.0813222E0,9.991127E-1,1.9437838E-1,-8.233064E-1,1.0334694E0,7.334848E-1,-2.277421E-1,1.146133E0,5.60611E-1,-2.4749658E-1,5.310476E-1,-1.0783323E0,1.4103825E-1],"categories":[],"categories_nodes":[],"categories_segments":[],"categories_sizes":[],"default_left":[1,1,1,1,1,1,1,0,1,1,0,0,0,0,0,0,0,0,0,0,0,0,0,0,0,0,0],"id":35,"left_children":[1,3,5,7,9,11,13,15,17,19,21,-1,23,25,-1,-1,-1,-1,-1,-1,-1,-1,-1,-1,-1,-1,-1],"loss_changes":[4.0174457E2,1.9041391E2,1.5970178E2,3.538484E2,2.545816E1,3.7658997E0,5.9591675E1,4.834426E1,7.207489E1,3.6193375E1,9.096344E0,0E0,3.191094E0,4.384326E1,0E0,0E0,0E0,0E0,0E0,0E0,0E0,0E0,0E0,0E0,0E0,0E0,0E0],"parents":[2147483647,0,0,1,1,2,2,3,3,4,4,5,5,6,6,7,7,8,8,9,9,10,10,12,12,13,13],"right_children":[2,4,6,8,10,12,14,16,18,20,22,-1,24,26,-1,-1,-1,-1,-1,-1,-1,-1,-1,-1,-1,-1,-1],"split_conditions":[1.3278093E3,4.715675E0,-1.025E0,-4.0414295E0,6.6742027E-1,-1.6961441E0,1.9875E0,-2.7251946E-2,9.390198E0,-7.66114E-1,6.1863232E-3,5.7396818E-2,2.1066792E-2,1.906061E-2,5.406611E-2,4.9955636E-2,9.718919E-3,-4.116532E-2,5.1673472E-2,3.6674242E-2,-1.1387105E-2,5.7306647E-2,2.803055E-2,-1.2374829E-2,2.655238E-2,-5.3916615E-2,7.0519126E-3],"split_indices":[8,6,13,6,0,13,13,3,0,0,2,0,3,3,0,0,0,0,0,0,0,0,0,0,0,0,0],"split_type":[0,0,0,0,0,0,0,0,0,0,0,0,0,0,0,0,0,0,0,0,0,0,0,0,0,0,0],"sum_hessian":[2.358895E3,1.2674504E3,1.0914445E3,9.6246893E2,3.049815E2,3.7792217E1,1.0536522E3,3.2123935E2,6.412296E2,1.459957E2,1.5898581E2,2.7802364E1,9.989853E0,1.0445825E3,9.06975E0,1.2156245E2,1.996769E2,6.24176E2,1.705357E1,7.0662186E1,7.533351E1,6.616247E1,9.282333E1,3.8990946E0,6.090759E0,1.0168258E3,2.7756712E1],"tree_param":{"num_deleted":"0","num_feature":"16","num_nodes":"27","size_leaf_vector":"0"}},{"base_weights":[-5.2119243E-1,-1.5278973E-1,-9.4190407E-1,9.030146E-1,-2.9044455E-1,1.0129082E0,-1.0140979E0,1.0549259E0,-2.1103542E-1,-4.1950142E-1,9.4990206E-1,1.0771718E0,7.9635136E-2,-1.0392127E0,7.948459E-1,1.3886079E0,7.055156E-1,-7.1905E-1,3.8613337E-1,3.1641698E-1,-5.686087E-1,-0E0,1.060685E0,-1.2300061E-1,3.2818884E-1,-1.0732361E0,2.0238574E-1,9.6383685E-1,-0E0],"categories":[],"categories_nodes":[],"categories_segments":[],"categories_sizes":[],"default_left":[1,0,1,1,1,1,1,1,0,1,1,0,0,1,1,0,0,0,0,0,0,0,0,0,0,0,0,0,0],"id":36,"left_children":[1,3,5,7,9,11,13,15,17,19,21,-1,23,25,27,-1,-1,-1,-1,-1,-1,-1,-1,-1,-1,-1,-1,-1,-1],"loss_changes":[3.4668054E2,1.7597455E2,1.5296338E2,2.5562202E1,1.7298566E2,7.722359E-1,5.040393E1,7.507553E0,7.823083E0,1.0811009E2,1.0709549E1,0E0,8.5701424E-1,4.428479E1,2.8108244E0,0E0,0E0,0E0,0E0,0E0,0E0,0E0,0E0,0E0,0E0,0E0,0E0,0E0,0E0],"parents":[2147483647,0,0,1,1,2,2,3,3,4,4,5,5,6,6,7,7,8,8,9,9,10,10,12,12,13,13,14,14],"right_children":[2,4,6,8,10,12,14,16,18,20,22,-1,24,26,28,-1,-1,-1,-1,-1,-1,-1,-1,-1,-1,-1,-1,-1,-1],"split_conditions":[1.3278193E3,-4.9640936E-1,-1.0714662E0,1.3051404E3,7.708334E-1,-1.3499999E0,1.2166667E0,4.6407366E0,2.0795535E-2,-9.13277E-2,1.0080807E3,5.385859E-2,2.5047442E-2,2.736967E-2,5.299856E0,6.9430396E-2,3.5275783E-2,-3.59525E-2,1.9306669E-2,1.582085E-2,-2.8430436E-2,-0E0,5.3034253E-2,-6.1500305E-3,1.6409442E-2,-5.3661805E-2,1.0119287E-2,4.819184E-2,-0E0],"split_indices":[8,5,13,8,13,13,13,11,3,14,8,0,3,3,14,0,0,0,0,0,0,0,0,0,0,0,0,0,0],"split_type":[0,0,0,0,0,0,0,0,0,0,0,0,0,0,0,0,0,0,0,0,0,0,0,0,0,0,0,0,0],"sum_hessian":[2.2434797E3,1.2009989E3,1.0424807E3,1.344801E2,1.0665188E3,3.4315224E1,1.0081655E3,1.1936635E2,1.511376E1,9.697341E2,9.678472E1,3.038082E1,3.9344041E0,9.9700385E2,1.11617E1,5.19869E1,6.737945E1,8.519908E0,6.593852E0,1.6130362E2,8.084305E2,1.0632273E1,8.615244E1,1.3423986E0,2.5920055E0,9.7185565E2,2.5148188E1,9.016925E0,2.144776E0],"tree_param":{"num_deleted":"0","num_feature":"16","num_nodes":"29","size_leaf_vector":"0"}},{"base_weights":[-5.0377977E-1,-6.917302E-1,3.5503602E-1,3.178827E-1,-9.1848195E-1,-2.9963726E-2,6.429964E-1,-5.46212E-1,5.162744E-1,8.0207664E-1,-9.538785E-1,6.0615176E-1,-5.780072E-1,1.1834644E0,5.054201E-1,4.7452214E-1,-8.266262E-1,7.895057E-1,-3.9289113E-2,-4.7973722E-1,1.1875585E0,9.4656247E-1,-9.833671E-1,1.2902936E0,2.962276E-1,1.5838565E-1,-9.3723124E-1,-0E0,1.2733722E0,7.077461E-2,7.795247E-1],"categories":[],"categories_nodes":[],"categories_segments":[],"categories_sizes":[],"default_left":[1,1,0,1,0,0,1,1,1,1,1,0,1,1,0,0,0,0,0,0,0,0,0,0,0,0,0,0,0,0,0],"id":37,"left_children":[1,3,5,7,9,11,13,15,17,19,21,23,25,27,29,-1,-1,-1,-1,-1,-1,-1,-1,-1,-1,-1,-1,-1,-1,-1,-1],"loss_changes":[3.5702612E2,4.1629083E2,4.4806282E1,5.876677E1,9.409094E1,6.2205894E1,1.2367401E1,2.0630573E1,4.2764877E1,1.935503E1,8.6101074E1,1.3865658E1,2.7074951E1,5.295204E0,2.1861279E1,0E0,0E0,0E0,0E0,0E0,0E0,0E0,0E0,0E0,0E0,0E0,0E0,0E0,0E0,0E0,0E0],"parents":[2147483647,0,0,1,1,2,2,3,3,4,4,5,5,6,6,7,7,8,8,9,9,10,10,11,11,12,12,13,13,14,14],"right_children":[2,4,6,8,10,12,14,16,18,20,22,24,26,28,30,-1,-1,-1,-1,-1,-1,-1,-1,-1,-1,-1,-1,-1,-1,-1,-1],"split_conditions":[4.976472E-3,-9.543243E-3,1.174619E-3,5.4662956E1,-7.3508814E-2,-8.1922545E-4,9.225815E0,-1.6666666E-2,-1.979975E-2,9.4843585E2,-1.15E0,8.462997E-3,4.0058694E0,4.97647E0,2.5992218E-2,2.3726108E-2,-4.133131E-2,3.947529E-2,-1.9644557E-3,-2.3986861E-2,5.9377927E-2,4.7328126E-2,-4.9168356E-2,6.451468E-2,1.4811381E-2,7.919283E-3,-4.6861563E-2,-0E0,6.366861E-2,3.5387303E-3,3.8976233E-2],"split_indices":[3,3,10,8,2,10,15,13,3,8,13,3,11,8,3,0,0,0,0,0,0,0,0,0,0,0,0,0,0,0,0],"split_type":[0,0,0,0,0,0,0,0,0,0,0,0,0,0,0,0,0,0,0,0,0,0,0,0,0,0,0,0,0,0,0],"sum_hessian":[2.197162E3,1.8044077E3,3.9275446E2,3.297546E2,1.4746531E3,1.6849097E2,2.2426349E2,5.8995094E1,2.7075952E2,2.697352E1,1.4476796E3,7.688988E1,9.160109E1,3.6316063E1,1.8794743E2,1.1199737E1,4.7795357E1,1.8129263E2,8.946688E1,5.353895E0,2.1619625E1,1.9225918E1,1.4284536E3,1.8035206E1,5.885467E1,3.0037416E1,6.156367E1,2.3626893E0,3.3953373E1,7.6531425E1,1.1141601E2],"tree_param":{"num_deleted":"0","num_feature":"16","num_nodes":"31","size_leaf_vector":"0"}},{"base_weights":[-4.9422714E-1,-6.6560215E-1,4.295114E-1,5.1826245E-1,-8.6246485E-1,6.5584433E-1,-1.4994135E-1,9.45969E-1,2.080207E-1,-9.049113E-1,5.961097E-1,3.0476406E-1,8.909375E-1,-7.074232E-1,8.7082815E-1,-1.4391905E-1,9.996099E-1,-1.0296892E-1,6.663143E-1,7.13791E-1,-9.3604374E-1,-3.7999943E-1,9.797621E-1,7.018853E-1,-3.144561E-1,1.7220436E0,6.6275615E-1,-8.6795384E-1,3.7474766E-1,-0E0,9.927153E-1],"categories":[],"categories_nodes":[],"categories_segments":[],"categories_sizes":[],"default_left":[1,0,1,1,1,1,1,0,0,1,1,1,1,1,0,0,0,0,0,0,0,0,0,0,0,0,0,0,0,0,0],"id":38,"left_children":[1,3,5,7,9,11,13,15,17,19,21,23,25,27,29,-1,-1,-1,-1,-1,-1,-1,-1,-1,-1,-1,-1,-1,-1,-1,-1],"loss_changes":[3.3974347E2,4.2308112E2,4.5106697E1,3.231578E1,9.894519E1,1.7588043E1,5.828518E1,7.7951508E0,2.346164E1,7.958032E1,1.9750963E1,2.784644E1,1.8810051E1,1.364109E1,4.7201004E0,0E0,0E0,0E0,0E0,0E0,0E0,0E0,0E0,0E0,0E0,0E0,0E0,0E0,0E0,0E0,0E0],"parents":[2147483647,0,0,1,1,2,2,3,3,4,4,5,5,6,6,7,7,8,8,9,9,10,10,11,11,12,12,13,13,14,14],"right_children":[2,4,6,8,10,12,14,16,18,20,22,24,26,28,30,-1,-1,-1,-1,-1,-1,-1,-1,-1,-1,-1,-1,-1,-1,-1,-1],"split_conditions":[1.8990053E-3,-2.681456E-3,-3.4308606E-1,-2.6914656E-2,7.0416665E-1,4.2516977E-1,2.6666665E-1,-2.5467512E-1,1.543504E-3,-8.8686705E-1,-9.851208E-2,-7.0873296E-1,4.616698E-1,7.065283E1,2.5825107E-1,-7.195953E-3,4.9980495E-2,-5.1484457E-3,3.3315714E-2,3.568955E-2,-4.680219E-2,-1.8999971E-2,4.8988104E-2,3.5094265E-2,-1.5722806E-2,8.610218E-2,3.313781E-2,-4.339769E-2,1.8737383E-2,-0E0,4.9635764E-2],"split_indices":[10,10,5,3,13,0,13,3,3,13,0,0,7,7,5,0,0,0,0,0,0,0,0,0,0,0,0,0,0,0,0],"split_type":[0,0,0,0,0,0,0,0,0,0,0,0,0,0,0,0,0,0,0,0,0,0,0,0,0,0,0,0,0,0,0],"sum_hessian":[2.1306023E3,1.7992747E3,3.313275E2,2.5465063E2,1.544624E3,2.3902968E2,9.229785E1,1.0139548E2,1.5325516E2,1.5034551E3,4.1168957E1,1.0217715E2,1.3685252E2,6.132202E1,3.0975832E1,3.4870582E0,9.790842E1,9.230994E1,6.094523E1,2.5695265E1,1.4777599E3,1.08937E1,3.0275255E1,6.2830093E1,3.9347054E1,2.148414E1,1.15368385E2,5.506712E1,6.2549014E0,3.5023658E0,2.7473467E1],"tree_param":{"num_deleted":"0","num_feature":"16","num_nodes":"31","size_leaf_vector":"0"}},{"base_weights":[-4.9283645E-1,-1.0913176E-1,-9.1291654E-1,-3.7404346E-1,4.455311E-1,3.9828432E-1,-9.887083E-1,3.8334647E-1,-7.550143E-1,1.9818686E-1,8.201723E-1,1.0212476E0,-2.773181E-1,1.007165E0,-1.0339634E0,6.403696E-2,9.398446E-1,7.109331E-1,-8.359948E-1,1.1878463E0,-1.7514945E-3,9.1816694E-1,-3.94563E-1,-0E0,1.0742216E0,-9.572411E-1,7.88569E-1,1.0997962E0,-0E0,-1.0593251E0,9.7139406E-1],"categories":[],"categories_nodes":[],"categories_segments":[],"categories_sizes":[],"default_left":[1,1,1,1,1,1,1,1,1,1,1,1,1,1,1,0,0,0,0,0,0,0,0,0,0,0,0,0,0,0,0],"id":39,"left_children":[1,3,5,7,9,11,13,15,17,19,21,23,25,27,29,-1,-1,-1,-1,-1,-1,-1,-1,-1,-1,-1,-1,-1,-1,-1,-1],"loss_changes":[3.3329013E2,1.6129057E2,1.00909546E2,2.1629636E2,3.0990265E1,2.6117332E1,8.993298E1,4.3332005E1,6.2110443E1,4.5033226E1,1.872055E1,7.4313736E-1,2.6024994E1,1.9443874E0,5.201825E1,0E0,0E0,0E0,0E0,0E0,0E0,0E0,0E0,0E0,0E0,0E0,0E0,0E0,0E0,0E0,0E0],"parents":[2147483647,0,0,1,1,2,2,3,3,4,4,5,5,6,6,7,7,8,8,9,9,10,10,11,11,12,12,13,13,14,14],"right_children":[2,4,6,8,10,12,14,16,18,20,22,24,26,28,30,-1,-1,-1,-1,-1,-1,-1,-1,-1,-1,-1,-1,-1,-1,-1,-1],"split_conditions":[1.3187661E3,3.231689E0,-1.2648613E1,-7.476099E0,4.5923714E1,-5.759302E0,-1.2E0,1.2550688E3,-1.2290171E1,1.0544313E3,3.5957122E-1,-3.175351E3,6.9900837E0,-1.6961441E0,2.0037115E0,3.201848E-3,4.699223E-2,3.5546657E-2,-4.179974E-2,5.9392314E-2,-8.757473E-5,4.5908347E-2,-1.972815E-2,-0E0,5.3711083E-2,-4.7862057E-2,3.942845E-2,5.498981E-2,-0E0,-5.2966256E-2,4.8569705E-2],"split_indices":[12,7,7,7,7,6,13,12,6,8,2,7,11,13,13,0,0,0,0,0,0,0,0,0,0,0,0,0,0,0,0],"split_type":[0,0,0,0,0,0,0,0,0,0,0,0,0,0,0,0,0,0,0,0,0,0,0,0,0,0,0,0,0,0,0],"sum_hessian":[2.0721587E3,1.0875034E3,9.846552E2,7.383109E2,3.4919247E2,5.192265E1,9.327326E2,2.4619882E2,4.921121E2,2.1654208E2,1.3265039E2,2.6452908E1,2.5469742E1,1.7833952E1,9.148986E2,1.6112198E2,8.5076836E1,2.307909E1,4.6903302E2,3.3083054E1,1.8345903E2,1.2463946E2,8.01093E0,2.3816414E0,2.4071266E1,1.643426E1,9.035481E0,1.5757047E1,2.0769055E0,9.062942E2,8.60442E0],"tree_param":{"num_deleted":"0","num_feature":"16","num_nodes":"31","size_leaf_vector":"0"}},{"base_weights":[-4.6720487E-1,-6.080642E-1,6.275034E-1,5.4757327E-1,-7.494372E-1,8.2402974E-2,7.7939034E-1,9.214162E-1,2.0900244E-1,-8.700988E-1,-1.0389384E-1,6.024824E-1,-7.198159E-1,8.6983234E-1,6.722805E-2,-1.4449747E-1,9.6763116E-1,4.9575195E-1,-3.0487445E-1,-2.670897E-1,-9.779323E-1,7.6746047E-1,-3.4311542E-1,8.313689E-1,-0E0,2.0500842E-1,-8.837281E-1,9.0841347E-1,9.453592E-2,-3.8417554E-1,6.104956E-1],"categories":[],"categories_nodes":[],"categories_segments":[],"categories_sizes":[],"default_left":[1,0,0,1,1,0,0,1,1,1,1,1,1,1,1,0,0,0,0,0,0,0,0,0,0,0,0,0,0,0,0],"id":40,"left_children":[1,3,5,7,9,11,13,15,17,19,21,23,25,27,29,-1,-1,-1,-1,-1,-1,-1,-1,-1,-1,-1,-1,-1,-1,-1,-1],"loss_changes":[3.1488138E2,2.9661365E2,1.8112534E1,2.303199E1,1.2384259E2,2.6171637E1,1.0379814E1,6.028061E0,1.7455734E1,8.54259E1,5.5139725E1,6.0465717E0,5.2622423E0,3.3016968E0,8.014268E0,0E0,0E0,0E0,0E0,0E0,0E0,0E0,0E0,0E0,0E0,0E0,0E0,0E0,0E0,0E0,0E0],"parents":[2147483647,0,0,1,1,2,2,3,3,4,4,5,5,6,6,7,7,8,8,9,9,10,10,11,11,12,12,13,13,14,14],"right_children":[2,4,6,8,10,12,14,16,18,20,22,24,26,28,30,-1,-1,-1,-1,-1,-1,-1,-1,-1,-1,-1,-1,-1,-1,-1,-1],"split_conditions":[3.820608E-3,-3.637616E-3,5.9165563E-3,-3.3878105E1,3.370168E0,4.7281673E-3,2.0577785E-1,-3.786719E1,8.191397E1,-4.4504423E0,-1.0631598E-2,-9.666267E-1,-2.8625002E0,8.93075E0,1.1019506E2,-7.2248736E-3,4.838156E-2,2.4787597E-2,-1.5243723E-2,-1.3354485E-2,-4.8896614E-2,3.8373023E-2,-1.7155772E-2,4.1568447E-2,-0E0,1.0250421E-2,-4.4186406E-2,4.5420673E-2,4.726796E-3,-1.9208778E-2,3.0524781E-2],"split_indices":[10,10,10,7,7,10,2,0,4,7,2,5,13,14,7,0,0,0,0,0,0,0,0,0,0,0,0,0,0,0,0],"split_type":[0,0,0,0,0,0,0,0,0,0,0,0,0,0,0,0,0,0,0,0,0,0,0,0,0,0,0,0,0,0,0],"sum_hessian":[2.0247877E3,1.796733E3,2.2805472E2,1.9350548E2,1.6032275E3,5.2812984E1,1.7524173E2,8.6468124E1,1.07037346E2,1.3479816E3,2.55246E2,3.355238E1,1.9260603E1,1.5326633E2,2.1975416E1,2.2521727E0,8.421596E1,7.0063446E1,3.6973904E1,2.0853012E2,1.1394514E3,5.170215E1,2.0354385E2,2.399487E1,9.55751E0,1.7925059E0,1.7468098E1,1.4395439E2,9.311933E0,1.1796855E1,1.0178562E1],"tree_param":{"num_deleted":"0","num_feature":"16","num_nodes":"31","size_leaf_vector":"0"}},{"base_weights":[-4.7115505E-1,3.5355905E-1,-6.4533806E-1,6.537714E-1,-1.6592193E-2,-8.5028E-1,2.2791654E-1,2.1958536E-1,9.121065E-1,6.005544E-1,-3.1443125E-1,2.177629E-3,-9.276872E-1,-1.8843196E-1,5.914203E-1,8.1680983E-1,-1.2705399E-1,-1.6559845E-1,9.3835354E-1,8.4543765E-1,-6.4264154E-1,9.167173E-1,-4.4437125E-1,-4.6349186E-1,5.0747025E-1,-9.9760467E-1,-4.554146E-1,3.4754995E-1,-7.219506E-1,7.348687E-1,-6.938589E-2],"categories":[],"categories_nodes":[],"categories_segments":[],"categories_sizes":[],"default_left":[1,1,1,1,1,0,1,0,1,1,0,1,1,1,1,0,0,0,0,0,0,0,0,0,0,0,0,0,0,0,0],"id":41,"left_children":[1,3,5,7,9,11,13,15,17,19,21,23,25,27,29,-1,-1,-1,-1,-1,-1,-1,-1,-1,-1,-1,-1,-1,-1,-1,-1],"loss_changes":[2.8287585E2,3.890334E1,2.915788E2,1.9345116E1,2.95862E1,8.766388E1,4.802951E1,1.7658768E1,4.8599777E0,1.8705862E1,1.9245897E1,2.7885479E1,3.6098022E1,4.3800774E1,1.6895844E1,0E0,0E0,0E0,0E0,0E0,0E0,0E0,0E0,0E0,0E0,0E0,0E0,0E0,0E0,0E0,0E0],"parents":[2147483647,0,0,1,1,2,2,3,3,4,4,5,5,6,6,7,7,8,8,9,9,10,10,11,11,12,12,13,13,14,14],"right_children":[2,4,6,8,10,12,14,16,18,20,22,24,26,28,30,-1,-1,-1,-1,-1,-1,-1,-1,-1,-1,-1,-1,-1,-1,-1,-1],"split_conditions":[-1.1968739E1,-3.679211E1,1.5443248E-3,-1.717088E2,-1.54759035E1,-1.9121438E-3,9.577559E-3,-1.6562324E-2,-4.6715378E2,-9.856417E0,-9.4513357E-1,1.4401954E-1,3.2316515E0,-8.7866014E-1,1.7583667E2,4.084049E-2,-6.3527E-3,-8.279922E-3,4.6917677E-2,4.2271882E-2,-3.2132078E-2,4.5835864E-2,-2.2218563E-2,-2.3174593E-2,2.5373513E-2,-4.9880233E-2,-2.277073E-2,1.7377498E-2,-3.609753E-2,3.6743436E-2,-3.4692946E-3],"split_indices":[15,15,10,9,7,10,3,10,15,9,5,9,7,5,9,0,0,0,0,0,0,0,0,0,0,0,0,0,0,0,0],"split_type":[0,0,0,0,0,0,0,0,0,0,0,0,0,0,0,0,0,0,0,0,0,0,0,0,0,0,0,0,0,0,0],"sum_hessian":[1.9542126E3,3.3886752E2,1.6153451E3,1.8648706E2,1.5238046E2,1.3093368E3,3.060083E2,7.4460915E1,1.12026146E2,4.685459E1,1.0552588E2,1.08325676E2,1.2010111E3,1.4247638E2,1.6353192E2,2.5914999E1,4.8545914E1,1.1264956E0,1.1089964E2,4.1152534E1,5.7020564E0,6.4493585E0,9.9076515E1,5.5558468E1,5.2767204E1,1.0394474E3,1.6156377E2,7.100852E1,7.1467865E1,1.35147E2,2.8384926E1],"tree_param":{"num_deleted":"0","num_feature":"16","num_nodes":"31","size_leaf_vector":"0"}},{"base_weights":[-4.43479E-1,-8.242262E-2,-8.6563927E-1,8.8590765E-1,-2.4532682E-1,-9.1727465E-1,9.2915154E-1,1.0477372E0,3.5072008E-1,-3.8900143E-1,6.449004E-1,9.555456E-1,-9.610669E-1,1.0809721E0,-2.2919245E-1,1.2600245E0,6.211781E-1,6.687346E-1,-5.952975E-1,-7.555111E-2,-6.745066E-1,-3.745815E-1,9.912582E-1,2.5755575E-1,-1.0240686E0,1.15447E0,-0E0],"categories":[],"categories_nodes":[],"categories_segments":[],"categories_sizes":[],"default_left":[1,0,1,1,1,1,1,1,1,1,0,0,1,1,0,0,0,0,0,0,0,0,0,0,0,0,0],"id":42,"left_children":[1,3,5,7,9,11,13,15,17,19,21,-1,23,25,-1,-1,-1,-1,-1,-1,-1,-1,-1,-1,-1,-1,-1],"loss_changes":[2.9320273E2,1.6580319E2,8.6628845E1,9.855644E0,1.1637979E2,7.5713135E1,6.803711E0,4.3572235E0,1.5314707E1,6.887269E1,4.7060913E1,0E0,6.73681E1,1.1414986E0,0E0,0E0,0E0,0E0,0E0,0E0,0E0,0E0,0E0,0E0,0E0,0E0,0E0],"parents":[2147483647,0,0,1,1,2,2,3,3,4,4,5,5,6,6,7,7,8,8,9,9,10,10,12,12,13,13],"right_children":[2,4,6,8,10,12,14,16,18,20,22,-1,24,26,-1,-1,-1,-1,-1,-1,-1,-1,-1,-1,-1,-1,-1],"split_conditions":[1.3190742E3,-4.9640936E-1,1.0083333E0,1.3052397E3,2.1256888E-1,-1.7291667E0,1.3888665E3,7.8845345E1,-1.875E-1,4.2975903E0,5.513959E-1,4.777728E-2,-1.7364712E1,5.362625E0,-1.14596225E-2,6.300123E-2,3.1058906E-2,3.343673E-2,-2.9764876E-2,-3.7775554E-3,-3.3725332E-2,-1.8729074E-2,4.9562912E-2,1.2877787E-2,-5.120343E-2,5.77235E-2,-0E0],"split_indices":[12,5,13,8,13,13,8,4,13,11,5,0,15,14,0,0,0,0,0,0,0,0,0,0,0,0,0],"split_type":[0,0,0,0,0,0,0,0,0,0,0,0,0,0,0,0,0,0,0,0,0,0,0,0,0,0,0],"sum_hessian":[1.9271637E3,1.0432552E3,8.839085E2,1.4615506E2,8.9710016E2,8.621078E2,2.1800676E1,1.0711017E2,3.904489E1,7.7582715E2,1.2127301E2,1.6797802E1,8.4531E2,2.0332975E1,1.4677017E0,6.3429153E1,4.3681015E1,3.1109629E1,7.935264E0,3.7449854E2,4.013286E2,2.991767E1,9.135534E1,4.001424E1,8.052958E2,1.8066532E1,2.2664423E0],"tree_param":{"num_deleted":"0","num_feature":"16","num_nodes":"27","size_leaf_vector":"0"}},{"base_weights":[-4.476532E-1,-6.215506E-1,4.3990704E-1,2.8913555E-1,-8.3308816E-1,6.276222E-1,-8.443293E-2,7.584086E-1,-3.425272E-3,5.6075305E-1,-8.812411E-1,3.3520174E-1,8.37822E-1,-5.996304E-1,9.30712E-1,1.4442462E-1,8.85802E-1,-4.8083332E-1,2.0369339E-1,1.0879441E0,-5.653218E-1,-9.1746557E-1,7.736111E-1,2.2701765E-3,6.9525915E-1,1.0295551E0,2.3664889E-1,6.4058644E-1,-8.041824E-1,9.650408E-1,-0E0],"categories":[],"categories_nodes":[],"categories_segments":[],"categories_sizes":[],"default_left":[1,0,1,0,1,1,1,1,1,1,1,1,1,1,1,0,0,0,0,0,0,0,0,0,0,0,0,0,0,0,0],"id":43,"left_children":[1,3,5,7,9,11,13,15,17,19,21,23,25,27,29,-1,-1,-1,-1,-1,-1,-1,-1,-1,-1,-1,-1,-1,-1,-1,-1],"loss_changes":[2.9001248E2,3.03388E2,3.11408E1,4.1676403E1,8.8219666E1,1.14943695E1,4.6519653E1,7.3847046E0,1.9277931E1,3.0232643E1,7.760333E1,1.2009012E1,1.2253983E1,1.7853619E1,6.8647957E-1,0E0,0E0,0E0,0E0,0E0,0E0,0E0,0E0,0E0,0E0,0E0,0E0,0E0,0E0,0E0,0E0],"parents":[2147483647,0,0,1,1,2,2,3,3,4,4,5,5,6,6,7,7,8,8,9,9,10,10,11,11,12,12,13,13,14,14],"right_children":[2,4,6,8,10,12,14,16,18,20,22,24,26,28,30,-1,-1,-1,-1,-1,-1,-1,-1,-1,-1,-1,-1,-1,-1,-1,-1],"split_conditions":[6.470406E0,-1.7309801E-3,-3.6818475E-1,-8.089591E-3,-5.1960144E1,4.0382075E0,3.4583333E-1,-1.426304E-1,3.7466483E0,-7.3333335E-1,2.0708332E0,9.423728E-3,-8.895349E-1,-1.8235295E0,9.011882E0,7.221231E-3,4.42901E-2,-2.4041666E-2,1.018467E-2,5.4397207E-2,-2.826609E-2,-4.587328E-2,3.8680557E-2,1.1350883E-4,3.476296E-2,5.1477756E-2,1.1832445E-2,3.2029323E-2,-4.0209122E-2,4.8252042E-2,-0E0],"split_indices":[6,10,5,10,15,11,13,2,11,5,13,3,5,13,14,0,0,0,0,0,0,0,0,0,0,0,0,0,0,0,0],"split_type":[0,0,0,0,0,0,0,0,0,0,0,0,0,0,0,0,0,0,0,0,0,0,0,0,0,0,0,0,0,0,0],"sum_hessian":[1.863961E3,1.5607855E3,3.031755E2,2.9296896E2,1.2678165E3,2.2393018E2,7.924534E1,1.1076167E2,1.8220729E2,3.9865707E1,1.2279508E3,1.0106456E2,1.22865616E2,5.457803E1,2.4667307E1,2.2214586E1,8.854709E1,5.4592403E1,1.2761488E2,2.7873568E1,1.1992138E1,1.2044186E3,2.3532309E1,5.656754E1,4.4497017E1,8.9192894E1,3.367272E1,5.5260553E0,4.905197E1,2.3331291E1,1.3360152E0],"tree_param":{"num_deleted":"0","num_feature":"16","num_nodes":"31","size_leaf_vector":"0"}},{"base_weights":[-4.155333E-1,-5.5775203E-2,-8.8402605E-1,-3.071378E-1,5.3161114E-1,-9.4846916E-1,3.5815606E-1,3.3830598E-1,-7.513137E-1,1.1134205E0,3.3814934E-1,3.4772053E-1,-9.901204E-1,7.403179E-1,-6.1252224E-1,-8.0961846E-2,6.20459E-1,-8.9126563E-1,2.0409745E-1,1.9121405E0,7.6139194E-1,-4.849746E-1,4.638768E-1,-4.6505395E-1,8.562159E-1,-0E0,-1.0214494E0,-0E0,8.177767E-1,1.01656325E-1,-8.4115165E-1],"categories":[],"categories_nodes":[],"categories_segments":[],"categories_sizes":[],"default_left":[1,1,1,1,1,1,1,1,0,1,1,1,1,1,0,0,0,0,0,0,0,0,0,0,0,0,0,0,0,0,0],"id":44,"left_children":[1,3,5,7,9,11,13,15,17,19,21,23,25,27,29,-1,-1,-1,-1,-1,-1,-1,-1,-1,-1,-1,-1,-1,-1,-1,-1],"loss_changes":[3.0442563E2,1.5299178E2,6.5212585E1,2.1017029E2,3.155587E1,4.282367E1,1.7838972E1,3.615873E1,5.952626E1,1.0820122E1,2.6054302E1,1.3245438E1,2.1712036E1,2.318552E0,3.4134269E0,0E0,0E0,0E0,0E0,0E0,0E0,0E0,0E0,0E0,0E0,0E0,0E0,0E0,0E0,0E0,0E0],"parents":[2147483647,0,0,1,1,2,2,3,3,4,4,5,5,6,6,7,7,8,8,9,9,10,10,11,11,12,12,13,13,14,14],"right_children":[2,4,6,8,10,12,14,16,18,20,22,24,26,28,30,-1,-1,-1,-1,-1,-1,-1,-1,-1,-1,-1,-1,-1,-1,-1,-1],"split_conditions":[1.3278093E3,3.231689E0,3.427031E1,-4.832651E0,6.1953444E0,-1.5118519E1,1.845839E2,1.120666E3,1.3196629E-3,-4.3451166E-1,6.853054E0,-1.8333334E-1,-1.3243947E0,5.4653972E-2,-8.369617E-1,-4.0480923E-3,3.1022951E-2,-4.4563282E-2,1.0204873E-2,9.560703E-2,3.80696E-2,-2.424873E-2,2.3193842E-2,-2.3252698E-2,4.2810794E-2,-0E0,-5.1072475E-2,-0E0,4.0888835E-2,5.0828164E-3,-4.2057585E-2],"split_indices":[8,7,7,7,15,7,7,8,10,0,7,5,0,9,5,0,0,0,0,0,0,0,0,0,0,0,0,0,0,0,0],"split_type":[0,0,0,0,0,0,0,0,0,0,0,0,0,0,0,0,0,0,0,0,0,0,0,0,0,0,0,0,0,0,0],"sum_hessian":[1.8082467E3,1.027191E3,7.810557E2,7.222176E2,3.0497345E2,7.444231E2,3.6632595E1,2.9397507E2,4.2824252E2,6.88803E1,2.3609314E2,2.1284906E1,7.231382E2,2.7874886E1,8.757708E0,1.1826269E2,1.7571237E2,3.7473276E2,5.3509792E1,1.3423676E1,5.5456627E1,2.8336529E1,2.077566E2,7.599116E0,1.368579E1,2.3170864E1,6.9996735E2,2.465844E0,2.5409042E1,1.7364464E0,7.021261E0],"tree_param":{"num_deleted":"0","num_feature":"16","num_nodes":"31","size_leaf_vector":"0"}},{"base_weights":[-3.8299096E-1,-2.8692137E-2,-8.6277115E-1,-2.3780489E-1,5.084531E-1,8.5679907E-1,-9.34816E-1,4.823353E-1,-5.9139687E-1,8.288885E-1,2.1256027E-1,9.9418646E-1,-0E0,-9.8496497E-1,9.44838E-1,4.4156867E-3,7.0148426E-1,-6.565019E-1,8.99311E-1,4.0171131E-1,1.7155321E0,-2.9039295E-2,7.2329855E-1,-2.502158E-1,1.8774976E-1,-1.0265722E0,1.3928127E-1,-0E0,1.1029866E0],"categories":[],"categories_nodes":[],"categories_segments":[],"categories_sizes":[],"default_left":[1,1,1,0,1,1,1,1,1,1,1,0,1,1,1,0,0,0,0,0,0,0,0,0,0,0,0,0,0],"id":45,"left_children":[1,3,5,7,9,11,13,15,17,19,21,-1,23,25,27,-1,-1,-1,-1,-1,-1,-1,-1,-1,-1,-1,-1,-1,-1],"loss_changes":[3.0233118E2,1.1635082E2,9.782306E1,1.9205298E2,2.554361E1,3.8073845E0,7.3428406E1,2.527526E1,5.171927E1,4.5843803E1,2.041343E1,0E0,6.8038315E-1,