{"learner":{"attributes":{"best_iteration":"137","best_ntree_limit":"138"},"feature_names":["Diff pressure downhole-wellhead sma 5","Avg_CCS1_DH6325Ps_psi_diff4","Avg_CCS1_DH6325Ps_psi_diff1","Abs Temperature diff 5001-4917 ft ema 5","Log abs Pressure diff 5840-5482 ft ema 5","Avg_CCS1_DH6325Ps_psi_pct_change1","Abs Pressure diff 5840-5482 ft ema 5","Avg_PLT_CO2VentRate_TPH_pct_change1","Avg_PLT_CO2VentRate_TPH_pct_change3","Avg_CCS1_WHCO2InjPs_psi_diff2","Temperature diff 5840-5653 ft_pct_change1","Avg_CCS1_WHCO2InjPs_psi_pct_change1","Avg_PLT_CO2VentRate_TPH_diff1","Avg_CCS1_WHCO2InjPs_psi_diff1","Avg_CCS1_WHCO2InjPs_psi_lag3","Avg_CCS1_DH6325Ps_psi_pct_change2","Avg_CCS1_DH6325Ps_psi","Avg_CCS1_WHCO2InjPs_psi","Avg_PLT_CO2VentRate_TPH","Avg_CCS1_WHCO2InjTp_F_lag1","Avg_CCS1_WHCO2InjTp_F_pct_change1"],"feature_types":["float","float","float","float","float","float","float","float","float","float","float","float","float","float","float","float","float","float","float","float","float"],"gradient_booster":{"model":{"gbtree_model_param":{"num_parallel_tree":"1","num_trees":"138","size_leaf_vector":"0"},"tree_info":[0,0,0,0,0,0,0,0,0,0,0,0,0,0,0,0,0,0,0,0,0,0,0,0,0,0,0,0,0,0,0,0,0,0,0,0,0,0,0,0,0,0,0,0,0,0,0,0,0,0,0,0,0,0,0,0,0,0,0,0,0,0,0,0,0,0,0,0,0,0,0,0,0,0,0,0,0,0,0,0,0,0,0,0,0,0,0,0,0,0,0,0,0,0,0,0,0,0,0,0,0,0,0,0,0,0,0,0,0,0,0,0,0,0,0,0,0,0,0,0,0,0,0,0,0,0,0,0,0,0,0,0,0,0,0,0,0,0],"trees":[{"base_weights":[-4.9441952E-1,-1.8950684E1,-2.994671E-1,-2.1795925E1,-4.6383257E0,-4.6477968E-1,1.2116681E1,-2.6827435E1,-1.4529173E1,-8.09242E0,5.939911E-1,-7.238083E0,-4.2734468E-1,6.4050384E0,1.6234661E1,-2.7178503E1,-0E0,-5.910451E0,-1.7828314E1,-1.4230177E1,-1.0313311E0,-1.054286E0,4.651488E0,-3.8916123E0,-1.1511181E1,-4.8002145E-1,2.7265277E0,1.7706124E0,9.9247E0,3.1983585E0,2.015841E1],"categories":[],"categories_nodes":[],"categories_segments":[],"categories_sizes":[],"default_left":[1,0,1,1,1,1,1,1,1,1,1,1,1,0,1,0,0,0,0,0,0,0,0,0,0,0,0,0,0,0,0],"id":0,"left_children":[1,3,5,7,9,11,13,15,17,19,21,23,25,27,29,-1,-1,-1,-1,-1,-1,-1,-1,-1,-1,-1,-1,-1,-1,-1,-1],"loss_changes":[5.8858918E4,6.325828E3,3.3276555E4,2.999664E3,6.9407825E2,4.00796E3,4.3767383E3,7.212344E2,1.3164121E3,8.0377563E2,1.6288782E2,9.43083E2,2.6430159E3,1.4521968E3,5.6989863E3,0E0,0E0,0E0,0E0,0E0,0E0,0E0,0E0,0E0,0E0,0E0,0E0,0E0,0E0,0E0,0E0],"parents":[2147483647,0,0,1,1,2,2,3,3,4,4,5,5,6,6,7,7,8,8,9,9,10,10,11,11,12,12,13,13,14,14],"right_children":[2,4,6,8,10,12,14,16,18,20,22,24,26,28,30,-1,-1,-1,-1,-1,-1,-1,-1,-1,-1,-1,-1,-1,-1,-1,-1],"split_conditions":[-4.8510536E1,-1.24535E-2,3.465158E1,-8.507555E1,-7.476547E1,-2.9679546E1,5.730619E1,3.5844486E0,9.091935E1,-2.2728493E1,6.4356544E1,9.324644E1,4.839089E1,1.1549E-2,7.7105E-3,-1.3589252E0,-0E0,-2.9552254E-1,-8.914157E-1,-7.1150887E-1,-5.1566552E-2,-5.27143E-2,2.3257439E-1,-1.9458061E-1,-5.755591E-1,-2.4001073E-2,1.3632639E-1,8.853062E-2,4.9623498E-1,1.5991794E-1,1.0079205E0],"split_indices":[2,20,2,2,2,2,2,3,19,9,9,19,9,20,20,0,0,0,0,0,0,0,0,0,0,0,0,0,0,0,0],"split_type":[0,0,0,0,0,0,0,0,0,0,0,0,0,0,0,0,0,0,0,0,0,0,0,0,0,0,0,0,0,0,0],"sum_hessian":[1.6388E4,1.66E2,1.6222E4,1.36E2,3E1,1.6014E4,2.08E2,7.2E1,6.4E1,1.7E1,1.3E1,8.2E1,1.5932E4,9.3E1,1.15E2,7.1E1,1E0,2.2E1,4.2E1,6E0,1.1E1,1.1E1,2E0,5.2E1,3E1,1.5676E4,2.56E2,4.4E1,4.9E1,2.9E1,8.6E1],"tree_param":{"num_deleted":"0","num_feature":"21","num_nodes":"31","size_leaf_vector":"0"}},{"base_weights":[-4.7362372E-1,-1.2415318E1,-2.815378E-1,-2.5567106E1,-5.343399E0,-4.2072612E-1,1.3689985E1,-2.760596E1,-2.6453547E0,-8.528546E0,-1.2516399E-1,-7.293547E0,-3.696222E-1,2.682116E0,1.8717678E1,-0E0,-2.7961771E1,-3.8902442E0,-0E0,-2.7690175E0,-1.3939092E1,-1.0003525E0,6.0013514E0,-1.3191525E1,-7.157705E-1,-4.6633306E-1,2.623425E0,6.4950423E0,6.5785444E-1,1.1145734E1,2.1808287E1],"categories":[],"categories_nodes":[],"categories_segments":[],"categories_sizes":[],"default_left":[1,1,1,1,0,1,1,0,0,1,1,0,1,1,1,0,0,0,0,0,0,0,0,0,0,0,0,0,0,0,0],"id":1,"left_children":[1,3,5,7,9,11,13,15,17,19,21,23,25,27,29,-1,-1,-1,-1,-1,-1,-1,-1,-1,-1,-1,-1,-1,-1,-1,-1],"loss_changes":[3.7524105E4,2.3251543E4,3.1349475E4,3.6429414E3,2.8600425E3,5.5629375E3,8.441711E3,8.196406E2,6.036727E1,3.0889883E3,3.9106598E2,4.4223354E3,4.5902227E3,3.750997E2,1.1472891E3,0E0,0E0,0E0,0E0,0E0,0E0,0E0,0E0,0E0,0E0,0E0,0E0,0E0,0E0,0E0,0E0],"parents":[2147483647,0,0,1,1,2,2,3,3,4,4,5,5,6,6,7,7,8,8,9,9,10,10,11,11,12,12,13,13,14,14],"right_children":[2,4,6,8,10,12,14,16,18,20,22,24,26,28,30,-1,-1,-1,-1,-1,-1,-1,-1,-1,-1,-1,-1,-1,-1,-1,-1],"split_conditions":[-9.045003E1,-8.436424E1,4.2778564E1,-6.5818E-2,-4.3261E-2,-3.0074333E1,4.0637E-2,-5.0987947E-1,-2.9007502E-2,1.0480856E3,1.5213833E1,-2.00155E-2,1.8385E-2,3.980673E1,6.674077E1,-0E0,-1.3980886E0,-1.9451222E-1,-0E0,-1.3845088E-1,-6.969546E-1,-5.0017625E-2,3.0006757E-1,-6.595763E-1,-3.5788525E-2,-2.3316653E-2,1.3117126E-1,3.2475212E-1,3.2892723E-2,5.572867E-1,1.0904144E0],"split_indices":[9,2,2,11,11,2,11,11,11,17,2,11,11,1,2,0,0,0,0,0,0,0,0,0,0,0,0,0,0,0,0],"split_type":[0,0,0,0,0,0,0,0,0,0,0,0,0,0,0,0,0,0,0,0,0,0,0,0,0,0,0,0,0,0,0],"sum_hessian":[1.6389E4,2.54E2,1.6135E4,8.4E1,1.7E2,1.5981E4,1.54E2,7.6E1,8E0,1.03E2,6.7E1,1.12E2,1.5869E4,5.1E1,1.03E2,1E0,7.5E1,5E0,3E0,5.4E1,4.9E1,6.3E1,4E0,5.6E1,5.6E1,1.5378E4,4.91E2,1.3E1,3.8E1,3.7E1,6.6E1],"tree_param":{"num_deleted":"0","num_feature":"21","num_nodes":"31","size_leaf_vector":"0"}},{"base_weights":[-4.341213E-1,-1.7492046E1,-2.7238634E-1,-2.3111002E1,-1.1300699E1,-3.945674E-1,1.6477097E1,-3.9483662E0,-2.5678457E1,-1.4175162E1,-2.9445832E0,-4.6073812E-1,3.7313597E0,8.05333E0,2.0760277E1,-6.264753E0,-0E0,-2.6072355E1,-0E0,-8.4303445E-1,-1.5762138E1,-6.1179934E0,1.5117033E0,-5.1532454E0,-4.1476613E-1,1.3912592E1,2.6342316E0,1.2987534E1,3.4006763E0,2.231537E1,-0E0],"categories":[],"categories_nodes":[],"categories_segments":[],"categories_sizes":[],"default_left":[0,0,1,0,1,1,1,1,1,1,1,0,1,1,1,0,0,0,0,0,0,0,0,0,0,0,0,0,0,0,0],"id":2,"left_children":[1,3,5,7,9,11,13,15,17,19,21,23,25,27,29,-1,-1,-1,-1,-1,-1,-1,-1,-1,-1,-1,-1,-1,-1,-1,-1],"loss_changes":[4.493683E4,3.844789E3,3.306602E4,3.0348672E3,1.6993076E3,4.3793286E3,3.2414043E3,1.586274E2,6.452344E2,1.12E3,4.6523984E2,3.3744404E3,2.5600605E3,7.991697E2,2.4671387E3,0E0,0E0,0E0,0E0,0E0,0E0,0E0,0E0,0E0,0E0,0E0,0E0,0E0,0E0,0E0,0E0],"parents":[2147483647,0,0,1,1,2,2,3,3,4,4,5,5,6,6,7,7,8,8,9,9,10,10,11,11,12,12,13,13,14,14],"right_children":[2,4,6,8,10,12,14,16,18,20,22,24,26,28,30,-1,-1,-1,-1,-1,-1,-1,-1,-1,-1,-1,-1,-1,-1,-1,-1],"split_conditions":[-1.5752502E-2,-2.834E-2,1.87845E-2,-7.08425E-2,-3.7764744E1,6.812363E1,2.5554546E3,-7.985E-4,2.5578488E4,-1.9140585E2,2.4243526E2,-7.2385E-3,-3.2875E0,-2.0416701E-1,2.1641537E2,-3.1323764E-1,-0E0,-1.3036178E0,-0E0,-4.2151723E-2,-7.881069E-1,-3.0589968E-1,7.5585164E-2,-2.5766227E-1,-2.0738307E-2,6.956296E-1,1.3171159E-1,6.493767E-1,1.7003381E-1,1.1157686E0,-0E0],"split_indices":[5,5,5,15,9,9,0,10,9,1,6,5,12,12,1,0,0,0,0,0,0,0,0,0,0,0,0,0,0,0,0],"split_type":[0,0,0,0,0,0,0,0,0,0,0,0,0,0,0,0,0,0,0,0,0,0,0,0,0,0,0,0,0,0,0],"sum_hessian":[1.6324E4,1.48E2,1.6176E4,7E1,7.8E1,1.6064E4,1.12E2,1E1,6E1,5.5E1,2.3E1,1.5816E4,2.48E2,4.3E1,6.9E1,5E0,5E0,5.9E1,1E0,7E0,4.8E1,1.3E1,1E1,1.47E2,1.5669E4,1.8E1,2.3E2,1.6E1,2.7E1,6.4E1,5E0],"tree_param":{"num_deleted":"0","num_feature":"21","num_nodes":"31","size_leaf_vector":"0"}},{"base_weights":[-4.4181633E-1,-1.7094545E1,-2.278733E-1,-2.183503E1,-5.4849515E0,-4.030616E-1,1.1419555E1,-2.5210257E1,-1.3503478E1,-3.7025995E0,-9.344046E0,-4.432368E-1,3.3680444E0,1.4044057E1,1.9323978E0,-3.0854201E0,-2.619066E1,-0E0,-1.4003138E1,-5.7628303E0,-1.1651167E0,-1.1542883E1,1.3277818E0,-5.4519563E0,-4.1367793E-1,8.097821E0,2.2966974E0,1.0511383E1,2.250179E1,-4.2942908E-1,5.3358955E0],"categories":[],"categories_nodes":[],"categories_segments":[],"categories_sizes":[],"default_left":[1,1,1,1,0,1,0,1,0,0,1,1,1,1,0,0,0,0,0,0,0,0,0,0,0,0,0,0,0,0,0],"id":3,"left_children":[1,3,5,7,9,11,13,15,17,19,21,23,25,27,29,-1,-1,-1,-1,-1,-1,-1,-1,-1,-1,-1,-1,-1,-1,-1,-1],"loss_changes":[5.813751E4,1.0656844E4,3.291373E4,2.1818281E3,2.2262415E2,2.4035864E3,5.735301E3,1.553625E3,3.362539E2,2.1931738E2,5.2662317E2,2.2912131E3,7.012638E2,4.2096953E3,5.0222064E2,0E0,0E0,0E0,0E0,0E0,0E0,0E0,0E0,0E0,0E0,0E0,0E0,0E0,0E0,0E0,0E0],"parents":[2147483647,0,0,1,1,2,2,3,3,4,4,5,5,6,6,7,7,8,8,9,9,10,10,11,11,12,12,13,13,14,14],"right_children":[2,4,6,8,10,12,14,16,18,20,22,24,26,28,30,-1,-1,-1,-1,-1,-1,-1,-1,-1,-1,-1,-1,-1,-1,-1,-1],"split_conditions":[-5.5273773E1,-1.4387055E1,5.0018017E1,-9.255984E1,-9.55305E-2,2.1574379E1,2.416345E-1,1.0162281E3,-8.04885E-2,-2.0750001E-4,1.508E-3,-3.000358E1,-3.8377922E1,8.839905E1,6.52E-4,-1.54271E-1,-1.309533E0,-0E0,-7.0015687E-1,-2.8814152E-1,-5.8255833E-2,-5.7714415E-1,6.638909E-2,-2.7259782E-1,-2.0683898E-2,4.0489107E-1,1.1483487E-1,5.2556914E-1,1.1250895E0,-2.1471454E-2,2.6679477E-1],"split_indices":[13,2,13,13,11,13,11,17,11,15,10,13,1,2,15,0,0,0,0,0,0,0,0,0,0,0,0,0,0,0,0],"split_type":[0,0,0,0,0,0,0,0,0,0,0,0,0,0,0,0,0,0,0,0,0,0,0,0,0,0,0,0,0,0,0],"sum_hessian":[1.6343E4,2.02E2,1.6141E4,1.4E2,6.2E1,1.5907E4,2.34E2,9.2E1,4.8E1,5E1,1.2E1,1.5745E4,1.62E2,1.81E2,5.3E1,5E0,8.7E1,2E0,4.6E1,2.3E1,2.7E1,1E1,2E0,8.6E1,1.5659E4,2.3E1,1.39E2,1.36E2,4.5E1,3.3E1,2E1],"tree_param":{"num_deleted":"0","num_feature":"21","num_nodes":"31","size_leaf_vector":"0"}},{"base_weights":[-3.8467386E-1,-1.4548488E1,-1.9110191E-1,-1.7715038E1,-3.1986794E0,-3.483856E-1,1.1066324E1,-2.1720987E1,-1.0262869E1,-4.4606233E0,2.8649223E-1,-4.1061074E-1,4.9071493E0,5.4256825E0,1.9647009E1,-4.9267864E0,-2.317686E1,-5.535381E0,-1.26944E1,-6.5416236E0,-6.640573E-2,-0E0,1.258135E0,-4.844051E0,-3.9303708E-1,2.5227334E0,8.808089E0,2.8151386E0,1.0185362E1,4.5427413E0,2.0856363E1],"categories":[],"categories_nodes":[],"categories_segments":[],"categories_sizes":[],"default_left":[1,0,1,1,0,1,1,1,1,1,0,1,0,1,1,0,0,0,0,0,0,0,0,0,0,0,0,0,0,0,0],"id":4,"left_children":[1,3,5,7,9,11,13,15,17,19,21,23,25,27,29,-1,-1,-1,-1,-1,-1,-1,-1,-1,-1,-1,-1,-1,-1,-1,-1],"loss_changes":[4.4328215E4,7.4469727E3,2.8272418E4,3.7706406E3,2.647572E2,5.145451E3,9.989768E3,1.8558164E3,3.506665E2,3.3970703E2,8.020021E0,1.1791731E3,1.5437134E3,1.5311807E3,9.519258E2,0E0,0E0,0E0,0E0,0E0,0E0,0E0,0E0,0E0,0E0,0E0,0E0,0E0,0E0,0E0,0E0],"parents":[2147483647,0,0,1,1,2,2,3,3,4,4,5,5,6,6,7,7,8,8,9,9,10,10,11,11,12,12,13,13,14,14],"right_children":[2,4,6,8,10,12,14,16,18,20,22,24,26,28,30,-1,-1,-1,-1,-1,-1,-1,-1,-1,-1,-1,-1,-1,-1,-1,-1],"split_conditions":[-4.789958E1,-1.065E-3,1.0576E-2,-8.2867294E1,-2.0332E-2,3.0591854E1,8.442606E1,-2.9766754E2,-8.677156E1,-7.52475E-1,1.1583E-2,-3.0033354E1,2.3174998E-3,2E-1,1.0884038E3,-2.4633932E-1,-1.158843E0,-2.7676904E-1,-6.3472E-1,-3.2708117E-1,-3.3202865E-3,-0E0,6.290675E-2,-2.4220255E-1,-1.9651854E-2,1.2613668E-1,4.4040447E-1,1.4075693E-1,5.092681E-1,2.2713707E-1,1.0428182E0],"split_indices":[13,5,5,13,20,13,13,9,9,8,5,13,5,18,17,0,0,0,0,0,0,0,0,0,0,0,0,0,0,0,0],"split_type":[0,0,0,0,0,0,0,0,0,0,0,0,0,0,0,0,0,0,0,0,0,0,0,0,0,0,0,0,0,0,0],"sum_hessian":[1.6195E4,2.13E2,1.5982E4,1.64E2,4.9E1,1.5767E4,2.15E2,1E2,6.4E1,3.6E1,1.3E1,1.5588E4,1.79E2,1.35E2,8E1,1E1,9E1,2.8E1,3.6E1,2.2E1,1.4E1,1.2E1,1E0,5.5E1,1.5533E4,1.17E2,6.2E1,9.3E1,4.2E1,8E0,7.2E1],"tree_param":{"num_deleted":"0","num_feature":"21","num_nodes":"31","size_leaf_vector":"0"}},{"base_weights":[-4.026742E-1,-1.2784175E1,-2.1796869E-1,-2.0567286E1,-4.885553E0,-3.7384126E-1,1.153804E1,-5.9843063E-1,-2.119784E1,-6.032239E0,-6.232397E-1,-4.1129655E-1,2.560424E0,8.081027E0,1.8187155E1,-0E0,-1.6592087E0,-2.5863997E1,-1.4376724E1,-6.83268E0,-3.4344584E-1,-3.8876543E0,9.989039E-1,-6.0061264E0,-3.6564806E-1,1.0354571E0,6.7563624E0,2.9841197E0,1.0134363E1,1.9212246E1,2.2380092E0],"categories":[],"categories_nodes":[],"categories_segments":[],"categories_sizes":[],"default_left":[0,1,1,1,1,1,1,1,1,1,1,1,1,0,1,0,0,0,0,0,0,0,0,0,0,0,0,0,0,0,0],"id":5,"left_children":[1,3,5,7,9,11,13,15,17,19,21,23,25,27,29,-1,-1,-1,-1,-1,-1,-1,-1,-1,-1,-1,-1,-1,-1,-1,-1],"loss_changes":[3.702652E4,1.4001574E4,2.9270111E4,1.3133828E3,5.588672E2,1.7296804E3,3.9378965E3,1.3294766E1,1.5680352E3,3.9408008E2,2.0860724E2,3.9400525E3,1.1929973E3,1.3216484E3,7.7316797E2,0E0,0E0,0E0,0E0,0E0,0E0,0E0,0E0,0E0,0E0,0E0,0E0,0E0,0E0,0E0,0E0],"parents":[2147483647,0,0,1,1,2,2,3,3,4,4,5,5,6,6,7,7,8,8,9,9,10,10,11,11,12,12,13,13,14,14],"right_children":[2,4,6,8,10,12,14,16,18,20,22,24,26,28,30,-1,-1,-1,-1,-1,-1,-1,-1,-1,-1,-1,-1,-1,-1,-1,-1],"split_conditions":[-9.714E-3,-6.743608E1,5.3283157E1,3.046941E3,2.7438824E2,2.1176565E1,6.674077E1,2.4030244E2,-1.0696344E2,6.901845E-1,-2.494514E1,-2.6916386E1,2.7222994E1,1.0384614E0,3.2556064E0,-0E0,-8.2960434E-2,-1.2931999E0,-7.1883625E-1,-3.41634E-1,-1.7172292E-2,-1.9438271E-1,4.9945194E-2,-3.0030632E-1,-1.8282404E-2,5.177286E-2,3.3781812E-1,1.4920598E-1,5.0671816E-1,9.606123E-1,1.1190046E-1],"split_indices":[5,13,13,16,6,2,2,6,13,13,13,13,13,8,3,0,0,0,0,0,0,0,0,0,0,0,0,0,0,0,0],"split_type":[0,0,0,0,0,0,0,0,0,0,0,0,0,0,0,0,0,0,0,0,0,0,0,0,0,0,0,0,0,0,0],"sum_hessian":[1.622E4,2.33E2,1.5987E4,1.13E2,1.2E2,1.5783E4,2.04E2,4E0,1.09E2,9.2E1,2.8E1,1.559E4,1.93E2,1.42E2,6.2E1,3E0,1E0,5.6E1,5.3E1,7.9E1,1.3E1,8E0,2E1,1.2E2,1.547E4,1.47E2,4.6E1,4.5E1,9.7E1,5.7E1,5E0],"tree_param":{"num_deleted":"0","num_feature":"21","num_nodes":"31","size_leaf_vector":"0"}},{"base_weights":[-3.707938E-1,1.3298271E1,-4.2713448E-1,-3.855757E-1,1.5541073E1,-4.1125986E-1,-6.5545464E0,-1.4873726E0,1.3644733E-1,2.7960763E0,1.6646643E1,-1.4360045E1,-2.8197926E-1,-9.536185E0,2.244395E0,-0E0,-1.6025907E0,5.9967995E-1,-0E0,-2.6349717E-1,4.733102E0,1.8584705E1,6.1657763E0,-1.7109308E1,-4.2840114E0,-3.6856693E-1,2.8424666E0,-6.578539E-1,-1.2150243E1,-5.602099E-1,4.1463423E0],"categories":[],"categories_nodes":[],"categories_segments":[],"categories_sizes":[],"default_left":[1,0,1,1,1,1,1,1,1,1,0,1,1,1,0,0,0,0,0,0,0,0,0,0,0,0,0,0,0,0,0],"id":6,"left_children":[1,3,5,7,9,11,13,15,17,19,21,23,25,27,29,-1,-1,-1,-1,-1,-1,-1,-1,-1,-1,-1,-1,-1,-1,-1,-1],"loss_changes":[1.2573299E4,2.1619785E3,1.5382698E3,1.5821652E1,4.8730762E2,2.9255373E4,1.2191199E3,2.7986145E-1,1.9528997E0,9.377503E1,3.5955566E2,3.6540977E3,4.356925E3,6.3866504E2,1.042237E2,0E0,0E0,0E0,0E0,0E0,0E0,0E0,0E0,0E0,0E0,0E0,0E0,0E0,0E0,0E0,0E0],"parents":[2147483647,0,0,1,1,2,2,3,3,4,4,5,5,6,6,7,7,8,8,9,9,10,10,11,11,12,12,13,13,14,14],"right_children":[2,4,6,8,10,12,14,16,18,20,22,24,26,28,30,-1,-1,-1,-1,-1,-1,-1,-1,-1,-1,-1,-1,-1,-1,-1,-1],"split_conditions":[-5.029373E0,-9.99833E-1,1.9858974E1,-7.3421353E-1,-2.004485E-1,-4.8654144E1,1.507165E-1,-1.6053658E2,-5.3898764E0,-1.1718108E1,-6.292975E-1,-2.964122E1,3.286503E1,9.3202126E1,2.9714287E1,-0E0,-8.0129534E-2,2.9983997E-2,-0E0,-1.3174859E-2,2.366551E-1,9.292353E-1,3.082888E-1,-8.554654E-1,-2.1420057E-1,-1.8428346E-2,1.4212333E-1,-3.2892697E-2,-6.075122E-1,-2.8010493E-2,2.0731711E-1],"split_indices":[12,7,7,2,2,2,2,1,1,9,7,9,9,19,7,0,0,0,0,0,0,0,0,0,0,0,0,0,0,0,0],"split_type":[0,0,0,0,0,0,0,0,0,0,0,0,0,0,0,0,0,0,0,0,0,0,0,0,0,0,0,0,0,0,0],"sum_hessian":[1.6368E4,6.2E1,1.6306E4,9E0,5.3E1,1.627E4,3.6E1,3E0,6E0,6E0,4.7E1,1.44E2,1.6126E4,2.7E1,9E0,1E0,2E0,1E0,5E0,3E0,3E0,3.6E1,1.1E1,1.1E2,3.4E1,1.5697E4,4.29E2,8E0,1.9E1,4E0,5E0],"tree_param":{"num_deleted":"0","num_feature":"21","num_nodes":"31","size_leaf_vector":"0"}},{"base_weights":[-3.9142352E-1,-1.6280437E1,-2.4422793E-1,-1.7632692E1,-2.0536554E0,-3.339731E-1,4.0456705E0,-2.2292269E1,-7.8660436E0,-6.1170206E0,-0E0,-3.2121654E0,-2.601097E-1,9.4997215E-1,1.3518145E1,-2.254683E1,-0E0,-1.047005E1,-3.056258E0,-9.133762E0,-7.866501E-1,-3.1631675E-1,1.0028584E1,-2.6497093E-1,4.0235467E0,-0E0,1.45686865E1],"categories":[],"categories_nodes":[],"categories_segments":[],"categories_sizes":[],"default_left":[0,1,1,1,1,0,1,1,0,0,0,0,1,1,0,0,0,0,0,0,0,0,0,0,0,0,0],"id":7,"left_children":[1,3,5,7,9,11,13,15,17,-1,-1,19,21,23,25,-1,-1,-1,-1,-1,-1,-1,-1,-1,-1,-1,-1],"loss_changes":[3.821628E4,2.606246E3,6.2401743E3,5.1615977E3,1.8179306E2,3.3612427E3,9.598992E3,5.0751172E2,4.2365796E2,0E0,0E0,5.6021895E3,8.943055E3,9.8008325E2,1.1165371E3,0E0,0E0,0E0,0E0,0E0,0E0,0E0,0E0,0E0,0E0,0E0,0E0],"parents":[2147483647,0,0,1,1,2,2,3,3,4,4,5,5,6,6,7,7,8,8,11,11,12,12,13,13,14,14],"right_children":[2,4,6,8,10,12,14,16,18,-1,-1,20,22,24,26,-1,-1,-1,-1,-1,-1,-1,-1,-1,-1,-1,-1],"split_conditions":[-1.77675E-2,1.2943656E3,1.377E-2,-7.1729E-2,-4.16665E-2,-3.2031E-2,7.1417004E-2,3.5599499E0,-5.06185E-2,-3.0585104E-1,-0E0,-1.0945001E-3,7.5045E-3,2.5992E-2,1.0345E-2,-1.1273415E0,-0E0,-5.235025E-1,-1.528129E-1,-4.5668814E-1,-3.9332505E-2,-1.5815837E-2,5.014292E-1,-1.3248547E-2,2.0117734E-1,-0E0,7.284343E-1],"split_indices":[5,17,15,11,12,11,11,3,11,0,0,5,5,11,5,0,0,0,0,0,0,0,0,0,0,0,0],"split_type":[0,0,0,0,0,0,0,0,0,0,0,0,0,0,0,0,0,0,0,0,0,0,0,0,0,0,0],"sum_hessian":[1.6379E4,1.45E2,1.6234E4,1.31E2,1.4E1,1.5907E4,3.27E2,8.4E1,4.7E1,2E0,1.2E1,3.91E2,1.5516E4,2.51E2,7.6E1,8.3E1,1E0,2.6E1,2.1E1,1.09E2,2.82E2,1.5437E4,7.9E1,1.82E2,6.9E1,6E0,7E1],"tree_param":{"num_deleted":"0","num_feature":"21","num_nodes":"27","size_leaf_vector":"0"}},{"base_weights":[-3.4422863E-1,-1.4924331E1,-1.5540019E-1,-1.9183046E1,-4.232619E0,-2.5011694E-1,1.3090334E1,-2.5675783E1,-1.4103324E1,7.676552E-2,-5.8375854E0,-3.4399173E-1,5.4378467E0,4.237824E0,1.7004019E1,-2.6110685E1,-0E0,-2.6460917E0,-1.4409974E1,-9.986134E0,-1.0823567E0,-4.695191E0,-3.1265473E-1,6.8528886E0,1.2173276E0,9.448231E0,1.0070522E-1,1.7283607E1,-0E0],"categories":[],"categories_nodes":[],"categories_segments":[],"categories_sizes":[],"default_left":[1,1,1,1,1,1,1,1,1,0,1,1,1,1,1,0,0,0,0,0,0,0,0,0,0,0,0,0,0],"id":8,"left_children":[1,3,5,7,9,11,13,15,17,-1,19,21,23,25,27,-1,-1,-1,-1,-1,-1,-1,-1,-1,-1,-1,-1,-1,-1],"loss_changes":[4.47864E4,8.947809E3,2.0146096E4,2.8387812E3,4.8752832E2,8.520244E3,3.483129E3,6.245156E2,5.432422E1,0E0,8.572523E2,2.1128699E3,1.4647407E3,8.528529E2,4.3943164E2,0E0,0E0,0E0,0E0,0E0,0E0,0E0,0E0,0E0,0E0,0E0,0E0,0E0,0E0],"parents":[2147483647,0,0,1,1,2,2,3,3,4,4,5,5,6,6,7,7,8,8,10,10,11,11,12,12,13,13,14,14],"right_children":[2,4,6,8,10,12,14,16,18,-1,20,22,24,26,28,-1,-1,-1,-1,-1,-1,-1,-1,-1,-1,-1,-1,-1,-1],"split_conditions":[-5.9083878E1,-1.4324104E1,5.7563828E1,-1.20227486E2,3.1473926E3,2.8124626E1,5.3224068E1,-2.1528244E1,1.01323096E3,3.8382763E-3,1.2499999E-2,-2.6367483E1,1.3157092E3,1.2089567E3,3.887484E2,-1.3055342E0,-0E0,-1.323046E-1,-7.2049874E-1,-4.9930668E-1,-5.4117836E-2,-2.3475955E-1,-1.5632737E-2,3.4264442E-1,6.0866382E-2,4.7241154E-1,5.035261E-3,8.641804E-1,-0E0],"split_indices":[13,2,2,13,16,13,13,2,17,0,18,13,17,17,13,0,0,0,0,0,0,0,0,0,0,0,0,0,0],"split_type":[0,0,0,0,0,0,0,0,0,0,0,0,0,0,0,0,0,0,0,0,0,0,0,0,0,0,0,0,0],"sum_hessian":[1.6294E4,2.03E2,1.6091E4,1.42E2,6.1E1,1.5982E4,1.09E2,5.3E1,8.9E1,1.7E1,4.4E1,1.5728E4,2.54E2,3.7E1,7.2E1,5.2E1,1E0,4E0,8.5E1,2E1,2.4E1,1.06E2,1.5622E4,1.87E2,6.7E1,1.3E1,2.4E1,7.1E1,1E0],"tree_param":{"num_deleted":"0","num_feature":"21","num_nodes":"29","size_leaf_vector":"0"}},{"base_weights":[-3.083677E-1,-1.2765505E1,-1.472912E-1,-1.7028093E1,-4.610101E0,-2.9226616E-1,9.360555E0,-1.7315004E1,-0E0,-1.5189517E0,-7.457569E0,-3.0146232E-1,2.6237063E0,1.413407E0,1.1254894E1,-2.1741976E1,-9.835244E0,-3.4315155E0,3.4629017E-1,-1.4908888E0,-9.961892E0,-4.3642077E0,-2.8157234E-1,3.2431602E-1,5.9058185E0,4.227491E0,-6.3380027E-1,8.0496235E0,1.7876396E1],"categories":[],"categories_nodes":[],"categories_segments":[],"categories_sizes":[],"default_left":[1,1,1,0,1,1,1,0,0,1,0,1,1,0,1,0,0,0,0,0,0,0,0,0,0,0,0,0,0],"id":9,"left_children":[1,3,5,7,9,11,13,15,-1,17,19,21,23,25,27,-1,-1,-1,-1,-1,-1,-1,-1,-1,-1,-1,-1,-1,-1],"loss_changes":[3.284954E4,6.764793E3,2.2303926E4,7.3059766E2,5.93833E2,4.204839E2,3.5153848E3,3.176914E3,0E0,1.8190034E2,4.512329E2,1.25725E3,3.2906854E2,3.3669907E2,3.2895E3,0E0,0E0,0E0,0E0,0E0,0E0,0E0,0E0,0E0,0E0,0E0,0E0,0E0,0E0],"parents":[2147483647,0,0,1,1,2,2,3,3,4,4,5,5,6,6,7,7,9,9,10,10,11,11,12,12,13,13,14,14],"right_children":[2,4,6,8,10,12,14,16,-1,18,20,22,24,26,28,-1,-1,-1,-1,-1,-1,-1,-1,-1,-1,-1,-1,-1,-1],"split_conditions":[-5.2260498E1,-2.4673191E1,4.99299E1,8.683E-3,1.0015477E3,1.4754501E-1,1.0937949E3,-7.82015E-2,-0E0,8.3335E-3,-9.9569E-2,-3.001099E1,8.6426735E0,1.555395E-1,8.163228E1,-1.0870988E0,-4.9176222E-1,-1.7157577E-1,1.7314509E-2,-7.4544445E-2,-4.9809462E-1,-2.1821038E-1,-1.4078617E-2,1.6215801E-2,2.9529092E-1,2.1137455E-1,-3.1690013E-2,4.0248117E-1,8.938198E-1],"split_indices":[13,2,13,15,17,20,17,11,0,18,11,13,13,11,2,0,0,0,0,0,0,0,0,0,0,0,0,0,0],"split_type":[0,0,0,0,0,0,0,0,0,0,0,0,0,0,0,0,0,0,0,0,0,0,0,0,0,0,0,0,0],"sum_hessian":[1.6403E4,2.04E2,1.6199E4,1.3E2,7.4E1,1.5961E4,2.38E2,1.28E2,2E0,4E1,3.4E1,1.5917E4,4.4E1,4.8E1,1.9E2,7.4E1,5.4E1,1.9E1,2.1E1,1.3E1,2.1E1,7.1E1,1.5846E4,3E1,1.4E1,1.9E1,2.9E1,1.36E2,5.4E1],"tree_param":{"num_deleted":"0","num_feature":"21","num_nodes":"29","size_leaf_vector":"0"}},{"base_weights":[-3.0559266E-1,-1.1976131E1,-1.9125901E-1,-1.5826625E1,-1.8223814E0,-3.0435145E-1,8.8540325E0,-1.892124E1,-9.625587E0,5.528366E-1,-3.8100972E0,-2.8823915E0,-2.3681715E-1,3.2541447E0,1.4029937E1,2.555108E-1,-1.9284874E1,-0E0,-9.780836E0,-1.250567E0,2.383266E0,-8.358152E0,-1.4856771E0,-8.40779E0,-8.0786276E-1,-2.73202E-1,3.3163397E0,7.68412E0,2.7032545E-1,1.24113E0,1.6253101E1],"categories":[],"categories_nodes":[],"categories_segments":[],"categories_sizes":[],"default_left":[0,0,1,0,1,0,1,1,1,1,1,0,1,0,1,0,0,0,0,0,0,0,0,0,0,0,0,0,0,0,0],"id":10,"left_children":[1,3,5,7,9,11,13,15,17,19,21,23,25,27,29,-1,-1,-1,-1,-1,-1,-1,-1,-1,-1,-1,-1,-1,-1,-1,-1],"loss_changes":[2.2002951E4,6.0230566E3,1.6735918E4,1.1534551E3,2.6288104E2,2.8001167E3,5.540169E3,6.148906E2,5.196289E1,1.0639174E2,1.9526935E2,4.631088E3,2.0301453E3,1.3245394E3,2.740123E3,0E0,0E0,0E0,0E0,0E0,0E0,0E0,0E0,0E0,0E0,0E0,0E0,0E0,0E0,0E0,0E0],"parents":[2147483647,0,0,1,1,2,2,3,3,4,4,5,5,6,6,7,7,8,8,9,9,10,10,11,11,12,12,13,13,14,14],"right_children":[2,4,6,8,10,12,14,16,18,20,22,24,26,28,30,-1,-1,-1,-1,-1,-1,-1,-1,-1,-1,-1,-1,-1,-1,-1,-1],"split_conditions":[-1.551E-2,-5.0835E-2,1.1398001E-2,-7.82015E-2,9.142033E1,-2.85285E-2,5.95585E-2,-2.7336572E2,8.7645996E2,-3.0924499E-2,1.1311282E3,-1.0945001E-3,5.8589997E-3,2.0382E-2,9.57714E2,1.277554E-2,-9.642437E-1,-0E0,-4.890418E-1,-6.252835E-2,1.191633E-1,-4.1790763E-1,-7.428386E-2,-4.203895E-1,-4.039314E-2,-1.36601E-2,1.6581699E-1,3.8420603E-1,1.3516272E-2,6.20565E-2,8.126551E-1],"split_indices":[5,11,5,11,19,11,11,9,14,11,14,5,5,15,14,0,0,0,0,0,0,0,0,0,0,0,0,0,0,0,0],"split_type":[0,0,0,0,0,0,0,0,0,0,0,0,0,0,0,0,0,0,0,0,0,0,0,0,0,0,0,0,0,0,0],"sum_hessian":[1.6539E4,1.55E2,1.6384E4,1.1E2,4.5E1,1.6187E4,1.97E2,6.6E1,4.4E1,2.1E1,2.4E1,4.06E2,1.5781E4,9.9E1,9.8E1,1E0,6.5E1,1E0,4.3E1,1E1,1.1E1,3E0,2.1E1,1.06E2,3E2,1.5627E4,1.54E2,3.6E1,6.3E1,1.6E1,8.2E1],"tree_param":{"num_deleted":"0","num_feature":"21","num_nodes":"31","size_leaf_vector":"0"}},{"base_weights":[-2.9415283E-1,-1.1965326E1,-1.4216956E-1,-1.5899188E1,-4.9280195E0,-2.795946E-1,9.041512E0,-2.076025E1,-1.1608281E1,-2.4286091E0,-1.0702869E1,-3.1040922E-1,1.8471733E0,3.7626784E0,1.2147365E1,1.4101855E0,-2.2271063E1,-1.2177917E1,-1.9415785E0,-1.0081367E1,-8.674322E-1,1.1988674E0,-1.1743601E1,-4.5071635E0,-2.8285146E-1,6.860649E-1,5.8693337E0,8.454764E0,1.5420688E0,5.7666354E0,1.50876045E1],"categories":[],"categories_nodes":[],"categories_segments":[],"categories_sizes":[],"default_left":[1,0,1,0,0,1,0,1,1,0,1,1,1,0,1,0,0,0,0,0,0,0,0,0,0,0,0,0,0,0,0],"id":11,"left_children":[1,3,5,7,9,11,13,15,17,19,21,23,25,27,29,-1,-1,-1,-1,-1,-1,-1,-1,-1,-1,-1,-1,-1,-1,-1,-1],"loss_changes":[2.8975531E4,5.317703E3,2.0375203E4,1.3865078E3,1.00237585E3,1.039557E3,3.5939941E3,2.1035781E3,2.6271387E2,6.7810657E2,4.080083E2,1.7871635E3,1.00254645E3,8.850786E2,2.2185547E3,0E0,0E0,0E0,0E0,0E0,0E0,0E0,0E0,0E0,0E0,0E0,0E0,0E0,0E0,0E0,0E0],"parents":[2147483647,0,0,1,1,2,2,3,3,4,4,5,5,6,6,7,7,8,8,9,9,10,10,11,11,12,12,13,13,14,14],"right_children":[2,4,6,8,10,12,14,16,18,20,22,24,26,28,30,-1,-1,-1,-1,-1,-1,-1,-1,-1,-1,-1,-1,-1,-1,-1,-1],"split_conditions":[-6.036943E1,-7.5244997E-3,5.1270226E1,-9.513301E-2,-9.72955E-2,5.857E-3,5.7575E-3,3.0447136E3,-6.743608E1,-9.944935E-1,-1.3003952E2,-2.773497E1,2.5647499E-2,-3.5795001E-3,9.0760376E1,7.050928E-2,-1.1135532E0,-6.0889584E-1,-9.707893E-2,-5.040683E-1,-4.337161E-2,5.9943374E-2,-5.871801E-1,-2.2535817E-1,-1.4142573E-2,3.4303244E-2,2.934667E-1,4.2273822E-1,7.710344E-2,2.8833178E-1,7.543802E-1],"split_indices":[13,5,13,11,11,5,5,16,13,8,9,13,11,15,13,0,0,0,0,0,0,0,0,0,0,0,0,0,0,0,0],"split_type":[0,0,0,0,0,0,0,0,0,0,0,0,0,0,0,0,0,0,0,0,0,0,0,0,0,0,0,0,0,0,0],"sum_hessian":[1.6369E4,2.05E2,1.6164E4,1.27E2,7.8E1,1.5931E4,2.33E2,5E1,7.7E1,6E1,1.8E1,1.571E4,2.21E2,9.1E1,1.42E2,3E0,4.7E1,7.1E1,6E0,5E0,5.5E1,1E0,1.7E1,9.6E1,1.5614E4,1.77E2,4.4E1,2.4E1,6.7E1,5E1,9.2E1],"tree_param":{"num_deleted":"0","num_feature":"21","num_nodes":"31","size_leaf_vector":"0"}},{"base_weights":[-2.6878446E-1,-1.2008538E1,-1.2009126E-1,-1.539691E1,-3.9763105E0,-2.7837303E-1,7.0711637E0,7.549722E-1,-1.580864E1,-1.7698103E0,-9.336086E0,-3.904573E0,-2.5569487E-1,1.1431843E1,5.219936E0,-1.8179554E1,-9.127322E0,-3.510675E0,3.5721543E-1,-1.0104136E1,-0E0,1.3348687E0,-5.3305182E0,4.0565615E0,-2.6550648E-1,6.4863462E0,1.6534624E1,3.8699524E0,1.2755953E1],"categories":[],"categories_nodes":[],"categories_segments":[],"categories_sizes":[],"default_left":[1,0,1,1,0,1,1,0,0,1,1,1,1,0,1,0,0,0,0,0,0,0,0,0,0,0,0,0,0],"id":12,"left_children":[1,3,5,7,9,11,13,-1,15,17,19,21,23,25,27,-1,-1,-1,-1,-1,-1,-1,-1,-1,-1,-1,-1,-1,-1],"loss_changes":[2.8609219E4,5.176334E3,1.8447309E4,1.0792773E3,6.660465E2,1.2804349E3,2.4357148E3,0E0,1.2356836E3,2.2569514E2,1.6666577E2,7.802583E2,6.545919E2,1.8469912E3,2.2642876E3,0E0,0E0,0E0,0E0,0E0,0E0,0E0,0E0,0E0,0E0,0E0,0E0,0E0,0E0],"parents":[2147483647,0,0,1,1,2,2,3,3,4,4,5,5,6,6,8,8,9,9,10,10,11,11,12,12,13,13,14,14],"right_children":[2,4,6,8,10,12,14,-1,16,18,20,22,24,26,28,-1,-1,-1,-1,-1,-1,-1,-1,-1,-1,-1,-1,-1,-1],"split_conditions":[-5.8215073E1,-2.662E-3,2.9606394E1,7.186942E1,-8.89725E-2,-2.9981216E1,-7.4831796E-1,3.7748612E-2,-7.1386E-2,1.6719921E0,1.3220947E3,7.8866066E1,-2.357232E0,9.681749E-2,9E-1,-9.089777E-1,-4.5636612E-1,-1.7553376E-1,1.7860772E-2,-5.052068E-1,-0E0,6.674343E-2,-2.6652592E-1,2.0282808E-1,-1.3275324E-2,3.243173E-1,8.267312E-1,1.9349763E-1,6.3779765E-1],"split_indices":[13,15,13,19,11,13,12,0,11,3,6,19,12,11,12,0,0,0,0,0,0,0,0,0,0,0,0,0,0],"split_type":[0,0,0,0,0,0,0,0,0,0,0,0,0,0,0,0,0,0,0,0,0,0,0,0,0,0,0,0,0],"sum_hessian":[1.6423E4,2E2,1.6223E4,1.37E2,6.3E1,1.5879E4,3.44E2,3E0,1.34E2,5E1,1.3E1,9.2E1,1.5787E4,9.4E1,2.5E2,9.2E1,4.2E1,2.7E1,2.3E1,1.2E1,1E0,1.9E1,7.3E1,3E1,1.5757E4,5.4E1,4E1,2.19E2,3.1E1],"tree_param":{"num_deleted":"0","num_feature":"21","num_nodes":"29","size_leaf_vector":"0"}},{"base_weights":[-2.942933E-1,-1.0543526E1,-1.3553733E-1,-1.672487E1,-6.8747697E0,-2.3251149E-1,7.499932E0,-1.6959879E1,-0E0,-3.748293E0,-1.151021E1,-2.6879108E-1,1.5976722E0,1.2504538E0,1.0358125E1,-2.056005E1,-1.0991525E1,-5.7376623E0,2.7673465E-1,-0E0,-1.1963415E1,-2.8882104E-1,2.2255082E0,1.2144321E1,8.255297E-1,-6.910569E-2,3.3735778E0,7.056426E0,1.4488225E1],"categories":[],"categories_nodes":[],"categories_segments":[],"categories_sizes":[],"default_left":[1,0,1,0,1,1,1,1,0,1,1,1,1,1,1,0,0,0,0,0,0,0,0,0,0,0,0,0,0],"id":13,"left_children":[1,3,5,7,9,11,13,15,-1,17,19,21,23,25,27,-1,-1,-1,-1,-1,-1,-1,-1,-1,-1,-1,-1,-1,-1],"loss_changes":[2.6346104E4,4.9085312E3,1.1809848E4,4.0898438E2,2.084776E3,1.0440652E3,3.4496377E3,5.8168945E2,0E0,8.8401404E2,3.839707E2,7.675216E2,2.368796E3,2.1099762E2,1.2356455E3,0E0,0E0,0E0,0E0,0E0,0E0,0E0,0E0,0E0,0E0,0E0,0E0,0E0,0E0],"parents":[2147483647,0,0,1,1,2,2,3,3,4,4,5,5,6,6,7,7,9,9,10,10,11,11,12,12,13,13,14,14],"right_children":[2,4,6,8,10,12,14,16,-1,18,20,22,24,26,28,-1,-1,-1,-1,-1,-1,-1,-1,-1,-1,-1,-1,-1,-1],"split_conditions":[-4.7313705E1,-2.37695E-2,1.10174995E-2,1.48725E-2,1.163929E3,1.3374894E1,8.862E-3,-1.2090048E2,-0E0,-9.2121196E-1,1.0345631E3,3.2319393E1,-5.811548E1,2.0737955E1,1.0369701E2,-1.0280025E0,-5.495762E-1,-2.8688312E-1,1.3836733E-2,-0E0,-5.9817076E-1,-1.4441052E-2,1.1127541E-1,6.0721606E-1,4.1276485E-2,-3.4552848E-3,1.686789E-1,3.5282132E-1,7.2441125E-1],"split_indices":[13,5,5,20,17,2,20,13,0,7,14,13,1,13,13,0,0,0,0,0,0,0,0,0,0,0,0,0,0],"split_type":[0,0,0,0,0,0,0,0,0,0,0,0,0,0,0,0,0,0,0,0,0,0,0,0,0,0,0,0,0],"sum_hessian":[1.6224E4,2.42E2,1.5982E4,8.3E1,1.59E2,1.5787E4,1.95E2,8.2E1,1E0,1.01E2,5.8E1,1.5487E4,3E2,6.4E1,1.31E2,4.3E1,3.9E1,6.7E1,3.4E1,2E0,5.6E1,1.537E4,1.17E2,1.5E1,2.85E2,4.1E1,2.3E1,8.1E1,5E1],"tree_param":{"num_deleted":"0","num_feature":"21","num_nodes":"29","size_leaf_vector":"0"}},{"base_weights":[-2.4583589E-1,-9.775819E0,-1.0858288E-1,-1.19374695E1,-2.3410249E0,-2.0655894E-1,2.8236487E0,-4.531049E0,-1.3193381E1,-0E0,-7.146199E0,-2.2137661E-1,2.6994646E0,7.2411017E0,1.140324E0,1.5237774E0,-5.7589884E0,-1.655311E1,-8.3813715E0,4.9402228E-1,-1.9645051E0,-0E0,-8.964833E0,-2.471836E-1,8.40329E0,-3.6496767E-1,1.1342202E1,3.1360474E0,1.5630215E1,-1.873467E-1,3.8420463E0],"categories":[],"categories_nodes":[],"categories_segments":[],"categories_sizes":[],"default_left":[1,0,1,1,1,1,0,0,0,1,1,1,0,1,0,0,0,0,0,0,0,0,0,0,0,0,0,0,0,0,0],"id":14,"left_children":[1,3,5,7,9,11,13,15,17,19,21,23,25,27,29,-1,-1,-1,-1,-1,-1,-1,-1,-1,-1,-1,-1,-1,-1,-1,-1],"loss_changes":[2.1371928E4,3.5174492E3,4.6306895E3,1.2682012E3,6.469516E2,6.6397766E2,3.7909663E3,3.178418E2,1.5905273E3,5.1970345E1,2.3522852E2,3.4340122E3,2.1414204E3,4.5512456E3,1.3992794E3,0E0,0E0,0E0,0E0,0E0,0E0,0E0,0E0,0E0,0E0,0E0,0E0,0E0,0E0,0E0,0E0],"parents":[2147483647,0,0,1,1,2,2,3,3,4,4,5,5,6,6,7,7,8,8,9,9,10,10,11,11,12,12,13,13,14,14],"right_children":[2,4,6,8,10,12,14,16,18,20,22,24,26,28,30,-1,-1,-1,-1,-1,-1,-1,-1,-1,-1,-1,-1,-1,-1,-1,-1],"split_conditions":[-5.0530502E1,-1.4315E-3,2.7752338E1,3.102019E3,-6.701099E1,1.2125E1,-6.68561E-1,-1.258705E-1,-8.42985E-2,2.859989E3,3.1067815E3,3.1847837E1,1.60875E-2,9.9049E-2,4.59475E-2,7.618887E-2,-2.879494E-1,-8.276555E-1,-4.1906857E-1,2.4701115E-2,-9.822526E-2,-0E0,-4.4824168E-1,-1.23591805E-2,4.201645E-1,-1.8248385E-2,5.671101E-1,1.5680237E-1,7.815108E-1,-9.367335E-3,1.9210231E-1],"split_indices":[13,15,9,16,9,8,7,11,11,0,16,13,11,11,11,0,0,0,0,0,0,0,0,0,0,0,0,0,0,0,0],"split_type":[0,0,0,0,0,0,0,0,0,0,0,0,0,0,0,0,0,0,0,0,0,0,0,0,0,0,0,0,0,0,0],"sum_hessian":[1.6376E4,2.27E2,1.6149E4,1.73E2,5.4E1,1.5633E4,5.16E2,2.9E1,1.44E2,4E1,1.4E1,1.556E4,7.3E1,1.37E2,3.79E2,4E0,2.5E1,7.7E1,6.7E1,3.4E1,6E0,4E0,1E1,1.5519E4,4.1E1,5.7E1,1.6E1,9.7E1,4E1,2.56E2,1.23E2],"tree_param":{"num_deleted":"0","num_feature":"21","num_nodes":"31","size_leaf_vector":"0"}},{"base_weights":[-2.269752E-1,-7.755589E0,-1.0266926E-1,-1.0021641E1,-2.0816433E0,-2.2193328E-1,5.702397E0,-5.894363E0,-1.2877238E1,-3.9186625E0,2.436294E0,-5.141511E0,-2.1556942E-1,1.873142E-1,7.632061E0,5.994091E-1,-6.5709887E0,-1.6687252E1,-8.679256E0,-6.6080937E0,2.5246972E-1,4.285042E0,3.643761E-1,-1.0644287E1,2.6815394E-1,1.9313782E0,-2.3171185E-1,-9.0867877E-1,2.7839684E0,3.827161E0,1.2265868E1],"categories":[],"categories_nodes":[],"categories_segments":[],"categories_sizes":[],"default_left":[1,1,1,1,0,1,1,1,1,1,1,1,1,1,1,0,0,0,0,0,0,0,0,0,0,0,0,0,0,0,0],"id":15,"left_children":[1,3,5,7,9,11,13,15,17,19,21,23,25,27,29,-1,-1,-1,-1,-1,-1,-1,-1,-1,-1,-1,-1,-1,-1,-1,-1],"loss_changes":[1.5151212E4,3.2166855E3,1.1041062E4,1.718793E3,7.357089E2,4.5801074E2,3.36992E3,4.2742285E2,8.2841016E2,7.2441626E2,6.853787E1,6.317475E2,5.360514E2,2.753115E2,3.8634053E3,0E0,0E0,0E0,0E0,0E0,0E0,0E0,0E0,0E0,0E0,0E0,0E0,0E0,0E0,0E0,0E0],"parents":[2147483647,0,0,1,1,2,2,3,3,4,4,5,5,6,6,7,7,8,8,9,9,10,10,11,11,12,12,13,13,14,14],"right_children":[2,4,6,8,10,12,14,16,18,20,22,24,26,28,30,-1,-1,-1,-1,-1,-1,-1,-1,-1,-1,-1,-1,-1,-1,-1,-1],"split_conditions":[-3.392041E1,-9.869945E0,2.9467388E1,9.465763E1,-9.178E-3,-8.4928764E1,9.5849335E2,7.118589E1,-1.1566576E2,-8.1944454E-1,-2.5569997E0,1.3259402E3,-7.2083354E-1,8.762167E2,7.7374344E1,2.9970456E-2,-3.2854944E-1,-8.343626E-1,-4.3396282E-1,-3.304047E-1,1.2623486E-2,2.142521E-1,1.8218806E-2,-5.3221434E-1,1.3407697E-2,9.656891E-2,-1.1585592E-2,-4.543394E-2,1.3919842E-1,1.9135806E-1,6.132934E-1],"split_indices":[13,2,13,19,20,2,14,19,13,8,1,14,12,14,13,0,0,0,0,0,0,0,0,0,0,0,0,0,0,0,0],"split_type":[0,0,0,0,0,0,0,0,0,0,0,0,0,0,0,0,0,0,0,0,0,0,0,0,0,0,0,0,0,0,0],"sum_hessian":[1.6231E4,2.58E2,1.5973E4,1.81E2,7.7E1,1.5657E4,3.16E2,8.1E1,1E2,5.6E1,2.1E1,1.4E1,1.5643E4,8.4E1,2.32E2,7E0,7.4E1,4.4E1,5.6E1,3.3E1,2.3E1,7E0,1.4E1,5E0,9E0,1.1E2,1.5533E4,6E1,2.4E1,1.33E2,9.9E1],"tree_param":{"num_deleted":"0","num_feature":"21","num_nodes":"31","size_leaf_vector":"0"}},{"base_weights":[-2.1580435E-1,-1.2681188E1,-1.3584371E-1,-1.7260675E1,-7.474984E0,-2.2232246E-1,7.018729E0,3.8897905E-1,-1.7752567E1,-0E0,-8.560518E0,6.1429667E0,-2.3484033E-1,9.490296E-1,1.0366583E1,2.9390392E-1,-9.248701E0,-0E0,9.742751E0,-3.5811074E0,-1.9550262E-1,-3.8048215E-2,6.5637083E0,7.2383213E0,1.3658929E1],"categories":[],"categories_nodes":[],"categories_segments":[],"categories_sizes":[],"default_left":[0,1,1,1,0,1,1,0,0,0,1,1,0,1,0,0,0,0,0,0,0,0,0,0,0],"id":16,"left_children":[1,3,5,7,9,11,13,-1,-1,-1,15,17,19,21,23,-1,-1,-1,-1,-1,-1,-1,-1,-1,-1],"loss_changes":[1.6261878E4,1.710748E3,1.0052127E4,5.641123E2,4.9663354E2,1.260519E3,3.8364004E3,0E0,0E0,0E0,3.691316E2,7.286068E2,2.0935088E3,4.4953635E2,6.78291E2,0E0,0E0,0E0,0E0,0E0,0E0,0E0,0E0,0E0,0E0],"parents":[2147483647,0,0,1,1,2,2,3,3,4,4,5,5,6,6,10,10,11,11,12,12,13,13,14,14],"right_children":[2,4,6,8,10,12,14,-1,-1,-1,16,18,20,22,24,-1,-1,-1,-1,-1,-1,-1,-1,-1,-1],"split_conditions":[-2.39675E-2,-8.7711E-2,3.858554E1,-3.073424E2,-7.3376E-2,-5.5375004E0,1.5075E-2,1.9448953E-2,-8.876284E-1,-0E0,8.9773476E1,2.716968E0,-7.7615E-3,3.25E-1,2.914E-2,1.4695196E-2,-4.6243507E-1,-0E0,4.8713756E-1,-1.7905538E-1,-9.775131E-3,-1.9024108E-3,3.281854E-1,3.6191607E-1,6.8294644E-1],"split_indices":[5,11,2,9,15,12,20,0,0,0,19,9,5,12,5,0,0,0,0,0,0,0,0,0,0],"split_type":[0,0,0,0,0,0,0,0,0,0,0,0,0,0,0,0,0,0,0,0,0,0,0,0,0],"sum_hessian":[1.6383E4,9.9E1,1.6284E4,4.6E1,5.3E1,1.6095E4,1.89E2,1E0,4.5E1,7E0,4.6E1,2.6E1,1.6069E4,7E1,1.19E2,3E0,4.3E1,1.1E1,1.5E1,1.8E2,1.5889E4,6.3E1,7E0,7E1,4.9E1],"tree_param":{"num_deleted":"0","num_feature":"21","num_nodes":"25","size_leaf_vector":"0"}},{"base_weights":[-2.0160365E-1,-9.67869E0,-8.785858E-2,-1.6491672E0,-1.183865E1,-1.8852714E-1,8.249552E0,-3.8744993E0,8.840248E-1,-1.3046735E1,-2.569804E0,-2.2340614E-1,2.3805628E0,1.0887131E1,-6.3814765E-1,-6.801751E-1,-8.464763E0,-0E0,9.9130774E-1,-1.6922062E1,-9.264648E0,-6.1141057E0,8.005051E-1,-3.485406E0,-2.007868E-1,4.9248047E0,-0E0,-0E0,1.241656E1,-3.00093E0,3.8556368E0],"categories":[],"categories_nodes":[],"categories_segments":[],"categories_sizes":[],"default_left":[1,1,1,1,0,1,1,1,1,1,1,1,1,1,1,0,0,0,0,0,0,0,0,0,0,0,0,0,0,0,0],"id":17,"left_children":[1,3,5,7,9,11,13,15,17,19,21,23,25,27,29,-1,-1,-1,-1,-1,-1,-1,-1,-1,-1,-1,-1,-1,-1,-1,-1],"loss_changes":[1.7449945E4,3.1648828E3,1.3438478E4,2.9702625E2,1.4339121E3,1.4134033E3,4.5634062E3,3.2138303E2,2.081709E0,1.00522656E3,3.3772928E2,1.1333842E3,1.3023773E3,2.4998418E3,5.63235E2,0E0,0E0,0E0,0E0,0E0,0E0,0E0,0E0,0E0,0E0,0E0,0E0,0E0,0E0,0E0,0E0],"parents":[2147483647,0,0,1,1,2,2,3,3,4,4,5,5,6,6,7,7,8,8,9,9,10,10,11,11,12,12,13,13,14,14],"right_children":[2,4,6,8,10,12,14,16,18,20,22,24,26,28,30,-1,-1,-1,-1,-1,-1,-1,-1,-1,-1,-1,-1,-1,-1,-1,-1],"split_conditions":[-6.513018E1,-2.8715588E2,6.807425E1,1.693013E0,-3.8645002E-3,2.1574379E1,2.703125E-1,2.8553833E3,2.9503135E3,-1.20227486E2,1.0780547E3,-3.000358E1,5.6293945E1,1.0351653E3,2.858511E3,-3.4008756E-2,-4.2323813E-1,-0E0,4.9565386E-2,-8.4610313E-1,-4.6323243E-1,-3.0570528E-1,4.0025257E-2,-1.742703E-1,-1.003934E-2,2.4624024E-1,-0E0,-0E0,6.2082803E-1,-1.5004651E-1,1.9278185E-1],"split_indices":[13,9,13,3,5,13,11,0,16,13,17,13,9,17,0,0,0,0,0,0,0,0,0,0,0,0,0,0,0,0,0],"split_type":[0,0,0,0,0,0,0,0,0,0,0,0,0,0,0,0,0,0,0,0,0,0,0,0,0,0,0,0,0,0,0],"sum_hessian":[1.6232E4,1.87E2,1.6045E4,4.2E1,1.45E2,1.5859E4,1.86E2,2.2E1,2E1,1.26E2,1.9E1,1.5653E4,2.06E2,1.43E2,4.3E1,1.7E1,5E0,3E0,1.7E1,5.3E1,7.3E1,8E0,1.1E1,1.01E2,1.5552E4,9.8E1,1.08E2,1.8E1,1.25E2,3E1,1.3E1],"tree_param":{"num_deleted":"0","num_feature":"21","num_nodes":"31","size_leaf_vector":"0"}},{"base_weights":[-2.0162554E-1,-1.0385043E1,-1.3384636E-1,-1.6243856E1,-6.2581472E0,-2.5396466E-1,2.8557334E0,3.774767E-1,-1.6831573E1,-7.913006E0,-7.949685E-1,-4.4630284E0,-2.1431552E-1,-1.970638E-1,6.0568156E0,1.3531548E0,-8.495662E0,-3.6431856E0,5.002314E-1,-6.7775273E0,3.6933556E-1,-2.0971839E-1,-6.753848E0,4.2801485E0,-5.918907E-1,3.0704548E0,1.0960339E1],"categories":[],"categories_nodes":[],"categories_segments":[],"categories_sizes":[],"default_left":[0,1,1,0,0,0,1,0,0,0,0,0,1,0,0,0,0,0,0,0,0,0,0,0,0,0,0],"id":18,"left_children":[1,3,5,7,9,11,13,-1,-1,15,17,19,21,23,25,-1,-1,-1,-1,-1,-1,-1,-1,-1,-1,-1,-1],"loss_changes":[1.1272548E4,1.9905078E3,5.8493877E3,5.1455273E2,5.7594385E2,2.5904363E3,6.182014E3,0E0,0E0,3.847373E2,1.096742E2,1.66631E3,4.2561072E2,5.7050354E2,4.271837E3,0E0,0E0,0E0,0E0,0E0,0E0,0E0,0E0,0E0,0E0,0E0,0E0],"parents":[2147483647,0,0,1,1,2,2,3,3,4,4,5,5,6,6,9,9,10,10,11,11,12,12,13,13,14,14],"right_children":[2,4,6,8,10,12,14,-1,-1,16,18,20,22,24,26,-1,-1,-1,-1,-1,-1,-1,-1,-1,-1,-1,-1],"split_conditions":[-2.39675E-2,-1.019175E-1,1.9224E-2,-9.28215E-2,-5.01765E-2,-8.66E-3,9.57714E2,1.8873835E-2,-8.4157866E-1,-1.00659505E-1,-4.5E-1,-2.0020999E-2,2.7629719E1,-7.220215E-1,6.9823E-2,6.765774E-2,-4.2478308E-1,-1.8215929E-1,2.501157E-2,-3.3887637E-1,1.8466778E-2,-1.048592E-2,-3.376924E-1,2.1400742E-1,-2.9594535E-2,1.5352274E-1,5.4801697E-1],"split_indices":[5,11,11,15,11,5,14,0,0,11,7,11,12,7,11,0,0,0,0,0,0,0,0,0,0,0,0],"split_type":[0,0,0,0,0,0,0,0,0,0,0,0,0,0,0,0,0,0,0,0,0,0,0,0,0,0,0],"sum_hessian":[1.6413E4,1.03E2,1.631E4,3.6E1,6.7E1,1.5686E4,6.24E2,1E0,3.5E1,4.9E1,1.8E1,1.4E2,1.5546E4,3.21E2,3.03E2,2E0,4.7E1,4E0,1.4E1,9.4E1,4.6E1,1.5541E4,5E0,2.1E1,3E2,1.94E2,1.09E2],"tree_param":{"num_deleted":"0","num_feature":"21","num_nodes":"27","size_leaf_vector":"0"}},{"base_weights":[-2.0519324E-1,-6.9896593E0,-1.01031885E-1,-1.2559495E1,-3.9155018E0,-1.9018348E-1,6.050654E0,7.9826254E-1,-1.3157844E1,-5.710362E0,-5.0265163E-1,-4.028873E0,-1.6945373E-1,9.375549E0,1.8837723E0,1.6164229E0,-0E0,-1.3401187E1,-1.9061799E0,-1.3924109E0,-7.703198E0,8.177565E-1,-2.9260395E0,-1.7925491E0,-8.2328615E0,-1.9130175E-1,1.6186079E0,-0E0,1.0495534E1,2.8458667E0,-2.1148996E0],"categories":[],"categories_nodes":[],"categories_segments":[],"categories_sizes":[],"default_left":[1,1,1,1,0,1,1,1,1,0,1,1,1,1,1,0,0,0,0,0,0,0,0,0,0,0,0,0,0,0,0],"id":19,"left_children":[1,3,5,7,9,11,13,15,17,19,21,23,25,27,29,-1,-1,-1,-1,-1,-1,-1,-1,-1,-1,-1,-1,-1,-1,-1,-1],"loss_changes":[1.1542073E4,3.9010117E3,8.831444E3,7.9368555E2,9.7755664E2,1.24251E3,3.041918E3,1.3191977E1,2.0254883E1,8.3022876E2,2.2729646E2,6.658082E2,6.132892E2,1.3721367E3,4.530823E2,0E0,0E0,0E0,0E0,0E0,0E0,0E0,0E0,0E0,0E0,0E0,0E0,0E0,0E0,0E0,0E0],"parents":[2147483647,0,0,1,1,2,2,3,3,4,4,5,5,6,6,7,7,8,8,9,9,10,10,11,11,12,12,13,13,14,14],"right_children":[2,4,6,8,10,12,14,16,18,20,22,24,26,28,30,-1,-1,-1,-1,-1,-1,-1,-1,-1,-1,-1,-1,-1,-1,-1,-1],"split_conditions":[-3.0074333E1,-9.8958725E1,5.2990738E1,-2.2331914E2,-2.0020999E-2,-5.5070274E1,1.6185748E2,2.719829E3,-3.5484146E1,-2.7888E-2,2.580915E-1,-1.3544302E2,2.1176565E1,3.738123E0,1.3156968E3,8.082115E-2,-0E0,-6.700594E-1,-9.5309E-2,-6.962054E-2,-3.851599E-1,4.0887825E-2,-1.4630197E-1,-8.962746E-2,-4.116431E-1,-9.565088E-3,8.09304E-2,-0E0,5.247767E-1,1.4229333E-1,-1.0574498E-1],"split_indices":[2,13,13,9,11,13,9,0,2,15,9,9,2,2,9,0,0,0,0,0,0,0,0,0,0,0,0,0,0,0,0],"split_type":[0,0,0,0,0,0,0,0,0,0,0,0,0,0,0,0,0,0,0,0,0,0,0,0,0,0,0,0,0,0,0],"sum_hessian":[1.6383E4,2.42E2,1.6141E4,8E1,1.62E2,1.5916E4,2.25E2,3E0,7.7E1,1.03E2,5.9E1,7.9E1,1.5837E4,1.21E2,1.04E2,2E0,1E0,7.4E1,3E0,3.6E1,6.7E1,3.9E1,2E1,5.7E1,2.2E1,1.5653E4,1.84E2,1.3E1,1.08E2,8.6E1,1.8E1],"tree_param":{"num_deleted":"0","num_feature":"21","num_nodes":"31","size_leaf_vector":"0"}},{"base_weights":[-1.7616245E-1,-8.344306E0,-1.0562331E-1,-1.0881053E1,-1.0712162E0,-1.8744563E-1,7.1854067E0,-1.5883417E1,-7.954641E0,-3.5468996E0,1.7582457E0,-5.995572E0,-1.4210436E-1,1.0556585E1,9.7362924E-1,-9.01769E0,-9.041209E-1,-5.9441566E0,-0E0,2.4684296E0,-0E0,-8.225754E0,-2.0634255E0,-1.7596495E-1,2.284049E0,6.724392E-1,1.2425716E1,2.887219E0,-2.3525507E0],"categories":[],"categories_nodes":[],"categories_segments":[],"categories_sizes":[],"default_left":[1,1,1,1,1,1,1,0,1,1,1,0,1,1,1,0,0,0,0,0,0,0,0,0,0,0,0,0,0],"id":20,"left_children":[1,3,5,7,9,11,13,-1,15,17,19,21,23,25,27,-1,-1,-1,-1,-1,-1,-1,-1,-1,-1,-1,-1,-1,-1],"loss_changes":[9.352466E3,2.4465068E3,9.623635E3,7.4225195E2,3.343286E2,4.1799336E3,3.6393994E3,0E0,4.717539E2,2.1548254E2,2.9478897E1,9.423242E2,1.2966017E3,2.0173301E3,4.758161E2,0E0,0E0,0E0,0E0,0E0,0E0,0E0,0E0,0E0,0E0,0E0,0E0,0E0,0E0],"parents":[2147483647,0,0,1,1,2,2,3,3,4,4,5,5,6,6,8,8,9,9,10,10,11,11,12,12,13,13,14,14],"right_children":[2,4,6,8,10,12,14,-1,16,18,20,22,24,26,28,-1,-1,-1,-1,-1,-1,-1,-1,-1,-1,-1,-1,-1,-1],"split_conditions":[-5.8270763E1,-6.513018E1,7.7374344E1,-1.3901094E2,5.549707E0,-4.6765163E1,2.4294516E2,-7.9417086E-1,1.5956053E3,1.3320414E3,1.2181802E3,-1.3154999E-3,2.276064E1,1.0949614E3,-6.8541646E-1,-4.508845E-1,-4.5206048E-2,-2.9720783E-1,-0E0,1.2342148E-1,-0E0,-4.112877E-1,-1.0317128E-1,-8.798248E-3,1.14202455E-1,3.3621963E-2,6.2128586E-1,1.4436094E-1,-1.1762754E-1],"split_indices":[2,13,13,13,4,13,9,0,6,14,17,15,13,17,8,0,0,0,0,0,0,0,0,0,0,0,0,0,0],"split_type":[0,0,0,0,0,0,0,0,0,0,0,0,0,0,0,0,0,0,0,0,0,0,0,0,0,0,0,0,0],"sum_hessian":[1.6308E4,1.34E2,1.6174E4,9.7E1,3.7E1,1.6E4,1.74E2,2.7E1,7E1,2E1,1.7E1,1.18E2,1.5882E4,1.1E2,6.4E1,5.9E1,1.1E1,1E1,1E1,1.1E1,6E0,7.1E1,4.7E1,1.567E4,2.12E2,1.9E1,9.1E1,4.2E1,2.2E1],"tree_param":{"num_deleted":"0","num_feature":"21","num_nodes":"29","size_leaf_vector":"0"}},{"base_weights":[-1.8054858E-1,-6.513401E0,-8.1321865E-2,-8.810126E-2,-7.935574E0,-1.6435494E-1,5.3133163E0,1.221509E0,-1.7745551E0,-1.0420655E1,-4.5450315E0,2.22506E0,-1.8062404E-1,5.465508E-1,7.4491086E0,1.5275155E0,-0E0,-4.3703833E0,6.87455E-2,-1.1129691E1,-3.0126992E-1,-1.9519413E0,-5.9894753E0,4.604148E-1,3.426843E0,-1.7588308E-1,-7.0207887E0,-2.1621752E0,2.8424563E0,4.1780643E0,1.1782519E1],"categories":[],"categories_nodes":[],"categories_segments":[],"categories_sizes":[],"default_left":[1,1,1,1,1,1,1,1,1,1,1,1,1,1,1,0,0,0,0,0,0,0,0,0,0,0,0,0,0,0,0],"id":21,"left_children":[1,3,5,7,9,11,13,15,17,19,21,23,25,27,29,-1,-1,-1,-1,-1,-1,-1,-1,-1,-1,-1,-1,-1,-1,-1,-1],"loss_changes":[1.0181969E4,2.2408574E3,7.1522754E3,1.2624186E2,1.4072178E3,6.0513513E2,2.4034238E3,8.903469E0,1.474176E2,7.3685645E2,2.614126E2,1.9535046E2,4.6626147E2,5.3786816E2,2.0270703E3,0E0,0E0,0E0,0E0,0E0,0E0,0E0,0E0,0E0,0E0,0E0,0E0,0E0,0E0,0E0,0E0],"parents":[2147483647,0,0,1,1,2,2,3,3,4,4,5,5,6,6,7,7,8,8,9,9,10,10,11,11,12,12,13,13,14,14],"right_children":[2,4,6,8,10,12,14,16,18,20,22,24,26,28,30,-1,-1,-1,-1,-1,-1,-1,-1,-1,-1,-1,-1,-1,-1,-1,-1],"split_conditions":[-3.6000282E1,8.549907E2,4.5923714E1,2.3729117E2,-8.2738174E1,-9.25E-1,7.7664986E0,2.79871E3,3.2667705E3,3.2851045E3,3.1266519E3,-7.6201E-1,2.3125E1,3.213356E3,1.0372431E2,7.6375775E-2,-0E0,-2.1851917E-1,3.437275E-3,-5.564846E-1,-1.5063496E-2,-9.759706E-2,-2.9947376E-1,2.302074E-2,1.7134215E-1,-8.794154E-3,-3.5103944E-1,-1.0810876E-1,1.4212282E-1,2.0890322E-1,5.89126E-1],"split_indices":[13,17,13,6,13,12,2,0,16,16,16,13,12,16,13,0,0,0,0,0,0,0,0,0,0,0,0,0,0,0,0],"split_type":[0,0,0,0,0,0,0,0,0,0,0,0,0,0,0,0,0,0,0,0,0,0,0,0,0,0,0,0,0,0,0],"sum_hessian":[1.6255E4,2.45E2,1.601E4,4.6E1,1.99E2,1.5773E4,2.37E2,2.5E1,2.1E1,1.08E2,9.1E1,1E2,1.5673E4,7.6E1,1.61E2,1.8E1,7E0,7E0,1.4E1,1E2,8E0,3.8E1,5.3E1,4.5E1,5.5E1,1.5668E4,5E0,3.4E1,4.2E1,9.8E1,6.3E1],"tree_param":{"num_deleted":"0","num_feature":"21","num_nodes":"31","size_leaf_vector":"0"}},{"base_weights":[-1.6224019E-1,-7.131877E0,-6.926802E-2,-9.342023E-1,-8.973673E0,-1.5153253E-1,3.9561477E0,-8.283358E0,3.5625663E-1,1.265827E0,-9.369411E0,6.919795E0,-1.6261524E-1,1.8303014E0,8.916677E0,-9.606787E0,-0E0,1.858909E0,-4.5337144E-1,-0E0,1.6072432E0,-1.1362856E1,-5.9803042E0,-2.3146613E-1,1.162104E1,-2.8271759E0,-1.4413133E-1,5.361549E-1,4.638508E0,-0E0,9.802734E0],"categories":[],"categories_nodes":[],"categories_segments":[],"categories_sizes":[],"default_left":[1,0,1,0,1,1,1,1,0,1,1,1,1,1,1,0,0,0,0,0,0,0,0,0,0,0,0,0,0,0,0],"id":22,"left_children":[1,3,5,7,9,11,13,15,17,19,21,23,25,27,29,-1,-1,-1,-1,-1,-1,-1,-1,-1,-1,-1,-1,-1,-1,-1,-1],"loss_changes":[1.0483459E4,2.3399092E3,5.29229E3,5.759986E2,7.6031934E2,1.2034166E3,3.239168E3,1.2079675E2,7.328763E1,4.642666E0,6.409668E2,8.772733E2,7.561572E2,8.011991E2,6.9428564E2,0E0,0E0,0E0,0E0,0E0,0E0,0E0,0E0,0E0,0E0,0E0,0E0,0E0,0E0,0E0,0E0],"parents":[2147483647,0,0,1,1,2,2,3,3,4,4,5,5,6,6,7,7,8,8,9,9,10,10,11,11,12,12,13,13,14,14],"right_children":[2,4,6,8,10,12,14,16,18,20,22,24,26,28,30,-1,-1,-1,-1,-1,-1,-1,-1,-1,-1,-1,-1,-1,-1,-1,-1],"split_conditions":[-5.9083878E1,-2.24783E-1,6.8570003E-3,-7.33333E-1,7.113975E1,-7.0791664E0,9.0663574E1,3.1821525E0,-4.55E-4,3.3968475E0,-1.002593E2,4.8574498E-1,-2.5721943E1,2.041665E-1,1.0893867E3,-4.8033935E-1,-0E0,9.294545E-2,-2.2668572E-2,-0E0,8.036216E-2,-5.6814283E-1,-2.9901522E-1,-1.1573306E-2,5.81052E-1,-1.413588E-1,-7.2065666E-3,2.6807746E-2,2.319254E-1,-0E0,4.901367E-1],"split_indices":[13,11,5,7,19,12,13,3,5,3,13,13,13,18,17,0,0,0,0,0,0,0,0,0,0,0,0,0,0,0,0],"split_type":[0,0,0,0,0,0,0,0,0,0,0,0,0,0,0,0,0,0,0,0,0,0,0,0,0,0,0,0,0,0,0],"sum_hessian":[1.6233E4,2.08E2,1.6025E4,5E1,1.58E2,1.571E4,3.15E2,4E0,4.6E1,5E0,1.53E2,1.9E1,1.5691E4,2.26E2,8.9E1,3E0,1E0,1.6E1,3E1,2E0,3E0,8.8E1,6.5E1,9E0,1E1,1.01E2,1.559E4,1.6E2,6.6E1,9E0,8E1],"tree_param":{"num_deleted":"0","num_feature":"21","num_nodes":"31","size_leaf_vector":"0"}},{"base_weights":[-1.5193987E-1,-3.0197253E0,-5.8527496E-2,-7.3123255E0,-2.8259555E-1,-1.2604088E-1,5.6228595E0,-3.6788416E0,-9.396749E0,-0E0,-8.645457E0,-1.5044197E-1,2.042542E0,2.3305354E0,9.595409E0,-6.177225E0,-1.5473489E0,-1.2980832E1,-6.972051E0,-1.4394811E-1,5.84873E0,-4.5703454E0,-1.449526E-1,5.2934976E0,5.42435E-1,3.9438226E0,-1.206648E0,1.0337797E1,-1.6138514E0],"categories":[],"categories_nodes":[],"categories_segments":[],"categories_sizes":[],"default_left":[0,0,1,1,1,1,1,0,0,0,0,0,1,1,1,0,0,0,0,0,0,0,0,0,0,0,0,0,0],"id":23,"left_children":[1,3,5,7,9,11,13,15,17,19,-1,21,23,25,27,-1,-1,-1,-1,-1,-1,-1,-1,-1,-1,-1,-1,-1,-1],"loss_changes":[4.3808164E3,6.0143857E3,6.0759683E3,1.2765195E3,7.218042E2,8.24018E2,2.2612363E3,3.5025903E2,5.166289E2,2.4595992E2,0E0,3.5049054E2,8.001466E2,6.594877E2,8.094116E2,0E0,0E0,0E0,0E0,0E0,0E0,0E0,0E0,0E0,0E0,0E0,0E0,0E0,0E0],"parents":[2147483647,0,0,1,1,2,2,3,3,4,4,5,5,6,6,7,7,8,8,9,9,11,11,12,12,13,13,14,14],"right_children":[2,4,6,8,10,12,14,16,18,20,-1,22,24,26,28,-1,-1,-1,-1,-1,-1,-1,-1,-1,-1,-1,-1,-1,-1],"split_conditions":[-3.1804502E-2,-3.1015E-3,1.20385E-2,3.1271255E3,3.598009E0,5.8589997E-3,7.7462E-2,-2.38735E-2,-8.69745E-2,1.5575999E-2,-4.3227288E-1,-2.7310502E-2,2.2598545E1,1.22483765E2,2.0402231E2,-3.0886126E-1,-7.736745E-2,-6.490416E-1,-3.4860256E-1,-7.1974057E-3,2.924365E-1,-2.2851728E-1,-7.24763E-3,2.6467487E-1,2.712175E-2,1.9719113E-1,-6.03324E-2,5.1688987E-1,-8.0692574E-2],"split_indices":[11,5,5,16,3,5,11,5,11,5,0,5,1,1,1,0,0,0,0,0,0,0,0,0,0,0,0,0,0],"split_type":[0,0,0,0,0,0,0,0,0,0,0,0,0,0,0,0,0,0,0,0,0,0,0,0,0,0,0,0,0],"sum_hessian":[1.6409E4,5.11E2,1.5898E4,1.95E2,3.16E2,1.5717E4,1.81E2,7.7E1,1.18E2,3.11E2,5E0,1.5549E4,1.68E2,1.04E2,7.7E1,3E1,4.7E1,3.8E1,8E1,3.09E2,2E0,1.3E1,1.5536E4,4.8E1,1.2E2,7.2E1,3.2E1,7.3E1,4E0],"tree_param":{"num_deleted":"0","num_feature":"21","num_nodes":"29","size_leaf_vector":"0"}},{"base_weights":[-1.4351359E-1,-7.161141E0,-6.318652E-2,-9.366274E0,-1.7400101E0,-1.5442379E-1,4.2434473E0,-0E0,-9.764838E0,-6.721219E0,-4.716148E-1,-1.4820291E-1,-7.8694167E0,9.192611E0,2.5364249E0,-2.855255E0,2.1913478E0,-1.3328833E1,-7.5582767E0,-7.5798597E0,-0E0,-2.264926E0,9.5893127E-1,-1.0076929E0,-1.2161906E-1,-1.1252817E1,2.3029476E-1,1.5198283E0,1.11235485E1,-2.15868E-3,4.577479E0],"categories":[],"categories_nodes":[],"categories_segments":[],"categories_sizes":[],"default_left":[1,1,1,0,0,1,1,0,0,0,1,1,0,0,1,0,0,0,0,0,0,0,0,0,0,0,0,0,0,0,0],"id":24,"left_children":[1,3,5,7,9,11,13,15,17,19,21,23,25,27,29,-1,-1,-1,-1,-1,-1,-1,-1,-1,-1,-1,-1,-1,-1,-1,-1],"loss_changes":[9.164108E3,2.0625762E3,6.3270063E3,5.0686133E2,3.2727527E2,7.1320166E2,2.646517E3,9.2132935E1,3.670078E2,7.7620056E1,1.5592188E2,3.5497632E2,3.9692493E2,1.0819536E3,1.3493608E3,0E0,0E0,0E0,0E0,0E0,0E0,0E0,0E0,0E0,0E0,0E0,0E0,0E0,0E0,0E0,0E0],"parents":[2147483647,0,0,1,1,2,2,3,3,4,4,5,5,6,6,7,7,8,8,9,9,10,10,11,11,12,12,13,13,14,14],"right_children":[2,4,6,8,10,12,14,16,18,20,22,24,26,28,30,-1,-1,-1,-1,-1,-1,-1,-1,-1,-1,-1,-1,-1,-1,-1,-1],"split_conditions":[-6.8612686E1,-1.4324104E1,3.1420895E1,-4.42182E-1,-7.2569454E-1,2.7204166E1,-2.4244488E1,-8.76442E-1,-1.019175E-1,-2.0692E-2,8.8577614E1,-1.0839095E1,6.764265E3,5.609335E-1,2.3392666E1,-1.4276275E-1,1.095674E-1,-6.664416E-1,-3.7791383E-1,-3.78993E-1,-0E0,-1.132463E-1,4.7946565E-2,-5.038465E-2,-6.080953E-3,-5.6264085E-1,1.1514738E-2,7.5991414E-2,5.5617744E-1,-1.07934E-4,2.2887395E-1],"split_indices":[13,2,13,11,8,12,1,11,11,20,19,2,8,8,2,0,0,0,0,0,0,0,0,0,0,0,0,0,0,0,0],"split_type":[0,0,0,0,0,0,0,0,0,0,0,0,0,0,0,0,0,0,0,0,0,0,0,0,0,0,0,0,0,0,0],"sum_hessian":[1.632E4,1.79E2,1.6141E4,1.24E2,5.5E1,1.5812E4,3.29E2,5E0,1.19E2,6E0,4.9E1,1.5805E4,7E0,7.8E1,2.51E2,1E0,4E0,3.5E1,8.4E1,5E0,1E0,2.2E1,2.7E1,4.63E2,1.5342E4,4E0,3E0,1.8E1,6E1,1.13E2,1.38E2],"tree_param":{"num_deleted":"0","num_feature":"21","num_nodes":"31","size_leaf_vector":"0"}},{"base_weights":[-1.3010128E-1,-6.437731E0,-5.2637365E-2,-8.365967E0,-2.0910795E0,-1.18038364E-1,6.055267E0,-1.2464474E1,-6.2369757E0,-9.726696E0,-4.8709285E-1,-1.4449203E-1,1.7282969E0,9.468368E0,-0E0,1.2021081E0,-1.3473518E1,-2.982197E0,-7.9381332E0,-1.0885884E1,-0E0,1.2782288E0,-2.6198707E0,-2.269537E0,-1.324488E-1,4.9969907E0,-2.0372918E-1,5.720221E0,1.2930738E1,2.0113628E0,-2.1447363E0],"categories":[],"categories_nodes":[],"categories_segments":[],"categories_sizes":[],"default_left":[1,0,1,1,0,1,0,1,1,1,1,1,1,1,1,0,0,0,0,0,0,0,0,0,0,0,0,0,0,0,0],"id":25,"left_children":[1,3,5,7,9,11,13,15,17,19,21,23,25,27,29,-1,-1,-1,-1,-1,-1,-1,-1,-1,-1,-1,-1,-1,-1,-1,-1],"loss_changes":[7.9331875E3,1.511375E3,6.4108354E3,6.870322E2,7.5806714E2,7.723159E2,3.5385845E3,6.9394775E2,3.7518506E2,1.4432983E2,2.5688458E2,3.8908075E2,1.4373464E3,9.5145605E2,3.0663715E2,0E0,0E0,0E0,0E0,0E0,0E0,0E0,0E0,0E0,0E0,0E0,0E0,0E0,0E0,0E0,0E0],"parents":[2147483647,0,0,1,1,2,2,3,3,4,4,5,5,6,6,7,7,8,8,9,9,10,10,11,11,12,12,13,13,14,14],"right_children":[2,4,6,8,10,12,14,16,18,20,22,24,26,28,30,-1,-1,-1,-1,-1,-1,-1,-1,-1,-1,-1,-1,-1,-1,-1,-1],"split_conditions":[-5.9140923E1,-6.01E-3,7.5825226E1,-1.3901094E2,-8.1944454E-1,2.1765461E1,1.9275E-1,-1.3589571E4,-1.3174405E2,6.689291E0,5.473054E0,-3.3878105E1,4.5060028E1,4.375E-1,8.9636E-2,6.010541E-2,-6.7367595E-1,-1.4910986E-1,-3.9690667E-1,-5.4429424E-1,-0E0,6.391144E-2,-1.3099353E-1,-1.1347685E-1,-6.6224406E-3,2.4984954E-1,-1.0186459E-2,2.8601107E-1,6.4653695E-1,1.0056814E-1,-1.0723682E-1],"split_indices":[13,5,13,13,8,13,11,9,9,4,4,13,9,18,18,0,0,0,0,0,0,0,0,0,0,0,0,0,0,0,0],"split_type":[0,0,0,0,0,0,0,0,0,0,0,0,0,0,0,0,0,0,0,0,0,0,0,0,0,0,0,0,0,0,0],"sum_hessian":[1.6301E4,1.92E2,1.6109E4,1.29E2,6.3E1,1.5944E4,1.65E2,3.5E1,9.4E1,6E0,5.7E1,1.5726E4,2.18E2,1.04E2,6.1E1,2E0,3.3E1,3.8E1,5.6E1,5E0,1E0,3.1E1,2.6E1,8.1E1,1.5645E4,7.9E1,1.39E2,5.7E1,4.7E1,3.1E1,3E1],"tree_param":{"num_deleted":"0","num_feature":"21","num_nodes":"31","size_leaf_vector":"0"}},{"base_weights":[-1.3032609E-1,-2.6532118E0,-4.694862E-2,-3.2567465E-1,-6.332492E0,5.262311E0,-8.521242E-2,-0E0,-2.8278577E0,1.1896282E0,-6.6215687E0,7.671171E-2,6.2638464E0,1.3369592E0,-1.2238368E-1,-1.463714E-1,5.1766853E0,-4.5488453E0,-0E0,-6.446521E-1,2.905391E0,-8.068656E0,-3.6621933E0,-2.4647703E0,1.8863086E0,2.4655967E0,9.767972E0,3.5505164E-1,7.177554E0,1.3415179E0,-1.3797025E-1],"categories":[],"categories_nodes":[],"categories_segments":[],"categories_sizes":[],"default_left":[0,1,1,1,1,1,1,0,1,0,0,1,0,1,1,0,0,0,0,0,0,0,0,0,0,0,0,0,0,0,0],"id":26,"left_children":[1,3,5,7,9,11,13,15,17,19,21,23,25,27,29,-1,-1,-1,-1,-1,-1,-1,-1,-1,-1,-1,-1,-1,-1,-1,-1],"loss_changes":[3.4116663E3,4.400938E3,3.1804763E3,2.615161E2,5.0143896E2,5.475737E2,8.228585E2,2.2057628E2,2.0072702E2,5.528761E1,6.2440137E2,1.3073166E2,1.0562004E3,2.2206245E3,3.4341766E2,0E0,0E0,0E0,0E0,0E0,0E0,0E0,0E0,0E0,0E0,0E0,0E0,0E0,0E0,0E0,0E0],"parents":[2147483647,0,0,1,1,2,2,3,3,4,4,5,5,6,6,7,7,8,8,9,9,10,10,11,11,12,12,13,13,14,14],"right_children":[2,4,6,8,10,12,14,16,18,20,22,24,26,28,30,-1,-1,-1,-1,-1,-1,-1,-1,-1,-1,-1,-1,-1,-1,-1,-1],"split_conditions":[-3.20015E-2,1.0036166E3,-1.9546565E0,3.2665562E3,7.923319E1,-1.290615E-1,-4.3489418E1,8.8085E-3,3.2945125E3,-1.01325E-2,-5.7706E-2,-2.4749985E1,8.802E-2,1.9259E-2,-4.4166648E-1,-7.31857E-3,2.5883427E-1,-2.2744226E-1,-0E0,-3.223261E-2,1.4526956E-1,-4.0343282E-1,-1.8310967E-1,-1.2323852E-1,9.431543E-2,1.2327983E-1,4.883986E-1,1.7752582E-2,3.5887772E-1,6.70759E-2,-6.8985126E-3],"split_indices":[11,17,12,16,19,9,1,15,16,15,11,1,11,11,12,0,0,0,0,0,0,0,0,0,0,0,0,0,0,0,0],"split_type":[0,0,0,0,0,0,0,0,0,0,0,0,0,0,0,0,0,0,0,0,0,0,0,0,0,0,0,0,0,0,0],"sum_hessian":[1.6281E4,5.14E2,1.5767E4,3.19E2,1.95E2,1.07E2,1.566E4,2.87E2,3.2E1,6E0,1.89E2,1.9E1,8.8E1,3.91E2,1.5269E4,2.84E2,3E0,1.9E1,1.3E1,3E0,3E0,1.2E2,6.9E1,6E0,1.3E1,4.7E1,4.1E1,3.4E2,5.1E1,1.53E2,1.5116E4],"tree_param":{"num_deleted":"0","num_feature":"21","num_nodes":"31","size_leaf_vector":"0"}},{"base_weights":[-1.1884083E-1,-5.2513175E0,-5.0161954E-2,-6.7660313E0,-1.5806175E0,-1.2360987E-1,3.4733927E0,-0E0,-7.5580063E0,-3.9652205E0,4.6766502E-1,6.4393806E0,-1.3139409E-1,1.6864793E0,7.825063E0,1.8362072E0,-1.7827362E0,-1.2105053E1,-5.7214108E0,1.19763836E-1,-7.484883E0,1.274595E0,-1.3759515E0,2.6737976E-1,8.997307E0,-2.4038618E0,-1.1840554E-1,5.1962624E0,1.973E-1,-0E0,9.125262E0],"categories":[],"categories_nodes":[],"categories_segments":[],"categories_sizes":[],"default_left":[1,0,1,1,1,1,1,0,0,1,1,1,1,0,1,0,0,0,0,0,0,0,0,0,0,0,0,0,0,0,0],"id":27,"left_children":[1,3,5,7,9,11,13,15,17,19,21,23,25,27,29,-1,-1,-1,-1,-1,-1,-1,-1,-1,-1,-1,-1,-1,-1,-1,-1],"loss_changes":[5.711814E3,1.0946475E3,4.145313E3,7.7632227E2,3.6866364E2,7.7742456E2,2.4292285E3,8.495396E1,6.7527295E2,5.301517E2,6.925658E1,2.2582349E2,4.5051865E2,1.2170864E3,9.6709424E2,0E0,0E0,0E0,0E0,0E0,0E0,0E0,0E0,0E0,0E0,0E0,0E0,0E0,0E0,0E0,0E0],"parents":[2147483647,0,0,1,1,2,2,3,3,4,4,5,5,6,6,7,7,8,8,9,9,10,10,11,11,12,12,13,13,14,14],"right_children":[2,4,6,8,10,12,14,16,18,20,22,24,26,28,30,-1,-1,-1,-1,-1,-1,-1,-1,-1,-1,-1,-1,-1,-1,-1,-1],"split_conditions":[-5.0379013E1,-4.509E-3,6.848E-3,3.0891914E3,-7.33333E-1,-9.033333E0,8.442606E1,-8.2160994E-2,-1.03817E-1,3.2505332E3,-8.601541E1,1.1063285E0,-2.5764156E1,1.1518E-2,9.2603766E2,9.181036E-2,-8.913681E-2,-6.052527E-1,-2.8607056E-1,5.988192E-3,-3.7424415E-1,6.3729756E-2,-6.879758E-2,1.3368988E-2,4.4986534E-1,-1.2019309E-1,-5.9202774E-3,2.5981313E-1,9.865E-3,-0E0,4.5626312E-1],"split_indices":[13,5,5,16,7,12,13,11,11,16,9,13,13,15,14,0,0,0,0,0,0,0,0,0,0,0,0,0,0,0,0],"split_type":[0,0,0,0,0,0,0,0,0,0,0,0,0,0,0,0,0,0,0,0,0,0,0,0,0,0,0,0,0,0,0],"sum_hessian":[1.6278E4,2.09E2,1.6069E4,1.44E2,6.5E1,1.5747E4,3.22E2,1.6E1,1.28E2,2.9E1,3.6E1,1.3E1,1.5734E4,2.34E2,8.8E1,7E0,9E0,2.8E1,1E2,1.5E1,1.4E1,2.8E1,8E0,6E0,7E0,8.2E1,1.5652E4,6.5E1,1.69E2,1.3E1,7.5E1],"tree_param":{"num_deleted":"0","num_feature":"21","num_nodes":"31","size_leaf_vector":"0"}},{"base_weights":[-1.1726734E-1,-4.3783965E0,-5.6788497E-2,-1.0058943E1,-2.5462124E0,-9.588886E-2,5.966712E0,-1.114246E1,-1.2975681E0,-4.837645E-1,-4.37365E0,-1.2234144E-1,1.7214274E0,1.294655E0,8.634477E0,-1.1407767E1,-0E0,8.002118E-1,-2.9969456E0,-2.037478E0,1.4524106E0,-4.726138E0,-0E0,1.9849201E0,-1.3864303E-1,9.7769684E-1,7.600129E0,4.67651E0,-7.1652776E-1,-0E0,9.938782E0],"categories":[],"categories_nodes":[],"categories_segments":[],"categories_sizes":[],"default_left":[1,1,1,1,1,1,1,1,1,0,1,1,1,1,0,0,0,0,0,0,0,0,0,0,0,0,0,0,0,0,0],"id":28,"left_children":[1,3,5,7,9,11,13,15,17,19,21,23,25,27,29,-1,-1,-1,-1,-1,-1,-1,-1,-1,-1,-1,-1,-1,-1,-1,-1],"loss_changes":[4.1792856E3,2.1714858E3,3.7620981E3,3.6864307E2,6.397838E2,7.61644E2,1.1782478E3,1.4506934E2,6.575367E1,2.914734E2,1.6428528E2,5.3373364E2,9.124405E2,3.3582138E2,7.6017725E2,0E0,0E0,0E0,0E0,0E0,0E0,0E0,0E0,0E0,0E0,0E0,0E0,0E0,0E0,0E0,0E0],"parents":[2147483647,0,0,1,1,2,2,3,3,4,4,5,5,6,6,7,7,8,8,9,9,10,10,11,11,12,12,13,13,14,14],"right_children":[2,4,6,8,10,12,14,16,18,20,22,24,26,28,30,-1,-1,-1,-1,-1,-1,-1,-1,-1,-1,-1,-1,-1,-1,-1,-1],"split_conditions":[-3.0148003E1,-9.45295E-2,2.04705E-2,9.32E-4,9.282438E1,6.8420004E-3,1.0813397E3,5.5090797E1,-4.533335E-1,-2.00155E-2,3.2917266E3,-7.4831796E-1,1.6208329E0,-2.4583349E-1,2.63815E-2,-5.703884E-1,-0E0,4.001059E-2,-1.4984728E-1,-1.018739E-1,7.262053E-2,-2.363069E-1,-0E0,9.924601E-2,-6.9321515E-3,4.8884843E-2,3.8000646E-1,2.3382549E-1,-3.582639E-2,-0E0,4.969391E-1],"split_indices":[2,11,5,10,19,5,14,1,11,11,16,12,12,12,11,0,0,0,0,0,0,0,0,0,0,0,0,0,0,0,0],"split_type":[0,0,0,0,0,0,0,0,0,0,0,0,0,0,0,0,0,0,0,0,0,0,0,0,0,0,0,0,0,0,0],"sum_hessian":[1.6303E4,2.22E2,1.6081E4,4.8E1,1.74E2,1.5983E4,9.8E1,4.1E1,7E0,8.6E1,8.8E1,1.5761E4,2.22E2,3.9E1,5.9E1,4E1,1E0,3E0,4E0,4.9E1,3.7E1,8.2E1,6E0,1.14E2,1.5647E4,2.03E2,1.9E1,1.3E1,2.6E1,8E0,5.1E1],"tree_param":{"num_deleted":"0","num_feature":"21","num_nodes":"31","size_leaf_vector":"0"}},{"base_weights":[-1.3679923E-1,-5.9056883E0,-8.2226194E-2,-1.0810971E1,-3.8742654E0,-1.3562033E-1,4.918309E0,8.767581E-1,-1.1337759E1,-5.376425E0,-3.4880033E-1,-2.8595114E0,-1.0045878E-1,1.08739395E1,2.8150911E0,-1.4015691E0,-6.3367405E0,-2.2315965E0,2.1553836E0,-4.2761855E0,-4.6461108E-1,-1.2043969E-1,1.2827157E0,-0E0,1.2444833E1,5.0650394E-1,7.162272E0],"categories":[],"categories_nodes":[],"categories_segments":[],"categories_sizes":[],"default_left":[1,1,1,1,1,1,1,0,0,0,1,1,1,1,1,0,0,0,0,0,0,0,0,0,0,0,0],"id":29,"left_children":[1,3,5,7,9,11,13,-1,-1,15,17,19,21,23,25,-1,-1,-1,-1,-1,-1,-1,-1,-1,-1,-1,-1],"loss_changes":[5.1052744E3,1.2317861E3,4.2973335E3,3.5444238E2,5.763114E2,1.5168538E3,1.9079175E3,0E0,0E0,2.2227075E2,2.1774036E2,6.517063E2,4.3190353E2,7.641455E2,1.278285E3,0E0,0E0,0E0,0E0,0E0,0E0,0E0,0E0,0E0,0E0,0E0,0E0],"parents":[2147483647,0,0,1,1,2,2,3,3,4,4,5,5,6,6,9,9,10,10,11,11,12,12,13,13,14,14],"right_children":[2,4,6,8,10,12,14,-1,-1,16,18,20,22,24,26,-1,-1,-1,-1,-1,-1,-1,-1,-1,-1,-1,-1],"split_conditions":[-5.8407246E1,-1.3292618E2,7.608861E1,-2.4210368E2,-4.9212E-2,-2.7044855E1,-2.4244488E1,4.3837905E-2,-5.66888E-1,-4.83515E-2,5.598691E0,-3.626923E0,2.166866E1,-1.4275175E1,8.132756E1,-7.0078455E-2,-3.1683704E-1,-1.1157983E-1,1.07769184E-1,-2.1380928E-1,-2.3230555E-2,-6.021985E-3,6.413578E-2,-0E0,6.222417E-1,2.5325198E-2,3.5811362E-1],"split_indices":[2,13,13,1,11,13,1,0,0,15,4,2,13,2,2,0,0,0,0,0,0,0,0,0,0,0,0],"split_type":[0,0,0,0,0,0,0,0,0,0,0,0,0,0,0,0,0,0,0,0,0,0,0,0,0,0,0],"sum_hessian":[1.6314E4,1.47E2,1.6167E4,3.6E1,1.11E2,1.6002E4,1.65E2,1E0,3.5E1,7.5E1,3.6E1,1.97E2,1.5805E4,3.7E1,1.28E2,1.8E1,5.7E1,2.2E1,1.4E1,1.2E2,7.7E1,1.5588E4,2.17E2,5E0,3.2E1,8.8E1,4E1],"tree_param":{"num_deleted":"0","num_feature":"21","num_nodes":"27","size_leaf_vector":"0"}},{"base_weights":[-9.901334E-2,-5.38144E0,-3.2618817E-2,-6.915783E0,-1.6665783E0,-1.01171054E-1,3.421406E0,-1.0249315E1,-4.892536E0,-3.5242944E0,4.5307997E-1,-1.1535641E-1,2.002556E0,1.8618063E0,8.661327E0,-1.1424624E1,-7.552946E-1,-1.7480806E0,-7.243775E0,2.6862484E-1,-5.5986204E0,7.73507E-1,-8.535018E-1,6.378961E0,-1.2064066E-1,5.8092446E0,-1.0126432E0,5.512331E0,3.7094578E-1,9.849537E0,1.8357631E0],"categories":[],"categories_nodes":[],"categories_segments":[],"categories_sizes":[],"default_left":[1,0,1,1,1,1,1,0,0,1,1,1,1,0,1,0,0,0,0,0,0,0,0,0,0,0,0,0,0,0,0],"id":30,"left_children":[1,3,5,7,9,11,13,15,17,19,21,23,25,27,29,-1,-1,-1,-1,-1,-1,-1,-1,-1,-1,-1,-1,-1,-1,-1,-1],"loss_changes":[5.6502773E3,1.0394341E3,3.7724438E3,6.110586E2,2.8322977E2,4.599418E2,2.4001313E3,4.2040137E2,6.088838E2,3.2527643E2,1.7135553E1,5.0763617E2,1.2356227E3,1.2991958E3,4.107705E2,0E0,0E0,0E0,0E0,0E0,0E0,0E0,0E0,0E0,0E0,0E0,0E0,0E0,0E0,0E0,0E0],"parents":[2147483647,0,0,1,1,2,2,3,3,4,4,5,5,6,6,7,7,8,8,9,9,10,10,11,11,12,12,13,13,14,14],"right_children":[2,4,6,8,10,12,14,16,18,20,22,24,26,28,30,-1,-1,-1,-1,-1,-1,-1,-1,-1,-1,-1,-1,-1,-1,-1,-1],"split_conditions":[-5.2260498E1,-2.662E-3,6.8570003E-3,-1.3901094E2,-9.356775E-1,5.0147026E1,9.67755E-2,-9.485E-3,-2.586E-2,3.1595017E3,1.3741804E1,-8.733334E0,-3.1676664E0,1.15E-2,1.3606607E2,-5.7123125E-1,-3.776473E-2,-8.7404035E-2,-3.6218876E-1,1.3431243E-2,-2.7993104E-1,3.867535E-2,-4.267509E-2,3.1894806E-1,-6.032033E-3,2.9046223E-1,-5.063216E-2,2.7561656E-1,1.854729E-2,4.9247685E-1,9.178816E-2],"split_indices":[13,15,5,13,7,13,11,15,15,16,1,12,1,15,1,0,0,0,0,0,0,0,0,0,0,0,0,0,0,0,0],"split_type":[0,0,0,0,0,0,0,0,0,0,0,0,0,0,0,0,0,0,0,0,0,0,0,0,0,0,0,0,0,0,0],"sum_hessian":[1.6185E4,1.95E2,1.599E4,1.34E2,6.1E1,1.5685E4,3.05E2,4.2E1,9.2E1,3.2E1,2.9E1,1.5587E4,9.8E1,2.41E2,6.4E1,3.6E1,6E0,4.4E1,4.8E1,1.2E1,2E1,2.8E1,1E0,7E0,1.558E4,4.2E1,5.6E1,6.5E1,1.76E2,5.2E1,1.2E1],"tree_param":{"num_deleted":"0","num_feature":"21","num_nodes":"31","size_leaf_vector":"0"}},{"base_weights":[-8.7652884E-2,-5.430141E0,-3.742269E-2,6.158161E-1,-7.6615458E0,-1.0927973E-1,3.347752E0,2.6763675E0,-5.6244675E-2,-8.786865E0,-3.1426687E0,-1.9527884E0,-9.095336E-2,5.3970337E-1,5.1183076E0,3.489266E-1,-8.586273E-1,-1.150221E0,-9.432276E0,1.660823E0,-4.347042E0,5.5367047E-1,-3.6803403E0,1.914445E0,-1.0324579E-1,3.2901676E0,-1.5631378E0,5.993558E0,-0E0],"categories":[],"categories_nodes":[],"categories_segments":[],"categories_sizes":[],"default_left":[1,1,1,1,1,1,0,0,0,1,1,1,1,0,1,0,0,0,0,0,0,0,0,0,0,0,0,0,0],"id":31,"left_children":[1,3,5,7,9,11,13,-1,15,17,19,21,23,25,27,-1,-1,-1,-1,-1,-1,-1,-1,-1,-1,-1,-1,-1,-1],"loss_changes":[4.3785586E3,2.1094482E3,3.9445083E3,7.616999E1,3.718213E2,5.2752466E2,1.6333967E3,0E0,1.6075281E1,3.1671582E2,2.2887057E2,6.926477E2,3.812738E2,8.267292E2,9.160796E2,0E0,0E0,0E0,0E0,0E0,0E0,0E0,0E0,0E0,0E0,0E0,0E0,0E0,0E0],"parents":[2147483647,0,0,1,1,2,2,3,3,4,4,5,5,6,6,8,8,9,9,10,10,11,11,12,12,13,13,14,14],"right_children":[2,4,6,8,10,12,14,-1,16,18,20,22,24,26,28,-1,-1,-1,-1,-1,-1,-1,-1,-1,-1,-1,-1,-1,-1],"split_conditions":[-8.254419E1,-2.941727E2,3.231935E1,-7.561796E0,1.2244548E3,-2.7044855E1,1.3137255E0,1.3381837E-1,4.000001E0,-1.8505196E2,1.2322809E3,-7.266321E1,-5.3608303E1,-4.875075E-1,1.327117E3,1.744633E-2,-4.2931367E-2,-5.751105E-2,-4.716138E-1,8.3041154E-2,-2.173521E-1,2.7683524E-2,-1.8401702E-1,9.572225E-2,-5.1622894E-3,1.6450839E-1,-7.815689E-2,2.996779E-1,-0E0],"split_indices":[13,9,13,2,17,13,8,0,7,1,17,9,9,7,17,0,0,0,0,0,0,0,0,0,0,0,0,0,0],"split_type":[0,0,0,0,0,0,0,0,0,0,0,0,0,0,0,0,0,0,0,0,0,0,0,0,0,0,0,0,0],"sum_hessian":[1.6417E4,1.47E2,1.627E4,4E1,1.07E2,1.5938E4,3.32E2,8E0,3.2E1,8.1E1,2.6E1,1.49E2,1.5789E4,1.32E2,2E2,1.9E1,1.3E1,8E0,7.3E1,4E0,2.2E1,6.1E1,8.8E1,8.9E1,1.57E4,5.7E1,7.5E1,1.7E2,3E1],"tree_param":{"num_deleted":"0","num_feature":"21","num_nodes":"29","size_leaf_vector":"0"}},{"base_weights":[-9.468429E-2,-4.6121116E0,-3.880921E-2,-7.8704143E0,-3.0822475E0,6.4730706E0,-6.793324E-2,-9.158877E0,-2.1136713E0,4.7865397E-1,-5.114497E0,-1.0677246E0,7.594737E0,-1.15843005E-1,1.7800674E0,-1.1106847E1,-2.76569E0,-3.4303074E0,5.531356E-1,1.9477446E0,-2.0071554E0,-5.8502984E0,7.697717E-1,-1.6064558E0,-0E0,6.100823E-1,8.188728E0,-1.1139048E-1,-6.5203447E0,1.0323414E0,7.502829E0],"categories":[],"categories_nodes":[],"categories_segments":[],"categories_sizes":[],"default_left":[1,0,1,0,0,1,1,1,1,1,1,1,1,1,1,0,0,0,0,0,0,0,0,0,0,0,0,0,0,0,0],"id":32,"left_children":[1,3,5,7,9,11,13,15,17,19,21,23,25,27,29,-1,-1,-1,-1,-1,-1,-1,-1,-1,-1,-1,-1,-1,-1,-1,-1],"loss_changes":[4.0899075E3,8.109263E2,3.024711E3,2.8446655E2,1.077496E3,6.737168E2,1.412848E3,3.499187E2,8.7074844E1,2.2375531E2,4.5057715E2,1.0986537E1,1.9240283E2,4.0926093E2,1.6430573E3,0E0,0E0,0E0,0E0,0E0,0E0,0E0,0E0,0E0,0E0,0E0,0E0,0E0,0E0,0E0,0E0],"parents":[2147483647,0,0,1,1,2,2,3,3,4,4,5,5,6,6,7,7,8,8,9,9,10,10,11,11,12,12,13,13,14,14],"right_children":[2,4,6,8,10,12,14,16,18,20,22,24,26,28,30,-1,-1,-1,-1,-1,-1,-1,-1,-1,-1,-1,-1,-1,-1,-1,-1],"split_conditions":[-5.9140923E1,-5.729165E-1,-4.429167E0,-7.1623996E-2,-1.331515E-1,-2.2462406E0,1.8417183E1,5.800789E0,-4.9999997E-2,2.8129604E3,2.752005E3,-7.654166E0,2.4999999E-2,2.7204166E1,1.1333334E0,-5.553424E-1,-1.382845E-1,-1.7151538E-1,2.7656779E-2,9.738723E-2,-1.0035777E-1,-2.9251492E-1,3.8488586E-2,-8.0322795E-2,-0E0,3.0504117E-2,4.0943643E-1,-5.569524E-3,-3.2601723E-1,5.1617067E-2,3.7514147E-1],"split_indices":[13,8,12,11,11,13,13,4,12,0,0,12,18,12,12,0,0,0,0,0,0,0,0,0,0,0,0,0,0,0,0],"split_type":[0,0,0,0,0,0,0,0,0,0,0,0,0,0,0,0,0,0,0,0,0,0,0,0,0,0,0,0,0,0,0],"sum_hessian":[1.6294E4,1.93E2,1.6101E4,5.4E1,1.39E2,6.6E1,1.6035E4,4.1E1,1.3E1,5.1E1,8.8E1,8E0,5.8E1,1.5637E4,3.98E2,2.8E1,1.3E1,9E0,4E0,3.4E1,1.7E1,7.9E1,9E0,5E0,3E0,6E0,5.2E1,1.5632E4,5E0,3.58E2,4E1],"tree_param":{"num_deleted":"0","num_feature":"21","num_nodes":"31","size_leaf_vector":"0"}},{"base_weights":[-9.10657E-2,-3.1650782E0,-4.0044986E-2,-1.393157E0,-5.0381107E0,-6.430047E-2,5.2722774E0,-3.4076555E0,-4.430386E-2,-7.932581E0,-1.6862078E0,-1.0411043E-1,7.736461E-1,7.4828176E0,4.557999E-1,-4.996667E0,5.3118265E-1,-1.543969E0,1.2192688E0,-8.34168E0,7.595967E-1,1.3201026E0,-2.569101E0,-1.1195344E-1,3.2260003E0,5.3216863E0,2.34863E-1,-0E0,9.186203E0,-2.5263145E0,2.4314423E0],"categories":[],"categories_nodes":[],"categories_segments":[],"categories_sizes":[],"default_left":[0,1,1,1,1,1,1,1,1,1,1,1,0,1,1,0,0,0,0,0,0,0,0,0,0,0,0,0,0,0,0],"id":33,"left_children":[1,3,5,7,9,11,13,15,17,19,21,23,25,27,29,-1,-1,-1,-1,-1,-1,-1,-1,-1,-1,-1,-1,-1,-1,-1,-1],"loss_changes":[2.573839E3,8.222053E2,2.0700312E3,3.787057E2,1.1171777E3,5.369976E2,7.2048596E2,3.9235303E2,1.8916003E2,3.0428564E2,1.9838298E2,3.900735E2,1.7523147E3,6.318176E2,2.0109471E2,0E0,0E0,0E0,0E0,0E0,0E0,0E0,0E0,0E0,0E0,0E0,0E0,0E0,0E0,0E0,0E0],"parents":[2147483647,0,0,1,1,2,2,3,3,4,4,5,5,6,6,7,7,8,8,9,9,10,10,11,11,12,12,13,13,14,14],"right_children":[2,4,6,8,10,12,14,16,18,20,22,24,26,28,30,-1,-1,-1,-1,-1,-1,-1,-1,-1,-1,-1,-1,-1,-1,-1,-1],"split_conditions":[-8.6055E-3,9.4134865E1,2.73075E-2,1.1158606E3,1.208304E3,2.6365002E-3,1.8342814E0,5.577563E0,-3.8296288E1,1.3844038E3,1.236843E3,5.8149567E2,1.3560001E-3,7.952632E1,1.0276692E3,-2.4983335E-1,2.6559133E-2,-7.719845E-2,6.096344E-2,-4.1708398E-1,3.7979838E-2,6.600513E-2,-1.2845506E-1,-5.597672E-3,1.6130002E-1,2.660843E-1,1.174315E-2,-0E0,4.5931014E-1,-1.2631573E-1,1.21572115E-1],"split_indices":[5,19,5,17,17,5,3,4,13,14,17,13,15,13,14,0,0,0,0,0,0,0,0,0,0,0,0,0,0,0,0],"split_type":[0,0,0,0,0,0,0,0,0,0,0,0,0,0,0,0,0,0,0,0,0,0,0,0,0,0,0,0,0,0,0],"sum_hessian":[1.6512E4,2.63E2,1.6249E4,1.41E2,1.22E2,1.6181E4,6.8E1,5.2E1,8.9E1,6.1E1,6.1E1,1.5457E4,7.24E2,4.4E1,2.4E1,3.7E1,1.5E1,4.2E1,4.7E1,5.9E1,2E0,1.2E1,4.9E1,1.5427E4,3E1,7.1E1,6.53E2,9E0,3.5E1,8E0,1.6E1],"tree_param":{"num_deleted":"0","num_feature":"21","num_nodes":"31","size_leaf_vector":"0"}},{"base_weights":[-9.567601E-2,2.2724054E0,-1.2757833E-1,8.142937E-1,8.062449E0,-3.4346366E0,-8.395611E-2,-3.5275307E0,1.7059062E0,8.757277E0,-9.5259476E-1,-9.141063E0,-1.8177375E0,-1.03436485E-1,2.1082752E0,-4.4346633E0,5.9805125E-1,5.390501E-1,2.4670827E0,-0E0,8.977438E0,-1.3184906E0,-0E0,-1.0172593E1,-0E0,-2.940291E0,4.3959E-1,-1.07853726E-1,2.1396317E0,8.370611E-1,7.7638206E0],"categories":[],"categories_nodes":[],"categories_segments":[],"categories_sizes":[],"default_left":[1,0,1,1,1,0,1,1,0,1,1,1,1,1,1,0,0,0,0,0,0,0,0,0,0,0,0,0,0,0,0],"id":34,"left_children":[1,3,5,7,9,11,13,15,17,19,21,23,25,27,29,-1,-1,-1,-1,-1,-1,-1,-1,-1,-1,-1,-1,-1,-1,-1,-1],"loss_changes":[1.222977E3,1.7379346E3,2.303715E3,7.1005804E2,3.4381738E2,1.7812825E3,6.6999805E2,1.4845978E2,1.1332385E2,7.558594E1,4.0784483E0,4.626687E2,4.4720715E2,1.4719731E2,9.1664014E2,0E0,0E0,0E0,0E0,0E0,0E0,0E0,0E0,0E0,0E0,0E0,0E0,0E0,0E0,0E0,0E0],"parents":[2147483647,0,0,1,1,2,2,3,3,4,4,5,5,6,6,7,7,8,8,9,9,10,10,11,11,12,12,13,13,14,14],"right_children":[2,4,6,8,10,12,14,16,18,20,22,24,26,28,30,-1,-1,-1,-1,-1,-1,-1,-1,-1,-1,-1,-1,-1,-1,-1,-1],"split_conditions":[-7.4831796E-1,9.681749E-2,-3.3698494E1,-8.669459E0,1.3773198E3,-1.01178E-1,3.858554E1,4.029166E0,2.2335001E-3,4.902185E2,2.9063377E1,1.6645E-3,5.577563E0,4.2091602E-1,2.8876455E0,-2.2173317E-1,2.9902562E-2,2.6952505E-2,1.2335414E-1,-0E0,4.488719E-1,-6.592453E-2,-0E0,-5.086297E-1,-0E0,-1.4701454E-1,2.1979501E-2,-5.3926865E-3,1.0698159E-1,4.1853055E-2,3.8819104E-1],"split_indices":[12,11,2,2,17,11,2,18,20,17,2,10,4,20,8,0,0,0,0,0,0,0,0,0,0,0,0,0,0,0,0],"split_type":[0,0,0,0,0,0,0,0,0,0,0,0,0,0,0,0,0,0,0,0,0,0,0,0,0,0,0,0,0,0,0],"sum_hessian":[1.6306E4,2.1E2,1.6096E4,1.73E2,3.7E1,2.03E2,1.5893E4,2.6E1,1.47E2,3.5E1,2E0,3.9E1,1.64E2,1.576E4,1.33E2,2.2E1,4E0,6.4E1,8.3E1,1E0,3.4E1,1E0,1E0,3.5E1,4E0,1.1E2,5.4E1,1.5736E4,2.4E1,1.14E2,1.9E1],"tree_param":{"num_deleted":"0","num_feature":"21","num_nodes":"31","size_leaf_vector":"0"}},{"base_weights":[-8.7372676E-2,-4.46517E0,-3.2764334E-2,-5.6009903E0,-1.1913464E0,-8.732516E-2,2.6070333E0,-6.5099072E0,-4.2949983E-1,-3.0486155E0,6.958205E-1,-8.2612135E-2,-6.365709E0,-0E0,4.1740856E0,1.6338402E0,-6.7533507E0,2.7592597E0,-5.554707E0,1.1569103E-1,-5.819657E0,9.978663E-1,-0E0,-9.394838E-2,2.5129426E0,-9.746551E0,3.687007E-1,1.9092239E0,-2.55281E0,2.2756839E0,7.4995646E0],"categories":[],"categories_nodes":[],"categories_segments":[],"categories_sizes":[],"default_left":[1,0,1,0,1,1,0,1,0,1,1,1,0,1,1,0,0,0,0,0,0,0,0,0,0,0,0,0,0,0,0],"id":35,"left_children":[1,3,5,7,9,11,13,15,17,19,21,23,25,27,29,-1,-1,-1,-1,-1,-1,-1,-1,-1,-1,-1,-1,-1,-1,-1,-1],"loss_changes":[3.8802195E3,6.763701E2,2.3121687E3,6.3758887E2,2.2916403E2,4.3303888E2,1.3453872E3,3.2462012E2,5.4821716E2,3.1247583E2,1.0395845E1,4.5418796E2,3.1530475E2,6.411999E2,1.1536619E3,0E0,0E0,0E0,0E0,0E0,0E0,0E0,0E0,0E0,0E0,0E0,0E0,0E0,0E0,0E0,0E0],"parents":[2147483647,0,0,1,1,2,2,3,3,4,4,5,5,6,6,7,7,8,8,9,9,10,10,11,11,12,12,13,13,14,14],"right_children":[2,4,6,8,10,12,14,16,18,20,22,24,26,28,30,-1,-1,-1,-1,-1,-1,-1,-1,-1,-1,-1,-1,-1,-1,-1,-1],"split_conditions":[-6.337362E1,-2.662E-3,3.2319393E1,-7.5244997E-3,-7.477985E-1,2.3550552E1,1.7222226E0,7.2973366E1,-5.7955002E-3,2.3818768E2,3.258333E0,2.6056466E0,6.764265E3,1.6544818E2,4.208335E-1,8.169201E-2,-3.3766755E-1,1.3796298E-1,-2.7773535E-1,5.7845516E-3,-2.9098284E-1,4.9893316E-2,-0E0,-4.6974192E-3,1.2564713E-1,-4.8732755E-1,1.8435037E-2,9.54612E-2,-1.276405E-1,1.13784194E-1,3.7497824E-1],"split_indices":[13,15,13,5,7,12,8,19,15,6,18,12,8,9,18,0,0,0,0,0,0,0,0,0,0,0,0,0,0,0,0],"split_type":[0,0,0,0,0,0,0,0,0,0,0,0,0,0,0,0,0,0,0,0,0,0,0,0,0,0,0,0,0,0,0],"sum_hessian":[1.6323E4,1.95E2,1.6128E4,1.41E2,5.4E1,1.5808E4,3.2E2,1.18E2,2.3E1,2.7E1,2.7E1,1.5802E4,6E0,1.21E2,1.99E2,2E0,1.16E2,1.5E1,8E0,1.4E1,1.3E1,2.1E1,6E0,1.574E4,6.2E1,3E0,3E0,6.9E1,5.2E1,1.33E2,6.6E1],"tree_param":{"num_deleted":"0","num_feature":"21","num_nodes":"31","size_leaf_vector":"0"}},{"base_weights":[-8.442556E-2,-1.963138E0,-2.460439E-2,-4.859992E0,-2.4911162E-1,-6.8093985E-2,3.953259E0,-2.264523E0,-6.5048375E0,-6.149679E0,2.01419E-3,-7.941651E-2,1.6581919E0,7.197069E0,1.8910569E-1,2.1348007E-1,-3.5462592E0,-8.621301E0,-4.1622934E0,-8.630255E0,-0E0,2.2750509E-1,-5.8581014E0,-9.343205E-2,4.576509E-1,-8.6351746E-1,4.9473386E0,1.1017574E1,3.466578E0,3.7351558E0,-1.0389357E0],"categories":[],"categories_nodes":[],"categories_segments":[],"categories_sizes":[],"default_left":[0,0,1,1,0,1,1,1,0,1,1,1,0,1,1,0,0,0,0,0,0,0,0,0,0,0,0,0,0,0,0],"id":36,"left_children":[1,3,5,7,9,11,13,15,17,19,21,23,25,27,29,-1,-1,-1,-1,-1,-1,-1,-1,-1,-1,-1,-1,-1,-1,-1,-1],"loss_changes":[1.8349857E3,2.4709043E3,2.7358386E3,6.765625E2,5.0941678E2,3.0067142E2,2.044208E3,2.7771698E2,3.020298E2,2.1535315E2,3.934312E2,1.16254944E2,8.712068E2,1.0335771E3,4.0303323E2,0E0,0E0,0E0,0E0,0E0,0E0,0E0,0E0,0E0,0E0,0E0,0E0,0E0,0E0,0E0,0E0],"parents":[2147483647,0,0,1,1,2,2,3,3,4,4,5,5,6,6,7,7,8,8,9,9,10,10,11,11,12,12,13,13,14,14],"right_children":[2,4,6,8,10,12,14,16,18,20,22,24,26,28,30,-1,-1,-1,-1,-1,-1,-1,-1,-1,-1,-1,-1,-1,-1,-1,-1],"split_conditions":[-3.1804502E-2,-4.6155E-3,7.608861E1,9.436668E1,-8.1944454E-1,1.688499E0,1.801505E2,5.376759E0,-8.6739E-2,1.387954E0,3.632653E0,4.183E-3,2.59E-4,-2.121873E0,-1.891667E0,1.06740035E-2,-1.7731296E-1,-4.3106505E-1,-2.0811467E-1,-4.3151274E-1,-0E0,1.1375255E-2,-2.9290506E-1,-4.6716025E-3,2.2882545E-2,-4.3175872E-2,2.4736694E-1,5.508787E-1,1.733289E-1,1.8675779E-1,-5.1946785E-2],"split_indices":[11,5,13,19,8,12,9,4,11,3,3,5,5,1,12,0,0,0,0,0,0,0,0,0,0,0,0,0,0,0,0],"split_type":[0,0,0,0,0,0,0,0,0,0,0,0,0,0,0,0,0,0,0,0,0,0,0,0,0,0,0,0,0,0,0],"sum_hessian":[1.6413E4,4.99E2,1.5914E4,1.81E2,3.18E2,1.5748E4,1.66E2,7.6E1,1.05E2,9E0,3.09E2,1.5653E4,9.5E1,8.6E1,8E1,2.6E1,5E1,4.7E1,5.8E1,5E0,4E0,3.03E2,6E0,1.5268E4,3.85E2,5.5E1,4E1,3.7E1,4.9E1,1.9E1,6.1E1],"tree_param":{"num_deleted":"0","num_feature":"21","num_nodes":"31","size_leaf_vector":"0"}},{"base_weights":[-6.656065E-2,-3.458004E0,-2.5066681E-2,-8.957644E0,-2.212303E0,-7.5996816E-2,3.2927577E0,1.0479146E0,-9.571134E0,-3.6275876E0,-8.221494E-1,-8.840745E-2,2.7217445E0,4.0264277E0,-1.6837956E0,-7.5936824E-1,-5.0028434E0,-1.4976484E0,1.6123345E0,-7.979425E-1,-6.776273E-2,8.1735176E-1,5.1857924E0,1.0410426E0,5.685547E0,-2.103197E0,9.4095975E-2],"categories":[],"categories_nodes":[],"categories_segments":[],"categories_sizes":[],"default_left":[1,1,1,1,1,1,1,0,0,1,1,0,1,1,1,0,0,0,0,0,0,0,0,0,0,0,0],"id":37,"left_children":[1,3,5,7,9,11,13,-1,-1,15,17,19,21,23,25,-1,-1,-1,-1,-1,-1,-1,-1,-1,-1,-1,-1],"loss_changes":[2.2931284E3,1.1946941E3,2.7276682E3,3.0146704E2,2.9337292E2,5.4327185E2,9.3649146E2,0E0,0E0,2.677567E2,1.644378E2,2.2870227E2,2.725747E2,1.00169165E3,3.638713E1,0E0,0E0,0E0,0E0,0E0,0E0,0E0,0E0,0E0,0E0,0E0,0E0],"parents":[2147483647,0,0,1,1,2,2,3,3,4,4,5,5,6,6,9,9,10,10,11,11,12,12,13,13,14,14],"right_children":[2,4,6,8,10,12,14,-1,-1,16,18,20,22,24,26,-1,-1,-1,-1,-1,-1,-1,-1,-1,-1,-1,-1],"split_conditions":[-3.9338036E1,-1.4488504E2,5.0018017E1,-3.2544573E3,1.3163372E3,1.26553E-1,3.3030894E3,5.239573E-2,-4.785567E-1,8.560233E1,2.7425532E3,-3.1905002E-3,9.497761E2,2.5558545E3,1.3691469E2,-3.7968412E-2,-2.501422E-1,-7.488242E-2,8.061673E-2,-3.9897125E-2,-3.3881366E-3,4.086759E-2,2.5928962E-1,5.205213E-2,2.8427735E-1,-1.0515986E-1,4.704799E-3],"split_indices":[2,13,13,0,14,20,16,0,0,19,0,5,14,0,2,0,0,0,0,0,0,0,0,0,0,0,0],"split_type":[0,0,0,0,0,0,0,0,0,0,0,0,0,0,0,0,0,0,0,0,0,0,0,0,0,0,0],"sum_hessian":[1.6417E4,1.92E2,1.6225E4,2.9E1,1.63E2,1.5986E4,2.39E2,1E0,2.8E1,7.5E1,8.8E1,1.5922E4,6.4E1,2.1E2,2.9E1,2.8E1,4.7E1,7.2E1,1.6E1,4.38E2,1.5484E4,4.1E1,2.3E1,7.9E1,1.31E2,2.5E1,4E0],"tree_param":{"num_deleted":"0","num_feature":"21","num_nodes":"27","size_leaf_vector":"0"}},{"base_weights":[-7.142465E-2,-4.5193205E0,-4.375009E-2,2.5992453E-1,-5.250936E0,-7.205703E-2,4.030158E0,-7.9605937E-1,1.8971429E0,-8.756782E0,-2.860241E0,-1.0697376E0,-4.251974E-2,-0E0,5.9890823E0,-0E0,-1.299482E0,-4.2946324E0,2.5411444E0,3.7083086E-2,-2.9209914E0,-7.441351E-2,9.407107E-1,1.2429568E0,-2.8320942E0,7.6422977E0,1.2750124E0],"categories":[],"categories_nodes":[],"categories_segments":[],"categories_sizes":[],"default_left":[1,1,1,0,1,0,1,1,0,0,1,1,1,1,1,0,0,0,0,0,0,0,0,0,0,0,0],"id":38,"left_children":[1,3,5,7,9,11,13,15,-1,-1,17,19,21,23,25,-1,-1,-1,-1,-1,-1,-1,-1,-1,-1,-1,-1],"loss_changes":[1.9701887E3,3.7793958E2,1.8388885E3,4.2447506E1,5.4586475E2,4.6571182E2,8.676748E2,7.5933547E0,0E0,0E0,5.2819586E2,9.47259E2,4.8364978E2,1.6172873E2,4.8340308E2,0E0,0E0,0E0,0E0,0E0,0E0,0E0,0E0,0E0,0E0,0E0,0E0],"parents":[2147483647,0,0,1,1,2,2,3,3,4,4,5,5,6,6,7,7,10,10,11,11,12,12,13,13,14,14],"right_children":[2,4,6,8,10,12,14,16,-1,-1,18,20,22,24,26,-1,-1,-1,-1,-1,-1,-1,-1,-1,-1,-1,-1],"split_conditions":[-8.591644E1,3.0998176E3,6.393774E1,4.0666668E1,-1.098615E-1,-2.6356999E-2,2.5605415E3,-3.4980298E2,9.485715E-2,-4.378391E-1,2.7500918E3,3.1229744E3,1.1644178E1,-9.27168E-1,1.3309194E3,-0E0,-6.49741E-2,-2.1473162E-1,1.2705722E-1,1.8541543E-3,-1.4604957E-1,-3.7206754E-3,4.7035538E-2,6.2147837E-2,-1.416047E-1,3.821149E-1,6.375062E-2],"split_indices":[2,16,2,8,11,11,0,1,0,0,0,16,2,8,17,0,0,0,0,0,0,0,0,0,0,0,0],"split_type":[0,0,0,0,0,0,0,0,0,0,0,0,0,0,0,0,0,0,0,0,0,0,0,0,0,0,0],"sum_hessian":[1.6194E4,9.4E1,1.61E4,1.2E1,8.2E1,1.5995E4,1.05E2,7E0,5E0,2.7E1,5.5E1,4.5E2,1.5545E4,3.6E1,6.9E1,3E0,4E0,4.5E1,1E1,2.83E2,1.67E2,1.5066E4,4.79E2,2.7E1,9E0,4.8E1,2.1E1],"tree_param":{"num_deleted":"0","num_feature":"21","num_nodes":"27","size_leaf_vector":"0"}},{"base_weights":[-6.1572466E-2,-5.524822E0,-4.3856096E-2,8.469196E-1,-6.7211957E0,-9.250838E-2,1.2179354E0,-0E0,1.019189E0,-6.9479537E0,-0E0,-1.3315799E0,-6.092367E-2,-1.0255714E-2,3.3185413E0,-0E0,1.0856607E0,-7.0847297E0,-0E0,-0E0,-7.7412605E-2,-2.926355E0,-5.784287E-2,6.512144E-1,-7.196404E-2,2.2167342E0,-5.757267E-1,1.6869214E0,6.143228E0],"categories":[],"categories_nodes":[],"categories_segments":[],"categories_sizes":[],"default_left":[1,0,1,0,1,1,1,0,1,0,1,0,1,1,1,0,0,0,0,0,0,0,0,0,0,0,0,0,0],"id":39,"left_children":[1,3,5,7,9,11,13,-1,15,17,19,21,23,25,27,-1,-1,-1,-1,-1,-1,-1,-1,-1,-1,-1,-1,-1,-1],"loss_changes":[1.5565416E3,4.5422803E2,9.9772614E2,1.7801867E0,4.2933228E1,6.085106E2,1.5724185E3,0E0,2.2047234E-1,3.2338135E1,3.5956267E-2,7.7035516E2,1.1806319E2,4.8174667E2,9.4140845E2,0E0,0E0,0E0,0E0,0E0,0E0,0E0,0E0,0E0,0E0,0E0,0E0,0E0,0E0],"parents":[2147483647,0,0,1,1,2,2,3,3,4,4,5,5,6,6,8,8,9,9,10,10,11,11,12,12,13,13,14,14],"right_children":[2,4,6,8,10,12,14,-1,16,18,20,22,24,26,28,-1,-1,-1,-1,-1,-1,-1,-1,-1,-1,-1,-1,-1,-1],"split_conditions":[-1.0698011E2,-7.2439E-2,1.92525E-2,-2.72059E-1,1.9708334E1,-1.4586966E1,1.0285487E1,-0E0,1.9167451E3,1.27732115E1,2.7198315E3,-2.0666E-2,-4.3489418E1,-3.1676664E0,4.375E-1,-0E0,5.4283034E-2,-3.5423648E-1,-0E0,-0E0,-3.8706304E-3,-1.4631775E-1,-2.8921436E-3,3.256072E-2,-3.598202E-3,1.1083671E-1,-2.8786335E-2,8.434607E-2,3.0716142E-1],"split_indices":[2,15,11,7,7,2,2,0,0,11,0,11,1,1,18,0,0,0,0,0,0,0,0,0,0,0,0,0,0],"split_type":[0,0,0,0,0,0,0,0,0,0,0,0,0,0,0,0,0,0,0,0,0,0,0,0,0,0,0,0,0],"sum_hessian":[1.6377E4,4.7E1,1.633E4,7E0,4E1,1.5732E4,5.98E2,2E0,5E0,3.8E1,2E0,3.82E2,1.535E4,3.79E2,2.19E2,1E0,4E0,3.7E1,1E0,1E0,1E0,1.65E2,2.17E2,2.23E2,1.5127E4,7.2E1,3.07E2,1.45E2,7.4E1],"tree_param":{"num_deleted":"0","num_feature":"21","num_nodes":"29","size_leaf_vector":"0"}},{"base_weights":[-5.8123186E-2,-1.0066994E-1,3.1807616E0,-2.2944725E0,-8.191538E-2,5.8475394E0,3.4512198E-1,-7.5118113E0,-5.148069E-1,-2.81771E0,-5.7905946E-2,1.8156449E0,7.532556E0,2.2697773E0,-3.3673716E0,-0E0,-7.887368E0,-7.4315147E0,1.4599614E-1,-0E0,-4.2341433E0,2.169923E0,-7.193096E-2,-2.6243706E0,2.8408425E0,9.01992E0,2.0452192E-1,-4.633369E-1,4.3616686E0,-4.196624E0,-0E0],"categories":[],"categories_nodes":[],"categories_segments":[],"categories_sizes":[],"default_left":[1,0,1,1,1,1,1,1,1,1,1,1,1,1,1,0,0,0,0,0,0,0,0,0,0,0,0,0,0,0,0],"id":40,"left_children":[1,3,5,7,9,11,13,15,17,19,21,23,25,27,29,-1,-1,-1,-1,-1,-1,-1,-1,-1,-1,-1,-1,-1,-1,-1,-1],"loss_changes":[2.232682E3,6.4947015E2,1.5469707E3,1.184737E3,1.0336624E3,6.1181396E2,8.044171E2,1.2863733E2,5.263341E2,5.437351E2,4.8509174E2,2.1588332E2,7.4031445E2,4.5839963E2,1.1507199E2,0E0,0E0,0E0,0E0,0E0,0E0,0E0,0E0,0E0,0E0,0E0,0E0,0E0,0E0,0E0,0E0],"parents":[2147483647,0,0,1,1,2,2,3,3,4,4,5,5,6,6,7,7,8,8,9,9,10,10,11,11,12,12,13,13,14,14],"right_children":[2,4,6,8,10,12,14,16,18,20,22,24,26,28,30,-1,-1,-1,-1,-1,-1,-1,-1,-1,-1,-1,-1,-1,-1,-1,-1],"split_conditions":[6.567634E1,-3.3831E-2,1.6682422E2,-1.3901094E2,-5.469551E1,2.08335E-2,-7.7547646E-1,-2.0464068E4,4.163141E2,-1.8036212E2,-5.870655E1,9.5208704E2,1.3294229E3,3.2356829E3,3.408333E0,-0E0,-3.943684E-1,-3.7157574E-1,7.299807E-3,-0E0,-2.1170716E-1,1.0849615E-1,-3.596548E-3,-1.3121854E-1,1.4204213E-1,4.50996E-1,1.0226096E-2,-2.3166846E-2,2.1808343E-1,-2.098312E-1,-0E0],"split_indices":[13,15,9,13,13,18,7,9,17,13,9,17,17,16,18,0,0,0,0,0,0,0,0,0,0,0,0,0,0,0,0],"split_type":[0,0,0,0,0,0,0,0,0,0,0,0,0,0,0,0,0,0,0,0,0,0,0,0,0,0,0,0,0,0,0],"sum_hessian":[1.6297E4,1.6092E4,2.05E2,1.29E2,1.5963E4,1.02E2,1.03E2,2.8E1,1.01E2,1.32E2,1.5831E4,3.4E1,6.8E1,7E1,3.3E1,1E0,2.7E1,5E0,9.6E1,4.6E1,8.6E1,9.2E1,1.5739E4,4E0,3E1,5.5E1,1.3E1,3.1E1,3.9E1,2.6E1,7E0],"tree_param":{"num_deleted":"0","num_feature":"21","num_nodes":"31","size_leaf_vector":"0"}},{"base_weights":[-5.4299355E-2,4.869473E0,-7.468196E-2,-2.5010848E0,6.4696655E0,-2.6633852E0,-3.0913027E-2,-3.1045144E0,1.5782149E-1,1.0193259E1,3.1350715E0,7.8303576E-1,-3.2292845E0,-6.220147E-2,1.7322453E0,-4.560262E0,-0E0,-0E0,1.1237949E1,-1.7637442E0,4.1178355E0,2.2752717E0,-1.69873E0,-3.7118099E0,2.2087686E-2,-5.8415685E-2,-5.041583E0,9.448755E-1,6.328255E0],"categories":[],"categories_nodes":[],"categories_segments":[],"categories_sizes":[],"default_left":[1,1,1,1,0,1,1,0,0,1,1,1,1,1,1,0,0,0,0,0,0,0,0,0,0,0,0,0,0],"id":41,"left_children":[1,3,5,7,9,11,13,15,-1,17,19,21,23,25,27,-1,-1,-1,-1,-1,-1,-1,-1,-1,-1,-1,-1,-1,-1],"loss_changes":[1.6316654E3,8.909679E2,1.8462413E3,4.1250183E1,4.8132544E2,5.534131E2,8.8318225E2,5.2231827E1,0E0,2.847522E2,2.3103094E2,1.7404665E2,3.8754272E2,2.7232278E2,9.4337103E2,0E0,0E0,0E0,0E0,0E0,0E0,0E0,0E0,0E0,0E0,0E0,0E0,0E0,0E0],"parents":[2147483647,0,0,1,1,2,2,3,3,4,4,5,5,6,6,7,7,9,9,10,10,11,11,12,12,13,13,14,14],"right_children":[2,4,6,8,10,12,14,16,-1,18,20,22,24,26,28,-1,-1,-1,-1,-1,-1,-1,-1,-1,-1,-1,-1,-1,-1],"split_conditions":[-5.0585403E0,-4.3934152E-1,-3.3878105E1,3.1943289E3,1.02925E-2,7.426371E1,6.6640005E-3,-5.135E-4,7.891075E-3,2.9354282E3,2.5070632E3,3.244894E3,1.829E-3,2.4029167E1,9.79167E-1,-2.2801311E-1,-0E0,-0E0,5.6189746E-1,-8.818721E-2,2.0589177E-1,1.13763586E-1,-8.49365E-2,-1.8559049E-1,1.1043843E-3,-2.9207843E-3,-2.5207916E-1,4.7243774E-2,3.1641278E-1],"split_indices":[12,13,13,16,15,19,5,5,0,16,0,16,10,12,12,0,0,0,0,0,0,0,0,0,0,0,0,0,0],"split_type":[0,0,0,0,0,0,0,0,0,0,0,0,0,0,0,0,0,0,0,0,0,0,0,0,0,0,0,0,0],"sum_hessian":[1.6474E4,6.2E1,1.6412E4,1E1,5.2E1,2.66E2,1.6146E4,9E0,1E0,1.9E1,3.3E1,3.6E1,2.3E2,1.5872E4,2.74E2,4E0,5E0,2E0,1.7E1,4E0,2.9E1,2.4E1,1.2E1,2.01E2,2.9E1,1.5866E4,6E0,2.4E2,3.4E1],"tree_param":{"num_deleted":"0","num_feature":"21","num_nodes":"29","size_leaf_vector":"0"}},{"base_weights":[-5.4526065E-2,-9.0702854E-2,2.6722698E0,-2.200917E0,-5.58896E-2,-3.4900136E-2,3.8779006E0,-7.0357485E0,-1.440943E0,4.542165E0,-6.257422E-2,5.723757E-1,-1.0329118E0,5.1677074E0,1.2777088E0,-7.6037135E0,1.0231885E0,-2.2572699E0,8.855987E-1,-6.2211967E-1,6.985684E0,-7.741341E-2,3.1987098E-1,1.3955209E0,-1.4793134E0,-0E0,-1.0740521E0,3.063191E0,8.110903E0,2.29517E0,-2.6641483E0],"categories":[],"categories_nodes":[],"categories_segments":[],"categories_sizes":[],"default_left":[1,1,1,1,1,1,1,1,1,0,1,0,1,0,1,0,0,0,0,0,0,0,0,0,0,0,0,0,0,0,0],"id":42,"left_children":[1,3,5,7,9,11,13,15,17,19,21,23,25,27,29,-1,-1,-1,-1,-1,-1,-1,-1,-1,-1,-1,-1,-1,-1,-1,-1],"loss_changes":[1.5979226E3,1.1715968E3,7.118274E2,8.5858167E2,4.6637732E2,4.7077473E1,4.311128E2,2.2285022E2,4.5557297E2,3.311661E2,8.8800644E1,8.2523125E1,3.7993622E-1,4.145276E2,2.5733762E2,0E0,0E0,0E0,0E0,0E0,0E0,0E0,0E0,0E0,0E0,0E0,0E0,0E0,0E0,0E0,0E0],"parents":[2147483647,0,0,1,1,2,2,3,3,4,4,5,5,6,6,7,7,8,8,9,9,10,10,11,11,12,12,13,13,14,14],"right_children":[2,4,6,8,10,12,14,16,18,20,22,24,26,28,30,-1,-1,-1,-1,-1,-1,-1,-1,-1,-1,-1,-1,-1,-1,-1,-1],"split_conditions":[1.0972001E-2,-2.6258358E1,8.4955E-3,-1.4181694E2,-6.970834E0,3.2859143E3,1.751515E0,4.350265E-1,5.6127505E0,-6.2135E-3,2.6915E-3,-1.665E-4,1.08859E3,3.1484E-2,1.1875E0,-3.801857E-1,5.1159423E-2,-1.12863496E-1,4.4279937E-2,-3.1105984E-2,3.492842E-1,-3.8706705E-3,1.5993549E-2,6.977605E-2,-7.396567E-2,-0E0,-5.3702604E-2,1.5315954E-1,4.0554515E-1,1.1475851E-1,-1.3320743E-1],"split_indices":[5,2,20,13,12,16,3,10,4,20,5,20,17,5,18,0,0,0,0,0,0,0,0,0,0,0,0,0,0,0,0],"split_type":[0,0,0,0,0,0,0,0,0,0,0,0,0,0,0,0,0,0,0,0,0,0,0,0,0,0,0,0,0,0,0],"sum_hessian":[1.6312E4,1.6105E4,2.07E2,2.54E2,1.5851E4,6.4E1,1.43E2,2.8E1,2.26E2,1.7E1,1.5834E4,3.8E1,2.6E1,9.1E1,5.2E1,2.7E1,1E0,1.69E2,5.7E1,6E0,1.1E1,1.5259E4,5.75E2,3E1,8E0,2E0,2.4E1,6E1,3.1E1,4.4E1,8E0],"tree_param":{"num_deleted":"0","num_feature":"21","num_nodes":"31","size_leaf_vector":"0"}},{"base_weights":[-5.605767E-2,4.567588E0,-6.995434E-2,-2.7555494E0,6.0608397E0,-1.1867197E0,-5.139443E-2,-2.9541197E0,-0E0,6.900997E0,-1.1979531E0,1.4833577E-1,-2.3731265E0,-6.4953186E-2,1.771111E0,-0E0,7.4749055E0,-0E0,-1.4100648E0,2.6923225E0,-6.6486055E-1,-7.1575856E0,-1.3413526E0,1.0412718E0,-8.2726225E-2,5.6801386E0,2.0993759E-1],"categories":[],"categories_nodes":[],"categories_segments":[],"categories_sizes":[],"default_left":[1,1,1,1,1,1,1,0,0,0,1,1,1,1,1,0,0,0,0,0,0,0,0,0,0,0,0],"id":43,"left_children":[1,3,5,7,9,11,13,-1,-1,15,17,19,21,23,25,-1,-1,-1,-1,-1,-1,-1,-1,-1,-1,-1,-1],"loss_changes":[1.0298434E3,6.249249E2,3.3156293E2,3.7446594E0,3.259889E2,4.2787082E2,3.8872855E2,0E0,0E0,1.5414478E2,2.4372463E0,2.7975125E2,6.055448E2,3.090734E2,6.7249695E2,0E0,0E0,0E0,0E0,0E0,0E0,0E0,0E0,0E0,0E0,0E0,0E0],"parents":[2147483647,0,0,1,1,2,2,3,3,4,4,5,5,6,6,9,9,10,10,11,11,12,12,13,13,14,14],"right_children":[2,4,6,8,10,12,14,-1,-1,16,18,20,22,24,26,-1,-1,-1,-1,-1,-1,-1,-1,-1,-1,-1,-1],"split_conditions":[-6.5375E0,-5.155279E0,-8.145828E1,-5.2627707E0,2.691089E2,2.6847793E3,1.1291671E0,-1.4770599E-1,-0E0,-9.92846E-1,5.967633E1,1.1646538E3,1.3065823E3,-4.375E-1,-4.4938217E1,-0E0,3.737453E-1,-0E0,-7.050324E-2,1.3461612E-1,-3.3243027E-2,-3.5787928E-1,-6.706763E-2,5.206359E-2,-4.1363114E-3,2.8400692E-1,1.049688E-2],"split_indices":[12,9,9,1,9,0,12,0,0,8,1,14,14,12,1,0,0,0,0,0,0,0,0,0,0,0,0],"split_type":[0,0,0,0,0,0,0,0,0,0,0,0,0,0,0,0,0,0,0,0,0,0,0,0,0,0,0],"sum_hessian":[1.6348E4,4.3E1,1.6305E4,6E0,3.7E1,2.57E2,1.6048E4,5E0,1E0,3.4E1,3E0,1.21E2,1.36E2,1.5937E4,1.11E2,3E0,3.1E1,1E0,2E0,2.8E1,9.3E1,1.8E1,1.18E2,2.43E2,1.5694E4,2.7E1,8.4E1],"tree_param":{"num_deleted":"0","num_feature":"21","num_nodes":"27","size_leaf_vector":"0"}},{"base_weights":[-6.2287875E-2,-3.8237805E0,-1.5552074E-2,-6.7094054E0,-2.5407906E0,2.2172532E0,-4.4168714E-2,-2.188895E0,-7.2248244E0,2.3428168E-2,-3.5141392E0,1.5242758E0,6.07285E0,-6.105124E-2,1.8403484E0,-0E0,-3.2086012E0,-7.900717E0,-9.0558934E-1,2.7498524E0,-9.276313E-1,-5.6836977E0,-1.6271706E0,2.3278673E0,-8.0717915E-1,-1.0705857E0,6.720864E0,-5.742481E-2,-6.558278E0,4.350605E0,-0E0],"categories":[],"categories_nodes":[],"categories_segments":[],"categories_sizes":[],"default_left":[1,0,1,1,1,0,1,1,1,0,1,0,1,1,0,0,0,0,0,0,0,0,0,0,0,0,0,0,0,0,0],"id":44,"left_children":[1,3,5,7,9,11,13,15,17,19,21,23,25,27,29,-1,-1,-1,-1,-1,-1,-1,-1,-1,-1,-1,-1,-1,-1,-1,-1],"loss_changes":[2.850206E3,6.0525635E2,1.0202569E3,6.666992E0,3.8475946E2,4.5544293E2,4.9858017E2,4.6168686E1,1.2520825E2,1.3595699E2,3.5934412E2,3.5236172E2,1.9384106E2,3.3729025E2,6.270337E2,0E0,0E0,0E0,0E0,0E0,0E0,0E0,0E0,0E0,0E0,0E0,0E0,0E0,0E0,0E0,0E0],"parents":[2147483647,0,0,1,1,2,2,3,3,4,4,5,5,6,6,7,7,8,8,9,9,10,10,11,11,12,12,13,13,14,14],"right_children":[2,4,6,8,10,12,14,16,18,20,22,24,26,28,30,-1,-1,-1,-1,-1,-1,-1,-1,-1,-1,-1,-1,-1,-1,-1,-1],"split_conditions":[-5.887031E1,-5.8166647E-1,-7.4831796E-1,-2.1857861E2,8.573479E2,3.8805E-2,1.0972001E-2,2.700086E3,-9.1500015E1,-1.6709999E-3,1.3247142E3,1.8303499E-2,9.57714E2,4.4216667E1,1.9741502E-2,-0E0,-1.6043006E-1,-3.9503583E-1,-4.527947E-2,1.3749263E-1,-4.6381567E-2,-2.841849E-1,-8.135853E-2,1.16393365E-1,-4.0358957E-2,-5.352929E-2,3.360432E-1,-2.8712405E-3,-3.279139E-1,2.1753025E-1,-0E0],"split_indices":[13,8,12,1,17,5,5,0,13,15,14,15,14,18,15,0,0,0,0,0,0,0,0,0,0,0,0,0,0,0,0],"split_type":[0,0,0,0,0,0,0,0,0,0,0,0,0,0,0,0,0,0,0,0,0,0,0,0,0,0,0,0,0,0,0],"sum_hessian":[1.6319E4,1.94E2,1.6125E4,5.2E1,1.42E2,1.97E2,1.5928E4,9E0,4.3E1,3.9E1,1.03E2,1.74E2,2.3E1,1.5794E4,1.34E2,3E0,6E0,3.7E1,6E0,9E0,3E1,4.2E1,6.1E1,1.31E2,4.3E1,1E0,2.2E1,1.5791E4,3E0,5.3E1,8.1E1],"tree_param":{"num_deleted":"0","num_feature":"21","num_nodes":"31","size_leaf_vector":"0"}},{"base_weights":[-5.0589956E-2,-2.5131426E0,-1.1401308E-2,-5.6530684E-1,-3.379895E0,-3.0665737E-2,2.9912581E0,-3.2770836E0,5.447636E-1,-4.321101E0,-3.745549E-1,-5.5516305E0,-2.4818303E-2,4.9153004E0,-1.0264988E0,-4.3989835E0,-0E0,-4.650047E-1,2.6632648E0,-2.8427992E0,-5.8772783E0,-2.3621235E0,9.350994E-1,-8.56298E0,3.666857E-2,1.3166106E0,-4.2544983E-2,-3.9622566E-1,5.8134127E0,-3.3939383E0,1.4659374E0],"categories":[],"categories_nodes":[],"categories_segments":[],"categories_sizes":[],"default_left":[1,1,1,0,1,1,1,0,1,0,1,1,0,1,1,0,0,0,0,0,0,0,0,0,0,0,0,0,0,0,0],"id":45,"left_children":[1,3,5,7,9,11,13,15,17,19,21,23,25,27,29,-1,-1,-1,-1,-1,-1,-1,-1,-1,-1,-1,-1,-1,-1,-1,-1],"loss_changes":[1.5644971E3,3.995465E2,9.166632E2,2.814704E2,4.5778503E2,4.8793216E2,8.2543555E2,7.7709595E1,1.5409195E2,1.719248E2,1.4312454E2,3.1345465E2,3.740897E2,3.725276E2,2.469414E2,0E0,0E0,0E0,0E0,0E0,0E0,0E0,0E0,0E0,0E0,0E0,0E0,0E0,0E0,0E0,0E0],"parents":[2147483647,0,0,1,1,2,2,3,3,4,4,5,5,6,6,7,7,8,8,9,9,10,10,11,11,12,12,13,13,14,14],"right_children":[2,4,6,8,10,12,14,16,18,20,22,24,26,28,30,-1,-1,-1,-1,-1,-1,-1,-1,-1,-1,-1,-1,-1,-1,-1,-1],"split_conditions":[-3.6000282E1,3.125449E3,2.1126E-2,-5.841835E-1,-2.763119E0,-8.4928764E1,1.3441354E2,-5.08855E-2,-2.616325E1,-1.3116499E-2,1.3044106E3,1.3259402E3,-9.5996E-1,7.8635E-3,1.0366768E3,-2.1994917E-1,-0E0,-2.3250235E-2,1.3316324E-1,-1.4213996E-1,-2.9386392E-1,-1.1810618E-1,4.675497E-2,-4.2814898E-1,1.8334285E-3,6.583053E-2,-2.1272493E-3,-1.9811284E-2,2.9067063E-1,-1.6969691E-1,7.329687E-2],"split_indices":[13,16,5,7,1,2,1,11,2,15,14,14,7,20,14,0,0,0,0,0,0,0,0,0,0,0,0,0,0,0,0],"split_type":[0,0,0,0,0,0,0,0,0,0,0,0,0,0,0,0,0,0,0,0,0,0,0,0,0,0,0,0,0,0,0],"sum_hessian":[1.6339E4,2.49E2,1.609E4,8.1E1,1.68E2,1.5994E4,9.6E1,2.2E1,5.9E1,1.25E2,4.3E1,1.1E1,1.5983E4,6.5E1,3.1E1,1.4E1,8E0,4.1E1,1.8E1,7.3E1,5.2E1,1.7E1,2.6E1,6E0,5E0,2E2,1.5783E4,9E0,5.6E1,1.6E1,1.5E1],"tree_param":{"num_deleted":"0","num_feature":"21","num_nodes":"31","size_leaf_vector":"0"}},{"base_weights":[-4.192997E-2,-2.9716756E0,-1.7045985E-3,-3.5280716E0,2.0757232E0,3.9107928E0,-1.6910154E-2,-2.917774E0,-8.945461E0,-0E0,3.2401044E0,-2.6488953E0,4.8222733E0,2.170028E0,-3.5517238E-2,-5.8915563E0,-1.7117755E0,-0E0,-9.504508E0,5.83789E-1,-1.2065709E0,-0E0,3.6176543E0,1.2944012E0,6.06591E0,9.838875E-1,6.0817237E0,-5.507323E-2,1.0622166E0],"categories":[],"categories_nodes":[],"categories_segments":[],"categories_sizes":[],"default_left":[1,0,1,1,0,1,1,0,0,0,0,0,0,1,1,0,0,0,0,0,0,0,0,0,0,0,0,0,0],"id":46,"left_children":[1,3,5,7,9,11,13,15,17,19,21,-1,23,25,27,-1,-1,-1,-1,-1,-1,-1,-1,-1,-1,-1,-1,-1,-1],"loss_changes":[1.9053575E3,6.5890735E2,9.374877E2,4.7142383E2,6.456539E1,4.3945624E2,6.4177014E2,5.85797E2,8.500891E1,1.3939599E1,1.5251495E1,0E0,1.6963379E2,5.518494E2,3.3650058E2,0E0,0E0,0E0,0E0,0E0,0E0,0E0,0E0,0E0,0E0,0E0,0E0,0E0,0E0],"parents":[2147483647,0,0,1,1,2,2,3,3,4,4,5,5,6,6,7,7,8,8,9,9,10,10,12,12,13,13,14,14],"right_children":[2,4,6,8,10,12,14,16,18,20,22,-1,24,26,28,-1,-1,-1,-1,-1,-1,-1,-1,-1,-1,-1,-1,-1,-1],"split_conditions":[-5.2260498E1,7.085E-4,-5.0375004E0,3.5968761E0,2.2857149E0,-1.4127979E1,-5.3747307E1,-7.57353E-1,-1.5335E-3,-1.016905E-1,-9.9152946E-1,-1.3244477E-1,4.3142E-2,-3.7115002E-3,7.30355E-2,-2.945778E-1,-8.5588776E-2,-0E0,-4.7522542E-1,2.918945E-2,-6.0328543E-2,-0E0,1.8088272E-1,6.472006E-2,3.032955E-1,4.9194377E-2,3.0408618E-1,-2.7536617E-3,5.3110834E-2],"split_indices":[13,20,12,3,8,9,9,8,10,11,11,0,20,11,20,0,0,0,0,0,0,0,0,0,0,0,0,0,0],"split_type":[0,0,0,0,0,0,0,0,0,0,0,0,0,0,0,0,0,0,0,0,0,0,0,0,0,0,0,0,0],"sum_hessian":[1.6289E4,2.14E2,1.6075E4,1.95E2,1.9E1,5.6E1,1.6019E4,1.83E2,1.2E1,8E0,1.1E1,5E0,5.1E1,1.28E2,1.5891E4,4.6E1,1.37E2,1E0,1.1E1,6E0,2E0,2E0,9E0,1.7E1,3.4E1,1.04E2,2.4E1,1.5622E4,2.69E2],"tree_param":{"num_deleted":"0","num_feature":"21","num_nodes":"29","size_leaf_vector":"0"}},{"base_weights":[-4.900489E-2,-2.2210763E0,-1.2465147E-2,-6.4687524E0,-1.4899818E0,5.1546164E0,-2.4966655E-2,1.0861726E0,-2.5666478E0,-6.237683E-1,6.966147E0,-4.1074958E-2,2.504577E0,5.510547E-1,3.628376E0,-9.9013805E-1,-3.8896432E0,-1.1114776E0,-0E0,7.727368E0,-0E0,-5.1459137E-2,1.8260576E0,-6.7613834E-1,5.1533656E0],"categories":[],"categories_nodes":[],"categories_segments":[],"categories_sizes":[],"default_left":[1,1,1,0,1,1,1,1,1,1,0,1,1,0,0,0,0,0,0,0,0,0,0,0,0],"id":47,"left_children":[1,3,5,-1,7,9,11,13,15,17,19,21,23,-1,-1,-1,-1,-1,-1,-1,-1,-1,-1,-1,-1],"loss_changes":[1.2901528E3,7.4738135E2,1.01719214E3,0E0,6.786983E2,4.5121155E2,6.442588E2,6.705291E1,3.1091638E2,8.531078E0,1.5641357E2,3.0193134E2,8.8231226E2,0E0,0E0,0E0,0E0,0E0,0E0,0E0,0E0,0E0,0E0,0E0,0E0],"parents":[2147483647,0,0,1,1,2,2,4,4,5,5,6,6,7,7,8,8,9,9,10,10,11,11,12,12],"right_children":[2,4,6,-1,8,10,12,14,16,18,20,22,24,-1,-1,-1,-1,-1,-1,-1,-1,-1,-1,-1,-1],"split_conditions":[-2.6258358E1,-1.4488504E2,-9.441668E0,-3.2343763E-1,-1.3493999E2,6.66665E-2,6.3376637E1,2.769016E3,9.436668E1,1.1382272E3,-4.20951E-1,1.6833335E0,2.56883E3,2.7552737E-2,1.814188E-1,-4.9506903E-2,-1.9448216E-1,-5.557388E-2,-0E0,3.863684E-1,-0E0,-2.572957E-3,9.130288E-2,-3.3806916E-2,2.576683E-1],"split_indices":[2,13,12,0,1,18,2,0,19,14,7,12,0,0,0,0,0,0,0,0,0,0,0,0,0],"split_type":[0,0,0,0,0,0,0,0,0,0,0,0,0,0,0,0,0,0,0,0,0,0,0,0,0],"sum_hessian":[1.6393E4,2.64E2,1.6129E4,3.2E1,2.32E2,3.3E1,1.6096E4,6.7E1,1.65E2,8E0,2.5E1,1.6001E4,9.5E1,6.2E1,5E0,8.1E1,8.4E1,6E0,2E0,2.2E1,3E0,1.592E4,8.1E1,4.4E1,5.1E1],"tree_param":{"num_deleted":"0","num_feature":"21","num_nodes":"25","size_leaf_vector":"0"}},{"base_weights":[-4.405105E-2,-2.3884706E0,-1.7341723E-3,-7.102618E-1,-3.4388413E0,2.306535E0,-2.9788708E-2,-4.144016E0,5.19026E-1,5.229448E-1,-3.8060334E0,1.2058369E0,6.185941E0,1.03301E0,-4.9985316E-2,-4.7022085E0,-0E0,1.2248269E0,-2.4058409E0,1.5055401E0,-7.405061E-1,-4.1009007E0,1.624385E0,1.5047228E0,-1.2258229E0,-2.202196E0,7.0487638E0,6.558954E-1,6.015788E0,2.1414392E0,-6.0019955E-2],"categories":[],"categories_nodes":[],"categories_segments":[],"categories_sizes":[],"default_left":[1,1,1,1,1,1,1,0,1,1,0,1,1,1,1,0,0,0,0,0,0,0,0,0,0,0,0,0,0,0,0],"id":48,"left_children":[1,3,5,7,9,11,13,15,17,19,21,23,25,27,29,-1,-1,-1,-1,-1,-1,-1,-1,-1,-1,-1,-1,-1,-1,-1,-1],"loss_changes":[1.611278E3,4.7471167E2,1.0301945E3,5.311867E2,2.7949146E2,7.413255E2,3.3648517E2,9.661835E1,1.9668665E2,3.1745773E1,3.0349146E2,1.23996216E2,3.9134546E2,4.956037E2,3.3341394E2,0E0,0E0,0E0,0E0,0E0,0E0,0E0,0E0,0E0,0E0,0E0,0E0,0E0,0E0,0E0,0E0],"parents":[2147483647,0,0,1,1,2,2,3,3,4,4,5,5,6,6,7,7,8,8,9,9,10,10,11,11,12,12,13,13,14,14],"right_children":[2,4,6,8,10,12,14,16,18,20,22,24,26,28,30,-1,-1,-1,-1,-1,-1,-1,-1,-1,-1,-1,-1,-1,-1,-1,-1],"split_conditions":[-3.3878105E1,-1.6263684E2,-7.4831796E-1,-3.75E-2,3.046224E3,1.1740074E2,-6.3036873E1,-1.1095E-3,5.606782E0,5.4795837E0,2.4634E-2,1.6621112E2,3.0714631E3,7.0971E-2,-3.8663673E1,-2.3511043E-1,-0E0,6.1241347E-2,-1.20292045E-1,7.527701E-2,-3.7025306E-2,-2.0504503E-1,8.121925E-2,7.523614E-2,-6.1291147E-2,-1.101098E-1,3.5243818E-1,3.279477E-2,3.0078942E-1,1.0707196E-1,-3.0009977E-3],"split_indices":[13,9,12,12,16,13,1,15,4,4,20,9,16,20,9,0,0,0,0,0,0,0,0,0,0,0,0,0,0,0,0],"split_type":[0,0,0,0,0,0,0,0,0,0,0,0,0,0,0,0,0,0,0,0,0,0,0,0,0,0,0,0,0,0,0],"sum_hessian":[1.6357E4,2.83E2,1.6074E4,1.14E2,1.69E2,1.86E2,1.5888E4,2.8E1,8.6E1,1.3E1,1.56E2,1.51E2,3.5E1,2.87E2,1.5601E4,2.5E1,3E0,7.3E1,1.3E1,9E0,4E0,1.5E2,6E0,1.38E2,1.3E1,2E0,3.3E1,2.73E2,1.4E1,6.4E1,1.5537E4],"tree_param":{"num_deleted":"0","num_feature":"21","num_nodes":"31","size_leaf_vector":"0"}},{"base_weights":[-5.1305413E-2,-4.4110116E-2,-7.988465E0,-1.2556764E0,-1.3459504E-2,-0E0,-9.599987E0,-3.2979681E0,-1.6086559E-1,5.4824977E0,-2.458448E-2,-0E0,-1.014582E1,-4.022846E0,1.1452277E0,1.1130133E-2,-5.5958166E0,-2.59123E-1,6.8287945E0,-4.7779813E-2,1.1792642E0],"categories":[],"categories_nodes":[],"categories_segments":[],"categories_sizes":[],"default_left":[1,0,1,0,1,0,1,1,1,1,1,0,0,0,0,0,0,0,0,0,0],"id":49,"left_children":[1,3,5,7,9,-1,11,13,15,17,19,-1,-1,-1,-1,-1,-1,-1,-1,-1,-1],"loss_changes":[8.822901E2,5.941953E2,2.1249902E2,8.6324274E2,9.3845593E2,0E0,2.6397217E1,4.7544873E2,2.7501895E2,2.8132355E2,4.3464548E2,0E0,0E0,0E0,0E0,0E0,0E0,0E0,0E0,0E0,0E0],"parents":[2147483647,0,0,1,1,2,2,3,3,4,4,6,6,7,7,8,8,9,9,10,10],"right_children":[2,4,6,8,10,-1,12,14,16,18,20,-1,-1,-1,-1,-1,-1,-1,-1,-1,-1],"split_conditions":[2.7204166E1,-4.86135E-2,2.5440166E3,-5.562E-3,-9.441668E0,-0E0,-1.4188185E2,6.458335E-1,3.6884704E0,-4.825954E0,6.6250004E-3,-0E0,-5.07291E-1,-2.0114231E-1,5.7261385E-2,5.565066E-4,-2.7979085E-1,-1.295615E-2,3.4143972E-1,-2.3889907E-3,5.896321E-2],"split_indices":[12,11,0,5,12,0,1,12,3,9,5,0,0,0,0,0,0,0,0,0,0],"split_type":[0,0,0,0,0,0,0,0,0,0,0,0,0,0,0,0,0,0,0,0,0],"sum_hessian":[1.6178E4,1.6169E4,9E0,3.9E2,1.5779E4,2E0,7E0,1.31E2,2.59E2,2.6E1,1.5753E4,1E0,6E0,1.14E2,1.7E1,2.55E2,4E0,5E0,2.1E1,1.5464E4,2.89E2],"tree_param":{"num_deleted":"0","num_feature":"21","num_nodes":"21","size_leaf_vector":"0"}},{"base_weights":[-3.3963744E-2,-2.012109E0,-5.3879456E-3,-6.4492183E0,-1.1424749E0,-3.4710206E-2,1.3766563E0,5.937554E-1,-6.8781257E0,-1.6323473E0,1.7551899E0,-4.2513777E-2,1.6876739E0,6.8248115E0,8.6709386E-1,-0E0,-7.0110793E0,-2.216627E0,2.5874385E-1,3.6453571E0,-4.6827832E-1,-4.607665E-2,2.5386648E0,2.7074102E-1,4.425953E0,7.8280597E0,-0E0,1.7268473E-1,4.2263813E0],"categories":[],"categories_nodes":[],"categories_segments":[],"categories_sizes":[],"default_left":[0,0,1,1,1,1,1,0,1,1,1,1,1,1,1,0,0,0,0,0,0,0,0,0,0,0,0,0,0],"id":50,"left_children":[1,3,5,7,9,11,13,-1,15,17,19,21,23,25,27,-1,-1,-1,-1,-1,-1,-1,-1,-1,-1,-1,-1,-1,-1],"loss_changes":[9.2074634E2,8.2041077E2,6.516902E2,1.605896E2,2.9902792E2,2.0600204E2,8.5919415E2,0E0,1.5476685E1,2.0712405E2,1.5050241E2,1.3386676E2,2.382422E2,2.1307715E2,7.0216406E2,0E0,0E0,0E0,0E0,0E0,0E0,0E0,0E0,0E0,0E0,0E0,0E0,0E0,0E0],"parents":[2147483647,0,0,1,1,2,2,3,3,4,4,5,5,6,6,8,8,9,9,10,10,11,11,12,12,13,13,14,14],"right_children":[2,4,6,8,10,12,14,-1,16,18,20,22,24,26,28,-1,-1,-1,-1,-1,-1,-1,-1,-1,-1,-1,-1,-1,-1],"split_conditions":[-9.714E-3,-1.098615E-1,2.0971355E1,-2.706651E2,2.7455195E3,1.58793E-1,-2.0149704E1,2.9687772E-2,-2.3633414E2,5.6098948E0,-9.026099E1,1.0996891E3,1.627905E0,2.7074785E3,1.13655E-1,-0E0,-3.5055396E-1,-1.1083134E-1,1.2937193E-2,1.8226786E-1,-2.3413917E-2,-2.3038327E-3,1.2693325E-1,1.3537051E-2,2.2129765E-1,3.91403E-1,-0E0,8.634237E-3,2.1131907E-1],"split_indices":[5,11,2,9,0,20,9,0,1,4,1,9,2,0,11,0,0,0,0,0,0,0,0,0,0,0,0,0,0],"split_type":[0,0,0,0,0,0,0,0,0,0,0,0,0,0,0,0,0,0,0,0,0,0,0,0,0,0,0,0,0],"sum_hessian":[1.6463E4,2.27E2,1.6236E4,3.1E1,1.96E2,1.5907E4,3.29E2,1E0,3E1,1.71E2,2.5E1,1.5843E4,6.4E1,2.2E1,3.07E2,1E0,2.9E1,1.32E2,3.9E1,1.3E1,1.2E1,1.5828E4,1.5E1,4.7E1,1.7E1,1.9E1,3E0,2.6E2,4.7E1],"tree_param":{"num_deleted":"0","num_feature":"21","num_nodes":"29","size_leaf_vector":"0"}},{"base_weights":[-3.9959915E-2,-2.3862307E0,-1.1941076E-2,4.1274294E-1,-3.3294008E0,-2.6175383E-2,3.5907004E0,-4.197531E0,1.8748325E0,-2.629056E0,-7.7980795E0,3.4403603E0,-3.492665E-2,-4.9357328E-1,5.713399E0,4.7306532E-1,-6.3352427E0,2.105135E0,-4.6631274E-1,7.063606E-2,-3.8060896E0,-8.234003E0,-0E0,-6.1846304E-1,4.7488413E0,1.4116173E0,-4.94647E-2,1.1365544E0,-3.149776E0,6.1282334E0,-1.0491349E0],"categories":[],"categories_nodes":[],