{"learner":{"attributes":{"best_iteration":"633","best_ntree_limit":"634"},"feature_names":["Temperature diff 7061-5653 ft_lag4","Avg_CCS1_DH6325Ps_psi_diff1","Avg_CCS1_WHCO2InjPs_psi_pct_change1","Avg_CCS1_WHCO2InjPs_psi_diff1","Pressure diff 6982-6632 ft_diff4","Avg_CCS1_WHCO2InjPs_psi_pct_change5","Avg_CCS1_WHCO2InjPs_psi","Avg_CCS1_WHCO2InjPs_psi_diff2","Temperature diff 6416-5001 ft_lag1","Avg_CCS1_WHCO2InjTp_F_diff1","Pressure diff 6720-5482 ft_pct_change4","Avg_PLT_CO2VentRate_TPH_diff1","Avg_PLT_CO2VentRate_TPH_pct_change1","Avg_CCS1_WHCO2InjPs_psi ema 5","Temperature diff 5482-5001 ft_lag2","Avg_CCS1_DH6325Ps_psi","Avg_CCS1_DH6325Ps_psi_pct_change1","Avg_PLT_CO2VentRate_TPH_pct_change2"],"feature_types":["float","float","float","float","float","float","float","float","float","float","float","float","float","float","float","float","float","float"],"gradient_booster":{"model":{"gbtree_model_param":{"num_parallel_tree":"1","num_trees":"634","size_leaf_vector":"0"},"tree_info":[0,0,0,0,0,0,0,0,0,0,0,0,0,0,0,0,0,0,0,0,0,0,0,0,0,0,0,0,0,0,0,0,0,0,0,0,0,0,0,0,0,0,0,0,0,0,0,0,0,0,0,0,0,0,0,0,0,0,0,0,0,0,0,0,0,0,0,0,0,0,0,0,0,0,0,0,0,0,0,0,0,0,0,0,0,0,0,0,0,0,0,0,0,0,0,0,0,0,0,0,0,0,0,0,0,0,0,0,0,0,0,0,0,0,0,0,0,0,0,0,0,0,0,0,0,0,0,0,0,0,0,0,0,0,0,0,0,0,0,0,0,0,0,0,0,0,0,0,0,0,0,0,0,0,0,0,0,0,0,0,0,0,0,0,0,0,0,0,0,0,0,0,0,0,0,0,0,0,0,0,0,0,0,0,0,0,0,0,0,0,0,0,0,0,0,0,0,0,0,0,0,0,0,0,0,0,0,0,0,0,0,0,0,0,0,0,0,0,0,0,0,0,0,0,0,0,0,0,0,0,0,0,0,0,0,0,0,0,0,0,0,0,0,0,0,0,0,0,0,0,0,0,0,0,0,0,0,0,0,0,0,0,0,0,0,0,0,0,0,0,0,0,0,0,0,0,0,0,0,0,0,0,0,0,0,0,0,0,0,0,0,0,0,0,0,0,0,0,0,0,0,0,0,0,0,0,0,0,0,0,0,0,0,0,0,0,0,0,0,0,0,0,0,0,0,0,0,0,0,0,0,0,0,0,0,0,0,0,0,0,0,0,0,0,0,0,0,0,0,0,0,0,0,0,0,0,0,0,0,0,0,0,0,0,0,0,0,0,0,0,0,0,0,0,0,0,0,0,0,0,0,0,0,0,0,0,0,0,0,0,0,0,0,0,0,0,0,0,0,0,0,0,0,0,0,0,0,0,0,0,0,0,0,0,0,0,0,0,0,0,0,0,0,0,0,0,0,0,0,0,0,0,0,0,0,0,0,0,0,0,0,0,0,0,0,0,0,0,0,0,0,0,0,0,0,0,0,0,0,0,0,0,0,0,0,0,0,0,0,0,0,0,0,0,0,0,0,0,0,0,0,0,0,0,0,0,0,0,0,0,0,0,0,0,0,0,0,0,0,0,0,0,0,0,0,0,0,0,0,0,0,0,0,0,0,0,0,0,0,0,0,0,0,0,0,0,0,0,0,0,0,0,0,0,0,0,0,0,0,0,0,0,0,0,0,0,0,0,0,0,0,0,0,0,0,0,0,0,0,0,0,0,0,0,0,0,0,0,0,0,0,0,0,0,0,0,0,0,0,0,0,0,0,0,0,0,0,0,0,0,0,0,0,0,0,0,0,0,0,0,0,0,0,0,0,0,0,0,0,0,0,0,0,0,0,0,0,0,0,0,0,0,0,0,0,0,0,0,0,0,0,0,0,0],"trees":[{"base_weights":[-1.3221123E0,-1.5215617E0,1.5198638E0,1.2594341E0,-1.7720389E0,-0E0,1.8402259E0,1.903566E0,-6.357127E-2,-1.8504046E0,3.6960283E-1,8.973424E-1,-7.9070425E-1,1.8643726E0,6.1369187E-1,-0E0,1.9244063E0,-3.896935E-1,1.478799E0,-3.4385288E-1,-1.9119217E0,-6.13436E-2,9.8657626E-1,-4.2857143E-1,1.0256604E0,-1.4556779E0,-0E0,-0E0,1.8709035E0,-3.7037036E-1,9.2189306E-1],"categories":[],"categories_nodes":[],"categories_segments":[],"categories_sizes":[],"default_left":[1,0,1,1,1,1,0,1,1,1,1,1,1,0,1,0,0,0,0,0,0,0,0,0,0,0,0,0,0,0,0],"id":0,"left_children":[1,3,5,7,9,11,13,15,17,19,21,23,25,27,29,-1,-1,-1,-1,-1,-1,-1,-1,-1,-1,-1,-1,-1,-1,-1,-1],"loss_changes":[4.511418E3,5.1808613E3,2.5487561E2,5.2717706E2,1.1478496E3,7.157849E1,4.5914307E0,1.5667969E1,1.0538722E2,6.034492E2,6.6133026E1,1.0818462E1,2.8327377E1,3.331421E0,7.2905507E0,0E0,0E0,0E0,0E0,0E0,0E0,0E0,0E0,0E0,0E0,0E0,0E0,0E0,0E0,0E0,0E0],"parents":[2147483647,0,0,1,1,2,2,3,3,4,4,5,5,6,6,7,7,8,8,9,9,10,10,11,11,12,12,13,13,14,14],"right_children":[2,4,6,8,10,12,14,16,18,20,22,24,26,28,30,-1,-1,-1,-1,-1,-1,-1,-1,-1,-1,-1,-1,-1,-1,-1,-1],"split_conditions":[5.9165563E-3,-3.746475E-3,1.1622237E-2,-2.5213074E1,1.1211694E1,5.907488E-1,3.5943618E-1,-2.789455E2,1.2166667E0,-1.640393E1,6.426393E0,1.5609944E0,3.248359E1,-3.2933784E0,3.1018117E-1,-0E0,9.6220315E-2,-1.9484675E-2,7.393995E-2,-1.7192645E-2,-9.559609E-2,-3.06718E-3,4.9328815E-2,-2.1428572E-2,5.128302E-2,-7.2783895E-2,-0E0,-0E0,9.3545176E-2,-1.8518519E-2,4.6094652E-2],"split_indices":[16,16,2,3,3,7,5,7,11,7,1,6,7,10,9,0,0,0,0,0,0,0,0,0,0,0,0,0,0,0,0],"split_type":[0,0,0,0,0,0,0,0,0,0,0,0,0,0,0,0,0,0,0,0,0,0,0,0,0,0,0,0,0,0,0],"sum_hessian":[7.9336235E3,7.4158555E3,5.1776843E2,6.107453E2,6.80511E3,9.090866E1,4.2685977E2,4.0979166E2,2.0095363E2,6.5659976E3,2.391123E2,4.215879E1,4.8749874E1,4.1526892E2,1.1590828E1,4.704522E0,4.0508716E2,1.6949936E2,3.145427E1,2.5952173E2,6.306476E3,1.4247662E2,9.663567E1,2E0,4.015879E1,2.422726E1,2.4522612E1,1.9772612E0,4.1329166E2,1.75E0,9.840828E0],"tree_param":{"num_deleted":"0","num_feature":"18","num_nodes":"31","size_leaf_vector":"0"}},{"base_weights":[-1.25855E0,-1.5007052E0,1.346169E0,1.4836051E0,-1.7613915E0,4.337227E-1,1.6762156E0,1.6491041E0,2.3495585E-1,-1.7952698E0,1.0571973E0,-6.278683E-1,6.7568535E-1,7.0352876E-1,1.754058E0,2.8598046E-1,1.7581959E0,-2.9114243E-1,8.793054E-1,1.3901416E0,-1.8153361E0,-4.7598187E-2,1.3997908E0,-1.1261451E0,7.5693935E-1,6.475586E-2,1.0101793E0,9.3195796E-1,-7.330374E-1,1.7619045E0,-0E0],"categories":[],"categories_nodes":[],"categories_segments":[],"categories_sizes":[],"default_left":[1,1,0,1,1,1,1,0,1,1,1,1,0,1,0,0,0,0,0,0,0,0,0,0,0,0,0,0,0,0,0],"id":1,"left_children":[1,3,5,7,9,11,13,15,17,19,21,23,25,27,29,-1,-1,-1,-1,-1,-1,-1,-1,-1,-1,-1,-1,-1,-1,-1,-1],"loss_changes":[5.0071523E3,5.6544326E3,1.9787646E2,1.17052124E2,6.4724805E2,5.024314E1,2.8775269E1,7.201416E1,2.7289577E1,4.345332E2,3.2732697E1,2.9861267E1,3.0393684E1,1.8678331E1,5.588867E0,0E0,0E0,0E0,0E0,0E0,0E0,0E0,0E0,0E0,0E0,0E0,0E0,0E0,0E0,0E0,0E0],"parents":[2147483647,0,0,1,1,2,2,3,3,4,4,5,5,6,6,7,7,8,8,9,9,10,10,11,11,12,12,13,13,14,14],"right_children":[2,4,6,8,10,12,14,16,18,20,22,24,26,28,30,-1,-1,-1,-1,-1,-1,-1,-1,-1,-1,-1,-1,-1,-1,-1,-1],"split_conditions":[1.3678844E1,-1.7116566E1,2.575603E-3,-2.512068E1,1.0083333E0,1.8288162E1,1.7845191E-2,-2.2769842E-1,1.4564854E1,-1.7416667E0,2.0708332E0,9.0416664E-1,1.1333333E0,1.13349884E2,1.5388119E0,1.4299023E-2,8.7909795E-2,-1.4557122E-2,4.3965273E-2,6.9507085E-2,-9.076681E-2,-2.3799094E-3,6.998954E-2,-5.6307256E-2,3.7846968E-2,3.237793E-3,5.0508965E-2,4.6597898E-2,-3.6651872E-2,8.8095225E-2,-0E0],"split_indices":[3,3,16,3,11,3,2,2,8,11,11,11,17,7,2,0,0,0,0,0,0,0,0,0,0,0,0,0,0,0,0],"split_type":[0,0,0,0,0,0,0,0,0,0,0,0,0,0,0,0,0,0,0,0,0,0,0,0,0,0,0,0,0,0,0],"sum_hessian":[7.917197E3,7.24605E3,6.711467E2,5.7991766E2,6.6661323E3,1.8215686E2,4.889899E2,5.0992636E2,6.9991325E1,6.589104E3,7.702832E1,3.1564203E1,1.5059265E2,4.0904133E1,4.4808575E2,3.9806736E1,4.7011963E2,3.9185783E1,3.080554E1,3.879867E1,6.550305E3,1.8560577E1,5.8467743E1,2.442995E1,7.1342525E0,5.644939E1,9.4143265E1,3.7408234E1,3.495901E0,4.458596E2,2.2261705E0],"tree_param":{"num_deleted":"0","num_feature":"18","num_nodes":"31","size_leaf_vector":"0"}},{"base_weights":[-1.202516E0,1.2869912E0,-1.4073793E0,1.6235344E0,3.8412678E-1,-1.6592592E0,1.2531202E0,2.1529262E-1,1.7475585E0,-2.5284937E-1,1.5370586E0,1.0077646E0,-1.7065471E0,3.1821406E-1,1.5881331E0,5.040063E-1,-6.500924E-1,1.75451E0,-0E0,-6.4450717E-1,9.6243054E-1,-0E0,1.5739064E0,1.5581495E0,5.0459146E-1,-1.729028E0,1.2646132E0,-6.7815447E-1,5.571554E-1,7.7483284E-1,1.6912702E0],"categories":[],"categories_nodes":[],"categories_segments":[],"categories_sizes":[],"default_left":[1,1,1,1,1,1,0,1,1,1,1,0,1,1,1,0,0,0,0,0,0,0,0,0,0,0,0,0,0,0,0],"id":2,"left_children":[1,3,5,7,9,11,13,15,17,19,21,23,25,27,29,-1,-1,-1,-1,-1,-1,-1,-1,-1,-1,-1,-1,-1,-1,-1,-1],"loss_changes":[4.0262188E3,1.7752454E2,4.8895244E3,7.222461E1,1.2850005E2,8.483828E2,1.9355957E2,1.1887871E1,3.659912E0,5.685934E1,2.2355957E0,2.6874496E1,4.481953E2,4.3146675E1,2.9847534E1,0E0,0E0,0E0,0E0,0E0,0E0,0E0,0E0,0E0,0E0,0E0,0E0,0E0,0E0,0E0,0E0],"parents":[2147483647,0,0,1,1,2,2,3,3,4,4,5,5,6,6,7,7,8,8,9,9,10,10,11,11,12,12,13,13,14,14],"right_children":[2,4,6,8,10,12,14,16,18,20,22,24,26,28,30,-1,-1,-1,-1,-1,-1,-1,-1,-1,-1,-1,-1,-1,-1,-1,-1],"split_conditions":[-3.0234535E1,-3.3073982E1,1.3678844E1,-2.789455E2,1.514111E0,-1.5178074E1,2.575603E-3,1.223242E-3,3.3532178E3,4.5833334E-2,3.079504E3,-2.6493673E-3,2.0708332E0,1.8288162E1,2.1177726E-2,2.5200317E-2,-3.2504622E-2,8.7725505E-2,-0E0,-3.222536E-2,4.8121527E-2,-0E0,7.869532E-2,7.790747E-2,2.5229573E-2,-8.6451404E-2,6.3230656E-2,-3.3907723E-2,2.785777E-2,3.8741644E-2,8.4563516E-2],"split_indices":[7,3,3,7,3,3,16,11,15,11,15,16,11,3,2,0,0,0,0,0,0,0,0,0,0,0,0,0,0,0,0],"split_type":[0,0,0,0,0,0,0,0,0,0,0,0,0,0,0,0,0,0,0,0,0,0,0,0,0,0,0,0,0,0,0],"sum_hessian":[7.871418E3,5.961149E2,7.2753027E3,4.3053445E2,1.6558049E2,6.648154E3,6.2714923E2,3.660803E1,3.9392642E2,1.0861085E2,5.6969635E1,1.136846E2,6.534469E3,1.6880547E2,4.5834375E2,2.9882133E1,6.725894E0,3.9196045E2,1.9659805E0,8.453747E1,2.4073381E1,1.9651902E0,5.5004444E1,4.833921E1,6.534539E1,6.487807E3,4.6662052E1,3.006414E1,1.3874132E2,5.7463936E1,4.0087982E2],"tree_param":{"num_deleted":"0","num_feature":"18","num_nodes":"31","size_leaf_vector":"0"}},{"base_weights":[-1.1527561E0,-1.3754469E0,1.2307193E0,8.79658E-1,-1.6190836E0,3.893859E-1,1.5300975E0,1.3688843E0,-1.3320526E0,-1.6541442E0,7.967502E-1,-2.997821E-1,6.928663E-1,5.6564885E-1,1.6117383E0,1.5137713E0,2.3684342E-1,-1.6730736E0,-4.56815E-2,1.4498671E0,-1.6727959E0,-1.2096917E-1,1.2851496E0,-5.637514E-1,9.8741436E-1,1.0171604E0,-1.9889183E-1,7.7750975E-1,-7.339182E-1,1.6195883E0,-0E0],"categories":[],"categories_nodes":[],"categories_segments":[],"categories_sizes":[],"default_left":[1,0,1,1,1,0,1,1,1,1,1,1,1,1,1,0,0,0,0,0,0,0,0,0,0,0,0,0,0,0,0],"id":3,"left_children":[1,3,5,7,9,11,13,15,17,19,21,23,25,27,29,-1,-1,-1,-1,-1,-1,-1,-1,-1,-1,-1,-1,-1,-1,-1,-1],"loss_changes":[4.1516113E3,3.9314824E3,1.6366235E2,7.6564636E2,5.5352344E2,3.975171E1,3.1924805E1,9.0823364E1,5.4401566E1,3.8038672E2,4.4608936E1,2.2236013E1,3.934414E1,1.5831362E1,5.5998535E0,0E0,0E0,0E0,0E0,0E0,0E0,0E0,0E0,0E0,0E0,0E0,0E0,0E0,0E0,0E0,0E0],"parents":[2147483647,0,0,1,1,2,2,3,3,4,4,5,5,6,6,7,7,8,8,9,9,10,10,11,11,12,12,13,13,14,14],"right_children":[2,4,6,8,10,12,14,16,18,20,22,24,26,28,30,-1,-1,-1,-1,-1,-1,-1,-1,-1,-1,-1,-1,-1,-1,-1,-1],"split_conditions":[1.3678844E1,-1.33546805E-2,7.537254E0,-1.7116566E1,7.208333E-1,2.0046636E-2,1.7845191E-2,-2.512068E1,3.1059387E3,-1.7416667E0,2.0708332E0,2.0583334E0,8.7277755E-2,1.13349884E2,3.9353885E2,7.568856E-2,1.1842172E-2,-8.365368E-2,-2.284075E-3,7.249336E-2,-8.363979E-2,-6.0484586E-3,6.425748E-2,-2.8187571E-2,4.9370717E-2,5.085802E-2,-9.944592E-3,3.8875487E-2,-3.669591E-2,8.0979414E-2,-0E0],"split_indices":[3,2,1,3,11,2,2,3,15,11,11,11,5,7,3,0,0,0,0,0,0,0,0,0,0,0,0,0,0,0,0],"split_type":[0,0,0,0,0,0,0,0,0,0,0,0,0,0,0,0,0,0,0,0,0,0,0,0,0,0,0,0,0,0,0],"sum_hessian":[7.800524E3,7.136305E3,6.6421906E2,6.941438E2,6.442161E3,1.7821907E2,4.86E2,5.703426E2,1.2380121E2,6.351967E3,9.019444E1,5.349778E1,1.2472129E2,4.1979084E1,4.4402094E2,5.0335065E2,6.699194E1,9.605601E1,2.7745203E1,3.532845E1,6.316638E3,3.1923374E1,5.8271065E1,4.7370422E1,6.1273565E0,9.176762E1,3.2953674E1,3.8483425E1,3.4956598E0,4.4181366E2,2.207275E0],"tree_param":{"num_deleted":"0","num_feature":"18","num_nodes":"31","size_leaf_vector":"0"}},{"base_weights":[-1.1085188E0,-1.3275126E0,8.368192E-1,1.15971E0,-1.5394099E0,-3.3014697E-1,1.4328386E0,1.476981E0,-1.7398418E-1,6.6190255E-1,-1.5916742E0,-1.0945134E0,5.243124E-1,8.0258256E-1,1.5697424E0,6.699855E-2,1.5872883E0,-5.6979984E-1,1.0514191E0,1.2965437E0,1.4408965E-1,1.4393895E0,-1.6092889E0,-1.3312377E0,9.419444E-1,7.0916265E-1,-5.569861E-1,9.562323E-1,-6.0107976E-2,-0E0,1.5886052E0],"categories":[],"categories_nodes":[],"categories_segments":[],"categories_sizes":[],"default_left":[1,1,1,1,1,1,1,0,1,0,1,1,1,1,1,0,0,0,0,0,0,0,0,0,0,0,0,0,0,0,0],"id":4,"left_children":[1,3,5,7,9,11,13,15,17,19,21,23,25,27,29,-1,-1,-1,-1,-1,-1,-1,-1,-1,-1,-1,-1,-1,-1,-1,-1],"loss_changes":[3.2918262E3,3.6641855E3,5.4807776E2,2.3400623E2,7.416992E2,1.7861377E2,3.6178833E1,6.670441E1,5.5366833E1,4.7362595E1,3.452627E2,7.598503E1,2.7992424E1,1.5008057E1,1.3310547E1,0E0,0E0,0E0,0E0,0E0,0E0,0E0,0E0,0E0,0E0,0E0,0E0,0E0,0E0,0E0,0E0],"parents":[2147483647,0,0,1,1,2,2,3,3,4,4,5,5,6,6,7,7,8,8,9,9,10,10,11,11,12,12,13,13,14,14],"right_children":[2,4,6,8,10,12,14,16,18,20,22,24,26,28,30,-1,-1,-1,-1,-1,-1,-1,-1,-1,-1,-1,-1,-1,-1,-1,-1],"split_conditions":[9.868056E-3,-3.0234535E1,6.426393E0,-2.6394634E1,-1.2646248E1,1.8288162E1,2.7298103E1,-1.9859737E-1,2.5416666E-1,-2.5568404E-3,-1.7416667E0,9.0416664E-1,3.6421412E-1,1.3162849E3,7.549636E2,3.3499275E-3,7.936441E-2,-2.8489992E-2,5.2570958E-2,6.482719E-2,7.204483E-3,7.196947E-2,-8.0464445E-2,-6.6561885E-2,4.709722E-2,3.5458133E-2,-2.7849305E-2,4.7811616E-2,-3.005399E-3,-0E0,7.943026E-2],"split_indices":[2,7,1,3,3,3,3,5,11,16,11,11,5,6,13,0,0,0,0,0,0,0,0,0,0,0,0,0,0,0,0],"split_type":[0,0,0,0,0,0,0,0,0,0,0,0,0,0,0,0,0,0,0,0,0,0,0,0,0,0,0,0,0,0,0],"sum_hessian":[7.707795E3,6.9297856E3,7.780091E2,5.41904E2,6.387882E3,2.6321136E2,5.147977E2,4.379364E2,1.0396758E2,1.463496E2,6.241532E3,1.3880626E2,1.2440511E2,9.929513E1,4.155026E2,3.3016132E1,4.049203E2,8.1222984E1,2.2744602E1,6.151052E1,8.483907E1,3.3402634E1,6.2081294E3,1.2634236E2,1.2463899E1,1.0850205E2,1.5903064E1,8.480748E1,1.4487649E1,4.652354E0,4.1085025E2],"tree_param":{"num_deleted":"0","num_feature":"18","num_nodes":"31","size_leaf_vector":"0"}},{"base_weights":[-1.0684834E0,-1.2842603E0,1.0562245E0,1.1784647E0,-1.4760315E0,4.3495515E-1,1.4861503E0,1.3845803E0,-8.905343E-2,-1.257896E-1,-1.5403368E0,7.4006975E-1,-3.4919378E-1,1.8727465E-1,1.5035324E0,1.4457164E0,-0E0,-5.8033454E-1,1.0702821E0,-3.4139812E-1,1.1487124E0,1.3266138E0,-1.5582411E0,9.6029687E-1,1.7261022E-1,5.2681816E-1,-8.0493706E-1,6.347914E-1,-4.4458312E-1,1.5179445E0,1.1024982E-1],"categories":[],"categories_nodes":[],"categories_segments":[],"categories_sizes":[],"default_left":[1,1,1,1,1,1,1,1,1,0,1,1,1,1,1,0,0,0,0,0,0,0,0,0,0,0,0,0,0,0,0],"id":5,"left_children":[1,3,5,7,9,11,13,15,17,19,21,23,25,27,29,-1,-1,-1,-1,-1,-1,-1,-1,-1,-1,-1,-1,-1,-1,-1,-1],"loss_changes":[3.492792E3,3.270044E3,1.8269257E2,1.3286395E2,5.538154E2,7.2419495E1,6.217285E0,3.6052124E1,4.4835606E1,8.290178E1,3.2451562E2,2.49516E1,3.6451122E1,4.9719195E0,5.6817017E0,0E0,0E0,0E0,0E0,0E0,0E0,0E0,0E0,0E0,0E0,0E0,0E0,0E0,0E0,0E0,0E0],"parents":[2147483647,0,0,1,1,2,2,3,3,4,4,5,5,6,6,7,7,8,8,9,9,10,10,11,11,12,12,13,13,14,14],"right_children":[2,4,6,8,10,12,14,16,18,20,22,24,26,28,30,-1,-1,-1,-1,-1,-1,-1,-1,-1,-1,-1,-1,-1,-1,-1,-1],"split_conditions":[1.1211694E1,-1.4894992E1,1.89612E1,-3.5503995E-1,-1.640393E1,3.2587256E3,3.064259E3,1.07333555E1,2.3060312E0,2.9522392E-3,-1.7291667E0,7.294759E-2,-1.1937543E-2,-6.61741E-1,1.07985525E1,7.228582E-2,-0E0,-2.9016728E-2,5.3514104E-2,-1.7069906E-2,5.743562E-2,6.633069E-2,-7.7912055E-2,4.8014846E-2,8.630511E-3,2.6340907E-2,-4.0246855E-2,3.173957E-2,-2.2229156E-2,7.5897224E-2,5.512491E-3],"split_indices":[3,1,1,9,7,15,15,14,9,16,11,5,5,12,14,0,0,0,0,0,0,0,0,0,0,0,0,0,0,0,0],"split_type":[0,0,0,0,0,0,0,0,0,0,0,0,0,0,0,0,0,0,0,0,0,0,0,0,0,0,0,0,0,0,0],"sum_hessian":[7.5981895E3,6.89991E3,6.982793E2,4.9624127E2,6.403669E3,2.9065268E2,4.0762665E2,4.2711392E2,6.912734E1,2.9248978E2,6.111179E3,2.1035806E2,8.02946E1,6.9201508E0,4.007065E2,4.0858936E2,1.8524572E1,5.091236E1,1.8214983E1,2.5397063E2,3.8519135E1,3.531295E1,6.075866E3,1.477815E2,6.2576572E1,2.6460081E1,5.3834522E1,4.9638777E0,1.9562728E0,3.9545087E2,5.2556467E0],"tree_param":{"num_deleted":"0","num_feature":"18","num_nodes":"31","size_leaf_vector":"0"}},{"base_weights":[-1.0318213E0,-1.2300118E0,1.1312628E0,1.22839E0,-1.4481423E0,3.6516616E-1,1.3757697E0,1.4580626E0,5.18212E-1,-1.4829035E0,8.254967E-1,-2.5760934E-1,7.2024804E-1,7.809086E-1,1.4694045E0,1.5092701E0,-0E0,1.9503547E-1,1.1688057E0,1.2521535E0,-1.5024225E0,-2.5861101E-2,1.2885658E0,9.550044E-1,-7.5164205E-1,-9.963879E-2,9.790156E-1,1.008705E0,-3.2305655E-1,1.4822156E0,-2.3765491E-2],"categories":[],"categories_nodes":[],"categories_segments":[],"categories_sizes":[],"default_left":[1,1,1,1,1,0,1,1,1,1,1,1,0,0,1,0,0,0,0,0,0,0,0,0,0,0,0,0,0,0,0],"id":6,"left_children":[1,3,5,7,9,11,13,15,17,19,21,23,25,27,29,-1,-1,-1,-1,-1,-1,-1,-1,-1,-1,-1,-1,-1,-1,-1,-1],"loss_changes":[3.21446E3,3.6859336E3,1.1378308E2,8.5769104E1,5.047256E2,3.6828346E1,1.8463501E1,3.1222961E1,2.8181728E1,3.4105957E2,3.9928032E1,3.98404E1,2.351707E1,2.1605484E1,9.347168E0,0E0,0E0,0E0,0E0,0E0,0E0,0E0,0E0,0E0,0E0,0E0,0E0,0E0,0E0,0E0,0E0],"parents":[2147483647,0,0,1,1,2,2,3,3,4,4,5,5,6,6,7,7,8,8,9,9,10,10,11,11,12,12,13,13,14,14],"right_children":[2,4,6,8,10,12,14,16,18,20,22,24,26,28,30,-1,-1,-1,-1,-1,-1,-1,-1,-1,-1,-1,-1,-1,-1,-1,-1],"split_conditions":[1.4959753E1,-1.7116566E1,6.426393E0,-1.0393592E1,7.208333E-1,1.1333333E0,2.393926E-2,-2.2281792E1,1.0500405E1,-1.7416667E0,2.0708332E0,-8.8686705E-1,1.9839667E-2,1.3767946E-1,3.073133E2,7.54635E-2,-0E0,9.751773E-3,5.8440287E-2,6.2607676E-2,-7.512113E-2,-1.2930551E-3,6.442829E-2,4.775022E-2,-3.7582103E-2,-4.9819397E-3,4.895078E-2,5.0435252E-2,-1.6152827E-2,7.411078E-2,-1.1882746E-3],"split_indices":[3,3,1,1,11,17,2,3,1,11,11,11,2,5,3,0,0,0,0,0,0,0,0,0,0,0,0,0,0,0,0],"split_type":[0,0,0,0,0,0,0,0,0,0,0,0,0,0,0,0,0,0,0,0,0,0,0,0,0,0,0,0,0,0,0],"sum_hessian":[7.476652E3,6.8515083E3,6.251437E2,5.5611945E2,6.2953887E3,1.5525407E2,4.698896E2,4.1517703E2,1.4094244E2,6.202735E3,9.265359E1,5.5851986E1,9.940209E1,7.170804E1,3.9818155E2,4.008556E2,1.4321416E1,9.9535194E1,4.1407246E1,4.13522E1,6.161383E3,3.3543934E1,5.910965E1,1.4231331E1,4.1620655E1,2.3656952E1,7.574514E1,6.0550987E1,1.1157054E1,3.9549466E2,2.6868865E0],"tree_param":{"num_deleted":"0","num_feature":"18","num_nodes":"31","size_leaf_vector":"0"}},{"base_weights":[-9.9882895E-1,-1.2025527E0,9.819589E-1,1.1853757E0,-1.417861E0,3.871047E-1,1.391599E0,1.4118462E0,4.9606055E-1,-5.184109E-1,-1.4506918E0,6.752902E-1,-3.3246014E-1,6.598565E-1,1.4598266E0,1.4637032E0,3.3194944E-2,7.292496E-1,-2.5590873E-1,-7.061088E-1,1.1226004E0,1.281501E0,-1.4673933E0,8.944781E-1,8.63563E-2,-9.662771E-1,3.1132096E-1,9.495538E-1,-6.3093364E-1,-0E0,1.4735557E0],"categories":[],"categories_nodes":[],"categories_segments":[],"categories_sizes":[],"default_left":[1,1,0,1,1,1,0,0,1,1,1,1,0,0,1,0,0,0,0,0,0,0,0,0,0,0,0,0,0,0,0],"id":7,"left_children":[1,3,5,7,9,11,13,15,17,19,21,23,25,27,29,-1,-1,-1,-1,-1,-1,-1,-1,-1,-1,-1,-1,-1,-1,-1,-1],"loss_changes":[2.9697642E3,3.4338516E3,1.6298297E2,8.097211E1,1.7480566E2,6.1222477E1,1.3235413E1,2.776532E1,2.6944485E1,7.258828E1,2.7856543E2,2.5535156E1,3.6746796E1,2.0079117E1,6.2991943E0,0E0,0E0,0E0,0E0,0E0,0E0,0E0,0E0,0E0,0E0,0E0,0E0,0E0,0E0,0E0,0E0],"parents":[2147483647,0,0,1,1,2,2,3,3,4,4,5,5,6,6,7,7,8,8,9,9,10,10,11,11,12,12,13,13,14,14],"right_children":[2,4,6,8,10,12,14,16,18,20,22,24,26,28,30,-1,-1,-1,-1,-1,-1,-1,-1,-1,-1,-1,-1,-1,-1,-1,-1],"split_conditions":[1.1211694E1,-1.7116566E1,5.8423495E-3,-1.0393592E1,-8.382252E0,3.2587256E3,2.249495E-2,-1.979975E-2,-5.141032E-1,1.2208333E0,-2.0083332E0,7.294759E-2,2.0391092E-2,1.1644821E-1,7.549636E2,7.318516E-2,1.6597472E-3,3.6462482E-2,-1.2795436E-2,-3.530544E-2,5.613002E-2,6.407505E-2,-7.336967E-2,4.4723906E-2,4.317815E-3,-4.8313856E-2,1.5566048E-2,4.747769E-2,-3.1546682E-2,-0E0,7.3677786E-2],"split_indices":[3,3,16,1,1,15,2,2,17,11,11,5,2,5,13,0,0,0,0,0,0,0,0,0,0,0,0,0,0,0,0],"split_type":[0,0,0,0,0,0,0,0,0,0,0,0,0,0,0,0,0,0,0,0,0,0,0,0,0,0,0,0,0,0,0],"sum_hessian":[7.3392217E3,6.6570176E3,6.822039E2,5.483409E2,6.108677E3,2.8316913E2,3.9903476E2,4.077013E2,1.4063956E2,2.1914984E2,5.889527E3,2.0340347E2,7.976567E1,3.9833504E1,3.5920126E2,3.919255E2,1.5775812E1,1.08480255E2,3.21593E1,1.9975941E2,1.9390429E1,3.3118706E1,5.856408E3,1.451062E2,5.8297264E1,3.9714485E1,4.0051186E1,3.424442E1,5.5890837E0,3.8538346E0,3.553474E2],"tree_param":{"num_deleted":"0","num_feature":"18","num_nodes":"31","size_leaf_vector":"0"}},{"base_weights":[-9.685002E-1,-1.1669896E0,9.4651836E-1,1.144922E0,-1.3767028E0,2.1446861E-1,1.2651738E0,1.3656857E0,4.8105684E-1,-1.4029433E0,8.9826506E-1,-3.8107523E-1,5.57275E-1,6.623568E-1,1.3992147E0,1.4330002E0,1.5878028E-1,1.1834081E-1,1.0048176E0,1.1343775E0,-1.4200771E0,-5.289513E-2,1.2773737E0,-7.170055E-1,1.1426835E0,8.688459E-1,-1.7285138E-1,1.2136358E0,9.103543E-2,1.4099933E0,-0E0],"categories":[],"categories_nodes":[],"categories_segments":[],"categories_sizes":[],"default_left":[1,1,0,0,1,0,1,1,1,1,1,1,1,1,0,0,0,0,0,0,0,0,0,0,0,0,0,0,0,0,0],"id":8,"left_children":[1,3,5,7,9,11,13,15,17,19,21,23,25,27,29,-1,-1,-1,-1,-1,-1,-1,-1,-1,-1,-1,-1,-1,-1,-1,-1],"loss_changes":[2.7418462E3,3.171623E3,1.5539215E2,7.473926E1,3.6408008E2,4.4659195E1,3.1331299E1,3.0184021E1,2.580075E1,2.6566602E2,2.7113483E1,4.4418346E1,3.285864E1,2.8523914E1,6.652649E0,0E0,0E0,0E0,0E0,0E0,0E0,0E0,0E0,0E0,0E0,0E0,0E0,0E0,0E0,0E0,0E0],"parents":[2147483647,0,0,1,1,2,2,3,3,4,4,5,5,6,6,7,7,8,8,9,9,10,10,11,11,12,12,13,13,14,14],"right_children":[2,4,6,8,10,12,14,16,18,20,22,24,26,28,30,-1,-1,-1,-1,-1,-1,-1,-1,-1,-1,-1,-1,-1,-1,-1,-1],"split_conditions":[1.1211694E1,-1.7116566E1,2.575603E-3,-3.1662711E-3,1.0083333E0,1.8359847E-2,2.9333405E1,-2.5213074E1,1.0549284E1,-1.7416667E0,3.0939028E3,2.1875E0,7.294759E-2,2.3192715E1,1.5388119E0,7.165001E-2,7.939014E-3,5.9170406E-3,5.024088E-2,5.6718875E-2,-7.1003854E-2,-2.6447566E-3,6.386869E-2,-3.5850275E-2,5.7134178E-2,4.3442294E-2,-8.642569E-3,6.068179E-2,4.5517716E-3,7.0499666E-2,-0E0],"split_indices":[3,3,16,16,11,2,3,3,14,11,15,11,5,7,2,0,0,0,0,0,0,0,0,0,0,0,0,0,0,0,0],"split_type":[0,0,0,0,0,0,0,0,0,0,0,0,0,0,0,0,0,0,0,0,0,0,0,0,0,0,0,0,0,0,0],"sum_hessian":[7.193173E3,6.5198716E3,6.7330145E2,5.399802E2,5.979891E3,2.0768604E2,4.6561545E2,4.0012823E2,1.39852E2,5.9140327E3,6.585874E1,7.460408E1,1.3308195E2,9.1460655E1,3.741548E2,3.773183E2,2.2809961E1,8.737904E1,5.2472954E1,3.7089787E1,5.876943E3,1.924324E1,4.66155E1,6.3834534E1,1.0769546E1,9.357138E1,3.9510582E1,4.279515E1,4.8665504E1,3.7172635E2,2.4284291E0],"tree_param":{"num_deleted":"0","num_feature":"18","num_nodes":"31","size_leaf_vector":"0"}},{"base_weights":[-9.406431E-1,-1.134486E0,9.141338E-1,1.0671147E0,-1.3431748E0,2.0666285E-1,1.1969451E0,1.2344702E0,2.6693555E-2,-1.3713439E0,6.991777E-1,-3.266073E-2,1.3301193E0,1.274882E0,-3.0855408E-1,-0E0,1.3288677E0,-8.4801424E-1,8.011046E-1,-1.3997774E0,-4.9825314E-1,-3.6949608E-1,9.1113925E-1,-6.7490315E-1,4.588648E-1,-2.8334955E-2,1.2989603E0,2.4213885E-1,-1.1521455E0],"categories":[],"categories_nodes":[],"categories_segments":[],"categories_sizes":[],"default_left":[1,1,1,0,1,1,1,0,1,1,0,0,0,1,1,0,0,0,0,0,0,0,0,0,0,0,0,0,0],"id":9,"left_children":[1,3,5,7,9,11,13,15,17,19,21,23,-1,25,27,-1,-1,-1,-1,-1,-1,-1,-1,-1,-1,-1,-1,-1,-1],"loss_changes":[2.5375444E3,2.938329E3,1.311496E2,9.515729E1,3.4083887E2,5.4756023E1,5.8744263E1,5.6334778E1,5.943676E1,1.3741602E2,2.0830372E1,5.460611E1,0E0,1.5696289E1,1.4757977E1,0E0,0E0,0E0,0E0,0E0,0E0,0E0,0E0,0E0,0E0,0E0,0E0,0E0,0E0],"parents":[2147483647,0,0,1,1,2,2,3,3,4,4,5,5,6,6,7,7,8,8,9,9,10,10,11,11,13,13,14,14],"right_children":[2,4,6,8,10,12,14,16,18,20,22,24,-1,26,28,-1,-1,-1,-1,-1,-1,-1,-1,-1,-1,-1,-1,-1,-1],"split_conditions":[1.1211694E1,-1.5868002E1,2.9606394E1,-1.979975E-2,7.208333E-1,1.7708334E0,5.163575E-1,-1.960113E-1,1.2387816E3,2.8139795E-3,1.2445275E0,1.6261872E-3,6.650596E-2,4.398647E2,6.077593E0,-0E0,6.644338E-2,-4.2400714E-2,4.005523E-2,-6.998887E-2,-2.4912657E-2,-1.8474804E-2,4.5556962E-2,-3.374516E-2,2.2943242E-2,-1.4167478E-3,6.4948015E-2,1.2106943E-2,-5.7607275E-2],"split_indices":[3,3,3,2,11,11,5,5,6,16,17,16,0,13,14,0,0,0,0,0,0,0,0,0,0,0,0,0,0],"split_type":[0,0,0,0,0,0,0,0,0,0,0,0,0,0,0,0,0,0,0,0,0,0,0,0,0,0,0,0,0],"sum_hessian":[7.0378076E3,6.374128E3,6.6367975E2,5.496922E2,5.8244355E3,1.9301923E2,4.7066052E2,4.7189282E2,7.779939E1,5.747299E3,7.713668E1,1.6239061E2,3.0628622E1,4.4885434E2,2.1806181E1,3.3444942E1,4.3844788E2,3.5704334E1,4.2095055E1,5.5620015E3,1.8529724E2,1.13711815E1,6.5765495E1,7.047495E1,9.191566E1,7.37318E0,4.4148114E2,1.4633148E1,7.173032E0],"tree_param":{"num_deleted":"0","num_feature":"18","num_nodes":"29","size_leaf_vector":"0"}},{"base_weights":[-9.1483563E-1,-1.104344E0,8.8232756E-1,5.827023E-1,-1.3270315E0,3.3029833E-1,1.2837036E0,1.1904033E0,-5.060128E-1,-1.3477341E0,9.8298585E-1,1.2074195E0,1.729358E-1,5.902528E-1,1.3518052E0,1.3394271E0,3.4756857E-1,-1.1691077E0,3.2075262E-1,1.2612035E0,-1.3633469E0,-5.8520114E-1,1.304454E0,-0E0,1.2516072E0,-3.3035647E-2,1.1393516E0,8.7515235E-1,-6.286624E-1,1.3585637E0,-0E0],"categories":[],"categories_nodes":[],"categories_segments":[],"categories_sizes":[],"default_left":[1,0,0,1,1,1,0,1,1,1,1,1,1,0,1,0,0,0,0,0,0,0,0,0,0,0,0,0,0,0,0],"id":10,"left_children":[1,3,5,7,9,11,13,15,17,19,21,23,25,27,29,-1,-1,-1,-1,-1,-1,-1,-1,-1,-1,-1,-1,-1,-1,-1,-1],"loss_changes":[2.3495005E3,2.3450156E3,1.4226013E2,4.862613E2,2.7027344E2,3.6937096E1,1.19539795E1,5.5040405E1,1.4756464E2,2.3105957E2,3.0429543E1,1.5343132E0,5.0778763E1,1.8296715E1,2.6725464E0,0E0,0E0,0E0,0E0,0E0,0E0,0E0,0E0,0E0,0E0,0E0,0E0,0E0,0E0,0E0,0E0],"parents":[2147483647,0,0,1,1,2,2,3,3,4,4,5,5,6,6,7,7,8,8,9,9,10,10,11,11,12,12,13,13,14,14],"right_children":[2,4,6,8,10,12,14,16,18,20,22,24,26,28,30,-1,-1,-1,-1,-1,-1,-1,-1,-1,-1,-1,-1,-1,-1,-1,-1],"split_conditions":[1.1211694E1,-9.543243E-3,5.9152143E-3,-2.2838076E1,1.5541666E0,-1.0756329E0,2.249495E-2,-3.190467E0,3.1390496E3,-2.0083332E0,3.0645244E3,1.4785925E1,7.75E-1,1.1644821E-1,3.9353885E2,6.6971354E-2,1.7378429E-2,-5.8455385E-2,1.6037632E-2,6.306018E-2,-6.816735E-2,-2.9260058E-2,6.52227E-2,-0E0,6.258036E-2,-1.6517824E-3,5.6967583E-2,4.3757617E-2,-3.143312E-2,6.792819E-2,-0E0],"split_indices":[3,2,16,3,11,11,2,1,15,11,15,3,11,5,3,0,0,0,0,0,0,0,0,0,0,0,0,0,0,0,0],"split_type":[0,0,0,0,0,0,0,0,0,0,0,0,0,0,0,0,0,0,0,0,0,0,0,0,0,0,0,0,0,0,0],"sum_hessian":[6.8786196E3,6.224716E3,6.539039E2,7.243763E2,5.50034E3,2.8017435E2,3.7372952E2,4.6517532E2,2.5920096E2,5.453976E3,4.6363445E1,3.657734E1,2.4359702E2,3.9056267E1,3.3467328E2,3.9177258E2,7.340273E1,1.433602E2,1.1584076E2,2.9690544E1,5.4242856E3,6.6603193E0,3.9703125E1,1.9044904E0,3.4672848E1,2.0392828E2,3.9668743E1,3.3464954E1,5.5913115E0,3.3275012E2,1.9231298E0],"tree_param":{"num_deleted":"0","num_feature":"18","num_nodes":"31","size_leaf_vector":"0"}},{"base_weights":[-8.908327E-1,-1.0694609E0,9.244133E-1,5.633386E-1,-1.2853657E0,2.6331803E-1,1.1954645E0,1.1560485E0,-4.8565835E-1,-1.3091391E0,1.1481549E0,5.3465134E-1,-3.780993E-1,6.3947344E-1,1.2966001E0,1.3090005E0,3.5022995E-1,-8.662496E-1,4.9107924E-1,6.3826483E-1,-1.3189372E0,2.411274E-1,1.4823631E0,8.8926405E-1,-0E0,-1.1567513E0,6.554879E-1,1.0836524E0,-0E0,-0E0,1.3143028E0],"categories":[],"categories_nodes":[],"categories_segments":[],"categories_sizes":[],"default_left":[1,0,0,1,1,1,1,1,1,1,1,1,0,1,1,0,0,0,0,0,0,0,0,0,0,0,0,0,0,0,0],"id":11,"left_children":[1,3,5,7,9,11,13,15,17,19,21,23,25,27,29,-1,-1,-1,-1,-1,-1,-1,-1,-1,-1,-1,-1,-1,-1,-1,-1],"loss_changes":[2.1836104E3,2.1616382E3,1.0521393E2,4.4965344E2,3.2048047E2,3.304105E1,1.7869263E1,5.2820496E1,9.989493E1,1.07112305E2,1.3030289E1,2.5349392E1,4.958361E1,2.0959639E1,8.935791E0,0E0,0E0,0E0,0E0,0E0,0E0,0E0,0E0,0E0,0E0,0E0,0E0,0E0,0E0,0E0,0E0],"parents":[2147483647,0,0,1,1,2,2,3,3,4,4,5,5,6,6,7,7,8,8,9,9,10,10,11,11,12,12,13,13,14,14],"right_children":[2,4,6,8,10,12,14,16,18,20,22,24,26,28,30,-1,-1,-1,-1,-1,-1,-1,-1,-1,-1,-1,-1,-1,-1,-1,-1],"split_conditions":[1.3678844E1,-9.543243E-3,2.575603E-3,-2.2838076E1,2.0708332E0,-2.9856545E-1,2.9333405E1,-3.626923E0,1.1690718E3,-4.5277624E0,1.09863E3,1.9042328E-2,2.068182E0,3.320056E1,7.549636E2,6.545003E-2,1.7511498E-2,-4.3312483E-2,2.4553962E-2,3.1913243E-2,-6.594686E-2,1.205637E-2,7.411816E-2,4.4463202E-2,-0E0,-5.7837564E-2,3.2774396E-2,5.418262E-2,-0E0,-0E0,6.571514E-2],"split_indices":[3,2,16,3,11,12,3,1,6,9,6,5,12,7,13,0,0,0,0,0,0,0,0,0,0,0,0,0,0,0,0],"split_type":[0,0,0,0,0,0,0,0,0,0,0,0,0,0,0,0,0,0,0,0,0,0,0,0,0,0,0,0,0,0,0],"sum_hessian":[6.7135664E3,6.11448E3,5.990864E2,7.126119E2,5.4018677E3,1.7814256E2,4.2094388E2,4.5561874E2,2.5699313E2,5.352302E3,4.9566147E1,1.2686659E2,5.1275974E1,7.194267E1,3.4900122E2,3.792671E2,7.635164E1,1.8607672E2,7.091643E1,2.4678211E1,5.3276235E3,1.6469149E1,3.3097E1,7.472241E1,5.214418E1,2.9456583E1,2.1819393E1,3.964226E1,3.2300415E1,4.2990413E0,3.4470218E2],"tree_param":{"num_deleted":"0","num_feature":"18","num_nodes":"31","size_leaf_vector":"0"}},{"base_weights":[-8.6813724E-1,-1.050533E0,8.284635E-1,5.4510915E-1,-1.2655026E0,3.064217E-1,1.2224458E0,1.1238419E0,-4.6550402E-1,-1.2878531E0,7.4583715E-1,4.6804607E-1,-5.5295515E-1,5.9237283E-1,1.2897049E0,1.2770923E0,3.346643E-1,-8.1075794E-1,9.890667E-1,1.1789255E0,-1.3046585E0,-5.6525475E-1,9.800964E-1,6.261036E-1,-1.3953216E-1,6.643238E-1,-9.240004E-1,-4.4979152E-1,8.4390056E-1,1.3020502E0,-0E0],"categories":[],"categories_nodes":[],"categories_segments":[],"categories_sizes":[],"default_left":[1,0,0,1,1,1,1,1,1,1,1,1,1,0,1,0,0,0,0,0,0,0,0,0,0,0,0,0,0,0,0],"id":12,"left_children":[1,3,5,7,9,11,13,15,17,19,21,23,25,27,29,-1,-1,-1,-1,-1,-1,-1,-1,-1,-1,-1,-1,-1,-1,-1,-1],"loss_changes":[2.0322056E3,2.034477E3,1.2788107E2,4.1601587E2,2.3993262E2,4.0419285E1,9.59668E0,5.0774353E1,1.343379E2,2.2186035E2,2.162061E1,2.4095749E1,2.410566E1,1.4219326E1,4.490906E0,0E0,0E0,0E0,0E0,0E0,0E0,0E0,0E0,0E0,0E0,0E0,0E0,0E0,0E0,0E0,0E0],"parents":[2147483647,0,0,1,1,2,2,3,3,4,4,5,5,6,6,7,7,8,8,9,9,10,10,11,11,12,12,13,13,14,14],"right_children":[2,4,6,8,10,12,14,16,18,20,22,24,26,28,30,-1,-1,-1,-1,-1,-1,-1,-1,-1,-1,-1,-1,-1,-1,-1,-1],"split_conditions":[1.1211694E1,-9.543243E-3,5.9152143E-3,-2.2838076E1,1.0083333E0,1.3462563E3,2.7298103E1,-3.626923E0,1.2499999E-2,-1.7416667E0,3.0586057E3,3.2587256E3,-2.2916667E-1,-3.71321E-4,3.576328E2,6.385462E-2,1.6733214E-2,-4.0537897E-2,4.9453337E-2,5.8946278E-2,-6.5232925E-2,-2.8262738E-2,4.900482E-2,3.130518E-2,-6.976608E-3,3.321619E-2,-4.620002E-2,-2.2489576E-2,4.219503E-2,6.510251E-2,-0E0],"split_indices":[3,2,16,3,11,6,3,1,11,11,15,15,11,10,7,0,0,0,0,0,0,0,0,0,0,0,0,0,0,0,0],"split_type":[0,0,0,0,0,0,0,0,0,0,0,0,0,0,0,0,0,0,0,0,0,0,0,0,0,0,0,0,0,0,0],"sum_hessian":[6.5473145E3,5.9140127E3,6.333018E2,7.0069244E2,5.2133203E3,2.7729816E2,3.560037E2,4.4582043E2,2.5487201E2,5.1582954E3,5.502482E1,2.3629773E2,4.100042E1,4.0500988E1,3.155027E2,3.696748E2,7.614563E1,2.0832498E2,4.654703E1,3.2161774E1,5.126134E3,6.6231513E0,4.8401665E1,1.8870164E2,4.7596073E1,8.025199E0,3.2975224E1,6.335202E0,3.4165787E1,3.1210287E2,3.3998284E0],"tree_param":{"num_deleted":"0","num_feature":"18","num_nodes":"31","size_leaf_vector":"0"}},{"base_weights":[-8.471699E-1,9.184928E-1,-1.0003717E0,1.1607927E0,3.2244152E-1,-1.1850092E0,8.6855924E-1,-0E0,1.2883183E0,-2.0521596E-1,1.2763798E0,5.968743E-1,-1.2326031E0,2.1417008E-1,1.1325287E0,6.4616954E-1,-1.3729223E0,1.296092E0,-0E0,-5.295536E-1,7.537552E-1,-0E0,1.3297414E0,1.1740998E0,1.5744974E-1,-1.2534717E0,1.0376823E0,4.8818257E-1,-4.989066E-1,4.9649233E-1,1.2214934E0],"categories":[],"categories_nodes":[],"categories_segments":[],"categories_sizes":[],"default_left":[1,1,1,1,1,1,0,1,1,1,1,1,1,1,1,0,0,0,0,0,0,0,0,0,0,0,0,0,0,0,0],"id":13,"left_children":[1,3,5,7,9,11,13,15,17,19,21,23,25,27,29,-1,-1,-1,-1,-1,-1,-1,-1,-1,-1,-1,-1,-1,-1,-1,-1],"loss_changes":[1.7310986E3,7.053879E1,2.0329937E3,5.3489105E1,8.089952E1,4.5802637E2,8.9109406E1,4.0545067E1,3.534851E0,3.4140167E1,3.9744186E0,3.3762337E1,2.5369678E2,3.2429005E1,1.6519257E1,0E0,0E0,0E0,0E0,0E0,0E0,0E0,0E0,0E0,0E0,0E0,0E0,0E0,0E0,0E0,0E0],"parents":[2147483647,0,0,1,1,2,2,3,3,4,4,5,5,6,6,7,7,8,8,9,9,10,10,11,11,12,12,13,13,14,14],"right_children":[2,4,6,8,10,12,14,16,18,20,22,24,26,28,30,-1,-1,-1,-1,-1,-1,-1,-1,-1,-1,-1,-1,-1,-1,-1,-1],"split_conditions":[-3.0234535E1,-3.3073982E1,1.4959753E1,-2.789455E2,2.928863E-1,-1.2646248E1,2.575603E-3,-6.555556E-1,3.3532178E3,4.5833334E-2,3.079504E3,-8.441326E0,2.0708332E0,-2.9856545E-1,2.7298103E1,3.2308478E-2,-6.864612E-2,6.4804606E-2,-0E0,-2.647768E-2,3.768776E-2,-0E0,6.648707E-2,5.870499E-2,7.872487E-3,-6.267359E-2,5.1884115E-2,2.4409128E-2,-2.4945332E-2,2.4824617E-2,6.107467E-2],"split_indices":[7,3,3,7,3,3,16,12,15,11,15,1,11,12,3,0,0,0,0,0,0,0,0,0,0,0,0,0,0,0,0],"split_type":[0,0,0,0,0,0,0,0,0,0,0,0,0,0,0,0,0,0,0,0,0,0,0,0,0,0,0,0,0,0,0],"sum_hessian":[6.3772744E3,5.0664532E2,5.8706294E3,3.556539E2,1.5099141E2,5.3449497E3,5.256794E2,3.563872E1,3.2001517E2,9.9068924E1,5.192249E1,1.3700124E2,5.2079487E3,1.5479137E2,3.7088803E2,2.5994059E1,9.644665E0,3.182324E2,1.7827938E0,7.6483025E1,2.2585905E1,2.2291455E0,4.969334E1,5.4618923E1,8.238232E1,5.1631685E3,4.4780266E1,1.1397408E2,4.081728E1,5.092854E1,3.1995947E2],"tree_param":{"num_deleted":"0","num_feature":"18","num_nodes":"31","size_leaf_vector":"0"}},{"base_weights":[-8.2704145E-1,-1.0035322E0,7.7947176E-1,9.13011E-1,-1.1940776E0,2.8411463E-1,1.1685519E0,1.0903829E0,7.833003E-2,-1.2286698E0,-2.3230743E-1,4.658004E-1,-4.0298244E-1,5.587719E-1,1.2362603E0,-0E0,1.1985667E0,-9.529255E-1,4.5094368E-1,-2.6505738E-1,-1.2653425E0,9.2435765E-1,-5.7089865E-1,6.1550176E-1,-1.1003588E-2,4.1809484E-1,-6.708023E-1,-4.421424E-1,8.061947E-1,-0E0,1.2514447E0],"categories":[],"categories_nodes":[],"categories_segments":[],"categories_sizes":[],"default_left":[1,1,0,1,1,1,1,0,0,0,0,1,0,0,1,0,0,0,0,0,0,0,0,0,0,0,0,0,0,0,0],"id":14,"left_children":[1,3,5,7,9,11,13,15,17,19,21,23,25,27,29,-1,-1,-1,-1,-1,-1,-1,-1,-1,-1,-1,-1,-1,-1,-1,-1],"loss_changes":[1.7659209E3,2.0512764E3,1.15864044E2,7.374509E1,1.6670215E2,3.5868443E1,8.912872E0,4.8736176E1,3.8367687E1,1.7059668E2,7.440295E1,1.6653057E1,1.4835764E1,1.3260856E1,5.6164246E0,0E0,0E0,0E0,0E0,0E0,0E0,0E0,0E0,0E0,0E0,0E0,0E0,0E0,0E0,0E0,0E0],"parents":[2147483647,0,0,1,1,2,2,3,3,4,4,5,5,6,6,7,7,8,8,9,9,10,10,11,11,12,12,13,13,14,14],"right_children":[2,4,6,8,10,12,14,16,18,20,22,24,26,28,30,-1,-1,-1,-1,-1,-1,-1,-1,-1,-1,-1,-1,-1,-1,-1,-1],"split_conditions":[1.1211694E1,-1.5490799E1,5.9152143E-3,-2.512068E1,2.7528876E-3,1.3274148E3,2.7298103E1,-2.2769842E-1,-1.1614338E-1,-2.5879461E-3,-3.751371E-3,7.294759E-2,-9.6294665E-1,-3.71321E-4,7.549636E2,-0E0,5.9928335E-2,-4.7646277E-2,2.2547184E-2,-1.3252869E-2,-6.326713E-2,4.6217885E-2,-2.8544933E-2,3.0775089E-2,-5.5017945E-4,2.0904742E-2,-3.3540115E-2,-2.210712E-2,4.030974E-2,-0E0,6.257223E-2],"split_indices":[3,3,16,3,16,6,3,2,5,16,2,5,17,10,13,0,0,0,0,0,0,0,0,0,0,0,0,0,0,0,0],"split_type":[0,0,0,0,0,0,0,0,0,0,0,0,0,0,0,0,0,0,0,0,0,0,0,0,0,0,0,0,0,0,0],"sum_hessian":[6.2086494E3,5.5963374E3,6.123117E2,5.0389157E2,5.092446E3,2.7430356E2,3.3800815E2,4.1332843E2,9.056316E1,4.9133013E3,1.7914476E2,2.1936398E2,5.4939594E1,3.9880203E1,2.9812796E2,3.8183716E1,3.751447E2,2.1258043E1,6.930512E1,1.8264073E2,4.73066E3,3.7938652E1,1.412061E2,1.6743694E2,5.1927044E1,1.1904282E1,4.3035313E1,6.323352E0,3.355685E1,3.7251747E0,2.9440277E2],"tree_param":{"num_deleted":"0","num_feature":"18","num_nodes":"31","size_leaf_vector":"0"}},{"base_weights":[-8.079248E-1,-9.815585E-1,7.541778E-1,8.8585967E-1,-1.1689134E0,2.7097344E-1,1.1429119E0,1.0626323E0,7.264565E-2,-1.2037961E0,-2.2153597E-1,5.253782E-1,-3.5402882E-1,4.9488494E-1,1.2132053E0,-4.491092E-2,1.1611897E0,-5.4239625E-1,7.3506075E-1,-2.6648873E-1,-1.2409116E0,5.9365135E-1,-6.8441564E-1,7.6417065E-1,9.5398664E-2,3.365395E-1,-7.641747E-1,7.7908677E-1,-6.398504E-1,-0E0,1.228452E0],"categories":[],"categories_nodes":[],"categories_segments":[],"categories_sizes":[],"default_left":[1,1,0,1,1,1,0,0,1,1,1,1,1,0,1,0,0,0,0,0,0,0,0,0,0,0,0,0,0,0,0],"id":15,"left_children":[1,3,5,7,9,11,13,15,17,19,21,23,25,27,29,-1,-1,-1,-1,-1,-1,-1,-1,-1,-1,-1,-1,-1,-1,-1,-1],"loss_changes":[1.6440884E3,1.9104575E3,1.1108615E2,7.0186554E1,1.6085938E2,4.536654E1,1.04939575E1,4.595395E1,4.107255E1,1.628877E2,7.116342E1,1.9414291E1,2.5048046E1,1.633748E1,5.407776E0,0E0,0E0,0E0,0E0,0E0,0E0,0E0,0E0,0E0,0E0,0E0,0E0,0E0,0E0,0E0,0E0],"parents":[2147483647,0,0,1,1,2,2,3,3,4,4,5,5,6,6,7,7,8,8,9,9,10,10,11,11,12,12,13,13,14,14],"right_children":[2,4,6,8,10,12,14,16,18,20,22,24,26,28,30,-1,-1,-1,-1,-1,-1,-1,-1,-1,-1,-1,-1,-1,-1,-1,-1],"split_conditions":[1.1211694E1,-1.5490799E1,5.9152143E-3,-2.512068E1,2.7528876E-3,3.2587256E3,2.249495E-2,-1.9859737E-1,-2.4865566E1,-8.382252E0,1.4446175E0,4.6782978E-2,-6.335819E-3,1.1644821E-1,7.549636E2,-2.245546E-3,5.8059484E-2,-2.7119813E-2,3.675304E-2,-1.3324437E-2,-6.204558E-2,2.9682567E-2,-3.422078E-2,3.8208533E-2,4.7699334E-3,1.6826976E-2,-3.8208734E-2,3.895434E-2,-3.199252E-2,-0E0,6.1422598E-2],"split_indices":[3,3,16,3,16,15,2,5,7,1,7,5,5,5,13,0,0,0,0,0,0,0,0,0,0,0,0,0,0,0,0],"split_type":[0,0,0,0,0,0,0,0,0,0,0,0,0,0,0,0,0,0,0,0,0,0,0,0,0,0,0,0,0,0,0],"sum_hessian":[6.0420356E3,5.4398716E3,6.0216425E2,4.93823E2,4.9460483E3,2.733912E2,3.2877304E2,4.0337582E2,9.044716E1,4.768077E3,1.7797105E2,1.9600507E2,7.738613E1,3.7499256E1,2.912738E2,3.2355442E1,3.710204E2,4.65876E1,4.385956E1,1.8419878E2,4.5838784E3,6.3162045E1,1.1480901E2,1.2202548E2,7.3979576E1,2.8261318E1,4.9124817E1,3.1946424E1,5.552829E0,3.7251747E0,2.875486E2],"tree_param":{"num_deleted":"0","num_feature":"18","num_nodes":"31","size_leaf_vector":"0"}},{"base_weights":[-7.897985E-1,-9.6075773E-1,7.3039806E-1,8.664624E-1,-1.1445234E0,1.2843332E-1,1.03309E0,1.111554E0,2.9480276E-1,-1.174639E0,7.142535E-1,8.42554E-1,-1.0924672E-1,5.14246E-1,1.1664377E0,1.188021E0,-2.9077647E-2,2.764966E-2,9.305904E-1,-1.2069466E0,-2.7080387E-1,-2.6936865E-1,8.9966476E-1,6.421298E-2,1.0589397E0,2.1793617E-1,-6.57375E-1,1.0795482E0,-0E0,1.1953822E0,1.8219034E-1],"categories":[],"categories_nodes":[],"categories_segments":[],"categories_sizes":[],"default_left":[1,1,0,1,1,0,1,0,1,1,0,0,1,1,0,0,0,0,0,0,0,0,0,0,0,0,0,0,0,0,0],"id":16,"left_children":[1,3,5,7,9,11,13,15,17,19,21,23,25,27,29,-1,-1,-1,-1,-1,-1,-1,-1,-1,-1,-1,-1,-1,-1,-1,-1],"loss_changes":[1.5321267E3,1.7812183E3,1.0690823E2,6.500235E1,2.7382324E2,3.62403E1,2.2667145E1,3.0716492E1,2.5031403E1,1.3513037E2,1.629398E1,7.494644E0,2.9544296E1,2.6497957E1,6.335663E0,0E0,0E0,0E0,0E0,0E0,0E0,0E0,0E0,0E0,0E0,0E0,0E0,0E0,0E0,0E0,0E0],"parents":[2147483647,0,0,1,1,2,2,3,3,4,4,5,5,6,6,7,7,8,8,9,9,10,10,11,11,12,12,13,13,14,14],"right_children":[2,4,6,8,10,12,14,16,18,20,22,24,26,28,30,-1,-1,-1,-1,-1,-1,-1,-1,-1,-1,-1,-1,-1,-1,-1,-1],"split_conditions":[1.1211694E1,-1.5868002E1,2.575603E-3,-1.0393592E1,7.208333E-1,-3.8727745E-3,2.9333405E1,-1.979975E-2,1.0500405E1,2.8139795E-3,1.2445275E0,7.44697E-1,2.0682149E-2,2.1901947E1,3.5957122E-1,5.9401046E-2,-1.4538824E-3,1.382483E-3,4.652952E-2,-6.034733E-2,-1.3540193E-2,-1.3468432E-2,4.4983238E-2,3.210649E-3,5.2946985E-2,1.08968085E-2,-3.286875E-2,5.397741E-2,-0E0,5.9769113E-2,9.109518E-3],"split_indices":[3,3,16,1,11,16,3,2,1,16,17,17,5,7,5,0,0,0,0,0,0,0,0,0,0,0,0,0,0,0,0],"split_type":[0,0,0,0,0,0,0,0,0,0,0,0,0,0,0,0,0,0,0,0,0,0,0,0,0,0,0,0,0,0,0],"sum_hessian":[5.8758647E3,5.2841177E3,5.917469E2,4.8067276E2,4.803445E3,2.0148264E2,3.9026422E2,3.3190247E2,1.4877031E2,4.7292017E3,7.424333E1,4.8186592E1,1.5329605E2,8.629184E1,3.0397238E2,3.1167688E2,2.0225565E1,1.0953489E2,3.9235424E1,4.5633027E3,1.65899E2,1.0560659E1,6.3682674E1,1.2897897E1,3.5288692E1,9.673915E1,5.65569E1,3.8451965E1,4.783987E1,2.932597E2,1.07127E1],"tree_param":{"num_deleted":"0","num_feature":"18","num_nodes":"31","size_leaf_vector":"0"}},{"base_weights":[-7.7252346E-1,8.2391065E-1,-9.1860676E-1,1.1863047E0,1.743651E-1,-1.1201918E0,6.126088E-1,-0E0,1.205394E0,-3.285688E-1,8.417815E-1,-1.1483923E0,5.890293E-1,-1.2455906E-1,1.0336641E0,4.0724996E-1,-5.546796E-1,-0E0,1.2241881E0,-6.818509E-1,4.3671006E-1,1.0996655E0,-3.6347337E-2,8.983344E-1,-1.1719642E0,-0E0,1.1737072E0,8.8036305E-1,-7.029561E-1,6.1835E-1,1.1466361E0],"categories":[],"categories_nodes":[],"categories_segments":[],"categories_sizes":[],"default_left":[0,0,1,0,1,1,1,0,0,1,1,1,1,0,1,0,0,0,0,0,0,0,0,0,0,0,0,0,0,0,0],"id":17,"left_children":[1,3,5,7,9,11,13,15,17,19,21,23,25,27,29,-1,-1,-1,-1,-1,-1,-1,-1,-1,-1,-1,-1,-1,-1,-1,-1],"loss_changes":[1.3366492E3,1.1086676E2,1.6209609E3,7.4075317E0,6.2035133E1,2.2718799E2,1.9154022E2,3.342094E0,7.9532166E0,3.0098278E1,1.9209713E1,2.2547217E2,2.5885239E1,1.3434622E2,1.303418E1,0E0,0E0,0E0,0E0,0E0,0E0,0E0,0E0,0E0,0E0,0E0,0E0,0E0,0E0,0E0,0E0],"parents":[2147483647,0,0,1,1,2,2,3,3,4,4,5,5,6,6,7,7,8,8,9,9,10,10,11,11,12,12,13,13,14,14],"right_children":[2,4,6,8,10,12,14,16,18,20,22,24,26,28,30,-1,-1,-1,-1,-1,-1,-1,-1,-1,-1,-1,-1,-1,-1,-1,-1],"split_conditions":[-3.6389343E-3,-1.979975E-2,2.605935E-3,-7.028375E-1,2.2061397E-3,7.0416665E-1,9.401249E-3,-6.5999997E-1,-1.960113E-1,4.1666664E-3,3.253245E3,-8.8686705E-1,3.248955E0,-3.751371E-3,2.9333405E1,2.0362498E-2,-2.773398E-2,-0E0,6.1209407E-2,-3.4092546E-2,2.1835504E-2,5.4983277E-2,-1.8173669E-3,4.491672E-2,-5.859821E-2,-0E0,5.8685362E-2,4.4018153E-2,-3.5147805E-2,3.0917501E-2,5.7331808E-2],"split_indices":[16,2,16,2,2,11,2,17,5,11,15,11,3,2,3,0,0,0,0,0,0,0,0,0,0,0,0,0,0,0,0],"split_type":[0,0,0,0,0,0,0,0,0,0,0,0,0,0,0,0,0,0,0,0,0,0,0,0,0,0,0,0,0,0,0],"sum_hessian":[5.709837E3,4.7616315E2,5.233674E3,3.020001E2,1.7416306E2,4.6265786E3,6.070954E2,4.5485225E0,2.9745157E2,9.991326E1,7.424979E1,4.553673E3,7.290555E1,2.2111736E2,3.8597806E2,2.9965189E0,1.5520036E0,3.9083369E0,2.9354324E2,6.962396E1,3.0289297E1,5.72997E1,1.6950089E1,4.925133E1,4.504422E3,3.9494232E1,3.341132E1,7.9190475E1,1.4192688E2,9.1354485E1,2.9462357E2],"tree_param":{"num_deleted":"0","num_feature":"18","num_nodes":"31","size_leaf_vector":"0"}},{"base_weights":[-7.554289E-1,-9.0572345E-1,8.538459E-1,5.816443E-1,-1.0889664E0,4.5148465E-1,1.1022502E0,1.0185487E0,-1.1721538E-1,5.375524E-1,-1.1288592E0,6.631706E-1,-4.353433E-2,1.1333005E0,4.690817E-2,1.1512252E0,1.5790643E-2,-3.4411025E-1,9.2498845E-1,9.170322E-1,-4.9314955E-1,-1.1668415E0,-2.782455E-1,8.2865363E-1,-1.3716819E-2,6.882203E-1,-4.736944E-1,4.1977343E-1,1.1740974E0,4.1951385E-1,-4.336101E-1],"categories":[],"categories_nodes":[],"categories_segments":[],"categories_sizes":[],"default_left":[1,1,0,1,1,1,0,1,0,1,1,1,1,1,1,0,0,0,0,0,0,0,0,0,0,0,0,0,0,0,0],"id":18,"left_children":[1,3,5,7,9,11,13,15,17,19,21,23,25,27,29,-1,-1,-1,-1,-1,-1,-1,-1,-1,-1,-1,-1,-1,-1,-1,-1],"loss_changes":[1.3474128E3,1.3891152E3,4.3579895E1,1.7255426E2,2.974331E2,2.0870548E1,8.0434265E0,4.4789948E1,5.2823673E1,4.617294E1,1.3979395E2,1.6119663E1,2.053845E1,4.097595E0,3.476013E0,0E0,0E0,0E0,0E0,0E0,0E0,0E0,0E0,0E0,0E0,0E0,0E0,0E0,0E0,0E0,0E0],"parents":[2147483647,0,0,1,1,2,2,3,3,4,4,5,5,6,6,7,7,8,8,9,9,10,10,11,11,12,12,13,13,14,14],"right_children":[2,4,6,8,10,12,14,16,18,20,22,24,26,28,30,-1,-1,-1,-1,-1,-1,-1,-1,-1,-1,-1,-1,-1,-1,-1,-1],"split_conditions":[1.8288162E1,-1.7372208E1,5.9152143E-3,-2.653109E1,-8.982654E0,7.294759E-2,3.5943618E-1,-8.83536E-1,1.5164671E-3,1.3373484E3,2.6914496E-3,3.2818716E3,-5.0573535E0,2.706165E1,6.406723E0,5.756126E-2,7.8953215E-4,-1.7205512E-2,4.6249423E-2,4.585161E-2,-2.4657479E-2,-5.8342077E-2,-1.3912275E-2,4.1432682E-2,-6.8584096E-4,3.4411017E-2,-2.3684721E-2,2.0988671E-2,5.870487E-2,2.0975692E-2,-2.1680506E-2],"split_indices":[3,7,16,3,3,5,5,1,16,13,16,15,1,3,14,0,0,0,0,0,0,0,0,0,0,0,0,0,0,0,0],"split_type":[0,0,0,0,0,0,0,0,0,0,0,0,0,0,0,0,0,0,0,0,0,0,0,0,0,0,0,0,0,0,0],"sum_hessian":[5.549725E3,5.07826E3,4.7146503E2,5.552241E2,4.5230356E3,1.8687744E2,2.8458762E2,3.4111423E2,2.141099E2,1.061851E2,4.4168506E3,1.3112563E2,5.575181E1,2.7517447E2,9.413129E0,2.9972025E2,4.1393974E1,1.7936873E2,3.474116E1,7.872286E1,2.7462238E1,4.2251514E3,1.916996E2,1.0565239E2,2.5473238E1,1.86691E1,3.7082706E1,1.9261087E1,2.5591339E2,6.831601E0,2.5815275E0],"tree_param":{"num_deleted":"0","num_feature":"18","num_nodes":"31","size_leaf_vector":"0"}},{"base_weights":[-7.391234E-1,-9.0437645E-1,6.77418E-1,8.044721E-1,-1.0829124E0,2.554027E-1,1.0560671E0,1.0515233E0,2.7445844E-1,-1.4257672E-1,-1.1208142E0,4.8931688E-1,-3.2129192E-1,4.06023E-1,1.1328288E0,1.1422265E0,1.1104154E-1,-0E0,7.4359137E-1,-4.3009216E-1,8.397229E-1,1.2797809E0,-1.1428366E0,6.023654E-1,-2.2928835E-1,3.234279E-1,-7.091962E-1,6.9284546E-1,-6.3985395E-1,1.1474695E0,-0E0],"categories":[],"categories_nodes":[],"categories_segments":[],"categories_sizes":[],"default_left":[1,1,1,1,0,1,0,1,1,1,1,1,1,0,1,0,0,0,0,0,0,0,0,0,0,0,0,0,0,0,0],"id":19,"left_children":[1,3,5,7,9,11,13,15,17,19,21,23,25,27,29,-1,-1,-1,-1,-1,-1,-1,-1,-1,-1,-1,-1,-1,-1,-1,-1],"loss_changes":[1.266615E3,1.4799807E3,8.779071E1,5.7434204E1,1.5407764E2,3.812293E1,1.0906647E1,2.4603577E1,2.0550858E1,5.1242195E1,2.2971777E2,1.7249378E1,2.1863564E1,1.4382507E1,4.471222E0,0E0,0E0,0E0,0E0,0E0,0E0,0E0,0E0,0E0,0E0,0E0,0E0,0E0,0E0,0E0,0E0],"parents":[2147483647,0,0,1,1,2,2,3,3,4,4,5,5,6,6,7,7,8,8,9,9,10,10,11,11,12,12,13,13,14,14],"right_children":[2,4,6,8,10,12,14,16,18,20,22,24,26,28,30,-1,-1,-1,-1,-1,-1,-1,-1,-1,-1,-1,-1,-1,-1,-1,-1],"split_conditions":[1.1211694E1,-1.5490799E1,1.89612E1,-1.0393592E1,-2.5879461E-3,3.2587256E3,2.249495E-2,-2.631538E1,1.0549284E1,5.7252874E-3,-1.7416667E0,1.4852745E1,-6.335819E-3,1.1644821E-1,3.576328E2,5.7111323E-2,5.552077E-3,-0E0,3.717957E-2,-2.1504609E-2,4.1986145E-2,6.398904E-2,-5.714183E-2,3.011827E-2,-1.1464418E-2,1.6171394E-2,-3.5459813E-2,3.4642275E-2,-3.19927E-2,5.7373475E-2,-0E0],"split_indices":[3,3,1,1,16,15,2,3,14,5,11,8,5,5,7,0,0,0,0,0,0,0,0,0,0,0,0,0,0,0,0],"split_type":[0,0,0,0,0,0,0,0,0,0,0,0,0,0,0,0,0,0,0,0,0,0,0,0,0,0,0,0,0,0,0],"sum_hessian":[5.3918E3,4.83076E3,5.610402E2,4.5477475E2,4.375985E3,2.7053485E2,2.9050534E2,3.0554623E2,1.492285E2,1.714922E2,4.2044927E3,1.942403E2,7.629456E1,3.537894E1,2.5512639E2,2.767224E2,2.8823837E1,9.6050064E1,5.3178444E1,1.3562428E2,3.5867916E1,3.5211468E1,4.1692812E3,1.6973807E2,2.4502226E1,2.8003775E1,4.829079E1,2.983957E1,5.5393734E0,2.5192662E2,3.1997788E0],"tree_param":{"num_deleted":"0","num_feature":"18","num_nodes":"31","size_leaf_vector":"0"}},{"base_weights":[-7.238173E-1,-8.869502E-1,6.5609485E-1,5.637009E-1,-1.0912347E0,2.5615433E-1,1.0550736E0,9.41794E-1,-9.548106E-2,1.2470908E0,-1.1129787E0,9.9413735E-1,8.968809E-2,4.1778603E-1,1.122103E0,1.0969933E0,1.9979002E-1,-4.6919313E-1,7.694706E-1,1.4375226E0,-4.6418756E-1,3.782423E-1,-1.1315651E0,-0E0,1.0543472E0,2.9958016E-1,-6.517482E-1,6.752197E-1,-5.0078934E-1,1.1466438E0,1.1580909E-1],"categories":[],"categories_nodes":[],"categories_segments":[],"categories_sizes":[],"default_left":[1,1,0,0,1,1,0,1,1,1,0,0,1,0,1,0,0,0,0,0,0,0,0,0,0,0,0,0,0,0,0],"id":20,"left_children":[1,3,5,7,9,11,13,15,17,19,21,23,25,27,29,-1,-1,-1,-1,-1,-1,-1,-1,-1,-1,-1,-1,-1,-1,-1,-1],"loss_changes":[1.1823887E3,1.3927251E3,8.6065796E1,1.461787E2,2.1583838E2,3.3549625E1,7.8849792E0,4.031363E1,7.115372E1,1.7283703E1,1.15875E2,3.7823067E0,3.7909927E1,1.0284864E1,4.1214905E0,0E0,0E0,0E0,0E0,0E0,0E0,0E0,0E0,0E0,0E0,0E0,0E0,0E0,0E0,0E0,0E0],"parents":[2147483647,0,0,1,1,2,2,3,3,4,4,5,5,6,6,7,7,8,8,9,9,10,10,11,11,12,12,13,13,14,14],"right_children":[2,4,6,8,10,12,14,16,18,20,22,24,26,28,30,-1,-1,-1,-1,-1,-1,-1,-1,-1,-1,-1,-1,-1,-1,-1,-1],"split_conditions":[1.1211694E1,-8.75679E0,6.8450607E-3,-1.979975E-2,-1.7291667E0,-7.483181E-1,2.249495E-2,-3.190467E0,-4.9127173E-1,6.8874655E0,-5.0843884E-3,1.1871982E-2,3.2818716E3,1.1644821E-1,3.5957122E-1,5.4849666E-2,9.989501E-3,-2.3459656E-2,3.8473528E-2,7.187613E-2,-2.3209378E-2,1.8912116E-2,-5.6578256E-2,-0E0,5.2717358E-2,1.4979008E-2,-3.258741E-2,3.3760987E-2,-2.5039468E-2,5.7332188E-2,5.790455E-3],"split_indices":[3,3,16,2,11,11,2,1,9,14,16,2,15,5,5,0,0,0,0,0,0,0,0,0,0,0,0,0,0,0,0],"split_type":[0,0,0,0,0,0,0,0,0,0,0,0,0,0,0,0,0,0,0,0,0,0,0,0,0,0,0,0,0,0,0],"sum_hessian":[5.233563E3,4.682509E3,5.510542E2,5.763166E2,4.1061924E3,2.8054724E2,2.70507E2,3.6584747E2,2.104691E2,3.4811867E1,4.0713804E3,4.595425E1,2.3459297E2,3.0605524E1,2.3990147E2,2.9946982E2,6.637766E1,1.4937419E2,6.1094913E1,3.257151E1,2.240358E0,4.826685E1,4.0231135E3,2.2510076E0,4.3703243E1,1.8620808E2,4.8384895E1,2.5790838E1,4.8146863E0,2.3253937E2,7.362114E0],"tree_param":{"num_deleted":"0","num_feature":"18","num_nodes":"31","size_leaf_vector":"0"}},{"base_weights":[-7.0909184E-1,-8.686113E-1,5.7821304E-1,7.453146E-1,-1.0262694E0,-1.4349862E-2,9.8240346E-1,1.0084697E0,1.6789034E-2,-1.0696702E0,7.906728E-1,8.2941276E-1,-4.3282852E-1,1.0588841E0,3.92382E-1,1.1020534E0,1.831766E-1,9.3725365E-1,-3.2267544E-1,-1.1137685E0,2.6290303E-1,2.655463E-1,1.195715E0,9.4584554E-1,-1.865825E-1,1.0878968E0,-5.758539E-1,-4.065734E-1,1.0744524E0,-2.7447328E-1,7.106346E-1],"categories":[],"categories_nodes":[],"categories_segments":[],"categories_sizes":[],"default_left":[1,1,1,1,1,1,0,1,0,1,1,1,1,0,0,0,0,0,0,0,0,0,0,0,0,0,0,0,0,0,0],"id":21,"left_children":[1,3,5,7,9,11,13,15,17,19,21,23,25,27,29,-1,-1,-1,-1,-1,-1,-1,-1,-1,-1,-1,-1,-1,-1,-1,-1],"loss_changes":[1.0465862E3,1.1555403E3,1.3581718E2,7.654312E1,3.2980615E2,8.335775E1,1.1615997E1,2.0602753E1,3.7615417E1,2.3922852E2,1.7918026E1,1.0854145E1,3.7255127E1,9.528961E0,1.1588941E1,0E0,0E0,0E0,0E0,0E0,0E0,0E0,0E0,0E0,0E0,0E0,0E0,0E0,0E0,0E0,0E0],"parents":[2147483647,0,0,1,1,2,2,3,3,4,4,5,5,6,6,7,7,8,8,9,9,10,10,11,11,12,12,13,13,14,14],"right_children":[2,4,6,8,10,12,14,16,18,20,22,24,26,28,30,-1,-1,-1,-1,-1,-1,-1,-1,-1,-1,-1,-1,-1,-1,-1,-1],"split_conditions":[2.605935E-3,-1.5185452E1,1.1867275E-2,-9.617949E0,7.208333E-1,-4.9963675E0,2.0609096E-1,-2.631538E1,-2.5294907E-3,1.8288162E1,3.179523E0,-3.1926692E-1,-1.3825283E1,-3.3724751E0,4.131538E-2,5.5102672E-2,9.15883E-3,4.6862684E-2,-1.6133772E-2,-5.5688422E-2,1.3145152E-2,1.3277315E-2,5.978575E-2,4.7292277E-2,-9.329125E-3,5.439484E-2,-2.8792694E-2,-2.032867E-2,5.372262E-2,-1.3723664E-2,3.553173E-2],"split_indices":[16,3,2,1,11,3,5,3,10,3,3,17,7,10,2,0,0,0,0,0,0,0,0,0,0,0,0,0,0,0,0],"split_type":[0,0,0,0,0,0,0,0,0,0,0,0,0,0,0,0,0,0,0,0,0,0,0,0,0,0,0,0,0,0,0],"sum_hessian":[5.07795E3,4.520219E3,5.5773065E2,4.000437E2,4.120176E3,2.2711597E2,3.306147E2,2.9146716E2,1.0857653E2,4.0266E3,9.357563E1,7.287713E1,1.5423885E2,2.8765915E2,4.295554E1,2.591882E2,3.227896E1,2.767531E1,8.090122E1,3.8991392E3,1.27460945E2,4.542727E1,4.8148365E1,6.657691E1,6.3002167E0,9.818606E0,1.4442024E2,1.0285463E0,2.866306E2,1.3084463E1,2.9871075E1],"tree_param":{"num_deleted":"0","num_feature":"18","num_nodes":"31","size_leaf_vector":"0"}},{"base_weights":[-6.949232E-1,7.548783E-1,-8.328223E-1,1.1415302E0,2.4940737E-1,-1.0247808E0,5.561324E-1,-0E0,1.170359E0,-1.0575447E-1,8.084232E-1,-1.0519247E0,9.682343E-1,4.272214E-2,1.0149256E0,2.5002602E-1,-3.7221172E-1,-0E0,1.1784064E0,-5.156425E-1,6.169998E-1,1.0490065E0,-1.1717796E-2,8.258344E-1,-1.0787468E0,-2.9672414E-1,1.2736405E0,8.123485E-1,-2.9047137E-1,1.0300086E0,-0E0],"categories":[],"categories_nodes":[],"categories_segments":[],"categories_sizes":[],"default_left":[0,0,1,0,1,1,1,0,1,1,1,1,1,0,1,0,0,0,0,0,0,0,0,0,0,0,0,0,0,0,0],"id":22,"left_children":[1,3,5,7,9,11,13,15,17,19,21,23,25,27,29,-1,-1,-1,-1,-1,-1,-1,-1,-1,-1,-1,-1,-1,-1,-1,-1],"loss_changes":[9.888137E2,8.1257904E1,1.2043445E3,8.809021E0,3.9638367E1,2.1940869E2,1.2817622E2,1.5153242E0,2.8970947E0,3.7611237E1,1.6296703E1,2.0162158E2,2.423729E1,6.980971E1,5.329712E0,0E0,0E0,0E0,0E0,0E0,0E0,0E0,0E0,0E0,0E0,0E0,0E0,0E0,0E0,0E0,0E0],"parents":[2147483647,0,0,1,1,2,2,3,3,4,4,5,5,6,6,7,7,8,8,9,9,10,10,11,11,12,12,13,13,14,14],"right_children":[2,4,6,8,10,12,14,16,18,20,22,24,26,28,30,-1,-1,-1,-1,-1,-1,-1,-1,-1,-1,-1,-1,-1,-1,-1,-1],"split_conditions":[-3.6389343E-3,-2.6999917E-2,8.491558E0,-2.5467512E-1,2.2061397E-3,1.5791667E0,1.7845191E-2,-6.911765E-1,3.0105127E3,4.1666664E-3,3.253245E3,-7.483181E-1,1.0135389E3,-3.751371E-3,3.576328E2,1.2501301E-2,-1.8610587E-2,-0E0,5.892032E-2,-2.5782127E-2,3.0849991E-2,5.2450325E-2,-5.8588985E-4,4.129172E-2,-5.3937342E-2,-1.4836207E-2,6.368203E-2,4.0617425E-2,-1.4523569E-2,5.150043E-2,-0E0],"split_indices":[16,2,1,2,2,11,2,12,15,11,15,11,6,2,7,0,0,0,0,0,0,0,0,0,0,0,0,0,0,0,0],"split_type":[0,0,0,0,0,0,0,0,0,0,0,0,0,0,0,0,0,0,0,0,0,0,0,0,0,0,0,0,0,0,0],"sum_hessian":[4.924779E3,4.2516687E2,4.499612E3,2.3621095E2,1.8895592E2,3.955042E3,5.445697E2,5.3057423E0,2.3090521E2,1.1693095E2,7.202497E1,3.904724E3,5.031795E1,2.6059613E2,2.8397354E2,2.9596047E0,2.3461373E0,1.1247067E0,2.297805E2,7.6412384E1,4.0518562E1,5.5552902E1,1.6472073E1,5.2367252E1,3.852357E3,9.17674E0,4.1141212E1,7.7467926E1,1.8312822E2,2.80596E2,3.377534E0],"tree_param":{"num_deleted":"0","num_feature":"18","num_nodes":"31","size_leaf_vector":"0"}},{"base_weights":[-6.802304E-1,-8.556332E-1,4.1065344E-1,4.9825367E-1,-1.0755482E0,-1.02189384E-1,8.563089E-1,8.8964236E-1,-6.8626314E-2,-1.0953388E0,1.0105063E0,-6.771509E-1,3.3495837E-1,2.9296604E-1,9.9836594E-1,1.0482934E0,1.8626744E-1,-2.9715496E-1,7.234477E-1,-1.1450665E0,-6.1842644E-1,-1.9813895E-3,1.3598812E0,1.3412477E-1,-1.0218992E0,9.3224365E-1,-0E0,1.2275612E0,2.6494887E-2,1.0729655E0,5.813765E-1],"categories":[],"categories_nodes":[],"categories_segments":[],"categories_sizes":[],"default_left":[1,1,0,0,1,0,0,1,1,1,1,1,1,1,1,0,0,0,0,0,0,0,0,0,0,0,0,0,0,0,0],"id":23,"left_children":[1,3,5,7,9,11,13,15,17,19,21,23,25,27,29,-1,-1,-1,-1,-1,-1,-1,-1,-1,-1,-1,-1,-1,-1,-1,-1],"loss_changes":[9.181521E2,1.2318113E3,1.5332947E2,1.2967021E2,1.5225684E2,8.0127655E1,2.5874817E1,3.6191498E1,4.4133045E1,7.8208496E1,1.3931328E1,4.011388E1,3.6166504E1,1.8640532E1,4.0051575E0,0E0,0E0,0E0,0E0,0E0,0E0,0E0,0E0,0E0,0E0,0E0,0E0,0E0,0E0,0E0,0E0],"parents":[2147483647,0,0,1,1,2,2,3,3,4,4,5,5,6,6,7,7,8,8,9,9,10,10,11,11,12,12,13,13,14,14],"right_children":[2,4,6,8,10,12,14,16,18,20,22,24,26,28,30,-1,-1,-1,-1,-1,-1,-1,-1,-1,-1,-1,-1,-1,-1,-1,-1],"split_conditions":[5.6293327E-3,-7.768898E0,2.5960926E-3,-1.979975E-2,2.0708332E0,1.154307E0,1.7845191E-2,-3.190467E0,1.4682241E1,1.0498104E1,3.0934316E3,-4.9999997E-1,-6.054773E0,4.492667E0,6.9787207E0,5.2414667E-2,9.313372E-3,-1.48577485E-2,3.6172386E-2,-5.7253327E-2,-3.0921323E-2,-9.9069475E-5,6.799406E-2,6.7062387E-3,-5.109496E-2,4.6612184E-2,-0E0,6.137806E-2,1.3247443E-3,5.3648274E-2,2.9068826E-2],"split_indices":[2,3,16,2,11,17,2,1,8,14,15,12,1,7,14,0,0,0,0,0,0,0,0,0,0,0,0,0,0,0,0],"split_type":[0,0,0,0,0,0,0,0,0,0,0,0,0,0,0,0,0,0,0,0,0,0,0,0,0,0,0,0,0,0,0],"sum_hessian":[4.7819277E3,4.121266E3,6.6066187E2,5.743649E2,3.546901E3,3.0792426E2,3.5273758E2,3.3913474E2,2.3523022E2,3.5163945E3,3.0506393E1,1.3280028E2,1.75124E2,7.553725E1,2.7720035E2,2.7355823E2,6.55765E1,1.8596301E2,4.9267212E1,3.1761187E3,3.402759E2,8.367317E0,2.2139076E1,3.9649506E1,9.3150764E1,5.986861E1,1.1525539E2,1.1925274E1,6.361197E1,2.2642842E2,5.077192E1],"tree_param":{"num_deleted":"0","num_feature":"18","num_nodes":"31","size_leaf_vector":"0"}},{"base_weights":[-6.6651386E-1,-8.3918124E-1,4.8945534E-1,4.820357E-1,-1.0549428E0,1.0548821E-2,8.553349E-1,1.0030446E0,1.3419375E-1,9.378967E-1,-1.0776069E0,-1.8154086E-1,1.2178025E0,9.482476E-1,-3.481902E-1,1.0907799E0,-0E0,-1.6990434E-2,8.6247027E-1,1.2187366E0,-0E0,-1.096334E0,8.878443E-1,1.1329787E0,-3.435561E-1,4.6249066E-2,1.2614079E0,9.831421E-1,-0E0,-7.057909E-1,4.5157793E-1],"categories":[],"categories_nodes":[],"categories_segments":[],"categories_sizes":[],"default_left":[1,1,1,1,1,1,1,1,1,1,1,1,0,1,1,0,0,0,0,0,0,0,0,0,0,0,0,0,0,0,0],"id":24,"left_children":[1,3,5,7,9,11,13,15,17,19,21,23,25,27,29,-1,-1,-1,-1,-1,-1,-1,-1,-1,-1,-1,-1,-1,-1,-1,-1],"loss_changes":[9.292866E2,1.1556016E3,1.0525583E2,1.01547714E2,1.622583E2,6.444484E1,4.052069E1,1.980101E1,3.933574E1,1.0007923E1,1.3173804E2,5.1294674E1,3.5432434E-1,1.0791901E1,9.687879E0,0E0,0E0,0E0,0E0,0E0,0E0,0E0,0E0,0E0,0E0,0E0,0E0,0E0,0E0,0E0,0E0],"parents":[2147483647,0,0,1,1,2,2,3,3,4,4,5,5,6,6,7,7,8,8,9,9,10,10,11,11,12,12,13,13,14,14],"right_children":[2,4,6,8,10,12,14,16,18,20,22,24,26,28,30,-1,-1,-1,-1,-1,-1,-1,-1,-1,-1,-1,-1,-1,-1,-1,-1],"split_conditions":[7.064134E0,-7.768898E0,2.9606394E1,-2.5257786E1,-9.3333334E-1,1.6375E0,3.9839268E-1,-2.5311123E1,9.921146E0,-2.0083332E0,2.0708332E0,-1.775E0,3.815546E-1,2.307897E0,5.4166667E-2,5.4538995E-2,-0E0,-8.495217E-4,4.3123513E-2,6.0936835E-2,-0E0,-5.48167E-2,4.4392217E-2,5.6648936E-2,-1.7177805E-2,2.3124532E-3,6.3070394E-2,4.9157105E-2,-0E0,-3.5289545E-2,2.2578897E-2],"split_indices":[3,3,3,1,11,11,5,3,1,11,11,11,12,4,11,0,0,0,0,0,0,0,0,0,0,0,0,0,0,0,0],"split_type":[0,0,0,0,0,0,0,0,0,0,0,0,0,0,0,0,0,0,0,0,0,0,0,0,0,0,0,0,0,0,0],"sum_hessian":[4.638745E3,4.0378464E3,6.0089874E2,5.653177E2,3.4725288E3,2.6366284E2,3.372359E2,2.2140186E2,3.439158E2,3.6281445E1,3.4362476E3,2.3041985E2,3.324298E1,3.1482285E2,2.241305E1,2.0308827E2,1.8313578E1,2.877016E2,5.6214222E1,2.6185997E1,1.0095447E1,3.4065095E3,2.9737885E1,2.131796E1,2.0910188E2,2.3855658E0,3.0857414E1,3.0368808E2,1.1134769E1,1.675795E1,5.6551003E0],"tree_param":{"num_deleted":"0","num_feature":"18","num_nodes":"31","size_leaf_vector":"0"}},{"base_weights":[-6.533721E-1,7.191467E-1,-7.870735E-1,1.1025355E0,2.5057283E-1,-9.775098E-1,5.351471E-1,-1.2393097E-1,1.1396724E0,-8.039688E-2,7.673336E-1,-1.0472511E0,-3.0088624E-1,-2.3119459E-2,8.8484144E-1,2.3744674E-1,-5.3614944E-1,-0E0,1.1529531E0,-3.4311107E-1,6.548037E-1,1.0031255E0,-3.36872E-2,-1.0674075E0,4.3247214E-1,8.5347563E-1,-5.349363E-1,7.405129E-1,-4.7265533E-1,-0E0,9.274689E-1],"categories":[],"categories_nodes":[],"categories_segments":[],"categories_sizes":[],"default_left":[0,0,1,0,1,1,1,1,1,1,1,1,1,1,0,0,0,0,0,0,0,0,0,0,0,0,0,0,0,0,0],"id":25,"left_children":[1,3,5,7,9,11,13,15,17,19,21,23,25,27,29,-1,-1,-1,-1,-1,-1,-1,-1,-1,-1,-1,-1,-1,-1,-1,-1],"loss_changes":[8.290674E2,6.940828E1,1.0368218E3,1.1661407E1,3.321087E1,1.6653418E2,1.0236946E2,2.4445288E0,2.278656E0,2.363523E1,1.534037E1,9.9941895E1,9.488152E1,7.145221E1,1.11657715E1,0E0,0E0,0E0,0E0,0E0,0E0,0E0,0E0,0E0,0E0,0E0,0E0,0E0,0E0,0E0,0E0],"parents":[2147483647,0,0,1,1,2,2,3,3,4,4,5,5,6,6,7,7,8,8,9,9,10,10,11,11,12,12,13,13,14,14],"right_children":[2,4,6,8,10,12,14,16,18,20,22,24,26,28,30,-1,-1,-1,-1,-1,-1,-1,-1,-1,-1,-1,-1,-1,-1,-1,-1],"split_conditions":[-3.6389343E-3,-2.6999917E-2,2.605935E-3,-2.010617E-1,2.2061397E-3,1.0541812E1,9.401249E-3,1.5430425E0,3.026694E3,1.5691563E-1,3.253245E3,6.6511707E0,-1.2315667E0,-4.9963675E0,-4.4431933E-3,1.1872337E-2,-2.6807472E-2,-0E0,5.7647657E-2,-1.7155554E-2,3.2740187E-2,5.0156277E-2,-1.6843601E-3,-5.3370375E-2,2.1623608E-2,4.267378E-2,-2.6746815E-2,3.7025645E-2,-2.3632767E-2,-0E0,4.6373446E-2],"split_indices":[16,2,16,5,2,14,2,8,15,12,15,17,9,3,10,0,0,0,0,0,0,0,0,0,0,0,0,0,0,0,0],"split_type":[0,0,0,0,0,0,0,0,0,0,0,0,0,0,0,0,0,0,0,0,0,0,0,0,0,0,0,0,0,0,0],"sum_hessian":[4.4970977E3,3.9658273E2,4.100515E3,2.1322357E2,1.8335918E2,3.58608E3,5.144348E2,5.131747E0,2.0809183E2,1.1316645E2,7.0192726E1,3.2471694E3,3.389108E2,1.9882779E2,3.1560703E2,2.5714443E0,2.5603023E0,3.1667006E0,2.0492513E2,8.634052E1,2.6825924E1,5.4219345E1,1.5973379E1,3.205573E3,4.159631E1,5.418058E1,2.8473022E2,7.165151E1,1.2717628E2,1.5813175E1,2.9979385E2],"tree_param":{"num_deleted":"0","num_feature":"18","num_nodes":"31","size_leaf_vector":"0"}},{"base_weights":[-6.394523E-1,5.49567E-1,-7.9622996E-1,9.150963E-1,1.5837248E-1,-9.7447604E-1,5.082035E-1,5.7267793E-2,1.0574576E0,-2.7572733E-1,9.1697776E-1,5.2822375E-1,-1.0205675E0,-3.416762E-3,7.968404E-1,6.3576657E-1,-1.2837013E0,1.1101763E0,3.044408E-1,1.0690355E0,-5.453562E-1,-8.412339E-2,1.2165048E0,9.174817E-1,-4.867731E-1,-1.0680345E0,-3.3681586E-1,-4.8375714E-1,2.8976727E-1,8.983225E-1,-3.9034745E-1],"categories":[],"categories_nodes":[],"categories_segments":[],"categories_sizes":[],"default_left":[1,1,1,1,1,1,1,1,1,0,0,1,1,1,1,0,0,0,0,0,0,0,0,0,0,0,0,0,0,0,0],"id":26,"left_children":[1,3,5,7,9,11,13,15,17,19,21,23,25,27,29,-1,-1,-1,-1,-1,-1,-1,-1,-1,-1,-1,-1,-1,-1,-1,-1],"loss_changes":[8.17531E2,7.135625E1,9.018196E2,3.059111E1,8.5711334E1,2.3892603E2,6.982534E1,3.7249622E1,5.7684784E0,6.2171177E1,3.001616E1,4.372947E1,1.0405127E2,2.5159792E1,3.8413498E1,0E0,0E0,0E0,0E0,0E0,0E0,0E0,0E0,0E0,0E0,0E0,0E0,0E0,0E0,0E0,0E0],"parents":[2147483647,0,0,1,1,2,2,3,3,4,4,5,5,6,6,7,7,8,8,9,9,10,10,11,11,12,12,13,13,14,14],"right_children":[2,4,6,8,10,12,14,16,18,20,22,24,26,28,30,-1,-1,-1,-1,-1,-1,-1,-1,-1,-1,-1,-1,-1,-1,-1,-1],"split_conditions":[-1.7372208E1,-3.3073982E1,1.085178E1,9.6210547E2,5.154724E-3,-8.982654E0,3.0708546E1,-6.555556E-1,-1.9505005E0,-8.5784316E-1,9.609848E-1,1.3293904E3,4.0561277E-3,3.7282345E0,3.9839268E-1,3.178833E-2,-6.418507E-2,5.550882E-2,1.522204E-2,5.3451777E-2,-2.7267812E-2,-4.2061694E-3,6.082524E-2,4.5874085E-2,-2.4338655E-2,-5.3401727E-2,-1.6840793E-2,-2.4187857E-2,1.4488364E-2,4.4916127E-2,-1.9517373E-2],"split_indices":[7,3,3,6,11,3,3,12,1,12,12,6,2,1,5,0,0,0,0,0,0,0,0,0,0,0,0,0,0,0,0],"split_type":[0,0,0,0,0,0,0,0,0,0,0,0,0,0,0,0,0,0,0,0,0,0,0,0,0,0,0,0,0,0,0],"sum_hessian":[4.367562E3,5.065937E2,3.8609683E3,2.5710458E2,2.494891E2,3.3985942E3,4.6237418E2,3.8592564E1,2.1851201E2,1.5987033E2,8.961879E1,9.893872E1,3.2996555E3,1.6730164E2,2.9507254E2,2.9319296E1,9.273266E0,2.0075745E2,1.7754562E1,2.3605564E1,1.3626476E2,2.0697897E1,6.892089E1,7.257235E1,2.6366373E1,3.0814634E3,2.1819212E2,6.347221E1,1.0382943E2,2.737325E2,2.1340027E1],"tree_param":{"num_deleted":"0","num_feature":"18","num_nodes":"31","size_leaf_vector":"0"}},{"base_weights":[-6.26751E-1,-7.968849E-1,4.576073E-1,4.3512106E-1,-1.0136664E0,1.9765805E-2,8.054908E-1,8.229958E-1,-6.098094E-2,4.1951483E-1,-1.0294328E0,1.0628957E0,-1.7317702E-1,8.9843446E-1,-3.2516736E-1,9.6988475E-1,7.3512964E-2,-4.2852095E-1,7.5910485E-1,1.2406113E0,-1.6107437E-1,1.0613779E0,-1.0534678E0,2.645569E-1,1.5089493E0,-3.5732338E-1,1.1381286E0,9.34837E-1,-0E0,1.6411659E-1,-9.994278E-1],"categories":[],"categories_nodes":[],"categories_segments":[],"categories_sizes":[],"default_left":[1,1,1,0,1,1,1,1,1,1,1,1,1,1,1,0,0,0,0,0,0,0,0,0,0,0,0,0,0,0,0],"id":27,"left_children":[1,3,5,7,9,11,13,15,17,19,21,23,25,27,29,-1,-1,-1,-1,-1,-1,-1,-1,-1,-1,-1,-1,-1,-1,-1,-1],"loss_changes":[7.8466675E2,9.826648E2,8.707617E1,1.0719083E2,7.331714E1,5.456956E1,3.5711853E1,3.285463E1,7.533503E1,1.963867E1,1.6087817E2,1.1339134E1,5.5514366E1,1.0511322E1,1.0627833E1,0E0,0E0,0E0,0E0,0E0,0E0,0E0,0E0,0E0,0E0,0E0,0E0,0E0,0E0,0E0,0E0],"parents":[2147483647,0,0,1,1,2,2,3,3,4,4,5,5,6,6,7,7,8,8,9,9,10,10,11,11,12,12,13,13,14,14],"right_children":[2,4,6,8,10,12,14,16,18,20,22,24,26,28,30,-1,-1,-1,-1,-1,-1,-1,-1,-1,-1,-1,-1,-1,-1,-1,-1],"split_conditions":[7.064134E0,-7.4760656E0,2.9606394E1,-1.979975E-2,-1.852386E1,3.507176E0,3.9839268E-1,-8.83536E-1,-4.9127173E-1,-4.4055086E-1,-1.15E0,3.026941E0,2.0791667E0,2.307897E0,6.077593E0,4.849424E-2,3.6756482E-3,-2.1426048E-2,3.7955243E-2,6.2030565E-2,-8.053719E-3,5.3068895E-2,-5.267339E-2,1.3227846E-2,7.544746E-2,-1.786617E-2,5.6906432E-2,4.674185E-2,-0E0,8.20583E-3,-4.997139E-2],"split_indices":[3,3,3,2,7,7,5,1,9,9,11,1,11,4,14,0,0,0,0,0,0,0,0,0,0,0,0,0,0,0,0],"split_type":[0,0,0,0,0,0,0,0,0,0,0,0,0,0,0,0,0,0,0,0,0,0,0,0,0,0,0,0,0,0,0],"sum_hessian":[4.236535E3,3.6639204E3,5.726148E2,5.467871E2,3.1171333E3,2.571402E2,3.1547458E2,3.06148E2,2.4063911E2,3.1835014E1,3.0852983E3,3.742789E1,2.1971233E2,2.9327762E2,2.2196962E1,2.5363434E2,5.2513683E1,1.6865796E2,7.1981155E1,1.1545353E1,2.0289661E1,3.213865E1,3.0531597E3,1.707492E1,2.035297E1,1.9651578E2,2.319654E1,2.8252783E2,1.074979E1,1.4195637E1,8.001327E0],"tree_param":{"num_deleted":"0","num_feature":"18","num_nodes":"31","size_leaf_vector":"0"}},{"base_weights":[-6.143305E-1,-7.8321415E-1,4.4311017E-1,4.2068583E-1,-9.9959886E-1,2.1595884E-2,7.839384E-1,8.250066E-1,-3.148788E-2,8.681801E-1,-1.0262264E0,-1.5523672E-1,1.1643898E0,8.7658787E-1,-3.1495392E-1,9.766425E-1,5.8503058E-2,-3.894578E-1,7.5116163E-1,-5.759115E-2,1.1887146E0,-1.046637E0,8.977497E-1,3.0587664E-1,-8.5074407E-1,2.4384541E-2,1.2088116E0,9.13118E-1,-0E0,1.5823784E-1,-9.683657E-1],"categories":[],"categories_nodes":[],"categories_segments":[],"categories_sizes":[],"default_left":[1,1,1,1,1,1,1,0,1,1,1,1,0,1,1,0,0,0,0,0,0,0,0,0,0,0,0,0,0,0,0],"id":28,"left_children":[1,3,5,7,9,11,13,15,17,19,21,23,25,27,29,-1,-1,-1,-1,-1,-1,-1,-1,-1,-1,-1,-1,-1,-1,-1,-1],"loss_changes":[7.365348E2,9.271936E2,8.081955E1,1.0028838E2,1.5433374E2,5.460268E1,3.3811523E1,3.2186478E1,7.400477E1,1.4676834E1,1.21513916E2,7.54318E1,4.5692062E-1,1.0051865E1,9.979599E0,0E0,0E0,0E0,0E0,0E0,0E0,0E0,0E0,0E0,0E0,0E0,0E0,0E0,0E0,0E0,0E0],"parents":[2147483647,0,0,1,1,2,2,3,3,4,4,5,5,6,6,7,7,8,8,9,9,10,10,11,11,12,12,13,13,14,14],"right_children":[2,4,6,8,10,12,14,16,18,20,22,24,26,28,30,-1,-1,-1,-1,-1,-1,-1,-1,-1,-1,-1,-1,-1,-1,-1,-1],"split_conditions":[7.064134E0,-7.4760656E0,2.9606394E1,-2.6367483E1,-7.4583334E-1,1.6375E0,3.9839268E-1,-2.6784057E-4,-4.9127173E-1,-3.116469E-1,2.0708332E0,3.2586707E3,3.815546E-1,2.307897E0,6.077593E0,4.8832126E-2,2.925153E-3,-1.947289E-2,3.7558082E-2,-2.8795577E-3,5.9435733E-2,-5.2331854E-2,4.4887487E-2,1.5293832E-2,-4.2537205E-2,1.2192271E-3,6.044058E-2,4.5655902E-2,-0E0,7.911893E-3,-4.8418287E-2],"split_indices":[3,3,3,3,11,11,5,16,9,9,11,15,12,4,14,0,0,0,0,0,0,0,0,0,0,0,0,0,0,0,0],"split_type":[0,0,0,0,0,0,0,0,0,0,0,0,0,0,0,0,0,0,0,0,0,0,0,0,0,0,0,0,0,0,0],"sum_hessian":[4.107672E3,3.543916E3,5.63756E2,5.3850305E2,3.0054128E3,2.5573291E2,3.080231E2,2.8328583E2,2.5521722E2,3.949465E1,2.9659182E3,2.244482E2,3.1284708E1,2.8584454E2,2.2178549E1,2.3426607E2,4.9019768E1,1.7772063E2,7.74966E1,1.0410058E1,2.9084595E1,2.9375547E3,2.8363537E1,1.3578654E2,8.866166E1,2.3080826E0,2.8976625E1,2.7509476E2,1.074979E1,1.4173216E1,8.005333E0],"tree_param":{"num_deleted":"0","num_feature":"18","num_nodes":"31","size_leaf_vector":"0"}},{"base_weights":[-6.025562E-1,-7.701276E-1,4.286183E-1,2.8159225E-1,-9.9365985E-1,1.2432254E-1,8.7489295E-1,-6.402029E-1,5.400013E-1,2.3395242E-1,-1.0185599E0,4.520591E-1,-4.9475217E-1,2.0722915E-1,9.957115E-1,5.579158E-1,-8.826691E-1,9.227545E-1,1.3729227E-1,1.5316211E0,-6.3629574E-1,-1.0498043E0,1.2591382E-2,8.1026703E-1,8.209132E-2,2.918712E-1,-7.4834436E-1,4.746856E-1,-6.3524824E-1,1.0472367E0,2.4686302E-1],"categories":[],"categories_nodes":[],"categories_segments":[],"categories_sizes":[],"default_left":[1,0,1,1,0,1,0,0,1,1,1,1,1,0,0,0,0,0,0,0,0,0,0,0,0,0,0,0,0,0,0],"id":29,"left_children":[1,3,5,7,9,11,13,15,17,19,21,23,25,27,29,-1,-1,-1,-1,-1,-1,-1,-1,-1,-1,-1,-1,-1,-1,-1,-1],"loss_changes":[6.9073193E2,8.087898E2,7.444471E1,1.4563673E2,8.853589E1,7.00316E1,1.5890671E1,4.165999E1,7.163873E1,7.303242E1,9.057764E1,2.871112E1,2.5281685E1,1.0813609E1,4.654953E0,0E0,0E0,0E0,0E0,0E0,0E0,0E0,0E0,0E0,0E0,0E0,0E0,0E0,0E0,0E0,0E0],"parents":[2147483647,0,0,1,1,2,2,3,3,4,4,5,5,6,6,7,7,8,8,9,9,10,10,11,11,12,12,13,13,14,14],"right_children":[2,4,6,8,10,12,14,16,18,20,22,24,26,28,30,-1,-1,-1,-1,-1,-1,-1,-1,-1,-1,-1,-1,-1,-1,-1,-1],"split_conditions":[7.064134E0,-5.9003234E-3,2.0296505E1,3.0967422E3,-5.670196E-2,3.2587256E3,2.249495E-2,-1.0641697E-2,-9.50175E0,-6.8380284E0,1.6547232E0,2.7888802E1,-1.1937543E-2,1.1572148E-1,2.7439797E-1,2.7895791E-2,-4.4133455E-2,4.6137728E-2,6.8646134E-3,7.658105E-2,-3.1814788E-2,-5.2490216E-2,6.295691E-4,4.051335E-2,4.104566E-3,1.4593559E-2,-3.7417218E-2,2.373428E-2,-3.1762414E-2,5.2361835E-2,1.23431515E-2],"split_indices":[3,2,1,15,5,15,2,16,1,7,9,7,5,5,5,0,0,0,0,0,0,0,0,0,0,0,0,0,0,0,0],"split_type":[0,0,0,0,0,0,0,0,0,0,0,0,0,0,0,0,0,0,0,0,0,0,0,0,0,0,0,0,0,0,0],"sum_hessian":[3.9808716E3,3.426313E3,5.545586E2,5.995687E2,2.8267441E3,3.3486322E2,2.1969539E2,1.2881245E2,4.7075626E2,5.4563137E1,2.7721812E3,2.2088924E2,1.1397397E2,3.7012264E1,1.8268312E2,1.9891518E1,1.0892094E2,2.3677466E2,2.3398161E2,2.0838717E1,3.3724422E1,2.6915066E3,8.0674385E1,1.0783167E2,1.1305757E2,2.6640163E1,8.733381E1,3.0651337E1,6.360928E0,1.6780916E2,1.4873966E1],"tree_param":{"num_deleted":"0","num_feature":"18","num_nodes":"31","size_leaf_vector":"0"}},{"base_weights":[-5.9016186E-1,-7.4243474E-1,5.1809645E-1,6.052611E-1,-8.8807094E-1,1.3672501E-1,8.9776045E-1,7.8232056E-1,-2.4422516E-1,-9.3794495E-1,7.6832366E-1,4.97999E-1,-4.0990114E-1,3.612337E-2,9.3709475E-1,9.566531E-1,9.478842E-2,-4.740146E-1,4.8990467E-1,-1.0267706E0,-1.7806108E-1,1.0770216E-1,1.0597728E0,8.6802715E-1,-1.8974453E-1,1.0169555E0,-7.047786E-1,-7.655887E-1,4.982943E-1,1.0149722E0,3.314654E-1],"categories":[],"categories_nodes":[],"categories_segments":[],"categories_sizes":[],"default_left":[1,1,1,1,1,1,0,1,1,1,1,1,1,1,0,0,0,0,0,0,0,0,0,0,0,0,0,0,0,0,0],"id":30,"left_children":[1,3,5,7,9,11,13,15,17,19,21,23,25,27,29,-1,-1,-1,-1,-1,-1,-1,-1,-1,-1,-1,-1,-1,-1,-1,-1],"loss_changes":[6.5503174E2,6.7113696E2,6.633222E1,5.177574E1,2.5779883E2,4.8787975E1,6.756531E0,3.1912582E1,1.1350799E1,1.9955737E2,1.5983604E1,3.9349247E1,4.4384422E1,7.748471E0,7.4221954E0,0E0,0E0,0E0,0E0,0E0,0E0,0E0,0E0,0E0,0E0,0E0,0E0,0E0,0E0,0E0,0E0],"parents":[2147483647,0,0,1,1,2,2,3,3,4,4,5,5,6,6,7,7,8,8,9,9,10,10,11,11,12,12,13,13,14,14],"right_children":[2,4,6,8,10,12,14,16,18,20,22,24,26,28,30,-1,-1,-1,-1,-1,-1,-1,-1,-1,-1,-1,-1,-1,-1,-1,-1],"split_conditions":[2.605935E-3,-1.5185452E1,1.7845191E-2,-1.6271005E0,7.208333E-1,-8.4988564E-1,-1.6760535E-3,-2.631538E1,1.0639166E1,1.0542727E1,2.0708332E0,1.0643484E1,-1.740196E0,3.2128284E1,2.0847896E-1,4.7832657E-2,4.739421E-3,-2.370073E-2,2.4495235E-2,-5.133853E-2,-8.9030545E-3,5.385108E-3,5.2988645E-2,4.3401357E-2,-9.487227E-3,5.0847776E-2,-3.5238933E-2,-3.8279437E-2,2.4914715E-2,5.0748613E-2,1.657327E-2],"split_indices":[16,3,2,1,11,12,10,3,14,14,11,14,11,3,5,0,0,0,0,0,0,0,0,0,0,0,0,0,0,0,0],"split_type":[0,0,0,0,0,0,0,0,0,0,0,0,0,0,0,0,0,0,0,0,0,0,0,0,0,0,0,0,0,0,0],"sum_hessian":[3.8637673E3,3.3992664E3,4.6450085E2,3.2930264E2,3.0699636E3,2.36436E2,2.2806485E2,2.738055E2,5.5497124E1,2.9829204E3,8.704322E1,1.4372202E2,9.2714E1,1.1485455E1,2.1657939E2,2.1570032E2,5.81052E1,4.4653812E1,1.0843311E1,2.6679783E3,3.1494214E2,2.9792366E1,5.725086E1,9.353859E1,5.0183426E1,1.3201157E1,7.951284E1,2.208396E0,9.277058E0,1.8744528E2,2.9134115E1],"tree_param":{"num_deleted":"0","num_feature":"18","num_nodes":"31","size_leaf_vector":"0"}},{"base_weights":[-5.7781845E-1,-7.446417E-1,4.151403E-1,2.6806507E-1,-9.4908327E-1,1.6089801E-1,8.8626444E-1,8.2614136E-1,-1.3645025E-1,1.1876202E0,-9.769072E-1,-2.8705886E-1,4.6977404E-1,1.3094077E-1,9.710413E-1,-5.1969238E-2,9.8387057E-1,-2.7316678E-1,1.0310068E0,1.3614972E0,-3.7582827E-1,-0E0,-1.0238669E0,3.431708E-1,-7.502309E-1,6.716559E-1,-7.17769E-2,4.9235854E-1,-5.2617866E-1,-0E0,9.865619E-1],"categories":[],"categories_nodes":[],"categories_segments":[],"categories_sizes":[],"default_left":[1,1,1,1,1,0,0,0,1,1,1,0,1,0,1,0,0,0,0,0,0,0,0,0,0,0,0,0,0,0,0],"id":31,"left_children":[1,3,5,7,9,11,13,15,17,19,21,23,25,27,29,-1,-1,-1,-1,-1,-1,-1,-1,-1,-1,-1,-1,-1,-1,-1,-1],"loss_changes":[6.2400903E2,6.6824097E2,6.3229317E1,1.2397705E2,1.6489307E2,5.065237E1,1.0280533E1,3.3070892E1,5.1474716E1,1.3395569E1,1.2221069E2,4.5088608E1,2.4481224E1,7.4149013E0,3.4122162E0,0E0,0E0,0E0,0E0,0E0,0E0,0E0,0E0,0E0,0E0,0E0,0E0,0E0,0E0,0E0,0E0],"parents":[2147483647,0,0,1,1,2,2,3,3,4,4,5,5,6,6,7,7,8,8,9,9,10,10,11,11,12,12,13,13,14,14],"right_children":[2,4,6,8,10,12,14,16,18,20,22,24,26,28,30,-1,-1,-1,-1,-1,-1,-1,-1,-1,-1,-1,-1,-1,-1,-1,-1],"split_conditions":[7.064134E0,-1.0556271E1,2.5718428E1,-3.3073982E1,-1.7291667E0,1.154307E0,2.249495E-2,-2.2478278E-1,1.0333334E0,6.8874655E0,-1.5300295E0,-3.6746323E-1,3.258413E3,9.8889194E-2,3.064259E3,-2.598462E-3,4.9193528E-2,-1.3658339E-2,5.155034E-2,6.807486E-2,-1.8791413E-2,-0E0,-5.1193345E-2,1.715854E-2,-3.7511546E-2,3.3582795E-2,-3.5888448E-3,2.4617927E-2,-2.6308933E-2,-0E0,4.9328096E-2],"split_indices":[3,7,1,3,11,17,2,2,12,14,9,12,15,5,15,0,0,0,0,0,0,0,0,0,0,0,0,0,0,0,0],"split_type":[0,0,0,0,0,0,0,0,0,0,0,0,0,0,0,0,0,0,0,0,0,0,0,0,0,0,0,0,0,0,0],"sum_hessian":[3.7507446E3,3.2131697E3,5.37575E2,5.386256E2,2.674544E3,3.5488913E2,1.8268585E2,2.251985E2,3.1342712E2,3.123885E1,2.6433052E3,1.4365897E2,2.1123018E2,2.0909548E1,1.617763E2,3.3836487E1,1.9136201E2,2.847659E2,2.8661234E1,2.9269178E1,1.9696722E0,1.2077873E2,2.5225264E3,6.0489048E1,8.316992E1,1.5433995E2,5.6890232E1,1.5280614E1,5.6289334E0,1.7003615E0,1.6007594E2],"tree_param":{"num_deleted":"0","num_feature":"18","num_nodes":"31","size_leaf_vector":"0"}},{"base_weights":[-5.659365E-1,-7.323345E-1,3.9574683E-1,3.818947E-1,-9.4995713E-1,1.1153332E-2,7.310229E-1,7.413181E-1,-3.5484284E-2,-9.873421E-1,5.8971103E-2,4.1812506E-1,-6.5481687E-1,8.2564884E-1,-3.051527E-1,-1.255198E-1,8.5895526E-1,-3.7628093E-1,6.97865E-1,-9.722444E-3,-1.0260938E0,-5.871033E-1,1.4007734E0,9.7512645E-1,6.7089945E-2,-0E0,-8.397464E-1,8.6427206E-1,-2.8246783E-2,1.5399565E-1,-9.409729E-1],"categories":[],"categories_nodes":[],"categories_segments":[],"categories_sizes":[],"default_left":[1,1,1,0,1,1,1,0,1,1,1,1,1,1,1,0,0,0,0,0,0,0,0,0,0,0,0,0,0,0,0],"id":32,"left_children":[1,3,5,7,9,11,13,15,17,19,21,23,25,27,29,-1,-1,-1,-1,-1,-1,-1,-1,-1,-1,-1,-1,-1,-1,-1,-1],"loss_changes":[5.851183E2,7.5656226E2,6.885561E1,7.749951E1,9.9448E1,7.105803E1,2.9926697E1,2.942633E1,6.095655E1,9.409595E1,8.885253E1,3.072104E1,1.272303E1,9.706985E0,9.331917E0,0E0,0E0,0E0,0E0,0E0,0E0,0E0,0E0,0E0,0E0,0E0,0E0,0E0,0E0,0E0,0E0],"parents":[2147483647,0,0,1,1,2,2,3,3,4,4,5,5,6,6,7,7,8,8,9,9,10,10,11,11,12,12,13,13,14,14],"right_children":[2,4,6,8,10,12,14,16,18,20,22,24,26,28,30,-1,-1,-1,-1,-1,-1,-1,-1,-1,-1,-1,-1,-1,-1,-1,-1],"split_conditions":[6.853136E0,-7.4760656E0,2.9606394E1,-1.979975E-2,1.6547232E0,3.2586707E3,3.9839268E-1,-1.960113E-1,-4.9127173E-1,-1.6409912E0,3.1303972E3,2.841801E-1,-3.1567392E-1,2.307897E0,6.077593E0,-6.27599E-3,4.2947765E-2,-1.8814048E-2,3.4893252E-2,-4.861222E-4,-5.1304694E-2,-2.9355166E-2,7.003867E-2,4.8756324E-2,3.3544973E-3,-0E0,-4.1987322E-2,4.3213602E-2,-1.4123392E-3,7.6997825E-3,-4.7048647E-2],"split_indices":[3,3,3,2,9,15,5,5,9,9,15,9,9,4,14,0,0,0,0,0,0,0,0,0,0,0,0,0,0,0,0],"split_type":[0,0,0,0,0,0,0,0,0,0,0,0,0,0,0,0,0,0,0,0,0,0,0,0,0,0,0,0,0,0,0],"sum_hessian":[3.6403235E3,3.1052595E3,5.350641E2,5.0602728E2,2.5992322E3,2.5299905E2,2.82065E2,2.710927E2,2.3493457E2,2.5074202E3,9.1812164E1,1.5912236E2,9.387669E1,2.602769E2,2.1788116E1,3.1337673E1,2.3975502E2,1.6298944E2,7.194514E1,9.682423E1,2.410596E3,6.336775E1,2.8444416E1,5.697687E1,1.0214549E2,2.071176E1,7.316493E1,2.5007585E2,1.0201036E1,1.3938708E1,7.849407E0],"tree_param":{"num_deleted":"0","num_feature":"18","num_nodes":"31","size_leaf_vector":"0"}},{"base_weights":[-5.545232E-1,-7.0291024E-1,4.9311426E-1,5.197683E-1,-8.858197E-1,2.2168216E-1,9.8386174E-1,9.9169856E-1,1.6237749E-1,-9.2507607E-1,7.0913905E-1,5.1059616E-1,-2.4728002E-1,1.0109957E0,-0E0,-3.0628824E-1,1.0471722E0,-2.4932384E-2,9.2657655E-1,-1.0103182E0,-1.608042E-1,-3.854309E-1,9.5591897E-1,6.43328E-1,-2.407687E-1,9.14649E-1,-4.371459E-1,-0E0,1.0194573E0,2.6328525E-1,-3.4499338E-1],"categories":[],"categories_nodes":[],"categories_segments":[],"categories_sizes":[],"default_left":[1,1,1,0,1,1,0,0,1,1,1,1,1,1,1,0,0,0,0,0,0,0,0,0,0,0,0,0,0,0,0],"id":33,"left_children":[1,3,5,7,9,11,13,15,17,19,21,23,25,27,29,-1,-1,-1,-1,-1,-1,-1,-1,-1,-1,-1,-1,-1,-1,-1,-1],"loss_changes":[5.518956E2,6.9632336E2,5.644866E1,6.6528336E1,1.725874E2,4.0419933E1,4.1541443E0,1.478717E1,3.512158E1,1.6991089E2,2.0535236E1,1.9473888E1,2.6507584E1,1.4821167E0,1.2841628E0,0E0,0E0,0E0,0E0,0E0,0E0,0E0,0E0,0E0,0E0,0E0,0E0,0E0,0E0,0E0,0E0],"parents":[2147483647,0,0,1,1,2,2,3,3,4,4,5,5,6,6,7,7,8,8,9,9,10,10,11,11,12,12,13,13,14,14],"right_children":[2,4,6,8,10,12,14,16,18,20,22,24,26,28,30,-1,-1,-1,-1,-1,-1,-1,-1,-1,-1,-1,-1,-1,-1,-1,-1],"split_conditions":[8.491558E0,-8.382252E0,2.52063E0,-2.6999917E-2,7.0416665E-1,3.2731538E3,5.385957E-1,-2.5467512E-1,9.245602E0,1.0542727E1,1.0098258E3,1.0631065E1,-2.0458333E0,2.9935825E3,-2.5148E-4,-1.5314412E-2,5.235861E-2,-1.2466193E-3,4.6328828E-2,-5.051591E-2,-8.04021E-3,-1.9271545E-2,4.7795948E-2,3.2166403E-2,-1.2038435E-2,4.573245E-2,-2.1857295E-2,-0E0,5.0972868E-2,1.3164262E-2,-1.724967E-2],"split_indices":[1,1,9,2,11,15,5,2,0,14,13,14,11,15,10,0,0,0,0,0,0,0,0,0,0,0,0,0,0,0,0],"split_type":[0,0,0,0,0,0,0,0,0,0,0,0,0,0,0,0,0,0,0,0,0,0,0,0,0,0,0,0,0,0,0],"sum_hessian":[3.532679E3,3.0966677E3,4.360112E2,4.0106018E2,2.6956077E3,2.8672186E2,1.4928934E2,1.6780434E2,2.3325584E2,2.6335164E3,6.209124E1,1.784639E2,1.0825796E2,1.4518286E2,4.106482E0,5.2123036E0,1.6259203E2,1.9017188E2,4.308398E1,2.3666384E3,2.6687808E2,1.0161119E1,5.193012E1,1.5341272E2,2.5051174E1,1.1784758E1,9.6473206E1,1.0566405E0,1.4412622E2,2.9433916E0,1.1630905E0],"tree_param":{"num_deleted":"0","num_feature":"18","num_nodes":"31","size_leaf_vector":"0"}},{"base_weights":[-5.423204E-1,-7.0737183E-1,3.8012484E-1,3.688866E-1,-9.257698E-1,1.4606913E-2,7.063147E-1,7.725144E-1,2.4710556E-2,4.995299E-1,-9.499341E-1,9.307017E-1,-1.7456281E-1,8.0054706E-1,-2.8940275E-1,-2.3755327E-2,9.2843646E-1,-2.852738E-1,3.6963075E-1,1.4354584E0,-6.191092E-2,-1.0006787E0,-2.638194E-1,2.6694033E-1,1.403482E0,1.9985178E-1,-7.571147E-1,-1.02694914E-1,8.3308893E-1,1.5403716E-1,-9.0811205E-1],"categories":[],"categories_nodes":[],"categories_segments":[],"categories_sizes":[],"default_left":[1,1,1,1,0,1,1,0,1,1,1,1,1,1,1,0,0,0,0,0,0,0,0,0,0,0,0,0,0,0,0],"id":34,"left_children":[1,3,5,7,9,11,13,15,17,19,21,23,25,27,29,-1,-1,-1,-1,-1,-1,-1,-1,-1,-1,-1,-1,-1,-1,-1,-1],"loss_changes":[5.2519617E2,6.884662E2,6.1728134E1,6.79103E1,8.648389E1,4.5543373E1,2.751529E1,2.9129715E1,2.9889135E1,2.4456484E1,8.0661865E1,1.0617264E1,4.7909634E1,8.620682E0,8.743162E0,0E0,0E0,0E0,0E0,0E0,0E0,0E0,0E0,0E0,0E0,0E0,0E0,0E0,0E0,0E0,0E0],"parents":[2147483647,0,0,1,1,2,2,3,3,4,4,5,5,6,6,7,7,8,8,9,9,10,10,11,11,12,12,13,13,14,14],"right_children":[2,4,6,8,10,12,14,16,18,20,22,24,26,28,30,-1,-1,-1,-1,-1,-1,-1,-1,-1,-1,-1,-1,-1,-1,-1,-1],"split_conditions":[6.853136E0,-7.4760656E0,2.9606394E1,-3.1398659E1,-4.651048E-3,5.6119676E0,3.9839268E-1,-2.2769842E-1,-1.721883E-2,1.0720369E3,1.7285347E-3,3.026941E0,3.2586707E3,4.398647E2,6.077593E0,-1.1877663E-3,4.6421822E-2,-1.42636895E-2,1.8481538E-2,7.1772926E-2,-3.095546E-3,-5.0033934E-2,-1.319097E-2,1.3347017E-2,7.01741E-2,9.992589E-3,-3.7855737E-2,-5.134746E-3,4.165445E-2,7.7018584E-3,-4.5405604E-2],"split_indices":[3,3,3,3,16,7,5,2,5,6,16,1,15,13,14,0,0,0,0,0,0,0,0,0,0,0,0,0,0,0,0],"split_type":[0,0,0,0,0,0,0,0,0,0,0,0,0,0,0,0,0,0,0,0,0,0,0,0,0,0,0,0,0,0,0],"sum_hessian":[3.4335635E3,2.9143533E3,5.1921014E2,4.90274E2,2.4240793E3,2.4875398E2,2.7045618E2,2.2144695E2,2.6882706E2,3.808266E1,2.3859966E3,4.0125294E1,2.086287E2,2.4888647E2,2.1569693E1,3.5905895E1,1.8554105E2,1.4051225E2,1.2831479E2,1.2028477E1,2.6054184E1,2.2181912E3,1.6780554E2,2.08255E1,1.9299791E1,1.2795697E2,8.0671715E1,7.211555E0,2.4167491E2,1.3810424E1,7.7592697E0],"tree_param":{"num_deleted":"0","num_feature":"18","num_nodes":"31","size_leaf_vector":"0"}},{"base_weights":[-5.309474E-1,-1.364055E-1,-9.260075E-1,-3.6144453E-1,5.888773E-1,-9.907939E-1,5.4968446E-1,4.581641E-1,-7.736455E-1,7.1258426E-1,-1.3831052E-1,1.3392472E0,-1.0319781E0,8.232175E-1,-5.804586E-1,9.27232E-1,1.0889839E-1,-9.030114E-1,-2.1893999E-1,8.915793E-1,2.1192509E-1,1.1497813E0,-6.9656783E-1,-1.0612997E0,1.2218883E0,-0E0,8.807866E-1,3.979179E-1,-9.912333E-1],"categories":[],"categories_nodes":[],"categories_segments":[],"categories_sizes":[],"default_left":[1,0,1,1,1,1,1,0,0,1,1,0,1,1,1,0,0,0,0,0,0,0,0,0,0,0,0,0,0],"id":35,"left_children":[1,3,5,7,9,11,13,15,17,19,21,-1,23,25,27,-1,-1,-1,-1,-1,-1,-1,-1,-1,-1,-1,-1,-1,-1],"loss_changes":[5.187569E2,2.7467447E2,1.6247058E2,4.3608374E2,3.688356E1,1.6001184E2,2.508875E1,6.926554E1,5.9417175E1,2.8622665E1,4.734103E1,0E0,1.10352905E2,3.7437859E0,9.146914E0,0E0,0E0,0E0,0E0,0E0,0E0,0E0,0E0,0E0,0E0,0E0,0E0,0E0,0E0],"parents":[2147483647,0,0,1,1,2,2,3,3,4,4,5,5,6,6,7,7,8,8,9,9,10,10,12,12,13,13,14,14],"right_children":[2,4,6,8,10,12,14,16,18,20,22,-1,24,26,28,-1,-1,-1,-1,-1,-1,-1,-1,-1,-1,-1,-1,-1,-1],"split_conditions":[1.3210507E3,1.5228142E-3,2.0442735E-2,-4.041624E0,1.07501335E1,-1.7291667E0,1.8315195E2,-2.1017484E-2,3.385528E-3,-3.710996E-1,-7.050535E-1,6.696236E-2,2E0,1.2874687E1,-8.809464E-1,4.6361603E-2,5.444919E-3,-4.515057E-2,-1.0946999E-2,4.4578966E-2,1.0596255E-2,5.7489067E-2,-3.482839E-2,-5.3064983E-2,6.1094414E-2,-0E0,4.403933E-2,1.9895894E-2,-4.9561664E-2],"split_indices":[6,16,2,1,14,11,3,2,2,12,4,0,11,7,11,0,0,0,0,0,0,0,0,0,0,0,0,0,0],"split_type":[0,0,0,0,0,0,0,0,0,0,0,0,0,0,0,0,0,0,0,0,0,0,0,0,0,0,0,0,0],"sum_hessian":[3.3340537E3,1.6727528E3,1.661301E3,1.2796064E3,3.9314624E2,1.5936564E3,6.764473E1,4.2719693E2,8.524096E2,3.372499E2,5.5896336E1,2.4520353E1,1.569136E3,5.626857E1,1.1376158E1,1.7757477E2,2.4962216E2,6.8720135E2,1.6520824E2,2.4408392E2,9.3166E1,1.4757185E1,4.1139153E1,1.5520342E3,1.7101784E1,2.9216044E0,5.3346966E1,2.6903634E0,8.685794E0],"tree_param":{"num_deleted":"0","num_feature":"18","num_nodes":"29","size_leaf_vector":"0"}},{"base_weights":[-5.194107E-1,-1.3186742E-1,-9.156002E-1,9.992085E-1,-2.9100326E-1,1.052347E0,-9.8831576E-1,1.0542103E0,-0E0,-4.1979608E-1,9.3754977E-1,1.2599509E0,1.9202264E-1,-1.019933E0,1.1881348E0,8.9868885E-1,1.6649339E0,-4.864646E-1,4.5327806E-1,-9.662897E-1,-2.1119484E-1,1.8691437E-1,1.0424223E0,5.47541E-1,-5.0891894E-1,-1.0529308E0,1.3622825E-1],"categories":[],"categories_nodes":[],"categories_segments":[],"categories_sizes":[],"default_left":[1,0,1,1,1,1,1,1,0,1,0,0,1,1,0,0,0,0,0,0,0,0,0,0,0,0,0],"id":36,"left_children":[1,3,5,7,9,11,13,15,17,19,21,-1,23,25,-1,-1,-1,-1,-1,-1,-1,-1,-1,-1,-1,-1,-1],"loss_changes":[4.9647852E2,2.9722507E2,2.3440173E2,1.1773605E1,2.3066704E2,7.879822E0,1.1242175E2,8.326843E0,4.4480686E0,1.477541E2,8.680817E0,0E0,5.994449E0,5.9969727E1,0E0,0E0,0E0,0E0,0E0,0E0,0E0,0E0,0E0,0E0,0E0,0E0,0E0],"parents":[2147483647,0,0,1,1,2,2,3,3,4,4,5,5,6,6,7,7,8,8,9,9,10,10,12,12,13,13],"right_children":[2,4,6,8,10,12,14,16,18,20,22,-1,24,26,-1,-1,-1,-1,-1,-1,-1,-1,-1,-1,-1,-1,-1],"split_conditions":[1.3210507E3,-4.8604372E-1,-1.0041666E0,1.3118059E3,7.208333E-1,-1.7291667E0,1.8875E0,1.0494392E1,4.96924E-3,3.089008E3,5.513959E-1,6.299754E-2,7.221E-3,1.9491915E-2,5.940674E-2,4.4934444E-2,8.32467E-2,-2.432323E-2,2.2663904E-2,-4.8314486E-2,-1.0559742E-2,9.345719E-3,5.2121114E-2,2.7377052E-2,-2.5445947E-2,-5.2646544E-2,6.8114125E-3],"split_indices":[6,12,11,6,11,11,11,14,16,15,12,0,4,2,0,0,0,0,0,0,0,0,0,0,0,0,0],"split_type":[0,0,0,0,0,0,0,0,0,0,0,0,0,0,0,0,0,0,0,0,0,0,0,0,0,0,0],"sum_hessian":[3.2392869E3,1.6421562E3,1.5971307E3,1.9851434E2,1.4436418E3,5.4020737E1,1.54311E3,1.884261E2,1.0088246E1,1.3103767E3,1.3326518E2,4.0711746E1,1.33089905E1,1.5240859E3,1.9024046E1,1.6133653E2,2.7089558E1,5.283765E0,4.804482E0,3.5566098E2,9.547157E2,1.9210566E1,1.1405462E2,1.0502838E1,2.8061528E0,1.4830693E3,4.1016598E1],"tree_param":{"num_deleted":"0","num_feature":"18","num_nodes":"27","size_leaf_vector":"0"}},{"base_weights":[-5.065645E-1,-1.2655473E-1,-9.051033E-1,9.7367746E-1,-2.7998132E-1,-9.7228384E-1,5.052919E-1,1.0277048E0,-0E0,-4.0390286E-1,9.1123813E-1,1.185745E0,-1.0090433E0,8.6735576E-1,-4.915288E-3,-1.8364671E-1,1.0479026E0,-4.7722486E-1,4.4549266E-1,-9.4962335E-1,-2.0145214E-1,-0E0,1.032284E0,-1.0430167E0,1.0084984E0,-0E0,8.8549876E-1,4.176205E-1,-7.3111194E-1],"categories":[],"categories_nodes":[],"categories_segments":[],"categories_sizes":[],"default_left":[1,0,1,1,1,1,1,1,1,1,1,0,1,0,1,0,0,0,0,0,0,0,0,0,0,0,0,0,0],"id":37,"left_children":[1,3,5,7,9,11,13,15,17,19,21,-1,23,25,27,-1,-1,-1,-1,-1,-1,-1,-1,-1,-1,-1,-1,-1,-1],"loss_changes":[4.771194E2,2.7501E2,1.4891296E2,1.103363E1,2.1257074E2,1.2266394E2,1.4307371E1,6.4571686E0,4.2581635E0,1.4155891E2,1.4650246E1,0E0,1.0478967E2,3.9292908E-1,1.22692E1,0E0,0E0,0E0,0E0,0E0,0E0,0E0,0E0,0E0,0E0,0E0,0E0,0E0,0E0],"parents":[2147483647,0,0,1,1,2,2,3,3,4,4,5,5,6,6,7,7,8,8,9,9,10,10,12,12,13,13,14,14],"right_children":[2,4,6,8,10,12,14,16,18,20,22,-1,24,26,28,-1,-1,-1,-1,-1,-1,-1,-1,-1,-1,-1,-1,-1,-1],"split_conditions":[1.3210507E3,-4.8604372E-1,1.6602182E0,1.3118059E3,7.208333E-1,-1.7291667E0,-6.636551E-2,2.9562131E3,1.6163073E1,3.089008E3,1.0098258E3,5.928725E-2,1.2166667E0,-8.7764644E-4,1.3323113E3,-9.182336E-3,5.239513E-2,-2.3861242E-2,2.2274634E-2,-4.7481168E-2,-1.0072607E-2,-0E0,5.1614203E-2,-5.2150834E-2,5.0424922E-2,-0E0,4.4274937E-2,2.0881025E-2,-3.65556E-2],"split_indices":[6,12,9,6,11,11,11,15,1,15,13,0,11,10,13,0,0,0,0,0,0,0,0,0,0,0,0,0,0],"split_type":[0,0,0,0,0,0,0,0,0,0,0,0,0,0,0,0,0,0,0,0,0,0,0,0,0,0,0,0,0],"sum_hessian":[3.1559636E3,1.6201938E3,1.5357699E3,1.9421518E2,1.4259786E3,1.4681028E3,6.7667076E1,1.8426665E2,9.948536E0,1.295367E3,1.3061176E2,2.1515423E1,1.4465874E3,3.86789E1,2.8988178E1,1.5464358E0,1.8272021E2,5.215318E0,4.733218E0,3.4418872E2,9.5117816E2,1.619087E1,1.1442089E2,1.4254943E3,2.1093103E1,1.2704209E0,3.7408478E1,1.879811E1,1.0190068E1],"tree_param":{"num_deleted":"0","num_feature":"18","num_nodes":"29","size_leaf_vector":"0"}},{"base_weights":[-4.940271E-1,-1.2178823E-1,-8.9438397E-1,8.4632224E-1,-2.8530115E-1,-9.688592E-1,3.5952958E-1,9.521103E-1,5.1548723E-2,-4.3183902E-1,7.208895E-1,1.2015547E0,-1.0050406E0,7.8709334E-1,-1.2922266E-1,8.0743706E-1,1.585268E0,-6.5180814E-1,7.0038295E-1,1.9301085E-1,-6.061847E-1,-4.7151232E-1,1.0097113E0,-1.0350385E0,9.607855E-1,-0E0,8.819949E-1,1.6585743E-1,-8.866016E-1],"categories":[],"categories_nodes":[],"categories_segments":[],"categories_sizes":[],"default_left":[1,0,1,1,1,1,1,1,1,1,0,0,1,1,1,0,0,0,0,0,0,0,0,0,0,0,0,0,0],"id":38,"left_children":[1,3,5,7,9,11,13,15,17,19,21,-1,23,25,27,-1,-1,-1,-1,-1,-1,-1,-1,-1,-1,-1,-1,-1,-1],"loss_changes":[4.575573E2,2.5448029E2,1.4076965E2,1.826326E1,2.0421666E2,1.15878784E2,1.913685E1,9.840469E0,1.7691505E1,1.3232056E2,6.352542E1,0E0,8.6510254E1,3.1166935E0,1.1139574E1,0E0,0E0,0E0,0E0,0E0,0E0,0E0,0E0,0E0,0E0,0E0,0E0,0E0,0E0],"parents":[2147483647,0,0,1,1,2,2,3,3,4,4,5,5,6,6,7,7,8,8,9,9,10,10,12,12,13,13,14,14],"right_children":[2,4,6,8,10,12,14,16,18,20,22,-1,24,26,28,-1,-1,-1,-1,-1,-1,-1,-1,-1,-1,-1,-1,-1,-1],"split_conditions":[1.3210507E3,-3.1047022E-1,1.18574E-2,1.3030604E3,2.5416666E-1,-1.7291667E0,-1.3466312E-1,1.0494392E1,7.1725135E0,-7.4760995E0,4.3059257E-1,6.0077734E-2,1.2166667E0,2.7222994E1,2.6047373E-1,4.0371854E-2,7.9263404E-2,-3.2590408E-2,3.501915E-2,9.650542E-3,-3.0309236E-2,-2.3575617E-2,5.0485563E-2,-5.1751923E-2,4.8039276E-2,-0E0,4.4099744E-2,8.2928715E-3,-4.4330083E-2],"split_indices":[6,12,2,6,11,11,11,14,1,3,17,0,11,3,5,0,0,0,0,0,0,0,0,0,0,0,0,0,0],"split_type":[0,0,0,0,0,0,0,0,0,0,0,0,0,0,0,0,0,0,0,0,0,0,0,0,0,0,0,0,0],"sum_hessian":[3.075743E3,1.5985145E3,1.4772284E3,2.2707529E2,1.3714392E3,1.3962343E3,8.099413E1,1.9841702E2,2.8658268E1,1.200457E3,1.709822E2,1.9800163E1,1.3764341E3,4.266471E1,3.8329422E1,1.7205826E2,2.6358768E1,1.3000822E1,1.5657447E1,2.6051343E2,9.399436E2,3.2047768E1,1.3893442E2,1.3585789E3,1.785532E1,5.699023E0,3.696569E1,2.9442955E1,8.886466E0],"tree_param":{"num_deleted":"0","num_feature":"18","num_nodes":"29","size_leaf_vector":"0"}},{"base_weights":[-4.8211434E-1,-1.2553573E-1,-8.901794E-1,-3.5622644E-1,5.057515E-1,5.33149E-1,-9.7125226E-1,4.079353E-1,-7.2991306E-1,8.334601E-1,2.7744293E-1,1.0820986E0,-2.417291E-1,1.2122852E0,-1.0203435E0,9.166745E-1,1.4220504E-1,-7.86772E-1,8.4015125E-1,6.0744107E-1,1.6146318E0,1.0186042E0,1.09317005E-1,1.1468685E0,-0E0,-7.2127014E-1,9.609712E-1,1.2604775E0,-0E0,-1.0488403E0,1.091041E0],"categories":[],"categories_nodes":[],"categories_segments":[],"categories_sizes":[],"default_left":[1,0,0,0,0,0,1,0,1,1,1,1,1,1,1,0,0,0,0,0,0,0,0,0,0,0,0,0,0,0,0],"id":39,"left_children":[1,3,5,7,9,11,13,15,17,19,21,23,25,27,29,-1,-1,-1,-1,-1,-1,-1,-1,-1,-1,-1,-1,-1,-1,-1,-1],"loss_changes":[4.348841E2,2.3491275E2,1.6419312E2,3.39245E2,2.9996742E1,3.5254837E1,1.4789856E2,5.1067444E1,7.4335846E1,2.3378967E1,3.1143723E1,2.9370804E0,2.37611E1,1.467041E0,8.377026E1,0E0,0E0,0E0,0E0,0E0,0E0,0E0,0E0,0E0,0E0,0E0,0E0,0E0,0E0,0E0,0E0],"parents":[2147483647,0,0,1,1,2,2,3,3,4,4,5,5,6,6,7,7,8,8,9,9,10,10,11,11,12,12,13,13,14,14],"right_children":[2,4,6,8,10,12,14,16,18,20,22,24,26,28,30,-1,-1,-1,-1,-1,-1,-1,-1,-1,-1,-1,-1,-1,-1,-1,-1],"split_conditions":[1.3190742E3,1.5228142E-3,-9.5346235E-3,-1.2763777E-3,6.6994387E-3,-1.750835E-3,-1.6961441E0,-2.7251946E-2,1.0705444E1,9.281157E0,-1.7318628E0,9.164387E0,1.2083334E-1,6.8874655E0,2.0037115E0,4.5833725E-2,7.1102525E-3,-3.93386E-2,4.200756E-2,3.0372053E-2,8.073159E-2,5.093021E-2,5.4658502E-3,5.7343423E-2,-0E0,-3.6063507E-2,4.804856E-2,6.302388E-2,-0E0,-5.2442014E-2,5.455205E-2],"split_indices":[13,16,2,16,5,16,11,2,9,0,11,0,11,14,11,0,0,0,0,0,0,0,0,0,0,0,0,0,0,0,0],"split_type":[0,0,0,0,0,0,0,0,0,0,0,0,0,0,0,0,0,0,0,0,0,0,0,0,0,0,0,0,0,0,0],"sum_hessian":[2.9945647E3,1.6028972E3,1.3916674E3,1.1766703E3,4.2622693E2,7.283031E1,1.318837E3,3.8540698E2,7.912633E2,1.677745E2,2.5845242E2,4.2224915E1,3.0605394E1,2.5945862E1,1.2928912E3,1.2674428E2,2.5866272E2,7.666316E2,2.4631739E1,1.3801137E2,2.9763144E1,4.201111E1,2.1644131E2,3.9274437E1,2.9504755E0,2.390636E1,6.6990347E0,2.4548124E1,1.3977377E0,1.2786239E3,1.42673435E1],"tree_param":{"num_deleted":"0","num_feature":"18","num_nodes":"31","size_leaf_vector":"0"}},{"base_weights":[-4.706412E-1,-1.2048305E-1,-8.8099486E-1,-3.4529147E-1,4.8581648E-1,5.185155E-1,-9.628141E-1,3.9230147E-1,-7.1189606E-1,6.495692E-1,1.5644608E-2,1.0585424E0,-2.2921146E-1,1.0965667E0,-1.0146471E0,8.2985574E-1,9.91629E-2,2.537054E-1,-7.7546185E-1,7.398524E-1,-3.0135313E-1,3.33512E-1,-7.7702504E-1,1.123275E0,-0E0,-6.9549173E-1,9.378768E-1,1.1799625E0,-0E0,-1.0435437E0,1.0649717E0],"categories":[],"categories_nodes":[],"categories_segments":[],"categories_sizes":[],"default_left":[1,0,1,0,1,1,1,0,0,1,1,1,1,1,1,0,0,0,0,0,0,0,0,0,0,0,0,0,0,0,0],"id":40,"left_children":[1,3,5,7,9,11,13,15,17,19,21,23,25,27,29,-1,-1,-1,-1,-1,-1,-1,-1,-1,-1,-1,-1,-1,-1,-1,-1],"loss_changes":[4.1769916E2,2.1624396E2,1.5652197E2,3.14781E2,3.228492E1,3.2995834E1,1.4100195E2,4.8260128E1,4.913922E1,2.8700333E1,3.0438435E1,2.7990112E0,2.2326828E1,2.6570396E0,8.0141235E1,0E0,0E0,0E0,0E0,0E0,0E0,0E0,0E0,0E0,0E0,0E0,0E0,0E0,0E0,0E0,0E0],"parents":[2147483647,0,0,1,1,2,2,3,3,4,4,5,5,6,6,7,7,8,8,9,9,10,10,11,11,12,12,13,13,14,14],"right_children":[2,4,6,8,10,12,14,16,18,20,22,24,26,28,30,-1,-1,-1,-1,-1,-1,-1,-1,-1,-1,-1,-1,-1,-1,-1,-1],"split_conditions":[1.3190742E3,1.5228142E-3,-1.2648613E1,-1.2763777E-3,3.2685225E3,-5.748643E0,-1.1791667E0,-8.010307E-3,-3.1047022E-1,1.0749998E1,-6.153401E-1,9.164387E0,1.2083334E-1,-1.6961441E0,2.0037115E0,4.1492786E-2,4.958145E-3,1.2685271E-2,-3.8773093E-2,3.699262E-2,-1.50676565E-2,1.66756E-2,-3.8851254E-2,5.6163754E-2,-0E0,-3.4774587E-2,4.6893843E-2,5.8998127E-2,-0E0,-5.2177187E-2,5.3248584E-2],"split_indices":[13,16,3,16,15,1,11,16,12,14,12,0,11,11,11,0,0,0,0,0,0,0,0,0,0,0,0,0,0,0,0],"split_type":[0,0,0,0,0,0,0,0,0,0,0,0,0,0,0,0,0,0,0,0,0,0,0,0,0,0,0,0,0,0,0],"sum_hessian":[2.912636E3,1.5763923E3,1.3362435E3,1.1527637E3,4.2362875E2,7.165655E1,1.2645869E3,3.8170703E2,7.710566E2,3.112063E2,1.12422455E2,4.11767E1,3.0479845E1,2.8099325E1,1.2364877E3,1.480916E2,2.3361543E2,4.5728363E1,7.2532825E2,2.8619553E2,2.5010765E1,8.3211685E1,2.9210773E1,3.8226227E1,2.9504755E0,2.383458E1,6.6452656E0,2.5494328E1,2.6049976E0,1.222473E3,1.4014577E1],"tree_param":{"num_deleted":"0","num_feature":"18","num_nodes":"31","size_leaf_vector":"0"}},{"base_weights":[-4.5965013E-1,-6.4208996E-1,2.8095877E-1,2.5308818E-1,-8.7527037E-1,7.8890175E-2,8.165588E-1,7.0999277E-1,-3.608044E-2,1.0021164E0,-9.069641E-1,3.698185E-1,-5.303713E-1,8.9316446E-1,-0E0,8.89327E-1,-4.464478E-2,-3.3158338E-1,6.7613745E-1,1.2599945E0,-2.8264675E-1,4.5631686E-1,-9.5201844E-1,-9.6209985E-1,5.250351E-1,6.467941E-1,-6.5940315E-1,-0E0,9.4750583E-1,5.093459E-1,-6.267293E-1],"categories":[],"categories_nodes":[],"categories_segments":[],"categories_sizes":[],"default_left":[1,1,1,0,1,1,0,0,1,1,1,1,1,0,1,0,0,0,0,0,0,0,0,0,0,0,0,0,0,0,0],"id":41,"left_children":[1,3,5,7,9,11,13,15,17,19,21,23,25,27,29,-1,-1,-1,-1,-1,-1,-1,-1,-1,-1,-1,-1,-1,-1,-1,-1],"loss_changes":[3.848817E2,4.7778058E2,5.977474E1,6.346656E1,1.12225586E2,7.456927E1,8.84082E0,2.6135384E1,6.262712E1,1.3334297E1,1.12268555E2,6.114464E1,2.2712963E1,7.124695E0,7.554537E0,0E0,0E0,0E0,0E0,0E0,0E0,0E0,0E0,0E0,0E0,0E0,0E0,0E0,0E0,0E0,0E0],"parents":[2147483647,0,0,1,1,2,2,3,3,4,4,5,5,6,6,7,7,8,8,9,9,10,10,11,11,12,12,13,13,14,14],"right_children":[2,4,6,8,10,12,14,16,18,20,22,24,26,28,30,-1,-1,-1,-1,-1,-1,-1,-1,-1,-1,-1,-1,-1,-1,-1,-1],"split_conditions":[4.0561277E-3,-1.030069E1,8.1625935E-3,-2.7251946E-2,-1.15E0,3.258646E3,2.702371E-1,-2.6660954E-4,6.3043702E-3,4.007102E-5,-7.7392406E0,2.9598257E3,-1.0547996E0,-2.3365237E-3,-7.1428567E-3,4.446635E-2,-2.232239E-3,-1.657917E-2,3.380687E-2,6.2999725E-2,-1.4132338E-2,2.2815844E-2,-4.760092E-2,-4.8104994E-2,2.6251754E-2,3.2339703E-2,-3.2970157E-2,-0E0,4.737529E-2,2.5467295E-2,-3.1336468E-2],"split_indices":[2,7,16,2,11,15,5,16,11,10,3,15,11,10,11,0,0,0,0,0,0,0,0,0,0,0,0,0,0,0,0],"split_type":[0,0,0,0,0,0,0,0,0,0,0,0,0,0,0,0,0,0,0,0,0,0,0,0,0,0,0,0,0,0,0],"sum_hessian":[2.8341675E3,2.2756138E3,5.585539E2,4.6929147E2,1.8063223E3,4.1107068E2,1.4748323E2,1.8041158E2,2.888799E2,2.69224E1,1.7793998E3,2.806594E2,1.3041125E2,1.3353061E2,1.3952618E1,1.4611993E2,3.4291634E1,2.0705002E2,8.1829895E1,2.315039E1,3.7720077E0,5.4754917E1,1.7246449E3,2.5907923E1,2.5475148E2,1.0135068E1,1.2027619E2,7.4983363E0,1.2603228E2,8.901113E0,5.051505E0],"tree_param":{"num_deleted":"0","num_feature":"18","num_nodes":"31","size_leaf_vector":"0"}},{"base_weights":[-4.4949043E-1,-1.17957756E-1,-8.8407475E-1,-3.3175987E-1,4.678226E-1,9.4362986E-1,-9.601702E-1,4.1153303E-1,-7.3838925E-1,1.9494368E-1,7.6394E-1,1.107759E0,1.912744E-1,-9.9679875E-1,9.2287236E-1,9.0023595E-1,1.5020584E-1,-8.598383E-1,-6.999031E-2,6.2109295E-2,1.1435982E0,1.2436764E0,3.645705E-1,1.1446873E0,-0E0,4.787581E-1,-3.564547E-1,-1.032398E0,1.6114415E-1,-0E0,1.0753479E0],"categories":[],"categories_nodes":[],"categories_segments":[],"categories_sizes":[],"default_left":[1,1,1,0,1,1,1,0,1,1,0,1,1,1,1,0,0,0,0,0,0,0,0,0,0,0,0,0,0,0,0],"id":42,"left_children":[1,3,5,7,9,11,13,15,17,19,21,23,25,27,29,-1,-1,-1,-1,-1,-1,-1,-1,-1,-1,-1,-1,-1,-1,-1,-1],"loss_changes":[3.9613776E2,1.9760846E2,1.7037323E2,3.5134964E2,3.234379E1,3.772915E0,8.383093E1,5.079431E1,5.9660736E1,2.7139156E1,3.4175476E1,4.787178E-1,3.4992218E0,4.8229492E1,3.1015606E0,0E0,0E0,0E0,0E0,0E0,0E0,0E0,0E0,0E0,0E0,0E0,0E0,0E0,0E0,0E0,0E0],"parents":[2147483647,0,0,1,1,2,2,3,3,4,4,5,5,6,6,7,7,8,8,9,9,10,10,11,11,12,12,13,13,14,14],"right_children":[2,4,6,8,10,12,14,16,18,20,22,24,26,28,30,-1,-1,-1,-1,-1,-1,-1,-1,-1,-1,-1,-1,-1,-1,-1,-1],"split_conditions":[1.3280626E3,3.7071567E0,-1.025E0,-1.2763777E-3,6.677854E-1,-1.7291667E0,1.2166667E0,-2.7251946E-2,2.8444495E0,2.1256888E-1,6.1863232E-3,6.9167843E0,7.221E-3,2.6000824E-2,1.9875E0,4.50118E-2,7.510292E-3,-4.2991918E-2,-3.4995154E-3,3.1054649E-3,5.717991E-2,6.2183823E-2,1.8228525E-2,5.7234365E-2,-0E0,2.3937905E-2,-1.7822735E-2,-5.16199E-2,8.057208E-3,-0E0,5.3767394E-2],"split_indices":[6,1,11,16,9,11,11,2,3,11,5,14,4,2,11,0,0,0,0,0,0,0,0,0,0,0,0,0,0,0,0],"split_type":[0,0,0,0,0,0,0,0,0,0,0,0,0,0,0,0,0,0,0,0,0,0,0,0,0,0,0,0,0,0,0],"sum_hessian":[2.755024E3,1.5677147E3,1.1873093E3,1.1513591E3,4.163556E2,4.4653435E1,1.1426559E3,4.0624652E2,7.451126E2,2.2275264E2,1.9360294E2,3.3626575E1,1.1026861E1,1.1236825E3,1.8973366E1,1.3595284E2,2.702937E2,6.280643E2,1.1704838E2,2.0099062E2,2.1762026E1,8.2012375E1,1.1159056E2,3.1539886E1,2.0866876E0,8.841564E0,2.1852965E0,1.0915308E3,3.215176E1,3.634327E0,1.5339039E1],"tree_param":{"num_deleted":"0","num_feature":"18","num_nodes":"31","size_leaf_vector":"0"}},{"base_weights":[-4.3869144E-1,-1.1353338E-1,-8.7463814E-1,8.3823144E-1,-2.4068964E-1,9.229298E-1,-9.509453E-1,9.654747E-1,-3.4495193E-1,-3.5047725E-1,8.558164E-1,1.0865165E0,1.819067E-1,-9.8792726E-1,9.00268E-1,8.050125E-1,1.5336316E0,-7.5286347E-1,4.072549E-1,2.421823E-1,-4.9914193E-1,-5.072481E-2,9.68818E-1,1.1231161E0,-0E0,4.7561526E-1,-3.035671E-1,-1.0109596E0,4.0699136E-1,-9.6936986E-2,1.059817E0],"categories":[],"categories_nodes":[],"categories_segments":[],"categories_sizes":[],"default_left":[1,0,1,1,1,1,1,1,1,0,1,1,0,1,0,0,0,0,0,0,0,0,0,0,0,0,0,0,0,0,0],"id":43,"left_children":[1,3,5,7,9,11,13,15,17,19,21,23,25,27,29,-1,-1,-1,-1,-1,-1,-1,-1,-1,-1,-1,-1,-1,-1,-1,-1],"loss_changes":[3.7929633E2,1.8747592E2,1.6154938E2,2.9739914E1,1.6571902E2,3.6411018E0,7.997278E1,6.6887054E0,8.20791E0,1.1083554E2,1.39852295E1,4.20269E-1,3.1623945E0,3.7463745E1,5.2422485E0,0E0,0E0,0E0,0E0,0E0,0E0,0E0,0E0,0E0,0E0,0E0,0E0,0E0,0E0,0E0,0E0],"parents":[2147483647,0,0,1,1,2,2,3,3,4,4,5,5,6,6,7,7,8,8,9,9,10,10,11,11,12,12,13,13,14,14],"right_children":[2,4,6,8,10,12,14,16,18,20,22,24,26,28,30,-1,-1,-1,-1,-1,-1,-1,-1,-1,-1,-1,-1,-1,-1,-1,-1],"split_conditions":[1.3280626E3,-4.9640936E-1,-1.025E0,1.3118059E3,7.208333E-1,-1.7291667E0,1.2166667E0,1.0494392E1,2.0104997E0,-1.7309212E-3,1.00808813E3,6.9167843E0,-8.7104404E-1,1.3251383E-2,1.3694445E1,4.0250625E-2,7.668158E-2,-3.7643176E-2,2.0362746E-2,1.2109115E-2,-2.4957096E-2,-2.5362407E-3,4.84409E-2,5.615581E-2,-0E0,2.3780763E-2,-1.5178355E-2,-5.0547983E-2,2.0349568E-2,-4.8468495E-3,5.299085E-2],"split_indices":[6,12,11,6,11,11,11,14,9,16,6,14,12,16,17,0,0,0,0,0,0,0,0,0,0,0,0,0,0,0,0],"split_type":[0,0,0,0,0,0,0,0,0,0,0,0,0,0,0,0,0,0,0,0,0,0,0,0,0,0,0,0,0,0,0],"sum_hessian":[2.6812556E3,1.5406973E3,1.1405585E3,1.7735672E2,1.3633405E3,4.3652664E1,1.0969058E3,1.6172906E2,1.562766E1,1.2431809E3,1.2015959E2,3.2743584E1,1.090908E1,1.0782375E3,1.8668255E1,1.3690738E2,2.4821682E1,1.0991938E1,4.6357217E0,2.4732703E2,9.958539E2,1.2642536E1,1.0751706E2,3.0656897E1,2.0866876E0,8.1436205E0,2.765459E0,1.0627825E3,1.5455097E1,1.9810269E0,1.6687227E1],"tree_param":{"num_deleted":"0","num_feature":"18","num_nodes":"31","size_leaf_vector":"0"}},{"base_weights":[-4.2676234E-1,-1.0872298E-1,-8.6461186E-1,-3.1925753E-1,4.5921725E-1,-9.436967E-1,3.187117E-1,3.8120943E-1,-7.1254766E-1,2.9396814E-1,9.751386E-1,9.942653E-1,-9.820244E-1,5.3336203E-1,-5.67745E-1,8.782846E-1,1.2890199E-1,-1.0682848E-1,-8.325017E-1,-1.2510511E-1,5.939942E-1,1.5636836E0,3.47864E-1,-1.01609E0,8.83567E-1,-1.0860982E-1,8.120012E-1,2.9331785E-1,-9.0496236E-1],"categories":[],"categories_nodes":[],"categories_segments":[],"categories_sizes":[],"default_left":[1,1,1,0,1,1,1,0,1,1,0,0,1,0,1,0,0,0,0,0,0,0,0,0,0,0,0,0,0],"id":44,"left_children":[1,3,5,7,9,11,13,15,17,19,21,-1,23,25,27,-1,-1,-1,-1,-1,-1,-1,-1,-1,-1,-1,-1,-1,-1],"loss_changes":[3.6377902E2,1.8308891E2,1.0520697E2,3.0960675E2,3.2553635E1,8.171106E1,1.5169786E1,4.912606E1,5.0819E1,4.1306072E1,3.1066757E1,0E0,6.9284485E1,1.2129011E1,6.4509263E0,0E0,0E0,0E0,0E0,0E0,0E0,0E0,0E0,0E0,0E0,0E0,0E0,0E0,0E0],"parents":[2147483647,0,0,1,1,2,2,3,3,4,4,5,5,6,6,7,7,8,8,9,9,10,10,12,12,13,13,14,14],"right_children":[2,4,6,8,10,12,14,16,18,20,22,-1,24,26,28,-1,-1,-1,-1,-1,-1,-1,-1,-1,-1,-1,-1,-1,-1],"split_conditions":[1.3280626E3,3.7071567E0,1.18574E-2,-1.2763777E-3,9.255878E0,-1.7291667E0,1.8080142E2,-2.7251946E-2,-9.372263E0,4.646072E-3,1.0313814E-3,4.9713265E-2,1.2166667E0,2.6000824E-2,-8.809464E-1,4.391423E-2,6.4450996E-3,-5.341424E-3,-4.1625086E-2,-6.2552555E-3,2.9699711E-2,7.818418E-2,1.73932E-2,-5.0804503E-2,4.4178348E-2,-5.430491E-3,4.060006E-2,1.4665893E-2,-4.5248117E-2],"split_indices":[6,1,2,16,0,11,3,2,7,2,2,0,11,2,11,0,0,0,0,0,0,0,0,0,0,0,0,0,0],"split_type":[0,0,0,0,0,0,0,0,0,0,0,0,0,0,0,0,0,0,0,0,0,0,0,0,0,0,0,0,0],"sum_hessian":[2.6177178E3,1.5212544E3,1.0964634E3,1.1127207E3,4.0853372E2,1.0295155E3,6.6947815E1,3.9924997E2,7.134707E2,3.1683804E2,9.169568E1,1.7041664E1,1.0124739E3,5.6408512E1,1.05393E1,1.2891127E2,2.7033868E2,1.2087757E2,5.9259314E2,1.320183E2,1.8481975E2,4.2634876E1,4.90608E1,9.9707996E2,1.5393876E1,1.6910257E1,3.9498253E1,2.314594E0,8.224706E0],"tree_param":{"num_deleted":"0","num_feature":"18","num_nodes":"29","size_leaf_vector":"0"}},{"base_weights":[-4.1623995E-1,-9.4824046E-2,-8.352928E-1,8.129103E-1,-2.3449871E-1,5.2856344E-1,-9.274431E-1,9.6597683E-1,2.696357E-1,-4.2077807E-1,2.7482942E-1,1.0436249E0,-1.657052E-1,-9.600972E-1,8.104869E-1,9.9076074E-1,-1.9320247E-1,-8.655664E-1,7.362467E-1,2.2754806E-1,-7.060521E-1,-2.2615118E-1,4.8598114E-1,1.1127574E0,-0E0,-6.5880215E-1,6.901189E-1,-9.9603355E-1,3.1825626E-1,9.543558E-1,-1.2098482E-1],"categories":[],"categories_nodes":[],"categories_segments":[],"categories_sizes":[],"default_left":[1,0,0,1,1,1,1,0,0,0,0,1,1,1,0,0,0,0,0,0,0,0,0,0,0,0,0,0,0,0,0],"id":45,"left_children":[1,3,5,7,9,11,13,15,17,19,21,23,25,27,29,-1,-1,-1,-1,-1,-1,-1,-1,-1,-1,-1,-1,-1,-1,-1,-1],"loss_changes":[3.4283328E2,