{"learner":{"attributes":{"best_iteration":"246","best_ntree_limit":"247"},"feature_names":["Temperature diff 6632-5001 ft_lag3","Avg_CCS1_WHCO2InjTp_F_pct_change3","Avg_VW1_Z09D5653Tp_F_lag2","Avg_CCS1_WHCO2InjTp_F_diff1","Avg_VW1_Z11D4917Ps_psi","Avg_PLT_CO2VentRate_TPH_diff1","Temperature diff 5001-4917 ft_lag1","Temperature diff 6632-5001 ft ema 5","Diff pressure downhole-wellhead_diff1","Avg_CCS1_WHCO2InjPs_psi_diff1","Avg_CCS1_WHCO2InjTp_F_pct_change1","Avg_VW1_Z01D7061Tp_F ema 5","Avg_CCS1_WHCO2InjPs_psi_pct_change1","Avg_VW1_Z01D7061Tp_F_lag4","Abs Temperature diff 6632-5001 ft","Temperature diff 6632-5001 ft","Log abs Avg_PLT_CO2VentRate_TPH ema 5","Avg_CCS1_DH6325Ps_psi_pct_change1","Avg_CCS1_WHCO2InjPs_psi","Temperature diff 6632-5001 ft_lag4","Avg_CCS1_DH6325Ps_psi_diff1","Avg_CCS1_WHCO2InjTp_F_pct_change2"],"feature_types":["float","float","float","float","float","float","float","float","float","float","float","float","float","float","float","float","float","float","float","float","float","float"],"gradient_booster":{"model":{"gbtree_model_param":{"num_parallel_tree":"1","num_trees":"247","size_leaf_vector":"0"},"tree_info":[0,0,0,0,0,0,0,0,0,0,0,0,0,0,0,0,0,0,0,0,0,0,0,0,0,0,0,0,0,0,0,0,0,0,0,0,0,0,0,0,0,0,0,0,0,0,0,0,0,0,0,0,0,0,0,0,0,0,0,0,0,0,0,0,0,0,0,0,0,0,0,0,0,0,0,0,0,0,0,0,0,0,0,0,0,0,0,0,0,0,0,0,0,0,0,0,0,0,0,0,0,0,0,0,0,0,0,0,0,0,0,0,0,0,0,0,0,0,0,0,0,0,0,0,0,0,0,0,0,0,0,0,0,0,0,0,0,0,0,0,0,0,0,0,0,0,0,0,0,0,0,0,0,0,0,0,0,0,0,0,0,0,0,0,0,0,0,0,0,0,0,0,0,0,0,0,0,0,0,0,0,0,0,0,0,0,0,0,0,0,0,0,0,0,0,0,0,0,0,0,0,0,0,0,0,0,0,0,0,0,0,0,0,0,0,0,0,0,0,0,0,0,0,0,0,0,0,0,0,0,0,0,0,0,0,0,0,0,0,0,0,0,0,0,0,0,0],"trees":[{"base_weights":[-4.9783227E-1,-4.471983E-1,-5.4734087E-1,6.123794E-2,-4.561668E-1,2.6637962E-1,-5.5321026E-1,-7.491497E-2,2.698306E-1,-2.880304E-1,-4.7278196E-1,-2.9041836E-1,3.9502284E-1,-5.372074E-1,-6.9753766E-1,-2.5371683E-1,-1.3451472E-2,-7.5541995E-2,3.1582987E-1,-4.563249E-1,-1.7272799E-1,-4.8921856E-1,-4.3904385E-1,-0E0,-3.6161765E-1,4.838176E-1,-0E0,-5.2629435E-1,-6.2419444E-1,-5.89622E-1,-8.103313E-1],"categories":[],"categories_nodes":[],"categories_segments":[],"categories_sizes":[],"default_left":[1,1,1,0,1,1,1,0,1,0,0,1,1,1,1,0,0,0,0,0,0,0,0,0,0,0,0,0,0,0,0],"id":0,"left_children":[1,3,5,7,9,11,13,15,17,19,21,23,25,27,29,-1,-1,-1,-1,-1,-1,-1,-1,-1,-1,-1,-1,-1,-1,-1,-1],"loss_changes":[5.391211E1,5.1181396E1,5.4940918E1,5.834085E0,2.9056152E1,6.623361E0,2.2784912E1,1.023552E0,1.6464181E0,1.83816E1,3.4997559E0,5.2768207E-1,2.4975538E0,6.8137207E0,9.551819E0,0E0,0E0,0E0,0E0,0E0,0E0,0E0,0E0,0E0,0E0,0E0,0E0,0E0,0E0,0E0,0E0],"parents":[2147483647,0,0,1,1,2,2,3,3,4,4,5,5,6,6,7,7,8,8,9,9,10,10,11,11,12,12,13,13,14,14],"right_children":[2,4,6,8,10,12,14,16,18,20,22,24,26,28,30,-1,-1,-1,-1,-1,-1,-1,-1,-1,-1,-1,-1,-1,-1,-1,-1],"split_conditions":[-2.59915E-2,-3.4583348E-1,-3.7916648E-1,1.0929999E-3,-3.5152354E0,1.1118273E3,1.850687E1,-1.17865E-2,-1.807092E0,-1.6E-5,2.875E-4,1.12955574E2,1.7998021E0,-7.404345E-1,5.7696545E-1,-1.2685842E-2,-6.7257363E-4,-3.7770998E-3,1.5791494E-2,-2.2816246E-2,-8.636399E-3,-2.4460929E-2,-2.1952193E-2,-0E0,-1.8080883E-2,2.419088E-2,-0E0,-2.6314719E-2,-3.1209722E-2,-2.9481102E-2,-4.0516566E-2],"split_indices":[3,5,5,17,6,18,7,10,16,17,17,2,6,16,3,0,0,0,0,0,0,0,0,0,0,0,0,0,0,0,0],"split_type":[0,0,0,0,0,0,0,0,0,0,0,0,0,0,0,0,0,0,0,0,0,0,0,0,0,0,0,0,0,0,0],"sum_hessian":[2.2386E4,1.1102E4,1.1284E4,1.9E2,1.0912E4,7.8E1,1.1206E4,1.14E2,7.6E1,9.95E2,9.917E3,1.2E1,6.6E1,1.0115E4,1.091E3,2.1E1,9.3E1,6E0,7E1,3.95E2,6E2,6.603E3,3.314E3,2E0,1E1,5.3E1,1.3E1,9.029E3,1.086E3,5.78E2,5.13E2],"tree_param":{"num_deleted":"0","num_feature":"22","num_nodes":"31","size_leaf_vector":"0"}},{"base_weights":[-4.730045E-1,1.3050966E-1,-4.801694E-1,-3.5790852E-1,2.0713575E-1,-4.343035E-1,-5.274448E-1,-0E0,-4.5207205E-1,6.7224467E-1,1.4124277E-2,-4.5008117E-1,-2.7826312E-1,-5.1710886E-1,-8.465146E-1,-1.4224795E-1,9.112946E-2,-4.7032008E-1,-0E0,-0E0,6.898296E-1,1.4434344E-1,-5.1403575E-2,-2.6296762E-1,-4.543093E-1,-4.4778427E-1,-1.6265227E-1,-4.995441E-1,-6.697567E-1,-7.4845664E-2,-9.0799206E-1],"categories":[],"categories_nodes":[],"categories_segments":[],"categories_sizes":[],"default_left":[1,1,1,0,1,1,1,1,0,1,1,1,0,1,1,0,0,0,0,0,0,0,0,0,0,0,0,0,0,0,0],"id":1,"left_children":[1,3,5,7,9,11,13,15,17,19,21,23,25,27,29,-1,-1,-1,-1,-1,-1,-1,-1,-1,-1,-1,-1,-1,-1,-1,-1],"loss_changes":[9.7484375E1,1.0137682E1,4.5879883E1,1.1107898E0,2.0272654E1,2.6396484E1,3.227588E1,2.4492158E-1,2.500906E-1,1.1289196E0,1.5977114E0,6.7734375E0,1.9682198E1,2.541504E1,1.4332672E1,0E0,0E0,0E0,0E0,0E0,0E0,0E0,0E0,0E0,0E0,0E0,0E0,0E0,0E0,0E0,0E0],"parents":[2147483647,0,0,1,1,2,2,3,3,4,4,5,5,6,6,7,7,8,8,9,9,10,10,11,11,12,12,13,13,14,14],"right_children":[2,4,6,8,10,12,14,16,18,20,22,24,26,28,30,-1,-1,-1,-1,-1,-1,-1,-1,-1,-1,-1,-1,-1,-1,-1,-1],"split_conditions":[-3.7083352E-1,1.1338359E3,-1.02504995E-2,-9.07E-4,-8.208335E-1,1.8509075E1,2.4163249E-1,-1.7625E0,2.74066E-1,-2.1566875E1,-5.625E-1,-1.7309651E-1,-1.6E-5,1.85093E1,-4.137979E0,-7.1123973E-3,4.556473E-3,-2.3516005E-2,-0E0,-0E0,3.449148E-2,7.217172E-3,-2.5701788E-3,-1.3148381E-2,-2.2715466E-2,-2.2389214E-2,-8.132613E-3,-2.4977205E-2,-3.3487838E-2,-3.7422832E-3,-4.5399603E-2],"split_indices":[5,18,3,17,5,19,5,5,1,9,5,5,17,15,16,0,0,0,0,0,0,0,0,0,0,0,0,0,0,0,0],"split_type":[0,0,0,0,0,0,0,0,0,0,0,0,0,0,0,0,0,0,0,0,0,0,0,0,0,0,0,0,0,0,0],"sum_hessian":[2.2386E4,2.6E2,2.2126E4,3.1E1,2.29E2,1.1267E4,1.0859E4,8E0,2.3E1,6.2E1,1.67E2,1.0218E4,1.049E3,1.0534E4,3.25E2,3E0,5E0,2.2E1,1E0,1E0,6.1E1,5.9E1,1.08E2,2.38E2,9.98E3,4.16E2,6.33E2,9.472E3,1.062E3,2.6E1,2.99E2],"tree_param":{"num_deleted":"0","num_feature":"22","num_nodes":"31","size_leaf_vector":"0"}},{"base_weights":[-4.4940683E-1,-3.989087E-1,-4.902286E-1,-4.295986E-1,-3.2328823E-1,-4.7681344E-1,-6.1841875E-1,-2.4959031E-1,-4.3517196E-1,2.6969555E-1,-3.409717E-1,2.2176978E-1,-4.8259476E-1,-4.592651E-1,-6.9584864E-1,-2.5800768E-1,2.1299053E-2,-4.3610364E-1,-0E0,4.8148596E-1,7.3534906E-2,-3.8311648E-1,-1.0103832E-1,-2.6621762E-1,3.2161048E-1,-4.7176817E-1,-8.099825E-1,-4.6572787E-1,1.8642373E-2,-7.1678185E-1,-0E0],"categories":[],"categories_nodes":[],"categories_segments":[],"categories_sizes":[],"default_left":[0,1,1,1,1,1,1,0,1,1,1,1,1,1,1,0,0,0,0,0,0,0,0,0,0,0,0,0,0,0,0],"id":2,"left_children":[1,3,5,7,9,11,13,15,17,19,21,23,25,27,29,-1,-1,-1,-1,-1,-1,-1,-1,-1,-1,-1,-1,-1,-1,-1,-1],"loss_changes":[4.4290527E1,2.1869507E1,1.8666748E1,5.9173584E0,3.1255066E1,4.6062256E1,1.1369446E1,7.909069E-1,2.7451172E0,2.8408136E0,2.8131226E1,5.0632586E0,3.6218994E1,1.7073975E0,1.1595856E1,0E0,0E0,0E0,0E0,0E0,0E0,0E0,0E0,0E0,0E0,0E0,0E0,0E0,0E0,0E0,0E0],"parents":[2147483647,0,0,1,1,2,2,3,3,4,4,5,5,6,6,7,7,8,8,9,9,10,10,11,11,12,12,13,13,14,14],"right_children":[2,4,6,8,10,12,14,16,18,20,22,24,26,28,30,-1,-1,-1,-1,-1,-1,-1,-1,-1,-1,-1,-1,-1,-1,-1,-1],"split_conditions":[-8.005E-4,1.4184434E0,1.850687E1,-1.34198E-1,-4.791665E-1,-3.7083352E-1,2.749315E-1,1.0023E-2,2.5083332E0,-8.125E-1,1.8503382E1,1.1118273E3,2.4163249E-1,-3.4755216E0,1.9926252E1,-1.2900384E-2,1.0649527E-3,-2.1805182E-2,-0E0,2.40743E-2,3.6767453E-3,-1.9155825E-2,-5.051916E-3,-1.3310881E-2,1.6080525E-2,-2.358841E-2,-4.0499125E-2,-2.3286393E-2,9.321187E-4,-3.5839092E-2,-0E0],"split_indices":[10,20,7,5,5,5,3,12,5,5,15,18,5,6,9,0,0,0,0,0,0,0,0,0,0,0,0,0,0,0,0],"split_type":[0,0,0,0,0,0,0,0,0,0,0,0,0,0,0,0,0,0,0,0,0,0,0,0,0,0,0,0,0,0,0],"sum_hessian":[2.2386E4,1.0042E4,1.2344E4,7.117E3,2.925E3,1.1203E4,1.141E3,2.26E2,6.891E3,8.1E1,2.844E3,8.9E1,1.1114E4,3.89E2,7.52E2,2.23E2,3E0,6.876E3,1.5E1,3.3E1,4.8E1,2.413E3,4.31E2,1.2E1,7.7E1,1.0773E4,3.41E2,3.86E2,3E0,7.31E2,2.1E1],"tree_param":{"num_deleted":"0","num_feature":"22","num_nodes":"31","size_leaf_vector":"0"}},{"base_weights":[-4.269751E-1,-4.5449713E-1,-3.7923977E-1,-4.4650468E-1,-7.299388E-1,3.2183957E-1,-3.9045927E-1,-5.502869E-1,-4.367947E-1,-1.6880728E-2,-8.3221245E-1,5.7141113E-1,8.406542E-2,-3.1243584E-1,-4.1799906E-1,-4.0889463E-1,-7.465226E-1,-1.0559438E-1,-4.396081E-1,-1.3835402E-1,1.2717935E-1,-7.105769E-1,-1.1458142E0,-0E0,5.8906627E-1,1.13883145E-1,-0E0,-3.4478799E-1,-1.10739514E-1,-2.4598448E-1,-4.326064E-1],"categories":[],"categories_nodes":[],"categories_segments":[],"categories_sizes":[],"default_left":[0,1,1,1,1,1,0,1,1,1,1,1,1,1,1,0,0,0,0,0,0,0,0,0,0,0,0,0,0,0,0],"id":3,"left_children":[1,3,5,7,9,11,13,15,17,19,21,23,25,27,29,-1,-1,-1,-1,-1,-1,-1,-1,-1,-1,-1,-1,-1,-1,-1,-1],"loss_changes":[2.7721191E1,2.8375244E1,6.5447876E1,1.169873E1,2.7376373E1,6.8781023E0,1.6034424E1,2.9254242E1,1.0996094E1,1.0616232E0,6.9657135E0,5.5579376E-1,2.7407628E-1,1.3343826E1,1.3782349E1,0E0,0E0,0E0,0E0,0E0,0E0,0E0,0E0,0E0,0E0,0E0,0E0,0E0,0E0,0E0,0E0],"parents":[2147483647,0,0,1,1,2,2,3,3,4,4,5,5,6,6,7,7,8,8,9,9,10,10,11,11,12,12,13,13,14,14],"right_children":[2,4,6,8,10,12,14,16,18,20,22,24,26,28,30,-1,-1,-1,-1,-1,-1,-1,-1,-1,-1,-1,-1,-1,-1,-1,-1],"split_conditions":[1.865E-4,2.125E-1,-4.90044E-1,-3.5083098E0,-3.3042915E0,-8.208335E-1,-2.1785E-3,2.749315E-1,-2.7916652E-1,2.0739912E3,5.541665E-1,-2.3119507E0,1.9084315E0,1.8503502E1,-5.4949796E-1,-2.0444732E-2,-3.732613E-2,-5.2797194E-3,-2.1980405E-2,-6.917701E-3,6.3589676E-3,-3.5528846E-2,-5.729071E-2,-0E0,2.9453313E-2,5.6941574E-3,-0E0,-1.72394E-2,-5.536976E-3,-1.2299224E-2,-2.163032E-2],"split_indices":[17,5,5,6,16,5,1,3,5,4,5,16,6,15,3,0,0,0,0,0,0,0,0,0,0,0,0,0,0,0,0],"split_type":[0,0,0,0,0,0,0,0,0,0,0,0,0,0,0,0,0,0,0,0,0,0,0,0,0,0,0,0,0,0,0],"sum_hessian":[2.2386E4,1.4159E4,8.227E3,1.3776E4,3.83E2,1.26E2,8.101E3,1.146E3,1.263E4,5E1,3.33E2,5.6E1,7E1,2.139E3,5.962E3,6.78E2,4.68E2,1.11E2,1.2519E4,3.1E1,1.9E1,2.54E2,7.9E1,2E0,5.4E1,5.7E1,1.3E1,1.836E3,3.03E2,4.79E2,5.483E3],"tree_param":{"num_deleted":"0","num_feature":"22","num_nodes":"31","size_leaf_vector":"0"}},{"base_weights":[-4.0568808E-1,1.0258823E-1,-4.1216972E-1,3.366441E-1,-3.8523998E-2,-4.054837E-1,-6.8777233E-1,-4.41504E-1,4.7399923E-1,-2.8078523E-1,-5.070251E-3,-3.6830148E-1,-4.4421604E-1,-2.5171745E-1,-7.7152395E-1,7.7295995E-1,2.7496013E-1,-3.0174708E-1,-0E0,-3.2980714E-2,1.7802152E-1,-3.8219607E-1,-2.3356749E-1,-4.288622E-1,-5.776404E-1,-8.558611E-3,-5.2874935E-1,-6.815562E-1,-1.1220556E0],"categories":[],"categories_nodes":[],"categories_segments":[],"categories_sizes":[],"default_left":[1,1,1,1,1,1,1,0,1,0,1,1,1,1,1,0,0,0,0,0,0,0,0,0,0,0,0,0,0],"id":4,"left_children":[1,3,5,7,9,11,13,-1,15,17,19,21,23,25,27,-1,-1,-1,-1,-1,-1,-1,-1,-1,-1,-1,-1,-1,-1],"loss_changes":[7.42876E1,9.742958E0,3.8257812E1,1.2835947E1,1.15774E0,2.9482666E1,1.6740631E1,0E0,3.6613846E0,1.2874591E-1,7.3260474E-1,1.9652222E1,1.935498E1,5.637438E0,7.8072357E0,0E0,0E0,0E0,0E0,0E0,0E0,0E0,0E0,0E0,0E0,0E0,0E0,0E0,0E0],"parents":[2147483647,0,0,1,1,2,2,3,3,4,4,5,5,6,6,8,8,9,9,10,10,11,11,12,12,13,13,14,14],"right_children":[2,4,6,8,10,12,14,-1,16,18,20,22,24,26,28,-1,-1,-1,-1,-1,-1,-1,-1,-1,-1,-1,-1,-1,-1],"split_conditions":[-3.4583348E-1,-7.154765E-1,2.0056E-1,-2.0791664E0,1.1348687E3,-2.3800001E-4,1.1468794E3,-2.20752E-2,-1.229167E0,2.878185E-1,1.3412706E1,1.8509075E1,1.85093E1,-3.5808434E0,6.3750005E-1,3.8647998E-2,1.3748007E-2,-1.5087354E-2,-0E0,-1.6490357E-3,8.901076E-3,-1.9109804E-2,-1.1678374E-2,-2.1443112E-2,-2.8882021E-2,-4.279306E-4,-2.6437467E-2,-3.4077812E-2,-5.6102782E-2],"split_indices":[5,5,5,5,18,10,18,0,5,1,20,19,15,16,5,0,0,0,0,0,0,0,0,0,0,0,0,0,0],"split_type":[0,0,0,0,0,0,0,0,0,0,0,0,0,0,0,0,0,0,0,0,0,0,0,0,0,0,0,0,0],"sum_hessian":[2.2386E4,2.79E2,2.2107E4,1.05E2,1.74E2,2.1599E4,5.08E2,1.3E1,9.2E1,1.3E1,1.61E2,1.106E4,1.0539E4,8.7E1,4.21E2,2.9E1,6.3E1,1.2E1,1E0,1.48E2,1.3E1,1.0011E4,1.049E3,9.477E3,1.062E3,5.1E1,3.6E1,3.49E2,7.2E1],"tree_param":{"num_deleted":"0","num_feature":"22","num_nodes":"29","size_leaf_vector":"0"}},{"base_weights":[-3.8545838E-1,-3.4058374E-1,-4.2124742E-1,-8.474614E-4,-3.495745E-1,2.1228445E-1,-4.2577907E-1,-3.008578E-1,2.5701502E-2,-2.0892802E-1,-3.641989E-1,-2.4717925E-1,3.116365E-1,-4.1471767E-1,-5.3403986E-1,-3.5790807E-1,-0E0,4.5875916E-1,-5.2635707E-2,-3.5920447E-1,-1.07436955E-1,-3.6504605E-1,1.0746279E-2,-0E0,-3.1496185E-1,5.191689E-1,-0E0,-4.053304E-1,-7.019839E-1,-4.3983778E-1,-6.45308E-1],"categories":[],"categories_nodes":[],"categories_segments":[],"categories_sizes":[],"default_left":[1,1,1,1,1,1,1,1,1,0,1,1,1,1,1,0,0,0,0,0,0,0,0,0,0,0,0,0,0,0,0],"id":5,"left_children":[1,3,5,7,9,11,13,15,17,19,21,23,25,27,29,-1,-1,-1,-1,-1,-1,-1,-1,-1,-1,-1,-1,-1,-1,-1,-1],"loss_changes":[3.4481445E1,3.0110474E1,3.63313E1,2.4245343E0,1.9024902E1,4.5579877E0,1.2718994E1,6.8337274E-1,8.838369E0,1.3570251E1,3.1643066E0,4.4935548E-1,5.0930586E0,2.7739746E1,9.214233E0,0E0,0E0,0E0,0E0,0E0,0E0,0E0,0E0,0E0,0E0,0E0,0E0,0E0,0E0,0E0,0E0],"parents":[2147483647,0,0,1,1,2,2,3,3,4,4,5,5,6,6,7,7,8,8,9,9,10,10,11,11,12,12,13,13,14,14],"right_children":[2,4,6,8,10,12,14,16,18,20,22,24,26,28,30,-1,-1,-1,-1,-1,-1,-1,-1,-1,-1,-1,-1,-1,-1,-1,-1],"split_conditions":[-7.81865E-2,-2.625E-1,-3.7916648E-1,1.1338359E3,-3.5152354E0,1.1118273E3,1.8561047E1,-4.095565E-1,-8.125E-1,-1.6E-5,2.5083332E0,1.12955574E2,-6.3750005E-1,2.4163249E-1,5.7696545E-1,-1.7895404E-2,-0E0,2.2937959E-2,-2.6317853E-3,-1.7960224E-2,-5.3718477E-3,-1.8252304E-2,5.373139E-4,-0E0,-1.5748093E-2,2.5958447E-2,-0E0,-2.026652E-2,-3.5099197E-2,-2.199189E-2,-3.2265402E-2],"split_indices":[3,5,5,18,6,18,7,9,5,17,5,2,5,5,3,0,0,0,0,0,0,0,0,0,0,0,0,0,0,0,0],"split_type":[0,0,0,0,0,0,0,0,0,0,0,0,0,0,0,0,0,0,0,0,0,0,0,0,0,0,0,0,0,0,0],"sum_hessian":[2.2386E4,9.968E3,1.2418E4,2.6E2,9.708E3,8.5E1,1.2333E4,2E1,2.4E2,9.28E2,8.78E3,1.2E1,7.3E1,1.122E4,1.113E3,1.8E1,2E0,3.5E1,2.05E2,3.65E2,5.63E2,8.763E3,1.7E1,2E0,1E1,4.2E1,3.1E1,1.088E4,3.4E2,6.21E2,4.92E2],"tree_param":{"num_deleted":"0","num_feature":"22","num_nodes":"31","size_leaf_vector":"0"}},{"base_weights":[-3.6622712E-1,6.2152598E-2,-3.7255654E-1,2.8298414E-1,-7.237032E-2,-3.6639276E-1,-6.260229E-1,-3.0139557E-1,4.1441536E-1,-9.083812E-2,7.9692915E-2,-3.3808118E-1,-4.0898392E-1,-0E0,-7.005285E-1,-4.3677783E-1,-0E0,7.533367E-1,2.2966342E-1,-0E0,-1.132614E-1,-0E0,1.127892E-1,-3.4903568E-1,-2.2142969E-1,-3.9202023E-1,-5.3604E-1,-1.4310968E-1,6.1309855E-2,-6.183643E-1,-9.9949396E-1],"categories":[],"categories_nodes":[],"categories_segments":[],"categories_sizes":[],"default_left":[1,1,1,1,1,1,1,1,1,1,1,1,1,1,1,0,0,0,0,0,0,0,0,0,0,0,0,0,0,0,0],"id":6,"left_children":[1,3,5,7,9,11,13,15,17,19,21,23,25,27,29,-1,-1,-1,-1,-1,-1,-1,-1,-1,-1,-1,-1,-1,-1,-1,-1],"loss_changes":[6.1136963E1,1.0056876E1,3.233789E1,1.0568668E1,6.230371E-1,2.4559082E1,2.371193E1,1.3537407E0,4.9144993E0,4.3797004E-1,7.0152804E-2,1.5647827E1,1.6494507E1,5.954795E-1,6.5423126E0,0E0,0E0,0E0,0E0,0E0,0E0,0E0,0E0,0E0,0E0,0E0,0E0,0E0,0E0,0E0,0E0],"parents":[2147483647,0,0,1,1,2,2,3,3,4,4,5,5,6,6,7,7,8,8,9,9,10,10,11,11,12,12,13,13,14,14],"right_children":[2,4,6,8,10,12,14,16,18,20,22,24,26,28,30,-1,-1,-1,-1,-1,-1,-1,-1,-1,-1,-1,-1,-1,-1,-1,-1],"split_conditions":[-3.0007E-1,-6.3750005E-1,2.0056E-1,1.130426E3,1.2930733E1,7.505E-4,-4.122567E0,-1.6588235E0,-1.1333334E0,-5.208335E-1,1.1152942E2,1.8509075E1,1.8507458E1,9.349903E2,6.3750005E-1,-2.1838892E-2,-0E0,3.766684E-2,1.1483171E-2,-0E0,-5.6630704E-3,-0E0,5.63946E-3,-1.7451784E-2,-1.1071485E-2,-1.9601012E-2,-2.6802002E-2,-7.155484E-3,3.0654927E-3,-3.0918214E-2,-4.99747E-2],"split_indices":[5,5,5,18,20,10,16,5,5,5,2,19,7,18,5,0,0,0,0,0,0,0,0,0,0,0,0,0,0,0,0],"split_type":[0,0,0,0,0,0,0,0,0,0,0,0,0,0,0,0,0,0,0,0,0,0,0,0,0,0,0,0,0,0,0],"sum_hessian":[2.2386E4,3.23E2,2.2063E4,1.23E2,2E2,2.1555E4,5.08E2,2E1,1.03E2,1.86E2,1.4E1,1.2989E4,8.566E3,5.5E1,4.53E2,1.4E1,6E0,2.9E1,7.4E1,3.4E1,1.52E2,4E0,1E1,1.1857E4,1.132E3,7.582E3,9.84E2,1.6E1,3.9E1,3.7E2,8.3E1],"tree_param":{"num_deleted":"0","num_feature":"22","num_nodes":"31","size_leaf_vector":"0"}},{"base_weights":[-3.4795204E-1,4.1005507E-2,-3.5429075E-1,2.7020013E-1,-7.891861E-2,-3.4841037E-1,-5.956475E-1,-2.891658E-1,3.96433E-1,-9.4646536E-2,7.4641794E-2,-3.2161176E-1,-3.8865417E-1,-2.0299932E-1,-6.7110616E-1,-4.20686E-1,-0E0,7.371267E-1,2.2502108E-1,-0E0,-1.13856755E-1,-0E0,9.277745E-2,-3.316524E-1,-2.0329946E-1,-3.7251008E-1,-5.093059E-1,-0E0,-4.488755E-1,-5.8783126E-1,-9.97389E-1],"categories":[],"categories_nodes":[],"categories_segments":[],"categories_sizes":[],"default_left":[1,1,1,1,0,1,1,1,1,1,1,1,1,1,1,0,0,0,0,0,0,0,0,0,0,0,0,0,0,0,0],"id":7,"left_children":[1,3,5,7,9,11,13,15,17,19,21,23,25,27,29,-1,-1,-1,-1,-1,-1,-1,-1,-1,-1,-1,-1,-1,-1,-1,-1],"loss_changes":[5.559082E1,1.0220334E1,2.9291748E1,9.718567E0,6.301421E-1,2.1881348E1,1.3644257E1,1.2721364E0,4.5155964E0,4.564538E-1,4.9081244E-2,1.4530518E1,1.4854492E1,4.4698544E0,7.0582123E0,0E0,0E0,0E0,0E0,0E0,0E0,0E0,0E0,0E0,0E0,0E0,0E0,0E0,0E0,0E0,0E0],"parents":[2147483647,0,0,1,1,2,2,3,3,4,4,5,5,6,6,7,7,8,8,9,9,10,10,11,11,12,12,13,13,14,14],"right_children":[2,4,6,8,10,12,14,16,18,20,22,24,26,28,30,-1,-1,-1,-1,-1,-1,-1,-1,-1,-1,-1,-1,-1,-1,-1,-1],"split_conditions":[-2.80917E-1,-6.3750005E-1,2.0056E-1,1.130426E3,4.1855E-3,7.505E-4,1.1468794E3,-1.6588235E0,-1.229167E0,-5.208335E-1,-4.8004317E0,1.858698E1,1.8506807E1,-3.5808434E0,6.3750005E-1,-2.10343E-2,-0E0,3.6856335E-2,1.1251054E-2,-0E0,-5.6928378E-3,-0E0,4.6388726E-3,-1.6582621E-2,-1.0164973E-2,-1.8625503E-2,-2.5465295E-2,-0E0,-2.2443775E-2,-2.9391563E-2,-4.986945E-2],"split_indices":[5,5,5,18,17,10,18,5,5,5,3,15,7,16,5,0,0,0,0,0,0,0,0,0,0,0,0,0,0,0,0],"split_type":[0,0,0,0,0,0,0,0,0,0,0,0,0,0,0,0,0,0,0,0,0,0,0,0,0,0,0,0,0,0,0],"sum_hessian":[2.2386E4,3.56E2,2.203E4,1.23E2,2.33E2,2.1522E4,5.08E2,2E1,1.03E2,2.19E2,1.4E1,1.2961E4,8.561E3,8.7E1,4.21E2,1.4E1,6E0,2.7E1,7.6E1,3.4E1,1.85E2,1E0,1.3E1,1.1931E4,1.03E3,7.576E3,9.85E2,5.1E1,3.6E1,3.49E2,7.2E1],"tree_param":{"num_deleted":"0","num_feature":"22","num_nodes":"31","size_leaf_vector":"0"}},{"base_weights":[-3.3059683E-1,3.2977957E-2,-3.3674178E-1,2.580461E-1,-7.8470685E-2,-3.311247E-1,-5.670779E-1,-2.7738658E-1,3.7930152E-1,-9.305499E-2,7.146784E-2,-2.9038444E-1,-3.549555E-1,-2.1775337E-2,-6.4095604E-1,-3.3670914E-1,-0E0,-0E0,3.913852E-1,-2.0031343E-1,-7.277009E-2,-0E0,1.2143823E-1,-3.051536E-1,-1.5573926E-1,-3.451797E-1,-4.526416E-1,-1.1974383E-1,1.4111353E-1,-9.333402E-1,-5.876486E-1],"categories":[],"categories_nodes":[],"categories_segments":[],"categories_sizes":[],"default_left":[1,1,1,1,0,0,1,0,1,1,1,1,1,1,0,0,0,0,0,0,0,0,0,0,0,0,0,0,0,0,0],"id":8,"left_children":[1,3,5,7,9,11,13,15,17,19,21,23,25,27,29,-1,-1,-1,-1,-1,-1,-1,-1,-1,-1,-1,-1,-1,-1,-1,-1],"loss_changes":[5.038379E1,9.662063E0,2.6655518E1,8.938267E0,6.0371315E-1,1.9726807E1,1.9934174E1,6.839973E-1,6.994114E-1,1.6967964E-1,6.517428E-2,1.5176453E1,1.134729E1,1.1482602E0,2.7504578E0,0E0,0E0,0E0,0E0,0E0,0E0,0E0,0E0,0E0,0E0,0E0,0E0,0E0,0E0,0E0,0E0],"parents":[2147483647,0,0,1,1,2,2,3,3,4,4,5,5,6,6,7,7,8,8,9,9,10,10,11,11,12,12,13,13,14,14],"right_children":[2,4,6,8,10,12,14,16,18,20,22,24,26,28,30,-1,-1,-1,-1,-1,-1,-1,-1,-1,-1,-1,-1,-1,-1,-1,-1],"split_conditions":[-2.708335E-1,-6.3750005E-1,2.0056E-1,1.130426E3,4.1855E-3,-1.7185E-3,-2.699184E0,3.31361E-1,-2.1566875E1,1.2034523E3,2.073425E3,1.8578876E1,1.8561047E1,2.0740461E3,-1.4150001E-3,-1.6835457E-2,-0E0,-0E0,1.9569261E-2,-1.0015672E-2,-3.6385045E-3,-0E0,6.0719117E-3,-1.5257681E-2,-7.786963E-3,-1.7258985E-2,-2.2632081E-2,-5.9871916E-3,7.055677E-3,-4.666701E-2,-2.9382428E-2],"split_indices":[5,5,5,18,17,10,16,1,9,18,4,14,7,4,17,0,0,0,0,0,0,0,0,0,0,0,0,0,0,0,0],"split_type":[0,0,0,0,0,0,0,0,0,0,0,0,0,0,0,0,0,0,0,0,0,0,0,0,0,0,0,0,0,0,0],"sum_hessian":[2.2386E4,3.69E2,2.2017E4,1.23E2,2.46E2,2.1509E4,5.08E2,2E1,1.03E2,2.32E2,1.4E1,7.978E3,1.3531E4,6.3E1,4.45E2,1.8E1,2E0,2E0,1.01E2,2.2E1,2.1E2,8E0,6E0,7.177E3,8.01E2,1.233E4,1.201E3,4.4E1,1.9E1,5.3E1,3.92E2],"tree_param":{"num_deleted":"0","num_feature":"22","num_nodes":"31","size_leaf_vector":"0"}},{"base_weights":[-3.141116E-1,-2.682979E-1,-3.3890656E-1,5.5157775E-3,-2.7664164E-1,2.545284E-1,-3.4190252E-1,-4.898799E-2,1.8920396E-1,-2.9163474E-1,-1.4045025E-1,-2.3355472E-1,3.7415835E-1,-3.3572355E-1,-5.713077E-1,-3.0437118E-1,-2.260116E-2,3.2961464E-1,-0E0,-3.0928522E-1,-2.5449586E-1,-3.8059044E-1,-6.4243406E-2,-0E0,-2.8003502E-1,5.539643E-1,1.3458662E-1,-3.266135E-1,-4.2814323E-1,-0E0,-6.1999655E-1],"categories":[],"categories_nodes":[],"categories_segments":[],"categories_sizes":[],"default_left":[1,1,1,1,1,1,1,1,1,0,1,0,1,1,1,0,0,0,0,0,0,0,0,0,0,0,0,0,0,0,0],"id":9,"left_children":[1,3,5,7,9,11,13,15,17,19,21,23,25,27,29,-1,-1,-1,-1,-1,-1,-1,-1,-1,-1,-1,-1,-1,-1,-1,-1],"loss_changes":[2.4373291E1,1.832959E1,2.629309E1,2.5393083E0,1.5026733E1,4.898349E0,1.8582764E1,8.583461E-1,1.7991588E0,3.5651245E0,1.36522665E1,3.035292E-1,1.652483E0,1.0387207E1,1.0139709E1,0E0,0E0,0E0,0E0,0E0,0E0,0E0,0E0,0E0,0E0,0E0,0E0,0E0,0E0,0E0,0E0],"parents":[2147483647,0,0,1,1,2,2,3,3,4,4,5,5,6,6,7,7,8,8,9,9,10,10,11,11,12,12,13,13,14,14],"right_children":[2,4,6,8,10,12,14,16,18,20,22,24,26,28,30,-1,-1,-1,-1,-1,-1,-1,-1,-1,-1,-1,-1,-1,-1,-1,-1],"split_conditions":[-1.82747E-1,-2.625E-1,-5.208335E-1,4.8618636E0,1.8578876E1,1.1057734E3,2.4163249E-1,-1.9625001E0,-6.7499995E-1,2.875E-4,-6.5229125E0,-1.0205E-3,-9.75E-1,1.8561047E1,-4.137979E0,-1.5218559E-2,-1.130058E-3,1.6480733E-2,-0E0,-1.5464261E-2,-1.27247935E-2,-1.9029522E-2,-3.2121704E-3,-0E0,-1.4001751E-2,2.7698217E-2,6.729331E-3,-1.6330674E-2,-2.1407163E-2,-0E0,-3.0999828E-2],"split_indices":[3,5,5,20,14,18,5,5,5,17,9,17,5,7,16,0,0,0,0,0,0,0,0,0,0,0,0,0,0,0,0],"split_type":[0,0,0,0,0,0,0,0,0,0,0,0,0,0,0,0,0,0,0,0,0,0,0,0,0,0,0,0,0,0,0],"sum_hessian":[2.2386E4,7.896E3,1.449E4,2.3E2,7.666E3,6.9E1,1.4421E4,1.76E2,5.4E1,6.894E3,7.72E2,1.1E1,5.8E1,1.4059E4,3.62E2,8E0,1.68E2,3.1E1,2.3E1,4.63E3,2.264E3,1.78E2,5.94E2,1E0,1E1,2.7E1,3.1E1,1.2828E4,1.231E3,2.9E1,3.33E2],"tree_param":{"num_deleted":"0","num_feature":"22","num_nodes":"31","size_leaf_vector":"0"}},{"base_weights":[-2.9844218E-1,-2.6694372E-1,-3.311692E-1,-2.8649712E-1,-2.0241895E-1,-3.777531E-1,-3.081144E-1,-1.4950198E-1,-2.909458E-1,-9.351449E-2,-2.5850502E-1,-3.5333273E-1,-5.422621E-1,1.9802463E-1,-3.1324533E-1,-3.2140103E-1,-1.2664579E-1,-3.826075E-1,-2.8523734E-1,-2.01093E-1,3.4073833E-2,-1.2452203E-1,-2.7455986E-1,-3.2706285E-1,-4.0066406E-1,-7.201396E-1,-4.1186324E-1,-1.2908666E-1,2.736638E-1,-3.2346642E-1,-2.1417524E-1],"categories":[],"categories_nodes":[],"categories_segments":[],"categories_sizes":[],"default_left":[1,0,0,1,0,1,1,0,1,1,0,1,1,1,1,0,0,0,0,0,0,0,0,0,0,0,0,0,0,0,0],"id":10,"left_children":[1,3,5,7,9,11,13,15,17,19,21,23,25,27,29,-1,-1,-1,-1,-1,-1,-1,-1,-1,-1,-1,-1,-1,-1,-1,-1],"loss_changes":[2.2041626E1,1.3668579E1,1.0486938E1,4.6832275E0,1.5969902E1,1.2556732E1,1.9546875E1,4.9961805E-1,3.2215576E0,1.2952512E1,3.233078E0,2.525055E0,7.7995605E0,2.1768909E0,6.5008545E0,0E0,0E0,0E0,0E0,0E0,0E0,0E0,0E0,0E0,0E0,0E0,0E0,0E0,0E0,0E0,0E0],"parents":[2147483647,0,0,1,1,2,2,3,3,4,4,5,5,6,6,7,7,8,8,9,9,10,10,11,11,12,12,13,13,14,14],"right_children":[2,4,6,8,10,12,14,16,18,20,22,24,26,28,30,-1,-1,-1,-1,-1,-1,-1,-1,-1,-1,-1,-1,-1,-1,-1,-1],"split_conditions":[-1.02504995E-2,5.975E-4,-2.975E-4,-1.34198E-1,-6.0630003E-3,1.8560925E1,-3.541665E-1,-9.434501E-3,-8.7146015E0,1.1330118E2,-6.24E-3,2.485E-3,1.8825768E1,1.1483936E3,5.396157E0,-1.6070051E-2,-6.3322894E-3,-1.9130375E-2,-1.4261867E-2,-1.0054651E-2,1.7036917E-3,-6.2261014E-3,-1.3727993E-2,-1.6353143E-2,-2.0033203E-2,-3.6006983E-2,-2.0593163E-2,-6.454333E-3,1.368319E-2,-1.6173322E-2,-1.0708762E-2],"split_indices":[3,17,17,5,10,7,5,12,9,2,1,1,19,18,9,0,0,0,0,0,0,0,0,0,0,0,0,0,0,0,0],"split_type":[0,0,0,0,0,0,0,0,0,0,0,0,0,0,0,0,0,0,0,0,0,0,0,0,0,0,0,0,0,0,0],"sum_hessian":[2.2386E4,1.1446E4,1.094E4,8.759E3,2.687E3,3.582E3,7.358E3,2.88E2,8.471E3,9.24E2,1.763E3,3.138E3,4.44E2,7E1,7.288E3,2.1E1,2.67E2,4.67E2,8.004E3,5.04E2,4.2E2,2E2,1.563E3,2.057E3,1.081E3,1.75E2,2.69E2,1E1,6E1,6.587E3,7.01E2],"tree_param":{"num_deleted":"0","num_feature":"22","num_nodes":"31","size_leaf_vector":"0"}},{"base_weights":[-2.835886E-1,8.529968E-2,-2.8830758E-1,2.9990637E-1,-4.2908224E-3,-2.8274938E-1,-4.835641E-1,-3.5139018E-1,4.5157942E-1,-1.9877127E-1,1.127636E-2,-2.6302442E-1,-3.231023E-1,-1.5839362E-1,-5.4118633E-1,-0E0,4.771692E-1,-0E0,-2.4556012E-1,-0E0,2.1429916E-1,-2.7069077E-1,-1.6999416E-1,-3.0637416E-1,-4.3529776E-1,1.0386823E-2,-3.631544E-1,-4.724442E-1,-8.796201E-1],"categories":[],"categories_nodes":[],"categories_segments":[],"categories_sizes":[],"default_left":[1,1,1,1,1,1,1,0,1,1,0,1,1,1,1,0,0,0,0,0,0,0,0,0,0,0,0,0,0],"id":11,"left_children":[1,3,5,7,9,11,13,-1,15,17,19,21,23,25,27,-1,-1,-1,-1,-1,-1,-1,-1,-1,-1,-1,-1,-1,-1],"loss_changes":[3.9303833E1,5.762438E0,2.2547607E1,9.487812E0,8.102595E-1,1.61156E1,1.0114044E1,0E0,1.303338E0,1.7459607E-1,6.191596E-1,9.667847E0,1.1778076E1,3.8275893E0,8.31871E0,0E0,0E0,0E0,0E0,0E0,0E0,0E0,0E0,0E0,0E0,0E0,0E0,0E0,0E0],"parents":[2147483647,0,0,1,1,2,2,3,3,4,4,5,5,6,6,8,8,9,9,10,10,11,11,12,12,13,13,14,14],"right_children":[2,4,6,8,10,12,14,-1,16,18,20,22,24,26,28,-1,-1,-1,-1,-1,-1,-1,-1,-1,-1,-1,-1,-1,-1],"split_conditions":[-3.4583348E-1,-8.125E-1,1.71534E-1,-2.0791664E0,1.1348687E3,1.516115E-1,1.1468794E3,-1.756951E-2,-3.163887E0,9.837399E1,6.79955E-2,1.858882E1,1.8496117E1,-3.5808434E0,6.3750005E-1,-0E0,2.385846E-2,-0E0,-1.2278006E-2,-0E0,1.0714958E-2,-1.3534538E-2,-8.499708E-3,-1.53187085E-2,-2.1764887E-2,5.1934115E-4,-1.815772E-2,-2.3622211E-2,-4.3981005E-2],"split_indices":[5,5,5,5,18,3,18,0,16,2,21,15,0,16,5,0,0,0,0,0,0,0,0,0,0,0,0,0,0],"split_type":[0,0,0,0,0,0,0,0,0,0,0,0,0,0,0,0,0,0,0,0,0,0,0,0,0,0,0,0,0],"sum_hessian":[2.2386E4,2.79E2,2.2107E4,8.2E1,1.97E2,2.1512E4,5.95E2,1.3E1,6.9E1,1.5E1,1.82E2,1.4491E4,7.021E3,9.5E1,5E2,2E0,6.7E1,4E0,1.1E1,1.73E2,9E0,1.3369E4,1.122E3,6.134E3,8.87E2,5.2E1,4.3E1,4.28E2,7.2E1],"tree_param":{"num_deleted":"0","num_feature":"22","num_nodes":"29","size_leaf_vector":"0"}},{"base_weights":[-2.6945567E-1,3.5907265E-2,-2.746259E-1,2.268562E-1,-5.8200303E-2,-2.700262E-1,-4.8990187E-1,-2.416537E-1,3.3406422E-1,-7.225892E-2,7.224143E-2,-2.5044978E-1,-3.06202E-1,-1.7705793E-3,-5.6385344E-1,-3.6123496E-1,-0E0,6.824505E-1,1.8788615E-1,-0E0,-8.876522E-2,-0E0,1.2227829E-1,-2.578054E-1,-1.6144916E-1,-2.9171762E-1,-4.0706423E-1,-1.032358E-1,1.5563436E-1,-4.7885537E-1,-8.320693E-1],"categories":[],"categories_nodes":[],"categories_segments":[],"categories_sizes":[],"default_left":[1,1,1,1,1,1,1,1,1,1,1,1,1,1,1,0,0,0,0,0,0,0,0,0,0,0,0,0,0,0,0],"id":12,"left_children":[1,3,5,7,9,11,13,15,17,19,21,23,25,27,29,-1,-1,-1,-1,-1,-1,-1,-1,-1,-1,-1,-1,-1,-1,-1,-1],"loss_changes":[3.563867E1,6.9553547E0,2.0384888E1,6.9252357E0,4.8640937E-1,1.4340576E1,1.5673523E1,1.0194106E0,3.9886026E0,3.199761E-1,6.009528E-2,8.568054E0,9.716919E0,1.082031E0,5.5652237E0,0E0,0E0,0E0,0E0,0E0,0E0,0E0,0E0,0E0,0E0,0E0,0E0,0E0,0E0,0E0,0E0],"parents":[2147483647,0,0,1,1,2,2,3,3,4,4,5,5,6,6,7,7,8,8,9,9,10,10,11,11,12,12,13,13,14,14],"right_children":[2,4,6,8,10,12,14,16,18,20,22,24,26,28,30,-1,-1,-1,-1,-1,-1,-1,-1,-1,-1,-1,-1,-1,-1,-1,-1],"split_conditions":[-2.708335E-1,-6.3750005E-1,2.4163249E-1,1.130426E3,1.2930733E1,1.3245E-3,-2.688335E0,-1.6588235E0,-1.375E0,-5.066415E-1,2.073425E3,1.858882E1,1.8506807E1,2.0740461E3,6.3750005E-1,-1.8061748E-2,-0E0,3.4122523E-2,9.394308E-3,-0E0,-4.438261E-3,-0E0,6.1139143E-3,-1.2890271E-2,-8.072458E-3,-1.45858815E-2,-2.0353211E-2,-5.16179E-3,7.781718E-3,-2.3942769E-2,-4.1603465E-2],"split_indices":[5,5,5,18,20,10,16,5,5,5,4,14,7,4,5,0,0,0,0,0,0,0,0,0,0,0,0,0,0,0,0],"split_type":[0,0,0,0,0,0,0,0,0,0,0,0,0,0,0,0,0,0,0,0,0,0,0,0,0,0,0,0,0,0,0],"sum_hessian":[2.2386E4,3.69E2,2.2017E4,1.23E2,2.46E2,2.1572E4,4.45E2,2E1,1.03E2,2.31E2,1.5E1,1.4041E4,7.531E3,6.1E1,3.84E2,1.4E1,6E0,2.3E1,8E1,3.9E1,1.92E2,9E0,6E0,1.295E4,1.091E3,6.611E3,9.2E2,4.2E1,1.9E1,3.05E2,7.9E1],"tree_param":{"num_deleted":"0","num_feature":"22","num_nodes":"31","size_leaf_vector":"0"}},{"base_weights":[-2.5600928E-1,-2.806639E-1,-2.2219664E-1,-2.6245913E-1,-3.223886E-1,-1.145781E-1,-2.4273477E-1,-2.56692E-1,-3.624601E-1,-2.9829457E-1,-5.057882E-1,-1.7632376E-1,3.5333708E-3,2.5067276E-1,-2.4683505E-1,-3.491544E-1,-2.5146902E-1,-1.12260215E-1,-3.9450014E-1,-2.8261817E-1,-4.768681E-1,-6.7939097E-1,-3.763512E-1,2.010213E-1,-1.9064741E-1,1.9097392E-1,-5.4028656E-2,4.3861097E-1,5.8196895E-2,-2.5549784E-1,-1.5102002E-1],"categories":[],"categories_nodes":[],"categories_segments":[],"categories_sizes":[],"default_left":[0,1,1,1,1,1,1,1,1,1,1,1,1,1,1,0,0,0,0,0,0,0,0,0,0,0,0,0,0,0,0],"id":13,"left_children":[1,3,5,7,9,11,13,15,17,19,21,23,25,27,29,-1,-1,-1,-1,-1,-1,-1,-1,-1,-1,-1,-1,-1,-1,-1,-1],"loss_changes":[1.7851318E1,8.800537E0,2.0463745E1,4.1257324E0,1.560434E1,1.138505E1,1.6391296E1,3.0980835E0,3.0475388E0,8.224518E0,7.530403E0,5.66728E0,5.8745804E0,1.7630186E0,5.949463E0,0E0,0E0,0E0,0E0,0E0,0E0,0E0,0E0,0E0,0E0,0E0,0E0,0E0,0E0,0E0,0E0],"parents":[2147483647,0,0,1,1,2,2,3,3,4,4,5,5,6,6,7,7,8,8,9,9,10,10,11,11,12,12,13,13,14,14],"right_children":[2,4,6,8,10,12,14,16,18,20,22,24,26,28,30,-1,-1,-1,-1,-1,-1,-1,-1,-1,-1,-1,-1,-1,-1,-1,-1],"split_conditions":[8.05E-5,2.45726E-1,-5.203845E-1,8.5132E-2,1.8567842E1,1.2271975E2,-5.7916653E-1,-8.607929E0,1.1491035E3,1.29442E-1,1.8825804E1,-3.7083352E-1,1.22854355E2,-9.75E-1,5.276946E0,-1.7457722E-2,-1.2573451E-2,-5.613011E-3,-1.9725008E-2,-1.4130908E-2,-2.3843406E-2,-3.3969548E-2,-1.881756E-2,1.0051065E-2,-9.532371E-3,9.548697E-3,-2.701433E-3,2.193055E-2,2.9098447E-3,-1.2774892E-2,-7.551001E-3],"split_indices":[17,3,3,5,7,13,5,9,18,5,19,5,13,5,9,0,0,0,0,0,0,0,0,0,0,0,0,0,0,0,0],"split_type":[0,0,0,0,0,0,0,0,0,0,0,0,0,0,0,0,0,0,0,0,0,0,0,0,0,0,0,0,0,0,0],"sum_hessian":[2.2386E4,1.2908E4,9.478E3,9.029E3,3.879E3,1.532E3,7.946E3,8.563E3,4.66E2,3.445E3,4.34E2,1.01E3,5.22E2,6.1E1,7.885E3,4.3E2,8.133E3,5.9E1,4.07E2,3.184E3,2.61E2,1.73E2,2.61E2,3.2E1,9.78E2,1.24E2,3.98E2,2.5E1,3.6E1,7.214E3,6.71E2],"tree_param":{"num_deleted":"0","num_feature":"22","num_nodes":"31","size_leaf_vector":"0"}},{"base_weights":[-2.4325442E-1,4.0038057E-2,-2.4805576E-1,2.697172E-1,-2.565466E-2,-2.4310237E-1,-4.2121574E-1,-3.152307E-1,4.0729117E-1,4.1607816E-2,-6.368856E-2,-2.096424E-1,-2.612038E-1,-1.2805809E-1,-4.7311613E-1,-0E0,4.2178884E-1,-1.1313911E-1,6.2752984E-2,-1.8438913E-1,-3.932925E-2,-2.2189584E-1,-9.825661E-2,-2.5360817E-1,-3.374529E-1,-0E0,-2.7782944E-1,-7.074401E-1,-4.331749E-1],"categories":[],"categories_nodes":[],"categories_segments":[],"categories_sizes":[],"default_left":[1,1,1,1,1,1,1,0,1,1,1,1,1,1,0,0,0,0,0,0,0,0,0,0,0,0,0,0,0],"id":14,"left_children":[1,3,5,7,9,11,13,-1,15,17,19,21,23,25,27,-1,-1,-1,-1,-1,-1,-1,-1,-1,-1,-1,-1,-1,-1],"loss_changes":[3.0713379E1,5.9216633E0,1.7712646E1,7.735218E0,7.8234065E-1,1.2233032E1,8.224884E0,0E0,7.115545E-1,3.090558E-1,3.221783E-1,9.898712E0,7.0111084E0,1.9880049E0,2.053543E0,0E0,0E0,0E0,0E0,0E0,0E0,0E0,0E0,0E0,0E0,0E0,0E0,0E0,0E0],"parents":[2147483647,0,0,1,1,2,2,3,3,4,4,5,5,6,6,8,8,9,9,10,10,11,11,12,12,13,13,14,14],"right_children":[2,4,6,8,10,12,14,-1,16,18,20,22,24,26,28,-1,-1,-1,-1,-1,-1,-1,-1,-1,-1,-1,-1,-1,-1],"split_conditions":[-2.708335E-1,-8.125E-1,1.71534E-1,-2.0791664E0,-4.90044E-1,-1.8328801E-1,1.1468794E3,-1.5761536E-2,-2.1566875E1,1.1123907E3,-4.7939315E0,1.858698E1,1.8562862E1,-2.90404E-1,-1.4150001E-3,-0E0,2.1089442E-2,-5.6569553E-3,3.1376493E-3,-9.219456E-3,-1.9664625E-3,-1.1094793E-2,-4.9128304E-3,-1.2680409E-2,-1.6872644E-2,-0E0,-1.38914725E-2,-3.5372004E-2,-2.1658747E-2],"split_indices":[5,5,5,5,5,3,18,0,9,18,9,14,7,9,17,0,0,0,0,0,0,0,0,0,0,0,0,0,0],"split_type":[0,0,0,0,0,0,0,0,0,0,0,0,0,0,0,0,0,0,0,0,0,0,0,0,0,0,0,0,0],"sum_hessian":[2.2386E4,3.69E2,2.2017E4,8.2E1,2.87E2,2.1422E4,5.95E2,1.3E1,6.9E1,9.4E1,1.93E2,7.562E3,1.386E4,9.5E1,5E2,1E0,6.8E1,3E0,9.1E1,2E1,1.73E2,6.8E3,7.62E2,1.2636E4,1.224E3,5.3E1,4.2E1,5.7E1,4.43E2],"tree_param":{"num_deleted":"0","num_feature":"22","num_nodes":"29","size_leaf_vector":"0"}},{"base_weights":[-2.3113833E-1,3.743606E-2,-2.3569247E-1,-2.5196516E-4,2.6460034E-1,-2.1705143E-1,-2.7256694E-1,-2.5182602E-1,2.7438499E-2,4.2798603E-1,1.2888892E-2,-2.237498E-1,-1.3514973E-1,-2.6550466E-1,-4.3546978E-1,-3.117525E-1,-0E0,4.3712375E-1,-1.04748625E-2,-0E0,4.7711343E-1,1.00828685E-1,-4.1993797E-2,-2.2128907E-1,-4.0821716E-1,-3.2146063E-1,-8.8927925E-2,-2.5168046E-1,-3.6055014E-1,-0E0,-4.7859353E-1],"categories":[],"categories_nodes":[],"categories_segments":[],"categories_sizes":[],"default_left":[1,1,1,1,1,1,1,1,1,1,0,1,1,1,1,0,0,0,0,0,0,0,0,0,0,0,0,0,0,0,0],"id":15,"left_children":[1,3,5,7,9,11,13,15,17,19,21,23,25,27,29,-1,-1,-1,-1,-1,-1,-1,-1,-1,-1,-1,-1,-1,-1,-1,-1],"loss_changes":[2.7629517E1,3.466635E0,1.4351929E1,2.502053E0,1.8757288E0,7.538086E0,7.1848755E0,3.411317E-1,4.9695134E0,7.39975E-1,2.2479697E-1,5.065857E0,9.2036495E0,8.223541E0,5.7837143E0,0E0,0E0,0E0,0E0,0E0,0E0,0E0,0E0,0E0,0E0,0E0,0E0,0E0,0E0,0E0,0E0],"parents":[2147483647,0,0,1,1,2,2,3,3,4,4,5,5,6,6,7,7,8,8,9,9,10,10,11,11,12,12,13,13,14,14],"right_children":[2,4,6,8,10,12,14,16,18,20,22,24,26,28,30,-1,-1,-1,-1,-1,-1,-1,-1,-1,-1,-1,-1,-1,-1,-1,-1],"split_conditions":[-2.708335E-1,5.6144743E0,1.516115E-1,1.1338359E3,-7.35818E-1,1.858882E1,2.0983E-1,1.225923E2,-1.079167E0,-1.589288E0,2.7873E-2,2.625E-1,-5.076E-3,1.8506807E1,-4.137979E0,-1.5587625E-2,-0E0,2.1856187E-2,-5.2374316E-4,-0E0,2.3855671E-2,5.0414344E-3,-2.0996898E-3,-1.1064454E-2,-2.0410858E-2,-1.6073031E-2,-4.446396E-3,-1.2584023E-2,-1.8027507E-2,-0E0,-2.3929676E-2],"split_indices":[5,9,3,18,5,14,5,11,5,16,12,5,12,7,16,0,0,0,0,0,0,0,0,0,0,0,0,0,0,0,0],"split_type":[0,0,0,0,0,0,0,0,0,0,0,0,0,0,0,0,0,0,0,0,0,0,0,0,0,0,0,0,0,0,0],"sum_hessian":[2.2386E4,3.69E2,2.2017E4,3.17E2,5.2E1,1.4665E4,7.352E3,3.1E1,2.86E2,2.7E1,2.5E1,1.3537E4,1.128E3,7.065E3,2.87E2,2.2E1,9E0,2.2E1,2.64E2,3E0,2.4E1,1.5E1,1E1,1.3375E4,1.62E2,2.14E2,9.14E2,6.193E3,8.72E2,2.5E1,2.62E2],"tree_param":{"num_deleted":"0","num_feature":"22","num_nodes":"31","size_leaf_vector":"0"}},{"base_weights":[-2.196117E-1,9.207703E-2,-2.2318278E-1,-2.250203E-1,1.4568743E-1,-2.0536466E-1,-2.5857806E-1,-2.718977E-1,-0E0,5.62868E-1,6.366384E-2,-1.9095111E-1,-2.4267937E-1,-2.527385E-1,-4.4079798E-1,-0E0,-3.0912596E-1,5.7507265E-1,-0E0,1.398242E-1,-0E0,-2.1092173E-1,-1.4691567E-1,-2.3589908E-1,-3.884174E-1,-2.3985E-1,-3.426254E-1,1.779494E-4,-5.0082034E-1],"categories":[],"categories_nodes":[],"categories_segments":[],"categories_sizes":[],"default_left":[1,1,1,0,1,1,1,1,0,1,1,0,1,1,1,0,0,0,0,0,0,0,0,0,0,0,0,0,0],"id":16,"left_children":[1,3,5,7,9,11,13,15,-1,17,19,21,23,25,27,-1,-1,-1,-1,-1,-1,-1,-1,-1,-1,-1,-1,-1,-1],"loss_changes":[2.5156616E1,4.402508E0,1.3234985E1,6.168071E-1,6.8250546E0,7.2790527E0,6.598114E0,3.315711E-1,0E0,1.4148808E-1,8.55969E-1,8.895172E0,2.9472046E0,7.306183E0,6.244732E0,0E0,0E0,0E0,0E0,0E0,0E0,0E0,0E0,0E0,0E0,0E0,0E0,0E0,0E0],"parents":[2147483647,0,0,1,1,2,2,3,3,4,4,5,5,6,6,7,7,9,9,10,10,11,11,12,12,13,13,14,14],"right_children":[2,4,6,8,10,12,14,16,-1,18,20,22,24,26,28,-1,-1,-1,-1,-1,-1,-1,-1,-1,-1,-1,-1,-1,-1],"split_conditions":[-3.7916648E-1,1.1338359E3,1.516115E-1,2.74066E-1,-1.1333334E0,7.683E-3,2.96027E-1,-1.629377E1,-0E0,1.1413983E2,-6.041665E-1,3.335E-4,2.625E-1,1.8506807E1,-2.9745414E0,-0E0,-1.5456298E-2,2.8753633E-2,-0E0,6.99121E-3,-0E0,-1.0546087E-2,-7.345784E-3,-1.1794954E-2,-1.942087E-2,-1.19925E-2,-1.713127E-2,8.89747E-6,-2.5041018E-2],"split_indices":[5,18,3,1,5,5,5,9,0,2,5,17,5,7,16,0,0,0,0,0,0,0,0,0,0,0,0,0,0],"split_type":[0,0,0,0,0,0,0,0,0,0,0,0,0,0,0,0,0,0,0,0,0,0,0,0,0,0,0,0,0],"sum_hessian":[2.2386E4,2.49E2,2.2137E4,3.1E1,2.18E2,1.4766E4,7.371E3,2.8E1,3E0,2.9E1,1.89E2,1.0693E4,4.073E3,7.159E3,2.12E2,4E0,2.4E1,2.8E1,1E0,7.9E1,1.1E2,7.328E3,3.365E3,3.911E3,1.62E2,6.287E3,8.72E2,2.4E1,1.88E2],"tree_param":{"num_deleted":"0","num_feature":"22","num_nodes":"29","size_leaf_vector":"0"}},{"base_weights":[-2.0865494E-1,5.0252927E-3,-2.1344261E-1,1.8969195E-1,-5.6557473E-2,-2.0831932E-1,-3.4285378E-1,-2.8229275E-1,2.6401597E-1,-1.7555043E-1,-3.674447E-2,-2.2345915E-1,-1.762523E-1,-3.597145E-1,2.4693733E-2,5.468801E-1,1.4394929E-1,-2.7463657E-1,-0E0,-7.580531E-2,3.0981835E-3,-2.627851E-1,-2.1290767E-1,-1.9997108E-1,-1.2144033E-1,-2.939323E-1,-5.2617365E-1,-6.819585E-2,2.0240323E-1],"categories":[],"categories_nodes":[],"categories_segments":[],"categories_sizes":[],"default_left":[1,1,1,1,0,1,1,0,1,1,0,1,1,1,1,0,0,0,0,0,0,0,0,0,0,0,0,0,0],"id":17,"left_children":[1,3,5,7,9,11,13,-1,15,17,19,21,23,25,27,-1,-1,-1,-1,-1,-1,-1,-1,-1,-1,-1,-1,-1,-1],"loss_changes":[2.3120422E1,5.770568E0,1.3614929E1,4.8445873E0,6.230521E-1,9.642822E0,5.454872E0,0E0,2.821251E0,6.050664E-1,5.8590007E-1,5.1729126E0,8.409378E0,7.013336E0,8.305024E-1,0E0,0E0,0E0,0E0,0E0,0E0,0E0,0E0,0E0,0E0,0E0,0E0,0E0,0E0],"parents":[2147483647,0,0,1,1,2,2,3,3,4,4,5,5,6,6,8,8,9,9,10,10,11,11,12,12,13,13,14,14],"right_children":[2,4,6,8,10,12,14,-1,16,18,20,22,24,26,28,-1,-1,-1,-1,-1,-1,-1,-1,-1,-1,-1,-1,-1,-1],"split_conditions":[-2.041665E-1,-6.3750005E-1,1.32773E-1,-2.0791664E0,-3.5645E-3,8.020256E0,2.029167E0,-1.4114638E-2,-1.3416669E0,1.1320776E2,4.355E-4,-1.4282706E0,3.945E-4,4.1250002E-1,-5.887103E0,2.7344007E-2,7.1974644E-3,-1.3731829E-2,-0E0,-3.7902654E-3,1.5490918E-4,-1.3139255E-2,-1.0645384E-2,-9.998554E-3,-6.0720164E-3,-1.4696615E-2,-2.6308684E-2,-3.4097924E-3,1.0120162E-2],"split_indices":[5,5,5,5,12,8,5,0,5,2,17,20,17,5,16,0,0,0,0,0,0,0,0,0,0,0,0,0,0],"split_type":[0,0,0,0,0,0,0,0,0,0,0,0,0,0,0,0,0,0,0,0,0,0,0,0,0,0,0,0,0],"sum_hessian":[2.2386E4,4.86E2,2.19E4,1.23E2,3.63E2,2.1086E4,8.14E2,1.3E1,1.1E2,3.9E1,3.24E2,1.4282E4,6.804E3,7.81E2,3.3E1,2.5E1,8.5E1,2.1E1,1.8E1,1.74E2,1.5E2,2.976E3,1.1306E4,4.727E3,2.077E3,5.74E2,2.07E2,2E1,1.3E1],"tree_param":{"num_deleted":"0","num_feature":"22","num_nodes":"29","size_leaf_vector":"0"}},{"base_weights":[-1.9825053E-1,4.6439175E-3,-2.027988E-1,-3.4602564E-2,1.5825626E-1,-1.6229992E-1,-2.1607606E-1,-2.856014E-1,-1.37381125E-2,5.066174E-1,6.6841654E-2,-1.8903714E-1,-9.53337E-2,-2.1242341E-1,-4.0535176E-1,-3.0894902E-1,-0E0,1.6793607E-1,-4.9342964E-2,-5.069611E-2,1.3494936E-1,-2.7265808E-1,-1.7767215E-1,-1.4008562E-1,7.520486E-2,-2.4610952E-1,-2.0108038E-1,5.8056515E-2,-4.6141276E-1],"categories":[],"categories_nodes":[],"categories_segments":[],"categories_sizes":[],"default_left":[1,1,1,1,1,1,1,0,1,0,1,1,1,1,1,0,0,0,0,0,0,0,0,0,0,0,0,0,0],"id":18,"left_children":[1,3,5,7,9,11,13,15,17,-1,19,21,23,25,27,-1,-1,-1,-1,-1,-1,-1,-1,-1,-1,-1,-1,-1,-1],"loss_changes":[2.0865662E1,3.1111476E0,1.1224976E1,1.7234542E0,2.6328266E0,9.378326E0,1.0333557E1,1.7001557E-1,2.3097093E0,0E0,8.549411E-1,2.9919586E0,1.213784E1,5.482788E0,8.3570175E0,0E0,0E0,0E0,0E0,0E0,0E0,0E0,0E0,0E0,0E0,0E0,0E0,0E0,0E0],"parents":[2147483647,0,0,1,1,2,2,3,3,4,4,5,5,6,6,7,7,8,8,10,10,11,11,12,12,13,13,14,14],"right_children":[2,4,6,8,10,12,14,16,18,-1,20,22,24,26,28,-1,-1,-1,-1,-1,-1,-1,-1,-1,-1,-1,-1,-1,-1],"split_conditions":[-2.041665E-1,4.8618636E0,-3.321535E-1,-3.0974631E0,-1.375E0,1.377079E0,2.96027E-1,1.2272985E0,-6.541665E-1,2.5330871E-2,-1.656364E0,-8.7146015E0,1.8503382E1,-5.946672E0,-2.9745414E0,-1.5447452E-2,-0E0,8.396803E-3,-2.4671482E-3,-2.5348056E-3,6.747468E-3,-1.3632904E-2,-8.883608E-3,-7.004281E-3,3.7602428E-3,-1.2305476E-2,-1.0054019E-2,2.9028258E-3,-2.3070639E-2],"split_indices":[5,20,3,16,5,20,5,1,5,0,16,9,14,8,16,0,0,0,0,0,0,0,0,0,0,0,0,0,0],"split_type":[0,0,0,0,0,0,0,0,0,0,0,0,0,0,0,0,0,0,0,0,0,0,0,0,0,0,0,0,0],"sum_hessian":[2.2386E4,4.86E2,2.19E4,3.85E2,1.01E2,5.442E3,1.6458E4,2.1E1,3.64E2,1.4E1,8.7E1,3.872E3,1.57E3,1.6162E4,2.96E2,1.9E1,2E0,5.2E1,3.12E2,2.7E1,6E1,4.39E2,3.433E3,1.249E3,3.21E2,4.023E3,1.2139E4,3E1,2.66E2],"tree_param":{"num_deleted":"0","num_feature":"22","num_nodes":"29","size_leaf_vector":"0"}},{"base_weights":[-1.883555E-1,8.200823E-2,-1.9145958E-1,2.2469905E-1,4.1992567E-3,-1.8673955E-1,-3.119868E-1,-1.6023548E-1,3.5499755E-1,-1.5555106E-1,2.814031E-2,-2.0534341E-1,-1.631413E-1,-7.708104E-2,-3.4724006E-1,-2.8974152E-1,9.107478E-2,5.4988617E-1,1.6790962E-1,-0E0,-2.061988E-1,1.5568519E-1,-0E0,-1.9663718E-1,-2.9227614E-1,-7.884132E-2,-1.7835835E-1,4.7632836E-2,-2.0768471E-1,-3.110183E-1,-7.630515E-1],"categories":[],"categories_nodes":[],"categories_segments":[],"categories_sizes":[],"default_left":[1,1,1,1,1,0,1,1,1,1,1,1,1,1,1,0,0,0,0,0,0,0,0,0,0,0,0,0,0,0,0],"id":19,"left_children":[1,3,5,7,9,11,13,15,17,19,21,23,25,27,29,-1,-1,-1,-1,-1,-1,-1,-1,-1,-1,-1,-1,-1,-1,-1,-1],"loss_changes":[1.8979187E1,2.586451E0,1.18063965E1,4.7424707E0,5.5995435E-1,8.827454E0,6.2241364E0,1.07917E0,1.2634563E0,2.0223877E-1,5.7540625E-1,8.217407E0,1.1794922E1,2.1152213E0,8.387749E0,0E0,0E0,0E0,0E0,0E0,0E0,0E0,0E0,0E0,0E0,0E0,0E0,0E0,0E0,0E0,0E0],"parents":[2147483647,0,0,1,1,2,2,3,3,4,4,5,5,6,6,7,7,8,8,9,9,10,10,11,11,12,12,13,13,14,14],"right_children":[2,4,6,8,10,12,14,16,18,20,22,24,26,28,30,-1,-1,-1,-1,-1,-1,-1,-1,-1,-1,-1,-1,-1,-1,-1,-1],"split_conditions":[-3.7916648E-1,-8.208335E-1,1.32773E-1,1.1331287E3,1.1369238E3,4.95E-5,1.1468794E3,-1.6588235E0,-1.375E0,9.837399E1,-1.2410755E0,1.8501976E1,-5.203845E-1,-3.5808434E0,7.458335E-1,-1.4487076E-2,4.553739E-3,2.749431E-2,8.395481E-3,-0E0,-1.030994E-2,7.7842595E-3,-0E0,-9.83186E-3,-1.4613807E-2,-3.9420663E-3,-8.9179175E-3,2.3816419E-3,-1.03842355E-2,-1.5550914E-2,-3.8152575E-2],"split_indices":[5,5,5,18,18,17,18,5,5,2,16,0,3,16,5,0,0,0,0,0,0,0,0,0,0,0,0,0,0,0,0],"split_type":[0,0,0,0,0,0,0,0,0,0,0,0,0,0,0,0,0,0,0,0,0,0,0,0,0,0,0,0,0,0,0],"sum_hessian":[2.2386E4,2.49E2,2.2137E4,8E1,1.69E2,2.1323E4,8.14E2,1.8E1,6.2E1,1.3E1,1.56E2,1.1878E4,9.445E3,1.12E2,7.02E2,1.4E1,4E0,2.3E1,3.9E1,3E0,1E1,2.4E1,1.32E2,1.0822E4,1.056E3,1.459E3,7.986E3,5.5E1,5.7E1,6.56E2,4.6E1],"tree_param":{"num_deleted":"0","num_feature":"22","num_nodes":"31","size_leaf_vector":"0"}},{"base_weights":[-1.7896062E-1,-2.0642999E-1,-1.5874074E-1,-1.9648716E-1,-2.937778E-1,-1.0146471E-1,-1.7132157E-1,-1.9124945E-1,-4.242707E-1,-4.7092217E-1,-2.1114527E-1,-1.479635E-1,2.9532364E-2,-7.046327E-3,-1.7685302E-1,-1.7708537E-1,-2.1787179E-1,-0E0,-5.331924E-1,-2.0691678E-1,-5.081928E-1,-1.5767474E-1,-3.8331825E-1,4.8631497E-2,-1.5618302E-1,-1.644592E-1,7.389267E-2,2.9967967E-1,-4.505136E-2,-1.8478587E-1,-9.9082164E-2],"categories":[],"categories_nodes":[],"categories_segments":[],"categories_sizes":[],"default_left":[1,1,1,1,1,1,1,1,1,1,1,1,1,1,1,0,0,0,0,0,0,0,0,0,0,0,0,0,0,0,0],"id":20,"left_children":[1,3,5,7,9,11,13,15,17,19,21,23,25,27,29,-1,-1,-1,-1,-1,-1,-1,-1,-1,-1,-1,-1,-1,-1,-1,-1],"loss_changes":[1.1907532E1,7.433502E0,8.96463E0,9.137756E0,1.2668213E1,1.44972515E1,9.430969E0,2.5558167E0,8.281616E0,1.6421356E0,5.2144737E0,2.9669151E0,5.271198E0,3.9628153E0,5.940277E0,0E0,0E0,0E0,0E0,0E0,0E0,0E0,0E0,0E0,0E0,0E0,0E0,0E0,0E0,0E0,0E0],"parents":[2147483647,0,0,1,1,2,2,3,3,4,4,5,5,6,6,7,7,8,8,9,9,10,10,11,11,12,12,13,13,14,14],"right_children":[2,4,6,8,10,12,14,16,18,20,22,24,26,28,30,-1,-1,-1,-1,-1,-1,-1,-1,-1,-1,-1,-1,-1,-1,-1,-1],"split_conditions":[-2.84774E-1,1.8501976E1,-5.1635647E-1,4.1250002E-1,1.8784142E1,1.1341577E2,-1.461815E-1,3.09E-4,1.1468794E3,1.1991426E3,8.091425E-1,-1.791665E-1,1.1047112E3,-9.416665E-1,4.2940397E0,-8.854269E-3,-1.089359E-2,-0E0,-2.665962E-2,-1.0345839E-2,-2.5409639E-2,-7.883738E-3,-1.9165913E-2,2.431575E-3,-7.809151E-3,-8.22296E-3,3.6946335E-3,1.4983984E-2,-2.252568E-3,-9.239294E-3,-4.9541085E-3],"split_indices":[20,0,3,5,0,2,5,1,18,18,3,5,18,5,9,0,0,0,0,0,0,0,0,0,0,0,0,0,0,0,0],"split_type":[0,0,0,0,0,0,0,0,0,0,0,0,0,0,0,0,0,0,0,0,0,0,0,0,0,0,0,0,0,0,0],"sum_hessian":[2.2386E4,9.451E3,1.2935E4,8.51E3,9.41E2,2.352E3,1.0583E4,8.332E3,1.78E2,2.88E2,6.53E2,1.741E3,6.11E2,3.51E2,1.0232E4,5.488E3,2.844E3,3.8E1,1.4E2,4.3E1,2.45E2,5.1E2,1.43E2,6.4E1,1.677E3,1.07E2,5.04E2,3.2E1,3.19E2,9.267E3,9.65E2],"tree_param":{"num_deleted":"0","num_feature":"22","num_nodes":"31","size_leaf_vector":"0"}},{"base_weights":[-1.7005812E-1,-8.627706E-3,-1.7463033E-1,1.6532977E-1,-5.4614674E-2,-1.7021504E-1,-2.8530753E-1,-1.7944269E-1,2.467433E-1,-9.9048056E-2,-1.9267727E-2,-1.7332722E-1,-6.0209177E-2,3.8820293E-2,-3.1436485E-1,-2.7783322E-1,-0E0,5.202926E-1,1.3035394E-1,-1.1857874E-1,5.734207E-2,-3.412551E-2,-0E0,-1.6400023E-1,-2.1431673E-1,1.1077922E-2,-1.459099E-1,-2.0384109E-2,1.8709686E-1,-2.7308285E-1,-6.0038394E-1],"categories":[],"categories_nodes":[],"categories_segments":[],"categories_sizes":[],"default_left":[1,1,1,1,1,1,1,1,1,0,1,1,1,1,1,0,0,0,0,0,0,0,0,0,0,0,0,0,0,0,0],"id":21,"left_children":[1,3,5,7,9,11,13,15,17,19,21,23,25,27,29,-1,-1,-1,-1,-1,-1,-1,-1,-1,-1,-1,-1,-1,-1,-1,-1],"loss_changes":[1.6335876E1,4.9582915E0,9.939087E0,3.8815324E0,6.652874E-1,6.8880005E0,8.05014E0,6.6164285E-1,2.4487715E0,7.366593E-1,1.1687829E-1,7.2320557E0,3.7657619E0,7.915068E-1,7.221382E0,0E0,0E0,0E0,0E0,0E0,0E0,0E0,0E0,0E0,0E0,0E0,0E0,0E0,0E0,0E0,0E0],"parents":[2147483647,0,0,1,1,2,2,3,3,4,4,5,5,6,6,7,7,8,8,9,9,10,10,11,11,12,12,13,13,14,14],"right_children":[2,4,6,8,10,12,14,16,18,20,22,24,26,28,30,-1,-1,-1,-1,-1,-1,-1,-1,-1,-1,-1,-1,-1,-1,-1,-1],"split_conditions":[-1.641365E-1,-6.3750005E-1,1.32773E-1,1.130426E3,4.619425E-1,2.9905E-3,-4.122567E0,-1.6588235E0,-1.375E0,4.1855E-3,1.711149E0,3.8781703E-1,-1.3694582E1,2.0735522E3,6.3750005E-1,-1.3891662E-2,-0E0,2.601463E-2,6.517697E-3,-5.928937E-3,2.8671036E-3,-1.7062755E-3,-0E0,-8.200011E-3,-1.0715837E-2,5.538961E-4,-7.2954954E-3,-1.0192054E-3,9.354844E-3,-1.3654143E-2,-3.0019198E-2],"split_indices":[5,5,5,18,16,17,16,5,5,17,20,3,16,4,5,0,0,0,0,0,0,0,0,0,0,0,0,0,0,0,0],"split_type":[0,0,0,0,0,0,0,0,0,0,0,0,0,0,0,0,0,0,0,0,0,0,0,0,0,0,0,0,0,0,0],"sum_hessian":[2.2386E4,6.23E2,2.1763E4,1.23E2,5E2,2.0949E4,8.14E2,2E1,1.03E2,2.05E2,2.95E2,2.0361E4,5.88E2,6.4E1,7.5E2,1.4E1,6E0,2.3E1,8E1,1.89E2,1.6E1,1.91E2,1.04E2,1.6627E4,3.734E3,3.17E2,2.71E2,4.4E1,2E1,6.67E2,8.3E1],"tree_param":{"num_deleted":"0","num_feature":"22","num_nodes":"31","size_leaf_vector":"0"}},{"base_weights":[-1.6156863E-1,-1.8724063E-1,-1.4266892E-1,-1.7776477E-1,-2.7048662E-1,-1.588342E-1,-9.5573984E-2,-1.7168824E-1,-2.4738343E-1,-4.3903208E-1,-1.918601E-1,-1.6190349E-1,4.604208E-3,-2.3665506E-2,-1.2345499E-1,-1.7272483E-1,1.2401975E-1,-2.1618444E-1,-8.1228817E-1,-3.4313425E-1,-5.61948E-1,-4.5899075E-1,-1.5854289E-1,-5.5581246E-2,-1.6703434E-1,-1.1799688E-1,1.452733E-1,-8.9353636E-2,9.058548E-2,-1.3386586E-1,-1.7830245E-2],"categories":[],"categories_nodes":[],"categories_segments":[],"categories_sizes":[],"default_left":[1,1,1,1,1,1,1,1,1,1,1,1,1,1,1,0,0,0,0,0,0,0,0,0,0,0,0,0,0,0,0],"id":22,"left_children":[1,3,5,7,9,11,13,15,17,19,21,23,25,27,29,-1,-1,-1,-1,-1,-1,-1,-1,-1,-1,-1,-1,-1,-1,-1,-1],"loss_changes":[1.0400513E1,6.7704773E0,9.520935E0,2.9707642E0,1.1484467E1,4.9818115E0,6.5245476E0,2.565384E0,9.708027E0,1.5844994E0,4.874851E0,4.8801575E0,3.1483138E0,7.1539164E0,2.4667244E0,0E0,0E0,0E0,0E0,0E0,0E0,0E0,0E0,0E0,0E0,0E0,0E0,0E0,0E0,0E0,0E0],"parents":[2147483647,0,0,1,1,2,2,3,3,4,4,5,5,6,6,7,7,8,8,9,9,10,10,11,11,12,12,13,13,14,14],"right_children":[2,4,6,8,10,12,14,16,18,20,22,24,26,28,30,-1,-1,-1,-1,-1,-1,-1,-1,-1,-1,-1,-1,-1,-1,-1,-1],"split_conditions":[-2.84774E-1,1.8501976E1,1.0685058E1,-7.404345E-1,1.8784142E1,1.2165838E1,-5.8465505E-1,1.7333335E0,7.7916646E-1,1.717634E0,-8.600529E0,-9.12465E-2,5.6675E-3,1.1341577E2,3.7007756E0,-8.636242E-3,6.2009874E-3,-1.0809222E-2,-4.0614408E-2,-1.7156713E-2,-2.80974E-2,-2.2949537E-2,-7.927145E-3,-2.7790624E-3,-8.351717E-3,-5.899844E-3,7.263665E-3,-4.467682E-3,4.529274E-3,-6.6932933E-3,-8.9151226E-4],"split_indices":[20,0,8,16,0,20,3,5,5,9,9,5,12,2,9,0,0,0,0,0,0,0,0,0,0,0,0,0,0,0,0],"split_type":[0,0,0,0,0,0,0,0,0,0,0,0,0,0,0,0,0,0,0,0,0,0,0,0,0,0,0,0,0,0,0],"sum_hessian":[2.2386E4,9.451E3,1.2935E4,8.51E3,9.41E2,9.605E3,3.33E3,7.856E3,6.54E2,2.88E2,6.53E2,9.434E3,1.71E2,9.43E2,2.387E3,7.834E3,2.2E1,6.28E2,2.6E1,1.77E2,1.11E2,6.2E1,5.91E2,4.46E2,8.988E3,8.8E1,8.3E1,6.05E2,3.38E2,2.163E3,2.24E2],"tree_param":{"num_deleted":"0","num_feature":"22","num_nodes":"31","size_leaf_vector":"0"}},{"base_weights":[-1.5354319E-1,-3.1522245E-3,-1.5780072E-1,1.7732455E-1,-4.299292E-2,-1.5364438E-1,-2.6195568E-1,-2.3889884E-1,2.5573072E-1,-1.7347795E-1,-2.8320476E-2,-1.6477467E-1,-1.22147165E-1,4.0100377E-2,-2.891505E-1,4.6652946E-1,1.3624994E-1,-0E0,-2.259394E-1,-3.8125757E-2,1.1893745E-1,-1.5725155E-1,-1.99144E-1,-1.4191188E-1,-6.696793E-2,1.7248169E-1,-3.6744338E-2,-2.3366994E-1,-4.729439E-1],"categories":[],"categories_nodes":[],"categories_segments":[],"categories_sizes":[],"default_left":[1,1,1,1,1,1,1,0,1,1,0,1,1,0,1,0,0,0,0,0,0,0,0,0,0,0,0,0,0],"id":23,"left_children":[1,3,5,7,9,11,13,-1,15,17,19,21,23,25,27,-1,-1,-1,-1,-1,-1,-1,-1,-1,-1,-1,-1,-1,-1],"loss_changes":[1.417334E1,4.4193077E0,8.80658E0,3.9120939E0,7.7493817E-1,6.958374E0,7.034588E0,0E0,1.5224781E0,5.345416E-1,6.392676E-1,3.4805603E0,5.7571793E0,8.693495E-1,6.4395294E0,0E0,0E0,0E0,0E0,0E0,0E0,0E0,0E0,0E0,0E0,0E0,0E0,0E0,0E0],"parents":[2147483647,0,0,1,1,2,2,3,3,4,4,5,5,6,6,8,8,9,9,10,10,11,11,12,12,13,13,14,14],"right_children":[2,4,6,8,10,12,14,-1,16,18,20,22,24,26,28,-1,-1,-1,-1,-1,-1,-1,-1,-1,-1,-1,-1,-1,-1],"split_conditions":[-1.641365E-1,-7.154765E-1,1.32773E-1,-2.0791664E0,1.1676943E3,1.057539E1,-4.122567E0,-1.1944942E-2,-1.3416669E0,-6.7504495E-2,3.8124998E-3,5.175E-3,5.385E-4,-2.1463E-2,4.6249998E-1,2.3326473E-2,6.8124975E-3,-0E0,-1.129697E-2,-1.9062879E-3,5.9468723E-3,-7.862578E-3,-9.957201E-3,-7.095594E-3,-3.3483964E-3,8.624084E-3,-1.8372169E-3,-1.1683497E-2,-2.3647195E-2],"split_indices":[5,5,5,5,18,8,16,0,5,21,17,10,17,1,5,0,0,0,0,0,0,0,0,0,0,0,0,0,0],"split_type":[0,0,0,0,0,0,0,0,0,0,0,0,0,0,0,0,0,0,0,0,0,0,0,0,0,0,0,0,0],"sum_hessian":[2.2386E4,6.23E2,2.1763E4,1.05E2,5.18E2,2.0949E4,8.14E2,1.3E1,9.2E1,4E1,4.78E2,1.544E4,5.509E3,6.4E1,7.5E2,2.5E1,6.7E1,8E0,3.2E1,4.58E2,2E1,1.2714E4,2.726E3,4.037E3,1.472E3,2.6E1,3.8E1,5.89E2,1.61E2],"tree_param":{"num_deleted":"0","num_feature":"22","num_nodes":"29","size_leaf_vector":"0"}},{"base_weights":[-1.458862E-1,-1.6983648E-1,-1.2825072E-1,-1.607823E-1,-2.4937889E-1,-8.499404E-2,-1.4146379E-1,-1.5624048E-1,-3.5783848E-1,-4.0285146E-1,-1.7056414E-1,-1.0937185E-1,8.110168E-2,1.8466839E-1,-1.4355054E-1,-1.4838064E-1,-1.9778855E-1,8.650397E-2,-4.5081544E-1,-4.3335053E-1,-8.975687E-2,-1.2609214E-1,-3.417589E-1,4.756414E-2,-1.2031965E-1,2.6641235E-1,-3.78646E-2,-0E0,2.5944644E-1,-8.111811E-2,-1.4873879E-1],"categories":[],"categories_nodes":[],"categories_segments":[],"categories_sizes":[],"default_left":[1,1,1,1,1,1,1,1,1,1,0,1,1,1,1,0,0,0,0,0,0,0,0,0,0,0,0,0,0,0,0],"id":24,"left_children":[1,3,5,7,9,11,13,15,17,19,21,23,25,27,29,-1,-1,-1,-1,-1,-1,-1,-1,-1,-1,-1,-1,-1,-1,-1,-1],"loss_changes":[9.0503845E0,6.199524E0,7.109329E0,6.82724E0,1.0525753E1,1.2454618E1,6.8201447E0,2.2296448E0,8.119688E0,2.2712784E0,4.174019E0,4.6955776E0,8.854772E0,7.800858E-1,2.8938751E0,0E0,0E0,0E0,0E0,0E0,0E0,0E0,0E0,0E0,0E0,0E0,0E0,0E0,0E0,0E0,0E0],"parents":[2147483647,0,0,1,1,2,2,3,3,4,4,5,5,6,6,7,7,8,8,9,9,10,10,11,11,12,12,13,13,14,14],"right_children":[2,4,6,8,10,12,14,16,18,20,22,24,26,28,30,-1,-1,-1,-1,-1,-1,-1,-1,-1,-1,-1,-1,-1,-1,-1,-1],"split_conditions":[-2.84774E-1,1.8501976E1,-3.918445E-1,4.1250002E-1,1.879666E1,1.8539022E1,-5.7916653E-1,3.70415E-2,-2.918611E0,-1.611765E1,1.15415E-2,-1.791665E-1,1.13639755E2,-7.4735E-1,-6.0294002E-2,-7.419032E-3,-9.889428E-3,4.3251985E-3,-2.2540772E-2,-2.1667527E-2,-4.4878437E-3,-6.304607E-3,-1.7087946E-2,2.3782072E-3,-6.0159825E-3,1.3320617E-2,-1.89323E-3,-0E0,1.2972322E-2,-4.0559056E-3,-7.4369395E-3],"split_indices":[20,0,3,5,7,19,5,5,16,16,10,5,2,16,5,0,0,0,0,0,0,0,0,0,0,0,0,0,0,0,0],"split_type":[0,0,0,0,0,0,0,0,0,0,0,0,0,0,0,0,0,0,0,0,0,0,0,0,0,0,0,0,0,0,0],"sum_hessian":[2.2386E4,9.451E3,1.2935E4,8.51E3,9.41E2,3.053E3,9.882E3,8.332E3,1.78E2,3.08E2,6.33E2,2.669E3,3.84E2,5.7E1,9.825E3,7.046E3,1.286E3,2.9E1,1.49E2,2.76E2,3.2E1,5.14E2,1.19E2,1.67E2,2.502E3,1.51E2,2.33E2,1.9E1,3.8E1,7.75E2,9.05E3],"tree_param":{"num_deleted":"0","num_feature":"22","num_nodes":"31","size_leaf_vector":"0"}},{"base_weights":[-1.3862155E-1,1.16983555E-1,-1.4071795E-1,-1.677299E-1,1.679417E-1,-1.2461168E-1,-1.6361922E-1,-0E0,-2.5337505E-1,4.7571522E-1,9.1049306E-2,-1.3099356E-1,-5.5136576E-2,-2.033985E-1,-1.474485E-1,-1.2590103E-2,7.1057186E-2,-2.844779E-1,-0E0,4.9196625E-1,-0E0,-0E0,1.0193262E-1,-1.3492462E-1,-4.927733E-2,-2.592668E-1,-9.768334E-3,-3.0849758E-1,-1.716144E-1,-1.5820819E-1,-5.940121E-2],"categories":[],"categories_nodes":[],"categories_segments":[],"categories_sizes":[],"default_left":[1,1,0,1,1,1,1,0,1,1,1,1,1,1,1,0,0,0,0,0,0,0,0,0,0,0,0,0,0,0,0],"id":25,"left_children":[1,3,5,7,9,11,13,15,17,19,21,23,25,27,29,-1,-1,-1,-1,-1,-1,-1,-1,-1,-1,-1,-1,-1,-1,-1,-1],"loss_changes":[1.2104279E1,2.767089E0,7.803894E0,5.2437866E-1,2.979474E0,5.5811768E0,5.3727875E0,4.6710197E-2,2.5364733E-1,1.9829273E-1,2.1290684E-1,3.6280365E0,1.0118439E1,7.9671326E0,5.9197845E0,0E0,0E0,0E0,0E0,0E0,0E0,0E0,0E0,0E0,0E0,0E0,0E0,0E0,0E0,0E0,0E0],"parents":[2147483647,0,0,1,1,2,2,3,3,4,4,5,5,6,6,7,7,8,8,9,9,10,10,11,11,12,12,13,13,14,14],"right_children":[2,4,6,8,10,12,14,16,18,20,22,24,26,28,30,-1,-1,-1,-1,-1,-1,-1,-1,-1,-1,-1,-1,-1,-1,-1,-1],"split_conditions":[-4.90044E-1,1.130426E3,7.54E-4,-2.428699E0,-1.375E0,1.8509075E1,-1.380781E0,-3.695E-2,1.1394052E2,1.1413983E2,-1.48957205E1,1.9398324E0,-6.503037E0,-1.6118092E1,5.396157E0,-6.2950514E-4,3.5528594E-3,-1.4223895E-2,-0E0,2.4598313E-2,-0E0,-0E0,5.096631E-3,-6.746231E-3,-2.4638667E-3,-1.296334E-2,-4.884167E-4,-1.5424879E-2,-8.58072E-3,-7.91041E-3,-2.9700606E-3],"split_indices":[5,18,10,20,5,19,20,1,2,2,9,9,9,16,9,0,0,0,0,0,0,0,0,0,0,0,0,0,0,0,0],"split_type":[0,0,0,0,0,0,0,0,0,0,0,0,0,0,0,0,0,0,0,0,0,0,0,0,0,0,0,0,0,0,0],"sum_hessian":[2.2386E4,1.76E2,2.221E4,2.2E1,1.54E2,1.3084E4,9.126E3,7E0,1.5E1,2.3E1,1.31E2,1.1966E4,1.118E3,2.603E3,6.523E3,3E0,4E0,1.4E1,1E0,2.2E1,1E0,7E0,1.24E2,1.1402E4,5.64E2,1.95E2,9.23E2,5.87E2,2.016E3,5.799E3,7.24E2],"tree_param":{"num_deleted":"0","num_feature":"22","num_nodes":"31","size_leaf_vector":"0"}},{"base_weights":[-1.317135E-1,-1.5379536E-1,-1.1544884E-1,-1.4507888E-1,-2.2993436E-1,-1.2857267E-1,-7.120724E-2,-1.3134155E-1,-1.7054157E-1,-3.8328132E-1,-1.5721844E-1,-1.3509895E-1,-2.9471342E-2,-0E0,-9.4971545E-2,-1.2802765E-1,-3.130254E-1,-1.5442416E-1,-2.3675825E-1,-4.211122E-1,-7.875119E-2,-4.114221E-1,-1.2564507E-1,-4.857107E-2,-1.393234E-1,8.989927E-2,-9.245786E-2,7.358831E-2,-7.026791E-2,7.4178143E-4,-1.1395511E-1],"categories":[],"categories_nodes":[],"categories_segments":[],"categories_sizes":[],"default_left":[1,1,1,1,1,1,1,1,1,1,1,1,1,1,1,0,0,0,0,0,0,0,0,0,0,0,0,0,0,0,0],"id":26,"left_children":[1,3,5,7,9,11,13,15,17,19,21,23,25,27,29,-1,-1,-1,-1,-1,-1,-1,-1,-1,-1,-1,-1,-1,-1,-1,-1],"loss_changes":[7.683838E0,5.73378E0,7.2676544E0,2.562851E0,9.762585E0,6.2546997E0,4.994136E0,2.7151642E0,2.5637054E0,2.7674713E0,4.4856205E0,3.1886902E0,4.7884426E0,3.9535046E0,4.1727715E0,0E0,0E0,0E0,0E0,0E0,0E0,0E0,0E0,0E0,0E0,0E0,0E0,0E0,0E0,0E0,0E0],"parents":[2147483647,0,0,1,1,2,2,3,3,4,4,5,5,6,6,7,7,8,8,9,9,10,10,11,11,12,12,13,13,14,14],"right_children":[2,4,6,8,10,12,14,16,18,20,22,24,26,28,30,-1,-1,-1,-1,-1,-1,-1,-1,-1,-1,-1,-1,-1,-1,-1,-1],"split_conditions":[-2.84774E-1,1.8499798E1,1.2097197E1,3.09E-4,1.8784142E1,5.4382563E0,-1.610025E1,4E-1,4.4721E-2,-1.611765E1,-8.600529E0,-9.12465E-2,5.612175E-1,-3.922345E-1,-7.2024E-2,-6.4013824E-3,-1.5651269E-2,-7.721208E-3,-1.1837913E-2,-2.105561E-2,-3.9375597E-3,-2.0571105E-2,-6.2822537E-3,-2.4285535E-3,-6.96617E-3,4.4949637E-3,-4.622893E-3,3.6794157E-3,-3.5133956E-3,3.7089074E-5,-5.6977556E-3],"split_indices":[20,7,8,1,0,9,16,5,5,16,9,5,3,3,5,0,0,0,0,0,0,0,0,0,0,0,0,0,0,0,0],"split_type":[0,0,0,0,0,0,0,0,0,0,0,0,0,0,0,0,0,0,0,0,0,0,0,0,0,0,0,0,0,0,0],"sum_hessian":[2.2386E4,9.451E3,1.2935E4,8.505E3,9.46E2,9.951E3,2.984E3,5.57E3,2.935E3,2.93E2,6.53E2,9.325E3,6.26E2,7.55E2,2.229E3,5.484E3,8.6E1,2.386E3,5.49E2,2.56E2,3.7E1,6.2E1,5.91E2,4.48E2,8.877E3,2.1E2,4.16E2,3.64E2,3.91E2,3.61E2,1.868E3],"tree_param":{"num_deleted":"0","num_feature":"22","num_nodes":"31","size_leaf_vector":"0"}},{"base_weights":[-1.2517214E-1,6.747577E-2,-1.2761927E-1,-1.6679609E-1,1.0635769E-1,-1.2389521E-1,-2.224853E-1,-0E0,-2.1690577E-1,4.2275262E-1,4.972536E-2,-1.37791E-1,-1.02209456E-1,-2.617507E-2,-2.5198442E-1,-0E0,-3.6729112E-1,4.3444514E-1,-0E0,2.4512956E-2,2.0570157E-1,-1.692863E-1,-1.2853916E-1,-1.1762675E-1,-6.5246224E-2,-6.759948E-2,2.5429696E-1,-4.377307E-1,-2.2722793E-1],"categories":[],"categories_nodes":[],"categories_segments":[],"categories_sizes":[],"default_left":[1,1,1,1,1,1,1,0,1,1,1,1,1,1,0,0,0,0,0,0,0,0,0,0,0,0,0,0,0],"id":27,"left_children":[1,3,5,7,9,11,13,-1,15,17,19,21,23,25,27,-1,-1,-1,-1,-1,-1,-1,-1,-1,-1,-1,-1,-1,-1],"loss_changes":[1.0659027E1,2.569656E0,7.3294067E0,4.0129602E-1,3.8302877E0,6.1090393E0,4.431675E0,0E0,6.999526E-1,1.5203238E-1,5.979338E-1,3.3642426E0,4.5468903E0,1.2586058E0,2.0888023E0,0E0,0E0,0E0,0E0,0E0,0E0,0E0,0E0,0E0,0E0,0E0,0E0,0E0,0E0],"parents":[2147483647,0,0,1,1,2,2,3,3,4,4,5,5,6,6,8,8,9,9,10,10,11,11,12,12,13,13,14,14],"right_children":[2,4,6,8,10,12,14,-1,16,18,20,22,24,26,28,-1,-1,-1,-1,-1,-1,-1,-1,-1,-1,-1,-1,-1,-1],"split_conditions":[-3.541665E-1,1.1338359E3,1.32773E-1,-2.7642918E1,-1.1333334E0,5.606595E0,1.1468794E3,-0E0,1.0406284E3,1.1413983E2,1.2685976E1,-1.2658815E0,3.945E-4,2.0801418E3,-1.4150001E-3,-0E0,-1.8364556E-2,2.1722257E-2,-0E0,1.2256479E-3,1.0285079E-2,-8.464315E-3,-6.426958E-3,-5.8813374E-3,-3.2623112E-3,-3.3799743E-3,1.2714848E-2,-2.1886535E-2,-1.1361397E-2],"split_indices":[5,18,5,8,5,8,18,0,18,2,9,20,17,4,17,0,0,0,0,0,0,0,0,0,0,0,0,0,0],"split_type":[0,0,0,0,0,0,0,0,0,0,0,0,0,0,0,0,0,0,0,0,0,0,0,0,0,0,0,0,0],"sum_hessian":[2.2386E4,2.74E2,2.2112E4,3.3E1,2.41E2,2.1298E4,8.14E2,7E0,2.6E1,2.9E1,2.12E2,1.2936E4,8.362E3,1.12E2,7.02E2,1.5E1,1.1E1,2.8E1,1E0,1.93E2,1.9E1,2.893E3,1.0043E4,5.874E3,2.488E3,1.04E2,8E0,6.8E1,6.34E2],"tree_param":{"num_deleted":"0","num_feature":"22","num_nodes":"29","size_leaf_vector":"0"}},{"base_weights":[-1.1892857E-1,3.8985994E-3,-1.2249072E-1,1.8319678E-1,-2.2123003E-2,-1.20071895E-1,-2.5767985E-1,-2.1118973E-1,2.829603E-1,-1.3841158E-1,-9.126604E-3,-9.041934E-2,-1.2899916E-1,5.476794E-2,-3.2572547E-1,-0E0,2.9216275E-1,-0E0,-1.918152E-1,-1.7908948E-2,1.1799147E-1,-1.3393538E-1,-5.672977E-2,-1.2439783E-1,-1.7752145E-1,-2.7863588E-4,3.1602538E-1,-5.4903615E-1,-2.7222365E-1],"categories":[],"categories_nodes":[],"categories_segments":[],"categories_sizes":[],"default_left":[1,1,1,1,1,0,1,0,1,1,0,1,1,1,0,0,0,0,0,0,0,0,0,0,0,0,0,0,0],"id":28,"left_children":[1,3,5,7,9,11,13,-1,15,17,19,21,23,25,27,-1,-1,-1,-1,-1,-1,-1,-1,-1,-1,-1,-1,-1,-1],"loss_changes":[9.917694E0,3.111351E0,6.585663E0,3.7149198E0,6.743561E-1,5.387726E0,8.247875E0,0E0,1.24985695E-1,4.9772173E-1,4.753787E-1,7.0941963E0,3.2519226E0,1.2941175E0,2.111271E0,0E0,0E0,0E0,0E0,0E0,0E0,0E0,0E0,0E0,0E0,0E0,0E0,0E0,0E0],"parents":[2147483647,0,0,1,1,2,2,3,3,4,4,5,5,6,6,8,8,9,9,10,10,11,11,12,12,13,13,14,14],"right_children":[2,4,6,8,10,12,14,-1,16,18,20,22,24,26,28,-1,-1,-1,-1,-1,-1,-1,-1,-1,-1,-1,-1,-1,-1],"split_conditions":[-1.641365E-1,-8.208335E-1,2.8750002E-1,-2.0791664E0,1.1676943E3,-4.0969998E-3,-2.1827078E0,-1.0559487E-2,9.9256256E2,-6.7504495E-2,3.8124998E-3,1.1029092E3,1.8567842E1,2.0801418E3,-1.4124999E-3,-0E0,1.4608137E-2,-0E0,-9.59076E-3,-8.954474E-4,5.8995737E-3,-6.696769E-3,-2.8364887E-3,-6.2198914E-3,-8.876073E-3,-1.39317945E-5,1.580127E-2,-2.7451808E-2,-1.3611183E-2],"split_indices":[5,5,5,5,18,10,16,0,18,21,17,18,7,4,17,0,0,0,0,0,0,0,0,0,0,0,0,0,0],"split_type":[0,0,0,0,0,0,0,0,0,0,0,0,0,0,0,0,0,0,0,0,0,0,0,0,0,0,0,0,0],"sum_hessian":[2.2386E4,6.23E2,2.1763E4,8E1,5.43E2,2.1397E4,3.66E2,1.3E1,6.7E1,4.2E1,5.01E2,4.99E3,1.6407E4,6.3E1,3.03E2,3E0,6.4E1,9E0,3.3E1,4.8E2,2.1E1,2.158E3,2.832E3,1.5021E4,1.386E3,5.3E1,1E1,4.6E1,2.57E2],"tree_param":{"num_deleted":"0","num_feature":"22","num_nodes":"29","size_leaf_vector":"0"}},{"base_weights":[-1.1300457E-1,3.6195668E-3,-1.16389126E-1,1.7381269E-1,-2.0987209E-2,-1.4188683E-1,-1.0465394E-1,-1.6424055E-1,2.5433105E-1,-6.1756372E-2,6.363768E-4,-1.2451712E-1,-1.9252574E-1,-1.1013103E-1,-5.4975897E-2,-1.07571006E-1,2.918105E-1,4.7356293E-2,-8.366023E-2,2.202725E-2,-1.6858282E-2,-1.2085242E-1,-2.6586393E-1,-1.6236474E-1,-3.0564493E-1,-9.866197E-2,-1.401588E-1,-2.8754177E-2,-1.3668048E-1],"categories":[],"categories_nodes":[],"categories_segments":[],"categories_sizes":[],"default_left":[1,1,1,1,1,1,1,0,1,1,1,1,1,1,1,0,0,0,0,0,0,0,0,0,0,0,0,0,0],"id":29,"left_children":[1,3,5,7,9,11,13,-1,15,17,19,21,23,25,27,-1,-1,-1,-1,-1,-1,-1,-1,-1,-1,-1,-1,-1,-1],"loss_changes":[8.9530945E0,2.801068E0,6.192627E0,2.612605E0,5.4441994E-1,5.561844E0,3.8731842E0,0E0,1.3313556E0,5.484505E-1,1.3688208E-1,2.09803E0,5.145317E0,4.3223724E0,3.056418E0,0E0,0E0,0E0,0E0,0E0,0E0,0E0,0E0,0E0,0E0,0E0,0E0,0E0,0E0],"parents":[2147483647,0,0,1,1,2,2,3,3,4,4,5,5,6,6,8,8,9,9,10,10,11,11,12,12,13,13,14,14],"right_children":[2,4,6,8,10,12,14,-1,16,18,20,22,24,26,28,-1,-1,-1,-1,-1,-1,-1,-1,-1,-1,-1,-1,-1,-1],"split_conditions":[-1.641365E-1,-8.208335E-1,-1.792959E0,-3.039411E0,-1.304445E-1,5.175E-3,1.9352255E0,-8.212028E-3,-2.1738985E0,-4.791665E-1,-2.323E-3,2.8750002E-1,1.857441E1,7.2265E-3,6.776735E-1,-5.3785504E-3,1.4590526E-2,2.3678148E-3,-4.1830116E-3,1.1013625E-3,-8.429141E-4,-6.042621E-3,-1.3293196E-2,-8.118237E-3,-1.5282246E-2,-4.9330983E-3,-7.00794E-3,-1.4377089E-3,-6.834024E-3],"split_indices":[5,5,8,16,16,10,9,0,5,5,1,5,7,5,3,0,0,0,0,0,0,0,0,0,0,0,0,0,0],"split_type":[0,0,0,0,0,0,0,0,0,0,0,0,0,0,0,0,0,0,0,0,0,0,0,0,0,0,0,0,0],"sum_hessian":[2.2386E4,6.23E2,2.1763E4,8E1,5.43E2,6.815E3,1.4948E4,1.2E1,6.8E1,2.01E2,3.42E2,5.102E3,1.713E3,1.344E4,1.508E3,3E0,6.5E1,2.5E1,1.76E2,1.79E2,1.63E2,4.989E3,1.13E2,1.369E3,3.44E2,9.765E3,3.675E3,1.156E3,3.52E2],"tree_param":{"num_deleted":"0","num_feature":"22","num_nodes":"29","size_leaf_vector":"0"}},{"base_weights":[-1.0738639E-1,-1.10416465E-1,-8.209475E-3,-1.08370684E-1,-2.8781167E-1,1.4884943E-1,-4.230973E-2,-4.9610678E-2,-1.13356985E-1,6.9381244E-2,-3.9187413E-1,2.7743784E-1,-0E0,-9.699662E-2,5.7005648E-2,8.26562E-2,-6.1333843E-2,-9.661401E-2,-1.2941122E-1,-2.3448119E-2,2.3970543E-1,-2.893857E-1,-6.6318333E-1,4.365284E-1,4.118723E-2,-1.8011294E-1,5.831865E-2,-1.07247934E-1,1.7360476E-1,-4.9545307E-2,1.9600213E-1],"categories":[],"categories_nodes":[],"categories_segments":[],"categories_sizes":[],"default_left":[1,1,1,1,1,1,1,1,1,1,1,1,1,1,1,0,0,0,0,0,0,0,0,0,0,0,0,0,0,0,0],"id":30,"left_children":[1,3,5,7,9,11,13,15,17,19,21,23,25,27,29,-1,-1,-1,-1,-1,-1,-1,-1,-1,-1,-1,-1,-1,-1,-1,-1],"loss_changes":[6.605652E0,7.3292236E0,3.5615022E0,6.1033325E0,9.342157E0,2.1799786E0,3.1471562E0,2.6477752E0,5.0290527E0,1.1297815E0,3.3153896E0,1.7626724E0,6.566633E-1,1.0642202E0,3.1274326E0,0E0,0E0,0E0,0E0,0E0,0E0,0E0,0E0,0E0,0E0,0E0,0E0,0E0,0E0,0E0,0E0],"parents":[2147483647,0,0,1,1,2,2,3,3,4,4,5,5,6,6,7,7,8,8,9,9,10,10,11,11,12,12,13,13,14,14],"right_children":[2,4,6,8,10,12,14,16,18,20,22,24,26,28,30,-1,-1,-1,-1,-1,-1,-1,-1,-1,-1,-1,-1,-1,-1,-1,-1],"split_conditions":[9.714661E0,4.1250002E-1,-1.440856E0,-6.0294002E-2,-2.2360384E0,7.132129E1,6.4187894E0,-5.208335E-1,-5.015E-4,2.0739912E3,8.375E-1,-1.5588932E1,1.1104968E3,1.5007329E0,2.073588E3,4.13281E-3,-3.0666923E-3,-4.830701E-3,-6.470561E-3,-1.172406E-3,1.1985271E-2,-1.44692855E-2,-3.3159167E-2,2.1826422E-2,2.0593617E-3,-9.005647E-3,2.9159326E-3,-5.3623966E-3,8.680238E-3,-2.4772654E-3,9.800106E-3],"split_indices":[20,5,3,5,16,8,9,5,21,4,5,16,18,3,4,0,0,0,0,0,0,0,0,0,0,0,0,0,0,0,0],"split_type":[0,0,0,0,0,0,0,0,0,0,0,0,0,0,0,0,0,0,0,0,0,0,0,0,0,0,0,0,0,0,0],"sum_hessian":[2.2386E4,2.1712E4,6.74E2,2.1478E4,2.34E2,1.12E2,5.62E2,1.7E3,1.9778E4,5.1E1,1.83E2,5.7E1,5.5E1,3.69E2,1.93E2,1.29E2,1.571E3,9.729E3,1.0049E4,3.2E1,1.9E1,1.43E2,4E1,2.9E1,2.8E1,1E1,4.5E1,3.62E2,7E0,1.07E2,8.6E1],"tree_param":{"num_deleted":"0","num_feature":"22","num_nodes":"31","size_leaf_vector":"0"}},{"base_weights":[-1.0202346E-1,-1.0502871E-1,-8.105152E-3,-1.3002887E-1,-9.385247E-2,1.4076185E-1,-3.913661E-2,-1.1334218E-1,-1.7925674E-1,-8.83258E-2,-1.3999371E-1,-7.228049E-2,2.0963864E-1,-8.782786E-2,5.762018E-2,-1.2045465E-1,-9.140765E-3,-1.4554529E-1,-3.247555E-1,-9.6894264E-2,-6.401411E-2,-1.1766964E-1,-2.0125198E-1,-1.5167338E-1,3.5668507E-2,4.0844703E-1,4.0138163E-2,4.574694E-3,-1.14004724E-1,1.7669092E-1,-2.3492876E-2],"categories":[],"categories_nodes":[],"categories_segments":[],"categories_sizes":[],"default_left":[0,1,1,1,1,1,1,1,1,1,1,0,1,0,1,0,0,0,0,0,0,0,0,0,0,0,0,0,0,0,0],"id":31,"left_children":[1,3,5,7,9,11,13,15,17,19,21,23,25,27,29,-1,-1,-1,-1,-1,-1,-1,-1,-1,-1,-1,-1,-1,-1,-1,-1],"loss_changes":[6.2024384E0,5.774338E0,3.2058074E0,5.075859E0,3.5431213E0,1.9446156E0,2.868103E0,3.572029E0,7.445427E0,2.6113586E0,1.7233772E0,3.9159584E-1,2.6370664E0,1.0940738E0,2.0669584E0,0E0,0E0,0E0,0E0,0E0,0E0,0E0,0E0,0E0,0E0,0E0,0E0,0E0,0E0,0E0,0E0],"parents":[2147483647,0,0,1,1,2,2,3,3,4,4,5,5,6,6,7,7,8,8,9,9,10,10,11,11,12,12,13,13,14,14],"right_children":[2,4,6,8,10,12,14,16,18,20,22,24,26,28,30,-1,-1,-1,-1,-1,-1,-1,-1,-1,-1,-1,-1,-1,-1,-1,-1],"split_conditions":[2.9905E-3,-1.9782724E0,-1.440856E0,5.175E-3,4.9755E-2,1.1107476E3,6.4187894E0,3.065E-3,1.857972E1,1.0732E0,-7.404345E-1,-4.7075E-3,-1.4379744E1,-8.27E-3,-1.3846965E1,-6.0227322E-3,-4.5703826E-4,-7.2772647E-3,-1.6237775E-2,-4.8447135E-3,-3.2007054E-3,-5.8834823E-3,-1.00626E-2,-7.583669E-3,1.7834253E-3,2.0422352E-2,2.0069082E-3,2.2873472E-4,-5.700236E-3,8.834546E-3,-1.1746439E-3],"split_indices":[17,8,3,10,5,18,9,12,19,20,16,12,16,21,16,0,0,0,0,0,0,0,0,0,0,0,0,0,0,0,0],"split_type":[0,0,0,0,0,0,0,0,0,0,0,0,0,0,0,0,0,0,0,0,0,0,0,0,0,0,0,0,0,0,0],"sum_hessian":[2.2386E4,2.1681E4,7.05E2,6.654E3,1.5027E4,1.13E2,5.92E2,4.997E3,1.657E3,1.3452E4,1.575E3,2.4E1,8.9E1,4.01E2,1.91E2,4.668E3,3.29E2,1.359E3,2.98E2,9.905E3,3.547E3,1.177E3,3.98E2,1.8E1,6E0,3.5E1,5.4E1,8.1E1,3.2E2,8E1,1.11E2],"tree_param":{"num_deleted":"0","num_feature":"22","num_nodes":"31","size_leaf_vector":"0"}},{"base_weights":[-9.694131E-2,1.0208516E-1,-9.85861E-2,-1.4460394E-1,1.4705484E-1,-8.7144956E-2,-1.2136229E-1,-0E0,-2.2760393E-1,6.811504E-2,2.518995E-1,-9.333182E-2,-3.5164226E-2,-1.3455234E-1,-7.372089E-2,-0E0,6.8206295E-2,-2.5625747E-1,-0E0,1.0404881E-1,-0E0,2.7453342E-1,-0E0,-7.745792E-2,-1.15317464E-1,-1.2501562E-1,-1.9006256E-2,-1.2119023E-1,-2.6209962E-1,1.00240074E-1,-9.7595766E-2],"categories":[],"categories_nodes":[],"categories_segments":[],"categories_sizes":[],"default_left":[1,1,1,1,0,1,0,0,1,1,1,0,1,1,0,0,0,0,0,0,0,0,0,0,0,0,0,0,0,0,0],"id":32,"left_children":[1,3,5,7,9,11,13,15,17,19,21,23,25,27,29,-1,-1,-1,-1,-1,-1,-1,-1,-1,-1,-1,-1,-1,-1,-1,-1],"loss_changes":[7.3766785E0,2.116704E0,5.527527E0,4.71493E-1,9.1014504E-1,4.6256866E0,4.383438E0,4.186889E-2,2.1161878E-1,2.6911986E-1,4.2535448E-1,4.381897E0,2.1713586E0,9.278069E0,6.8119907E0,0E0,0E0,0E0,0E0,0E0,0E0,0E0,0E0,0E0,0E0,0E0,0E0,0E0,0E0,0E0,0E0],"parents":[2147483647,0,0,1,1,2,2,3,3,4,4,5,5,6,6,7,7,8,8,9,9,10,10,11,11,12,12,13,13,14,14],"right_children":[2,4,6,8,10,12,14,16,18,20,22,24,26,28,30,-1,-1,-1,-1,-1,-1,-1,-1,-1,-1,-1,-1,-1,-1,-1,-1],"split_conditions":[-4.90044E-1,1.130426E3,1.516115E-1,-2.428699E0,1.143E-3,1.2310635E0,3.1905002E-3,-3.695E-2,1.1394052E2,-6.041665E-1,1.3843789E3,-2.0019999E-3,-3.095E-4,1.8505392E1,5.2165E-3,-0E0,3.410315E-3,-1.2812874E-2,-0E0,5.2024405E-3,-0E0,1.3726671E-2,-0E0,-3.872896E-3,-5.7658735E-3,-6.250781E-3,-9.503128E-4,-6.0595116E-3,-1.3104982E-2,5.0120037E-3,-4.8797885E-3],"split_indices":[5,18,3,20,21,9,12,1,2,5,18,21,17,15,21,0,0,0,0,0,0,0,0,0,0,0,0,0,0,0,0],"split_type":[0,0,0,0,0,0,0,0,0,0,0,0,0,0,0,0,0,0,0,0,0,0,0,0,0,0,0,0,0,0,0],"sum_hessian":[2.2386E4,1.76E2,2.221E4,2.2E1,1.54E2,1.4829E4,7.381E3,7E0,1.5E1,9.8E1,5.6E1,1.3231E4,1.598E3,5.757E3,1.624E3,3E0,4E0,1.4E1,1E0,6.4E1,3.4E1,5.2E1,4E0,7.723E3,5.508E3,2.29E2,1.369E3,5.227E3,5.3E2,1.89E2,1.435E3],"tree_param":{"num_deleted":"0","num_feature":"22","num_nodes":"31","size_leaf_vector":"0"}},{"base_weights":[-9.210927E-2,1.0530867E-2,-9.509519E-2,-4.711608E-3,1.4665742E-1,-6.658547E-2,-1.0293167E-1,-2.4057205E-1,2.1146091E-3,-0E0,2.612544E-1,-8.082267E-2,3.1664222E-2,-1.0098342E-1,-2.5786167E-1,-0E0,-2.9881072E-1,1.376373E-1,-1.0865957E-2,7.096178E-2,-3.065525E-2,3.1513637E-1,-0E0,-2.508058E-1,-7.756294E-2,-1.7945568E-1,1.23645514E-1,-1.9050646E-1,-9.6893035E-2,8.506655E-2,-3.235857E-1],"categories":[],"categories_nodes":[],"categories_segments":[],"categories_sizes":[],"default_left":[1,1,1,1,1,1,1,1,1,1,1,1,1,1,1,0,0,0,0,0,0,0,0,0,0,0,0,0,0,0,0],"id":33,"left_children":[1,3,5,7,9,11,13,15,17,19,21,23,25,27,29,-1,-1,-1,-1,-1,-1,-1,-1,-1,-1,-1,-1,-1,-1,-1,-1],"loss_changes":[6.9518585E0,1.4484414E0,4.6595306E0,1.1474504E0,1.0880588E0,6.6852703E0,4.653763E0,4.496832E-1,1.0982695E0,1.05002545E-1,4.849918E-1,1.8716564E0,1.1590068E1,5.787216E0,4.9289513E0,0E0,0E0,0E0,0E0,0E0,0E0,0E0,0E0,0E0,0E0,0E0,0E0,0E0,0E0,0E0,0E0],"parents":[2147483647,0,0,1,1,2,2,3,3,4,4,5,5,6,6,7,7,8,8,9,9,10,10,11,11,12,12,13,13,14,14],"right_children":[2,4,6,8,10,12,14,16,18,20,22,24,26,28,30,-1,-1,-1,-1,-1,-1,-1,-1,-1,-1,-1,-1,-1,-1,-1,-1],"split_conditions":[-1.641365E-1,5.6169896E0,-4.01367E-1,-3.3685694E0,1.2419312E3,1.855626E1,4.1250002E-1,-1.1760664E1,-8.125E-1,-7.04167E-1,-3.75E-1,-3.0398266E1,-6.4956074E0,-3.070247E0,-2.918611E0,-0E0,-1.4940537E-2,6.881865E-3,-5.4329785E-4,3.5480892E-3,-1.5327625E-3,1.575682E-2,-0E0,-1.254029E-2,-3.878147E-3,-8.9727845E-3,6.1822757E-3,-9.525323E-3,-4.844652E-3,4.2533274E-3,-1.6179284E-2],"split_indices":[5,9,3,16,18,19,5,16,5,5,5,9,9,9,16,0,0,0,0,0,0,0,0,0,0,0,0,0,0,0,0],"split_type":[0,0,0,0,0,0,0,0,0,0,0,0,0,0,0,0,0,0,0,0,0,0,0,0,0,0,0,0,0,0,0],"sum_hessian":[2.2386E4,6.23E2,2.1763E4,5.58E2,6.5E1,4.73E3,1.7033E4,1.5E1,5.43E2,3.2E1,3.3E1,4.141E3,5.89E2,1.6836E4,1.97E2,2E0,1.3E1,5E1,4.93E2,1.1E1,2.1E1,2.6E1,7E0,6.5E1,4.076E3,1.74E2,4.15E2,7.15E2,1.6121E4,2.9E1,1.68E2],"tree_param":{"num_deleted":"0","num_feature":"22","num_nodes":"31","size_leaf_vector":"0"}},{"base_weights":[-8.7517E-2,-2.9244067E-2,-9.2512354E-2,-5.4237835E-2,2.6264956E-2,-7.417498E-2,-1.0426856E-1,-6.117171E-2,6.942284E-2,6.1336104E-3,1.5736358E-1,-1.1142178E-1,-5.8237594E-2,5.733815E-2,-1.0614873E-1,-6.850514E-2,4.3895515E-3,1.4000931E-1,-0E0,-7.098047E-2,1.270993E-2,3.1370765E-1,-0E0,-2.9750708E-1,-1.03692204E-1,-7.106552E-2,7.510418E-2,-1.1785682E-2,1.7778254E-1,-1.0348602E-1,-2.2484115E-1],"categories":[],"categories_nodes":[],"categories_segments":[],"categories_sizes":[],"default_left":[1,1,1,1,1,1,0,1,1,1,1,1,1,1,1,0,0,0,0,0,0,0,0,0,0,0,0,0,0,0,0],"id":34,"left_children":[1,3,5,7,9,11,13,15,17,19,21,23,25,27,29,-1,-1,-1,-1,-1,-1,-1,-1,-1,-1,-1,-1,-1,-1,-1,-1],"loss_changes":[6.382599E0,2.5198925E0,4.224869E0,1.083935E0,1.2753146E0,4.6061897E0,3.8803864E0,6.3919973E-1,4.313051E-1,1.9270386E-1,1.3179969E0,2.9009342E0,9.775909E0,1.3503798E0,3.4660645E0,0E0,0E0,0E0,0E0,0E0,0E0,0E0,0E0,0E0,0E0,0E0,0E0,0E0,0E0,0E0,0E0],"parents":[2147483647,0,0,1,1,2,2,3,3,4,4,5,5,6,6,7,7,8,8,9,9,10,10,11,11,12,12,13,13,14,14],"right_children":[2,4,6,8,10,12,14,16,18,20,22,24,26,28,30,-1,-1,-1,-1,-1,-1,-1,-1,-1,-1,-1,-1,-1,-1,-1,-1],"split_conditions":[-6.0294002E-2,-8.37195E-2,-2.055E-3,1.0193927E1,4.882373E0,-2.9165E-3,-1.1957E-2,3.0916634E1,1.22149414E2,-3.358E-3,-9.791665E-1,-2.5244839E1,1.8551353E1,2.0735994E3,2.96027E-1,-3.425257E-3,2.1947757E-4,7.000466E-3,-0E0,-3.5490233E-3,6.354965E-4,1.5685383E-2,-0E0,-1.4875354E-2,-5.1846104E-3,-3.5532762E-3,3.7552088E-3,-5.892841E-4,8.889127E-3,-5.174301E-3,-1.1242057E-2],"split_indices":[5,16,21,9,20,12,10,8,13,12,5,9,19,4,5,0,0,0,0,0,0,0,0,0,0,0,0,0,0,0,0],"split_type":[0,0,0,0,0,0,0,0,0,0,0,0,0,0,0,0,0,0,0,0,0,0,0,0,0,0,0,0,0,0,0],"sum_hessian":[2.2386E4,1.786E3,2.06E4,1.244E3,5.42E2,8.095E3,1.2505E4,1.188E3,5.6E1,4.81E2,6.1E1,2.398E3,5.697E3,1.36E2,1.2369E4,1.082E3,1.06E2,3.2E1,2.4E1,2.2E1,4.59E2,2.5E1,3.6E1,8.3E1,2.315E3,5.206E3,4.91E2,8.4E1,5.2E1,1.2115E4,2.54E2],"tree_param":{"num_deleted":"0","num_feature":"22","num_nodes":"31","size_leaf_vector":"0"}},{"base_weights":[-8.3145864E-2,-5.002818E-2,-9.1299735E-2,9.2705816E-2,-5.6200445E-2,-1.17659084E-1,-8.037553E-2,-1.3502775E-1,1.350177E-1,-8.419039E-2,-4.2539213E-2,-9.873677E-2,-1.6915165E-1,-8.5166715E-2,-0E0,-2.0882134E-1,-0E0,3.9290282E-1,6.9122344E-2,-5.457073E-2,-1.287884E-1,-1.1319021E-2,-6.425649E-2,-9.5333025E-2,-2.6345652E-1,-1.253608E-1,-2.416619E-1,-4.9763944E-2,-9.5355816E-2,8.277987E-2,-5.3534362E-2],"categories":[],"categories_nodes":[],"categories_segments":[],"categories_sizes":[],"default_left":[1,1,0,1,1,1,1,1,1,1,0,1,1,1,1,0,0,0,0,0,0,0,0,0,0,0,0,0,0,0,0],"id":35,"left_children":[1,3,5,7,9,11,13,15,17,19,21,23,25,27,29,-1,-1,-1,-1,-1,-1,-1,-1,-1,-1,-1,-1,-1,-1,-1,-1],"loss_changes":[5.8822327E0,3.9178877E0,4.9197235E0,1.8255962E0,1.4934683E0,4.732811E0,4.8985367E0,3.3624342E-1,2.087145E0,1.599165E0,1.8958535E0,1.6697044E0,3.8665733E0,4.1627045E0,3.2168386E0,0E0,0E0,0E0,0E0,0E0,0E0,0E0,0E0,0E0,0E0,0E0,0E0,0E0,0E0,0E0,0E0],"parents":[2147483647,0,0,1,1,2,2,3,3,4,4,5,5,6,6,7,7,8,8,9,9,10,10,11,11,12,12,13,13,14,14],"right_children":[2,4,6,8,10,12,14,16,18,20,22,24,26,28,30,-1,-1,-1,-1,-1,-1,-1,-1,-1,-1,-1,-1,-1,-1,-1,-1],"split_conditions":[-2.39395E-2,-4.946275E-1,-3.145E-4,1.130426E3,-6.945E-4,3.8781703E-1,5.276946E0,-1.6588235E0,-1.375E0,-3.8425E-3,2.95E-4,4.6249998E-1,1.22725235E2,-4.266345E-1,6.0575E-3,-1.0441068E-2,-0E0,1.9645141E-2,3.4561174E-3,-2.7285365E-3,-6.43942E-3,-5.6595105E-4,-3.2128245E-3,-4.7666514E-3,-1.3172827E-2,-6.2680403E-3,-1.20830955E-2,-2.4881973E-3,-4.767791E-3,4.1389936E-3,-2.6767182E-3],"split_indices":[5,5,17,18,12,3,9,5,5,1,1,5,13,3,10,0,0,0,0,0,0,0,0,0,0,0,0,0,0,0,0],"split_type":[0,0,0,0,0,0,0,0,0,0,0,0,0,0,0,0,0,0,0,0,0,0,0,0,0,0,0,0,0,0,0],"sum_hessian":[2.2386E4,4.454E3,1.7932E4,1.75E2,4.279E3,5.213E3,1.2719E4,2.2E1,1.53E2,1.371E3,2.908E3,3.837E3,1.376E3,1.2003E4,7.16E2,1.4E1,8E0,2.3E1,1.3E2,8.44E2,5.27E2,1.215E3,1.693E3,3.773E3,6.4E1,8.75E2,5.01E2,2.711E3,9.292E3,2.8E2,4.36E2],"tree_param":{"num_deleted":"0","num_feature":"22","num_nodes":"31","size_leaf_vector":"0"}},{"base_weights":[-7.901518E-2,-2.5686378E-2,-8.358285E-2,9.899768E-2,-3.8078014E-2,-1.0561478E-1,-7.343107E-2,-1.2961386E-1,1.4882995E-1,-1.1286144E-1,-2.9049614E-2,-9.094489E-2,-1.5096338E-1,-7.95345E-2,-3.5863068E-2,-0E0,-2.0902272E-1,2.8408644E-1,1.0227404E-1,-0E0,-1.7893253E-1,-1.3432901E-3,-4.516611E-2,-9.808896E-2,3.9574496E-2,-1.6647254E-1,4.9145445E-2,-5.628328E-2,-9.09662E-2,-1.7179085E-2,-1.1314991E-1],"categories":[],"categories_nodes":[],"categories_segments":[],"categories_sizes":[],"default_left":[1,1,1,1,1,1,1,0,1,1,0,1,0,1,1,0,0,0,0,0,0,0,0,0,0,0,0,0,0,0,0],"id":36,"left_children":[1,3,5,7,9,11,13,15,17,19,21,23,25,27,29,-1,-1,-1,-1,-1,-1,-1,-1,-1,-1,-1,-1,-1,-1,-1,-1],"loss_changes":[5.334198E0,2.725094E0,4.390747E0,1.892856E0,9.4898224E-1,3.9850235E0,3.115532E0,4.2021668E-1,3.1216288E-1,1.3815746E0,6.149429E-1,4.654335E0,4.981106E0,3.0561066E0,2.7624447E0,0E0,0E0,0E0,0E0,0E0,0E0,0E0,0E0,0E0,0E0,0E0,0E0,0E0,0E0,0E0,0E0],"parents":[2147483647,0,0,1,1,2,2,3,3,4,4,5,5,6,6,7,7,8,8,9,9,10,10,11,11,12,12,13,13,14,14],"right_children":[2,4,6,8,10,12,14,16,18,20,22,24,26,28,30,-1,-1,-1,-1,-1,-1,-1,-1,-1,-1,-1,-1,-1,-1,-1,-1],"split_conditions":[-6.0294002E-2,-5.4583347E-1,-1.792959E0,1.130426E3,-3.6685E-3,5.2789354E-1,1.3701015E0,-7.305E-4,1.1177131E2,-1.5043945E0,-1.7615E-3,4.69105E0,2.29165E-2,-3.33419E-1,6.776735E-1,-0E0,-1.0451136E-2,1.4204322E-2,5.113702E-3,-0E0,-8.946626E-3,-6.71645E-5,-2.2583054E-3,-4.904448E-3,1.978725E-3,-8.3236275E-3,2.4572723E-3,-2.8141642E-3,-4.5483103E-3,-8.5895427E-4,-5.6574955E-3],"split_indices":[5,5,8,18,12,3,9,17,2,3,10,9,12,3,3,0,0,0,0,0,0,0,0,0,0,0,0,0,0,0,0],"split_type":[0,0,0,0,0,0,0,0,0,0,0,0,0,0,0,0,0,0,0,0,0,0,0,0,0,0,0,0,0,0,0],"sum_hessian":[2.2386E4,1.786E3,2.06E4,1.51E2,1.635E3,6.452E3,1.4148E4,2.2E1,1.29E2,1.58E2,1.477E3,4.903E3,1.549E3,1.2143E4,2.005E3,7E0,1.5E1,2.1E1,1.08E2,5.5E1,1.03E2,5.68E2,9.09E2,4.657E3,2.46E2,1.443E3,1.06E2,4.041E3,8.102E3,1.63E3,3.75E2],"tree_param":{"num_deleted":"0","num_feature":"22","num_nodes":"31","size_leaf_vector":"0"}},{"base_weights":[-7.5077586E-2,-4.456347E-2,-8.258648E-2,8.485023E-2,-5.0182436E-2,-1.0733858E-1,-7.232483E-2,-1.7137861E-1,1.15915306E-1,-7.8343414E-2,-3.860608E-2,-8.86971E-2,-1.5344557E-1,-7.6749116E-2,4.1788416E-3,-2.2551648E-1,-0E0,2.5680315E-1,7.502649E-2,-4.8474222E-2,-1.2621383E-1,-1.0890596E-2,-5.8168326E-2,-1.3189489E-1,-7.517656E-2,-1.6995801E-1,-9.664058E-3,-8.121567E-2,-0E0,5.8311E-2,-7.170494E-2],"categories":[],"categories_nodes":[],"categories_segments":[],"categories_sizes":[],"default_left":[1,1,0,1,1,1,1,1,1,1,0,1,0,1,1,0,0,0,0,0,0,0,0,0,0,0,0,0,0,0,0],"id":37,"left_children":[1,3,5,7,9,11,13,15,17,19,21,23,25,27,29,-1,-1,-1,-1,-1,-1,-1,-1,-1,-1,-1,-1,-1,-1,-1,-1],"loss_changes":[4.9848404E0,3.2290792E0,4.3374786E0,1.4766221E0,1.2645178E0,4.174694E0,4.380928E0,3.0763209E-2,5.338781E-1,1.5362797E0,1.5927992E0,1.9294777E0,3.3259583E0,4.0631256E0,2.8336458E0,0E0,0E0,0E0,0E0,0E0,0E0,0E0,0E0,0E0,0E0,0E0,0E0,0E0,0E0,0E0,0E0],"parents":[2147483647,0,0,1,1,2,2,3,3,4,4,5,5,6,6,7,7,8,8,9,9,10,10,11,11,12,12,13,13,14,14],"right_children":[2,4,6,8,10,12,14,16,18,20,22,24,26,28,30,-1,-1,-1,-1,-1,-1,-1,-1,-1,-1,-1,-1,-1,-1,-1,-1],"split_conditions":[-2.39395E-2,-4.946275E-1,-3.145E-4,-2.0791664E0,-1.1170185E0,3.113E-3,5.435982E0,-3.285579E0,1.1177131E2,-3.8425E-3,1.3649999E-4,-3.8819735E0,5.00875E-2,2.9234808E1,1.03765E-2,-1.1275824E-2,-0E0,1.2840158E-2,3.7513245E-3,-2.4237111E-3,-6.3106916E-3,-5.445298E-4,-2.9084163E-3,-6.5947445E-3,-3.758828E-3,-8.4979E-3,-4.832029E-4,-4.060784E-3,-0E0,2.91555E-3,-3.585247E-3],"split_indices":[5,5,17,5,9,21,9,9,2,1,1,9,1,8,10,0,0,0,0,0,0,0,0,0,0,0,0,0,0,0,0],"split_type":[0,0,0,0,0,0,0,0,0,0,0,0,0,0,0,0,0,0,0,0,0,0,0,0,0,0,0,0,0,0,0],"sum_hessian":[2.2386E4,4.454E3,1.7932E4,1.75E2,4.279E3,5.213E3,1.2719E4,1.3E1,1.62E2,1.213E3,3.066E3,3.738E3,1.475E3,1.2036E4,6.83E2,6E0,7E0,2.5E1,1.37E2,7.66E2,4.47E2,1.293E3,1.773E3,8.63E2,2.875E3,1.316E3,1.59E2,1.1364E4,6.72E2,4.07E2,2.76E2],"tree_param":{"num_deleted":"0","num_feature":"22","num_nodes":"31","size_leaf_vector":"0"}},{"base_weights":[-7.1349375E-2,-6.640455E-2,-1.1709387E-1,-6.8906E-2,1.1559229E-2,3.314195E-2,-1.2588768E-1,-8.318045E-2,-5.644136E-2,1.4838342E-1,-1.7389067E-2,-4.3213844E-2,1.1789245E-1,-1.1312229E-1,-3.9212644E-1,-1.4944504E-1,-7.606048E-2,-1.1288617E-1,-5.3011246E-2,2.528851E-1,1.4849802E-2,-6.5485254E-2,3.623635E-2,-7.212315E-2,8.020035E-2,2.3608759E-1,-0E0,-1.0145675E-1,-1.695847E-1,-4.6331465E-1,1.684467E-1],"categories":[],"categories_nodes":[],"categories_segments":[],"categories_sizes":[],"default_left":[1,1,1,1,1,1,1,1,0,0,1,1,0,0,1,0,0,0,0,0,0,0,0,0,0,0,0,0,0,0,0],"id":38,"left_children":[1,3,5,7,9,11,13,15,17,19,21,23,25,27,29,-1,-1,-1,-1,-1,-1,-1,-1,-1,-1,-1,-1,-1,-1,-1,-1],"loss_changes":[4.84243E0,4.008194E0,2.9646378E0,3.3281708E0,2.6035695E0,8.57281E-1,6.2265778E0,4.010578E0,1.8425331E0,1.3182547E0,1.3590735E0,2.3134556E-1,7.407693E-1,9.358921E-1,4.1968317E0,0E0,0E0,0E0,0E0,0E0,0E0,0E0,0E0,0E0,0E0,0E0,0E0,0E0,0E0,0E0,0E0],"parents":[2147483647,0,0,1,1,2,2,3,3,4,4,5,5,6,6,7,7,8,8,9,9,10,10,11,11,12,12,13,13,14,14],"right_children":[2,4,6,8,10,12,14,16,18,20,22,24,26,28,30,-1,-1,-1,-1,-1,-1,-1,-1,-1,-1,-1,-1,-1,-1,-1,-1],"split_conditions":[5.81235E-2,9.714661E0,-4.122567E0,1.3399225E0,-1.440856E0,1.80296E-1,6.3750005E-1,-3.5033388E0,-4.1178003E-2,1.22325E-2,2.0736174E3,1.2356496E2,-2.1463E-2,8.7105E-3,2E0,-7.472252E-3,-3.803024E-3,-5.6443084E-3,-2.6505624E-3,1.26442555E-2,7.424901E-4,-3.2742626E-3,1.8118175E-3,-3.6061574E-3,4.0100175E-3,1.18043795E-2,-0E0,-5.072837E-3,-8.479236E-3,-2.3165733E-2,8.422336E-3],"split_indices":[5,20,16,8,3,5,5,6,21,1,4,13,1,1,5,0,0,0,0,0,0,0,0,0,0,0,0,0,0,0,0],"split_type":[0,0,0,0,0,0,0,0,0,0,0,0,0,0,0,0,0,0,0,0,0,0,0,0,0,0,0,0,0,0,0],"sum_hessian":[2.2386E4,2.0233E4,2.153E3,1.9617E4,6.16E2,1.12E2,2.041E3,9.094E3,1.0523E4,1.1E2,5.06E2,5.4E1,5.8E1,1.958E3,8.3E1,8.59E2,8.235E3,5.77E2,9.946E3,5.5E1,5.5E1,2.76E2,2.3E2,5.2E1,2E0,2.4E1,3.4E1,1.649E3,3.09E2,7.6E1,7E0],"tree_param":{"num_deleted":"0","num_feature":"22","num_nodes":"31","size_leaf_vector":"0"}},{"base_weights":[-6.7790374E-2,-5.9513483E-2,-9.316936E-2,-6.8936266E-2,-3.393767E-2,-8.894555E-2,-2.3523638E-1,-7.228733E-2,2.4395512E-2,-5.525243E-2,7.930743E-3,-7.972817E-2,-1.4823955E-1,-1.4013687E-1,-3.6110193E-1,-1.2797005E-1,-6.689869E-2,-1.11258095E-2,2.1758999E-1,-1.02654964E-1,-3.880654E-2,-2.7967155E-2,6.416798E-2,-9.378223E-2,-5.084515E-2,-1.3110621E-1,-5.260784E-1,-0E0,-1.4445749E-1,-0E0,-3.678561E-1],"categories":[],"categories_nodes":[],"categories_segments":[],"categories_sizes":[],"default_left":[1,1,1,1,1,1,0,1,0,1,1,1,1,1,1,0,0,0,0,0,0,0,0,0,0,0,0,0,0,0,0],"id":39,"left_children":[1,3,5,7,9,11,13,15,17,19,21,23,25,27,29,-1,-1,-1,-1,-1,-1,-1,-1,-1,-1,-1,-1,-1,-1,-1,-1],"loss_changes":[4.523018E0,3.965004E0,2.8523521E0,3.9152298E0,4.151053E0,2.6232414E0,1.0172663E0,3.3392754E0,3.1076908E0,2.2256842E0,3.1521044E0,1.7125797E0,3.5036097E0,3.5801888E-2,1.403985E-1,0E0,0E0,0E0,0E0,0E0,0E0,0E0,0E0,0E0,0E0,0E0,0E0,0E0,0E0,0E0,0E0],"parents":[2147483647,0,0,1,1,2,2,3,3,4,4,5,5,6,6,7,7,8,8,9,9,10,10,11,11,12,12,13,13,14,14],"right_children":[2,4,6,8,10,12,14,16,18,20,22,24,26,28,30,-1,-1,-1,-1,-1,-1,-1,-1,-1,-1,-1,-1,-1,-1,-1,-1],"split_conditions":[1.18095E-2,1.06862335E1,1.3862505E3,8.195102E0,1.3819245E0,-3.797755E-1,8.881E-3,-3.53649E0,3.2665E-3,-3.864486E0,1.1341385E2,1.0722666E0,9.333335E-1,-7.553105E-1,1.0158873E1,-6.3985027E-3,-3.3449344E-3,-5.562905E-4,1.08795E-2,-5.1327483E-3,-1.940327E-3,-1.3983578E-3,3.2083988E-3,-4.689112E-3,-2.5422575E-3,-6.555311E-3,-2.630392E-2,-0E0,-7.2228746E-3,-0E0,-1.8392805E-2],"split_indices":[5,8,18,9,20,16,1,6,17,9,2,9,5,3,0,0,0,0,0,0,0,0,0,0,0,0,0,0,0,0,0],"split_type":[0,0,0,0,0,0,0,0,0,0,0,0,0,0,0,0,0,0,0,0,0,0,0,0,0,0,0,0,0,0,0],"sum_hessian":[2.2386E4,1.6923E4,5.463E3,1.2332E4,4.591E3,5.32E3,1.43E2,1.1916E4,4.16E2,3.057E3,1.534E3,4.629E3,6.91E2,9.2E1,5.1E1,1.025E3,1.0891E4,3.51E2,6.5E1,7.65E2,2.292E3,9.27E2,6.07E2,3.083E3,1.546E3,6.7E2,2.1E1,4E0,8.8E1,1E0,5E1],"tree_param":{"num_deleted":"0","num_feature":"22","num_nodes":"31","size_leaf_vector":"0"}},{"base_weights":[-6.4437E-2,-8.0178745E-2,-5.2831437E-2,-7.311138E-2,-1.419478E-1,-5.8362506E-2,3.3655937E-3,-7.0179105E-2,-2.0901872E-1,-2.852746E-1,-7.53954E-2,3.2917545E-3,-6.357859E-2,1.8276076E-1,-3.1453032E-2,-7.087691E-2,2.9894942E-1,5.8047824E-2,-2.930165E-1,-3.1678417E-1,-1.9803002E-2,-3.3140367E-1,-4.3981448E-2,2.3930979E-1,-5.255581E-3,-7.006219E-2,-2.2400122E-2,-3.1364854E-2,2.8407502E-1,1.2482224E-1,-6.954991E-2],"categories":[],"categories_nodes":[],"categories_segments":[],"categories_sizes":[],"default_left":[1,1,1,1,1,1,1,1,1,0,1,1,1,1,1,0,0,0,0,0,0,0,0,0,0,0,0,0,0,0,0],"id":40,"left_children":[1,3,5,7,9,11,13,15,17,19,21,23,25,27,29,-1,-1,-1,-1,-1,-1,-1,-1,-1,-1,-1,-1,-1,-1,-1,-1],"loss_changes":[3.9364624E0,3.8610115E0,4.0781136E0,3.0388412E0,8.603132E0,3.855175E0,7.3507943E0,2.0273705E0,4.133622E0,2.0996914E0,4.867651E0,2.0761087E0,2.8076935E0,4.462504E0,5.7095437E0,0E0,0E0,0E0,0E0,0E0,0E0,0E0,0E0,0E0,0E0,0E0,0E0,0E0,0E0,0E0,0E0],"parents":[2147483647,0,0,1,1,2,2,3,3,4,4,5,5,6,6,7,7,8,8,9,9,10,10,11,11,12,12,13,13,14,14],"right_children":[2,4,6,8,10,12,14,16,18,20,22,24,26,28,30,-1,-1,-1,-1,-1,-1,-1,-1,-1,-1,-1,-1,-1,-1,-1,-1],"split_conditions":[-2.84774E-1,1.8499798E1,1.8538094E1,4.291665E-1,1.8782845E1,-7.5193E-2,-8.5382104E-1,1.8501976E1,1.1468794E3,6.1025E-3,-8.600529E0,-1.1333334E0,2.6632776E0,1.110472E3,1.2278765E2,-3.5438456E-3,1.4947471E-2,2.9023911E-3,-1.46508245E-2,-1.583921E-2,-9.901501E-4,-1.6570184E-2,-2.1990724E-3,1.196549E-2,-2.6277904E-4,-3.5031096E-3,-1.1200061E-3,-1.5682428E-3,1.4203751E-2,6.241112E-3,-3.4774956E-3],"split_indices":[20,7,19,5,0,5,3,15,18,12,9,5,9,18,11,0,0,0,0,0,0,0,0,0,0,0,0,0,0,0,0],"split_type":[0,0,0,0,0,0,0,0,0,0,0,0,0,0,0,0,0,0,0,0,0,0,0,0,0,0,0,0,0,0,0],"sum_hessian":[2.2386E4,9.451E3,1.2935E4,8.505E3,9.46E2,1.1792E4,1.143E3,8.34E3,1.65E2,2.9E2,6.56E2,9.05E2,1.0887E4,1.87E2,9.56E2,8.331E3,9E0,3.7E1,1.28E2,2.55E2,3.5E1,6.3E1,5.93E2,3.1E1,8.74E2,9.382E3,1.505E3,5.8E1,1.29E2,1.8E2,7.76E2],"tree_param":{"num_deleted":"0","num_feature":"22","num_nodes":"31","size_leaf_vector":"0"}},{"base_weights":[-6.1229326E-2,-5.343888E-2,-8.5108355E-2,-6.382523E-2,-2.9805798E-2,-8.10866E-2,-2.20178E-1,-5.806171E-2,-1.1284903E-1,3.0021295E-2,-4.618387E-2,-7.248621E-2,-1.3632908E-1,-1.5144593E-1,-3.9894935E-1,-7.04765E-2,-4.8237134E-2,-6.150987E-2,-2.4635132E-1,1.1473126E-1,-8.968486E-3,-5.7087447E-2,3.6181264E-2,2.750193E-2,-7.6015465E-2,-1.2003921E-1,-4.945608E-1,-0E0,-1.6070004E-1,-0E0,-4.165939E-1],"categories":[],"categories_nodes":[],"categories_segments":[],"categories_sizes":[],"default_left":[1,0,1,1,0,1,0,1,1,1,1,1,1,0,1,0,0,0,0,0,0,0,0,0,0,0,0,0,0,0,0],"id":41,"left_children":[1,3,5,7,9,11,13,15,17,19,21,23,25,27,29,-1,-1,-1,-1,-1,-1,-1,-1,-1,-1,-1,-1,-1,-1,-1,-1],"loss_changes":[4.0040665E0,4.052025E0,2.5797844E0,3.1095047E0,5.125185E0,2.271717E0,9.660325E-1,1.1475334E0,7.909588E0,3.773738E0,3.7160358E0,1.6942291E0,3.1501112E0,1.1132693E-1,1.4215565E-1,0E0,0E0,0E0,0E0,0E0,0E0,0E0,0E0,0E0,0E0,0E0,0E0,0E0,0E0,0E0,0E0],"parents":[2147483647,0,0,1,1,2,2,3,3,4,4,5,5,6,6,7,7,8,8,9,9,10,10,11,11,12,12,13,13,14,14],"right_children":[2,4,6,8,10,12,14,16,18,20,22,24,26,28,30,-1,-1,-1,-1,-1,-1,-1,-1,-1,-1,-1,-1,-1,-1,-1,-1],"split_conditions":[1.18095E-2,3.225E-4,1.3862505E3,1.8560925E1,-5.3725E-3,-3.797755E-1,8.1859995E-3,-6.4258423E0,6.04797E-1,-1.6118092E1,5.268819E0,-1.1957E-2,9.333335E-1,-5.541E-3,1.1731809E2,-3.5238252E-3,-2.4118568E-3,-3.0754935E-3,-1.2317566E-2,5.736563E-3,-4.4842434E-4,-2.8543724E-3,1.8090633E-3,1.3750965E-3,-3.8007733E-3,-6.0019605E-3,-2.4728041E-2,-0E0,-8.035002E-3,-0E0,-2.0829696E-2],"split_indices":[5,17,18,7,10,16,21,16,3,16,9,10,5,21,11,0,0,0,0,0,0,0,0,0,0,0,0,0,0,0,0],"split_type":[0,0,0,0,0,0,0,0,0,0,0,0,0,0,0,0,0,0,0,0,0,0,0,0,0,0,0,0,0,0,0],"sum_hessian":[2.2386E4,1.6923E4,5.463E3,1.1721E4,5.202E3,5.32E3,1.43E2,1.0516E4,1.205E3,1.104E3,4.098E3,4.629E3,6.91E2,1.14E2,2.9E1,4.587E3,5.929E3,8.81E2,3.24E2,3.53E2,7.51E2,3.631E3,4.67E2,1.47E2,4.482E3,6.7E2,2.1E1,9E0,1.05E2,2E0,2.7E1],"tree_param":{"num_deleted":"0","num_feature":"22","num_nodes":"31","size_leaf_vector":"0"}},{"base_weights":[-5.820245E-2,-3.988891E-2,-6.710988E-2,3.0739218E-2,-4.8284054E-2,-4.1896403E-2,-7.763745E-2,-1.5641502E-1,9.3396656E-2,-5.403257E-2,1.7603235E-2,-9.616592E-2,-3.1698808E-2,-8.100036E-2,4.3884525E-3,2.337059E-2,-4.008638E-1,2.217676E-1,-0E0,-7.029199E-2,-3.7394274E-2,1.2954691E-1,-2.6405776E-2,7.0612386E-2,-1.0370674E-1,-1.7457107E-2,-6.2424153E-2,-6.814352E-2,-1.1090207E-1,8.34718E-2,-7.071484E-2],"categories":[],"categories_nodes":[],"categories_segments":[],"categories_sizes":[],"default_left":[1,1,1,1,1,0,1,0,1,0,1,1,1,1,1,0,0,0,0,0,0,0,0,0,0,0,0,0,0,0,0],"id":42,"left_children":[1,3,5,7,9,11,13,15,17,19,21,23,25,27,29,-1,-1,-1,-1,-1,-1,-1,-1,-1,-1,-1,-1,-1,-1,-1,-1],"loss_changes":[3.5321808E0,4.3984423E0,3.851059E0,9.086417E0,2.5436153E0,2.3268008E0,2.991867E0,8.862423E0,6.928951E0,1.5272331E0,2.682041E0,9.3496895E-1,1.5687273E0,3.688324E0,2.4714935E0,0E0,0E0,0E0,0E0,0E0,0E0,0E0,0E0,0E0,0E0,0E0,0E0,0E0,0E0,0E0,0E0],"parents":[2147483647,0,0,1,1,2,2,3,3,4,4,5,5,6,6,7,7,8,8,9,9,10,10,11,11,12,12,13,13,14,14],"right_children":[2,4,6,8,10,12,14,16,18,20,22,24,26,28,30,-1,-1,-1,-1,-1,-1,-1,-1,-1,-1,-1,-1,-1,-1,-1,-1],"split_conditions":[-2.1459949E-1,-3.5152354E0,-4.9E-4,-6.4956074E0,1.23278E2,-6.875E-4,8.411823E0,-1.56385E-2,1.8869057E1,-1.4725E-3,-1.1250469E1,-4.875E-1,4.579E-3,1.2265385E2,3.1257503E-2,1.1685295E-3,-2.004319E-2,1.1088381E-2,-0E0,-3.5145995E-3,-1.8697138E-3,6.4773457E-3,-1.3202889E-3,3.5306194E-3,-5.1853373E-3,-8.7285537E-4,-3.1212077E-3,-3.407176E-3,-5.5451035E-3,4.17359E-3,-3.535742E-3],"split_indices":[3,6,5,9,13,12,9,10,14,12,16,5,1,11,1,0,0,0,0,0,0,0,0,0,0,0,0,0,0,0,0],"split_type":[0,0,0,0,0,0,0,0,0,0,0,0,0,0,0,0,0,0,0,0,0,0,0,0,0,0,0,0,0,0,0],"sum_hessian":[2.2386E4,7.371E3,1.5015E4,7.69E2,6.602E3,4.458E3,1.0557E4,1.87E2,5.82E2,6.087E3,5.15E2,6.83E2,3.775E3,1.0153E4,4.04E2,1.08E2,7.9E1,2.4E2,3.42E2,3.04E3,3.047E3,1.49E2,3.66E2,2.2E1,6.61E2,2.607E3,1.168E3,7.135E3,3.018E3,2.03E2,2.01E2],"tree_param":{"num_deleted":"0","num_feature":"22","num_nodes":"31","size_leaf_vector":"0"}},{"base_weights":[-5.5305067E-2,4.2774685E-2,-5.700361E-2,-1.06666766E-1,6.474946E-2,-7.623833E-2,-4.8409887E-2,-0E0,-1.572637E-1,3.597305E-1,3.4034025E-2,-6.222283E-2,-1.1673395E-1,-5.3958878E-2,-1.3119172E-2,-0E0,6.5387465E-2,-2.2252727E-1,-0E0,3.747285E-1,-0E0,-1.3178238E-1,4.385456E-2,-6.97267E-2,4.3428816E-2,-1.8204248E-1,-8.117039E-2,-4.4902567E-2,-7.820217E-2,-1.1617995E-1,-5.3705745E-3],"categories":[],"categories_nodes":[],"categories_segments":[],"categories_sizes":[],"default_left":[1,1,1,0,1,1,1,1,1,1,0,1,1,1,1,0,0,0,0,0,0,0,0,0,0,0,0,0,0,0,0],"id":43,"left_children":[1,3,5,7,9,11,13,15,17,19,21,23,25,27,29,-1,-1,-1,-1,-1,-1,-1,-1,-1,-1,-1,-1,-1,-1,-1,-1],"loss_changes":[3.7565918E0,1.2208103E0,3.4970932E0,3.6499232E-1,2.580278E0,3.6192017E0,2.9198685E0,3.847969E-2,4.218626E-1,1.6801023E-1,4.490312E-1,4.0434723E0,3.6415253E0,2.7508736E0,1.557132E0,0E0,0E0,0E0,0E0,0E0,0E0,0E0,0E0,0E0,0E0,0E0,0E0,0E0,0E0,0E0,0E0],"parents":[2147483647,0,0,1,1,2,2,3,3,4,4,5,5,6,6,7,7,8,8,9,9,10,10,11,11,12,12,13,13,14,14],"right_children":[2,4,6,8,10,12,14,16,18,20,22,24,26,28,30,-1,-1,-1,-1,-1,-1,-1,-1,-1,-1,-1,-1,-1,-1,-1,-1],"split_conditions":[-2.708335E-1,1.1338359E3,-1.9782724E0,-9.155E-4,-1.375E0,5.175E-3,1.424697E0,-5.0361643E0,1.2256435E2,1.1413983E2,-1.1895E-2,4.214514E0,-1.6115917E1,7.2265E-3,-1.422E-3,-0E0,3.2693732E-3,-1.1126364E-2,-0E0,1.8736426E-2,-0E0,-6.5891193E-3,2.192728E-3,-3.486335E-3,2.1714407E-3,-9.102124E-3,-4.0585194E-3,-2.2451284E-3,-3.910109E-3,-5.8089974E-3,-2.6852873E-4],"split_indices":[5,18,8,17,5,10,9,9,11,2,12,9,16,5,17,0,0,0,0,0,0,0,0,0,0,0,0,0,0,0,0],"split_type":[0,0,0,0,0,0,0,0,0,0,0,0,0,0,0,0,0,0,0,0,0,0,0,0,0,0,0,0,0,0,0],"sum_hessian":[2.2386E4,3.69E2,2.2017E4,3.9E1,3.3E2,6.751E3,1.5266E4,9E0,3E1,2.3E1,3.07E2,5.043E3,1.708E3,1.3165E4,2.101E3,5E0,4E0,2.1E1,9E0,2.2E1,1E0,8E0,2.99E2,4.719E3,3.24E2,5.85E2,1.123E3,9.625E3,3.54E3,1.33E2,1.968E3],"tree_param":{"num_deleted":"0","num_feature":"22","num_nodes":"31","size_leaf_vector":"0"}},{"base_weights":[-5.2554473E-2,5.4835483E-2,-5.39671E-2,-1.174409E-1,8.380889E-2,-4.253331E-2,-6.769695E-2,-0E0,-1.8888628E-1,3.384166E-2,1.660808E-1,-5.258444E-2,-1.4294915E-2,-1.1849405E-1,-5.965208E-2,-0E0,6.3934416E-2,-2.330991E-1,-0E0,8.054731E-2,-0E0,2.8796333E-1,6.8951234E-2,-1.1570668E-1,-4.6597052E-2,-2.6342086E-2,7.5683035E-2,-1.2925191E-1,6.4112216E-2,-7.1997054E-2,-2.3797963E-2],"categories":[],"categories_nodes":[],"categories_segments":[],"categories_sizes":[],"default_left":[1,1,1,0,0,0,1,0,1,0,1,1,1,1,0,0,0,0,0,0,0,0,0,0,0,0,0,0,0,0,0],"id":44,"left_children":[1,3,5,7,9,11,13,15,17,19,21,23,25,27,29,-1,-1,-1,-1,-1,-1,-1,-1,-1,-1,-1,-1,-1,-1,-1,-1],"loss_changes":[3.410675E0,1.4331481E0,3.346611E0,4.3919683E-1,8.038111E-1,3.3687878E0,3.8726654E0,3.678848E-2,2.320674E-1,2.7243268E-1,5.619104E-1,3.177782E0,3.444538E0,2.748764E0,3.7282696E0,0E0,0E0,0E0,0E0,0E0,0E0,0E0,0E0,0E0,0E0,0E0,0E0,0E0,0E0,0E0,0E0],"parents":[2147483647,0,0,1,1,2,2,3,3,4,4,5,5,6,6,7,7,8,8,9,9,10,10,11,11,12,12,13,13,14,14],"right_children":[2,4,6,8,10,12,14,16,18,20,22,24,26,28,30,-1,-1,-1,-1,-1,-1,-1,-1,-1,-1,-1,-1,-1,-1,-1,-1],"split_conditions":[-3.4583348E-1,1.1338359E3,5.365E-4,-5.885E-4,7.8650005E-4,1.905E-4,-1.670239E0,2.3443E-2,1.1378691E2,-6.858E-3,-9.5E-1,-5.9769144E0,1.8509907E1,6.5852E-2,2.0375E-3,-0E0,3.1967207E-3,-1.1654955E-2,-0E0,4.0273657E-3,-0E0,1.4398167E-2,3.4475618E-3,-5.7853344E-3,-2.3298527E-3,-1.3171043E-3,3.7841517E-3,-6.462596E-3,3.205611E-3,-3.5998528E-3,-1.1898981E-3],"split_indices":[5,18,1,17,21,17,20,12,2,21,5,9,15,21,12,0,0,0,0,0,0,0,0,0,0,0,0,0,0,0,0],"split_type":[0,0,0,0,0,0,0,0,0,0,0,0,0,0,0,0,0,0,0,0,0,0,0,0,0,0,0,0,0,0,0],"sum_hessian":[2.2386E4,2.79E2,2.2107E4,3.3E1,2.46E2,1.2113E4,9.994E3,1.1E1,2.2E1,1.65E2,8.1E1,8.904E3,3.209E3,1.34E3,8.654E3,7E0,4E0,1.7E1,5E0,6.7E1,9.8E1,2.7E1,5.4E1,7.49E2,8.155E3,2.843E3,3.66E2,1.272E3,6.8E1,6.413E3,2.241E3],"tree_param":{"num_deleted":"0","num_feature":"22","num_nodes":"31","size_leaf_vector":"0"}},{"base_weights":[-4.992895E-2,-4.7367893E-2,-1.1048117E-1,7.951457E-2,-4.8474308E-2,1.0000465E-1,-1.2890545E-1,-1.2369177E-1,1.1208354E-1,-3.791786E-2,-6.142757E-2,2.1656886E-1,-0E0,-2.6627308E-1,-1.1058266E-1,-0E0,-1.7858611E-1,3.0168173E-1,5.739265E-2,-5.9193075E-2,-2.377939E-2,-6.975249E-2,-2.0232184E-2,3.242779E-1,-0E0,-7.8983955E-2,1.5195519E-1,-8.995433E-2,-4.9848253E-1,-1.1529109E-1,1.6381003E-1],"categories":[],"categories_nodes":[],"categories_segments":[],"categories_sizes":[],"default_left":[1,1,1,1,1,0,1,0,1,1,0,1,1,1,1,0,0,0,0,0,0,0,0,0,0,0,0,0,0,0,0],"id":45,"left_children":[1,3,5,7,9,11,13,15,17,19,21,23,25,27,29,-1,-1,-1,-1,-1,-1,-1,-1,-1,-1,-1,-1,-1,-1,-1,-1],"loss_changes":[3.2883263E0,3.0074768E0,3.5409412E0,1.2489904E0,2.805954E0,7.538991E-1,1.5498915E0,2.8596792E-1,1.2341795E0,3.4621258E0,3.1705704E0,6.4915895E-1,6.090192E-1,2.7493906E0,1.0045443E0,0E0,0E0,0E0,0E0,0E0,0E0,0E0,0E0,0E0,0E0,0E0,0E0,0E0,0E0,0E0,0E0],"parents":[2147483647,0,0,1,1,2,2,3,3,4,4,5,5,6,6,7,7,8,8,9,9,10,10,11,11,12,12,13,13,14,14],"right_children":[2,4,6,8,10,12,14,16,18,20,22,24,26,28,30,-1,-1,-1,-1,-1,-1,-1,-1,-1,-1,-1,-1,-1,-1,-1,-1],"split_conditions":[1.20559E-1,-4.946275E-1,-4.122567E0,1.1057734E3,5.365E-4,-2.1463E-2,-4.5628357E0,-7.305E-4,-1.3416669E0,-1.2505E-3,3.1905002E-3,3.9125E0,6.69155E-2,5.583335E-1,1.9458334E0,-0E0,-8.929306E-3,1.5084087E-2,2.8696326E-3,-2.9596537E-3,-1.1889696E-3,-3.4876247E-3,-1.0116092E-3,1.6213896E-2,-0E0,-3.949198E-3,7.5977594E-3,-4.4977167E-3,-2.4924127E-2,-5.7645547E-3,8.1905015E-3],"split_indices":[5,5,16,18,1,1,20,17,5,12,12,5,1,5,5,0,0,0,0,0,0,0,0,0,0,0,0,0,0,0,0],"split_type":[0,0,0,0,0,0,0,0,0,0,0,0,0,0,0,0,0,0,0,0,0,0,0,0,0,0,0,0,0,0,0],"sum_hessian":[2.2386E4,2.1502E4,8.84E2,1.75E2,2.1327E4,6.5E1,8.19E2,1.8E1,1.57E2,1.1804E4,9.523E3,2.6E1,3.9E1,8.2E1,7.37E2,3E0,1.5E1,2.6E1,1.31E2,4.678E3,7.126E3,7.899E3,1.624E3,1.5E1,1.1E1,2.6E1,1.3E1,5.3E1,2.9E1,7.31E2,6E0],"tree_param":{"num_deleted":"0","num_feature":"22","num_nodes":"31","size_leaf_vector":"0"}},{"base_weights":[-4.7438573E-2,-2.310823E-2,-5.3417936E-2,-2.9252492E-2,2.6046518E-2,-4.196524E-2,-6.961447E-2,-3.6851693E-2,1.6613772E-2,1.2207931E-1,-1.435692E-2,-4.8157163E-2,1.4200704E-2,-1.2606831E-2,-7.910388E-2,-5.0452948E-2,-1.6759345E-2,-0E0,4.680714E-2,7.0547804E-2,2.9044393E-1,9.766013E-2,-3.87525E-2,-5.528352E-2,-1.8518511E-2,-1.8835638E-1,4.618506E-2,-1.6159926E-2,9.126141E-2,-1.2939456E-1,-6.357661E-2],"categories":[],"categories_nodes":[],"categories_segments":[],"categories_sizes":[],"default_left":[1,1,1,1,1,1,1,1,1,1,1,1,1,1,1,0,0,0,0,0,0,0,0,0,0,0,0,0,0,0,0],"id":46,"left_children":[1,3,5,7,9,11,13,15,17,19,21,23,25,27,29,-1,-1,-1,-1,-1,-1,-1,-1,-1,-1,-1,-1,-1,-1,-1,-1],"loss_changes":[3.1747398E0,1.3537214E0,3.2010193E0,1.41191E0,1.9789124E0,3.7084923E0,3.898903E0,8.681011E-1,2.9266882E-1,8.3797E-1,8.754767E-1,1.9329071E0,6.6132145E0,3.2900506E-1,4.697918E0,0E0,0E0,0E0,0E0,0E0,0E0,0E0,0E0,0E0,0E0,0E0,0E0,0E0,0E0,0E0,0E0],"parents":[2147483647,0,0,1,1,2,2,3,3,4,4,5,5,6,6,7,7,8,8,9,9,10,10,11,11,12,12,13,13,14,14],"right_children":[2,4,6,8,10,12,14,16,18,20,22,24,26,28,30,-1,-1,-1,-1,-1,-1,-1,-1,-1,-1,-1,-1,-1,-1,-1,-1],"split_conditions":[-2.39395E-2,2.629E-3,7.695E-4,3.64235E-2,4.5085E-3,1.858698E1,1.02355396E3,1.017655E-1,1.449648E0,3.908136E0,-3.125E-1,2.5819498E-1,-8.600489E0,3.666665E-1,-1.6118086E1,-2.5226474E-3,-8.3796727E-4,-0E0,2.340357E-3,3.5273903E-3,1.4522197E-2,4.8830067E-3,-1.937625E-3,-2.764176E-3,-9.2592556E-4,-9.41782E-3,2.3092532E-3,-8.079963E-4,4.5630704E-3,-6.469728E-3,-3.1788305E-3],"split_indices":[5,12,10,16,1,15,18,9,20,20,5,9,9,5,16,0,0,0,0,0,0,0,0,0,0,0,0,0,0,0,0],"split_type":[0,0,0,0,0,0,0,0,0,0,0,0,0,0,0,0,0,0,0,0,0,0,0,0,0,0,0,0,0,0,0],"sum_hessian":[2.2386E4,4.454E3,1.7932E4,3.979E3,4.75E2,1.0551E4,7.381E3,3.433E3,5.46E2,1.45E2,3.3E2,9.52E3,1.031E3,1.07E3,6.311E3,2.013E3,1.42E3,3.48E2,1.98E2,1.21E2,2.4E1,4.9E1,2.81E2,7.644E3,1.876E3,1.33E2,8.98E2,1.048E3,2.2E1,1.465E3,4.846E3],"tree_param":{"num_deleted":"0","num_feature":"22","num_nodes":"31","size_leaf_vector":"0"}},{"base_weights":[-4.5071155E-2,-3.9687168E-2,-7.131261E-2,-3.366542E-2,-6.570027E-2,-6.56569E-2,-1.9479457E-1,-4.0779047E-2,5.9346706E-3,-8.499997E-2,5.2985908E-3,-7.262567E-2,-1.2675398E-2,-1.4170209E-1,-4.02535E-1,-5.102477E-2,-1.45972315E-2,-6.414534E-3,6.056366E-2,-6.0429197E-2,-1.75036E-1,-1.6183356E-2,3.0782947E-1,-1.419357E-3,-7.665594E-2,2.649113E-1,-2.8483678E-2,-0E0,-1.4985783E-1,-0E0,-4.1258392E-1],"categories":[],"categories_nodes":[],"categories_segments":[],"categories_sizes":[],"default_left":[1,1,1,1,0,1,0,1,0,1,1,0,1,0,1,0,0,0,0,0,0,0,0,0,0,0,0,0,0,0,0],"id":47,"left_children":[1,3,5,7,9,11,13,15,17,19,21,23,25,27,29,-1,-1,-1,-1,-1,-1,-1,-1,-1,-1,-1,-1,-1,-1,-1,-1],"loss_changes":[3.03833E0,2.8066082E0,2.3112774E0,4.307474E0,4.8285217E0,1.2481318E0,8.801284E-1,3.3846626E0,1.6023312E0,5.762165E0,5.086786E0,8.354168E-1,1.7496471E0,1.4135575E-1,3.4551144E-2,0E0,0E0,0E0,0E0,0E0,0E0,0E0,0E0,0E0,0E0,0E0,0E0,0E0,0E0,0E0,0E0],"parents":[2147483647,0,0,1,1,2,2,3,3,4,4,5,5,6,6,7,7,8,8,9,9,10,10,11,11,12,12,13,13,14,14],"right_children":[2,4,6,8,10,12,14,16,18,20,22,24,26,28,30,-1,-1,-1,-1,-1,-1,-1,-1,-1,-1,-1,-1,-1,-1,-1,-1],"split_conditions":[2.5625E-2,3.8781703E-1,1.3835398E3,1.3702705E0,4.67235E-2,3.3409286E0,2.05375E-2,1.2103762E1,3.1915E-3,1.8568882E1,1.8465988E1,-1.2138501E-2,-8.381501E-3,-6.34E-3,-9.77775E-2,-2.5512385E-3,-7.298616E-4,-3.2072671E-4,3.028183E-3,-3.0214598E-3,-8.7518E-3,-8.091678E-4,1.5391474E-2,-7.096785E-5,-3.832797E-3,1.3245565E-2,-1.424184E-3,-0E0,-7.492892E-3,-0E0,-2.0629195E-2],"split_indices":[5,3,18,9,21,9,1,8,12,15,14,21,10,21,3,0,0,0,0,0,0,0,0,0,0,0,0,0,0,0,0],"split_type":[0,0,0,0,0,0,0,0,0,0,0,0,0,0,0,0,0,0,0,0,0,0,0,0,0,0,0,0,0,0,0],"sum_hessian":[2.2386E4,1.8617E4,3.769E3,1.5158E4,3.459E3,3.619E3,1.5E2,1.2871E4,2.287E3,2.73E3,7.29E2,3.18E3,4.39E2,1.3E2,2E1,9.22E3,3.651E3,1.854E3,4.33E2,2.16E3,5.7E2,6.82E2,4.7E1,1.84E2,2.996E3,1.6E1,4.23E2,8E0,1.22E2,1E0,1.9E1],"tree_param":{"num_deleted":"0","num_feature":"22","num_nodes":"31","size_leaf_vector":"0"}},{"base_weights":[-4.283782E-2,-1.987572E-1,-4.19293E-2,-7.097272E-2,-4.896446E-1,-2.5347253E-2,-5.1263765E-2,-3.1567976E-1,-2.107332E-2,-0E0,-6.7059594E-1,-5.9141193E-2,-1.0952941E-2,1.198829E-1,-5.2970067E-2,7.768742E-2,-8.1697434E-2,4.8313893E-2,-1.0367524E-1,-7.553666E-1,-0E0,-3.113311E-1,-5.3977486E-2,5.459574E-2,-2.8249959E-2,2.4010575E-1,1.660169E-2,-5.834814E-2,-1.6682092E-2],"categories":[],"categories_nodes":[],"categories_segments":[],"categories_sizes":[],"default_left":[1,0,0,1,1,1,1,0,1,1,0,1,1,1,1,0,0,0,0,0,0,0,0,0,0,0,0,0,0],"id":48,"left_children":[1,3,5,7,9,11,13,-1,15,17,19,21,23,25,27,-1,-1,-1,-1,-1,-1,-1,-1,-1,-1,-1,-1,-1,-1],"loss_changes":[2.889454E0,3.8004742E0,3.3645592E0,7.6558304E-1,2.6412125E0,3.852728E0,4.1139755E0,0E0,5.506506E-1,1.3082787E-1,1.7599573E0,2.661705E0,6.429267E0,1.4120413E0,2.6673584E0,0E0,0E0,0E0,0E0,0E0,0E0,0E0,0E0,0E0,0E0,0E0,0E0,0E0,0E0],"parents":[2147483647,0,0,1,1,2,2,3,3,4,4,5,5,6,6,8,8,9,9,10,10,11,11,12,12,13,13,14,14],"right_children":[2,4,6,8,10,12,14,-1,16,18,20,22,24,26,28,-1,-1,-1,-1,-1,-1,-1,-1,-1,-1,-1,-1,-1,-1],"split_conditions":[-2.5244839E1,-3.34865E-2,-2.498E-3,-3.479488E0,1.1315078E3,1.1039764E3,-1.151917E0,-1.5783988E-2,-1.606252E1,1.8942005E1,2.6225E-3,-1.5320366E1,-1.6100163E1,-1.4411034E1,3.1905002E-3,3.8843711E-3,-4.0848716E-3,2.4156948E-3,-5.183762E-3,-3.776833E-2,-0E0,-1.5566555E-2,-2.6988743E-3,2.729787E-3,-1.412498E-3,1.2005287E-2,8.300845E-4,-2.917407E-3,-8.341046E-4],"split_indices":[9,12,21,6,18,18,3,0,16,0,17,20,16,16,12,0,0,0,0,0,0,0,0,0,0,0,0,0,0],"split_type":[0,0,0,0,0,0,0,0,0,0,0,0,0,0,0,0,0,0,0,0,0,0,0,0,0,0,0,0,0],