{"learner":{"attributes":{"best_iteration":"391","best_ntree_limit":"392"},"feature_names":["Avg_CCS1_WHCO2InjTp_F_diff1","Avg_CCS1_WHCO2InjPs_psi_diff2","Avg_CCS1_DH6325Ps_psi_pct_change1","Avg_CCS1_DH6325Ps_psi","Avg_CCS1_DH6325Ps_psi_diff1","Avg_PLT_CO2VentRate_TPH_pct_change5","Avg_PLT_CO2VentRate_TPH_diff1","Temperature diff 5840-5482 ft_lag3","Pressure diff 6837-6720 ft_lag5","Temperature diff 6720-5653 ft sma 5","Avg_CCS1_WHCO2InjPs_psi_diff1","Avg_CCS1_WHCO2InjPs_psi_diff3","Avg_CCS1_WHCO2InjPs_psi ema 5","Pressure diff 5482-5001 ft ema 5","Avg_CCS1_WHCO2InjPs_psi","Avg_CCS1_WHCO2InjPs_psi_pct_change1","Avg_CCS1_WHCO2InjPs_psi_pct_change5","Avg_PLT_CO2VentRate_TPH_pct_change1"],"feature_types":["float","float","float","float","float","float","float","float","float","float","float","float","float","float","float","float","float","float"],"gradient_booster":{"model":{"gbtree_model_param":{"num_parallel_tree":"1","num_trees":"392","size_leaf_vector":"0"},"tree_info":[0,0,0,0,0,0,0,0,0,0,0,0,0,0,0,0,0,0,0,0,0,0,0,0,0,0,0,0,0,0,0,0,0,0,0,0,0,0,0,0,0,0,0,0,0,0,0,0,0,0,0,0,0,0,0,0,0,0,0,0,0,0,0,0,0,0,0,0,0,0,0,0,0,0,0,0,0,0,0,0,0,0,0,0,0,0,0,0,0,0,0,0,0,0,0,0,0,0,0,0,0,0,0,0,0,0,0,0,0,0,0,0,0,0,0,0,0,0,0,0,0,0,0,0,0,0,0,0,0,0,0,0,0,0,0,0,0,0,0,0,0,0,0,0,0,0,0,0,0,0,0,0,0,0,0,0,0,0,0,0,0,0,0,0,0,0,0,0,0,0,0,0,0,0,0,0,0,0,0,0,0,0,0,0,0,0,0,0,0,0,0,0,0,0,0,0,0,0,0,0,0,0,0,0,0,0,0,0,0,0,0,0,0,0,0,0,0,0,0,0,0,0,0,0,0,0,0,0,0,0,0,0,0,0,0,0,0,0,0,0,0,0,0,0,0,0,0,0,0,0,0,0,0,0,0,0,0,0,0,0,0,0,0,0,0,0,0,0,0,0,0,0,0,0,0,0,0,0,0,0,0,0,0,0,0,0,0,0,0,0,0,0,0,0,0,0,0,0,0,0,0,0,0,0,0,0,0,0,0,0,0,0,0,0,0,0,0,0,0,0,0,0,0,0,0,0,0,0,0,0,0,0,0,0,0,0,0,0,0,0,0,0,0,0,0,0,0,0,0,0,0,0,0,0,0,0,0,0,0,0,0,0,0,0,0,0,0,0,0,0,0,0,0,0,0,0,0,0,0,0,0,0,0,0,0,0,0,0,0,0,0,0],"trees":[{"base_weights":[-1.3380045E0,-1.5859584E0,1.4466596E0,1.5646029E0,-1.8490375E0,5.602089E-1,1.7729234E0,1.851524E0,4.7492903E-1,-1.8806002E0,1.3149208E0,7.33615E-1,-9.8297E-1,9.301999E-1,1.8889992E0,-3.3949342E-1,1.8823962E0,6.973048E-1,-1.1952595E0,1.4711146E0,-1.9037071E0,-2.9613522E-1,1.6030385E0,1.0249899E-1,1.073128E0,-1.7E0,1.1186179E0,1.2727025E0,-1.4545455E0,-0E0,1.9021268E0],"categories":[],"categories_nodes":[],"categories_segments":[],"categories_sizes":[],"default_left":[1,1,0,1,1,1,1,1,1,1,1,1,1,1,1,0,0,0,0,0,0,0,0,0,0,0,0,0,0,0,0],"id":0,"left_children":[1,3,5,7,9,11,13,15,17,19,21,23,25,27,29,-1,-1,-1,-1,-1,-1,-1,-1,-1,-1,-1,-1,-1,-1,-1,-1],"loss_changes":[3.8314463E3,4.2244297E3,1.2786493E2,1.1958606E2,4.7251172E2,3.3740337E1,2.7732056E1,2.3138184E1,3.1508087E1,3.6378906E2,2.3463142E1,2.290995E1,2.1174255E1,3.678989E1,6.3809814E0,0E0,0E0,0E0,0E0,0E0,0E0,0E0,0E0,0E0,0E0,0E0,0E0,0E0,0E0,0E0,0E0],"parents":[2147483647,0,0,1,1,2,2,3,3,4,4,5,5,6,6,7,7,8,8,9,9,10,10,11,11,12,12,13,13,14,14],"right_children":[2,4,6,8,10,12,14,16,18,20,22,24,26,28,30,-1,-1,-1,-1,-1,-1,-1,-1,-1,-1,-1,-1,-1,-1,-1,-1],"split_conditions":[1.4599589E1,-1.7277836E1,2.5755E-3,-1.0358038E1,1.5541666E0,3.0336456E2,2.8124626E1,-2.7361884E2,3.143909E2,-1.7416666E0,3.0645244E3,3.0666307E1,5.3533333E1,1.7581427E2,7.549636E2,-1.697467E-2,9.411981E-2,3.486524E-2,-5.9762973E-2,7.355573E-2,-9.518536E-2,-1.4806761E-2,8.015193E-2,5.12495E-3,5.36564E-2,-8.5E-2,5.5930894E-2,6.3635126E-2,-7.272728E-2,-0E0,9.510634E-2],"split_indices":[10,10,2,4,6,13,10,11,13,6,3,10,5,11,12,0,0,0,0,0,0,0,0,0,0,0,0,0,0,0,0],"split_type":[0,0,0,0,0,0,0,0,0,0,0,0,0,0,0,0,0,0,0,0,0,0,0,0,0,0,0,0,0,0,0],"sum_hessian":[5.544529E3,5.0919204E3,4.5260858E2,3.9174493E2,4.7001753E3,1.2332359E2,3.29285E2,3.088144E2,8.293052E1,4.6544653E3,4.5709923E1,1.11919846E2,1.1403746E1,4.1998688E1,2.8728632E2,3.7018726E0,3.0511252E2,7.4228645E1,8.701873E0,3.114307E1,4.6233223E3,6.403745E0,3.930618E1,4.0633705E1,7.128614E1,9E0,2.4037452E0,3.7498688E1,4.5E0,2.2018726E0,2.8508444E2],"tree_param":{"num_deleted":"0","num_feature":"18","num_nodes":"31","size_leaf_vector":"0"}},{"base_weights":[-1.2607884E0,-1.5092629E0,1.3415489E0,1.6387063E0,-1.7552927E0,4.183235E-1,1.7108824E0,-2.8721553E-1,1.7229859E0,-1.7920096E0,7.088348E-1,6.5396625E-1,-7.998989E-1,8.440778E-1,1.7807738E0,1.5513434E0,-1.6824119E0,1.841666E0,1.1432862E0,1.3089712E0,-1.810236E0,-1.7018242E-1,1.3323182E0,1.0594198E0,-1.4575088E-1,-1.1401843E0,1.1513153E0,1.2059256E0,-1.2839748E0,1.800762E0,2.830221E-2],"categories":[],"categories_nodes":[],"categories_segments":[],"categories_sizes":[],"default_left":[1,1,0,1,1,1,1,0,1,1,1,1,1,1,1,0,0,0,0,0,0,0,0,0,0,0,0,0,0,0,0],"id":1,"left_children":[1,3,5,7,9,11,13,15,17,19,21,23,25,27,29,-1,-1,-1,-1,-1,-1,-1,-1,-1,-1,-1,-1,-1,-1,-1,-1],"loss_changes":[3.5873096E3,3.9234941E3,1.6199347E2,6.1527527E1,4.272119E2,4.0632668E1,1.6724182E1,4.3151028E1,1.9155151E1,2.644209E2,3.934718E1,3.9569447E1,1.623471E1,2.3532373E1,9.208313E0,0E0,0E0,0E0,0E0,0E0,0E0,0E0,0E0,0E0,0E0,0E0,0E0,0E0,0E0,0E0,0E0],"parents":[2147483647,0,0,1,1,2,2,3,3,4,4,5,5,6,6,7,7,8,8,9,9,10,10,11,11,12,12,13,13,14,14],"right_children":[2,4,6,8,10,12,14,16,18,20,22,24,26,28,30,-1,-1,-1,-1,-1,-1,-1,-1,-1,-1,-1,-1,-1,-1,-1,-1],"split_conditions":[1.3721059E1,-2.2838076E1,3.4155E-3,-7.70728E2,7.0416653E-1,3.2818716E3,1.9062001E-2,-6.8568647E-1,-1.0393592E1,-1.7416666E0,2.066667E0,4.7854E-2,2.3222221E1,1.13349884E2,3.6240594E2,7.7567175E-2,-8.4120594E-2,9.20833E-2,5.716431E-2,6.544856E-2,-9.05118E-2,-8.509121E-3,6.661591E-2,5.2970987E-2,-7.287544E-3,-5.7009216E-2,5.7565767E-2,6.029628E-2,-6.419874E-2,9.0038106E-2,1.4151105E-3],"split_indices":[10,10,2,11,6,3,15,5,4,6,6,16,5,1,11,0,0,0,0,0,0,0,0,0,0,0,0,0,0,0,0],"split_type":[0,0,0,0,0,0,0,0,0,0,0,0,0,0,0,0,0,0,0,0,0,0,0,0,0,0,0,0,0,0,0],"sum_hessian":[5.543444E3,5.061016E3,4.8242795E2,3.6616626E2,4.6948496E3,1.3923112E2,3.4319684E2,1.4753445E1,3.514128E2,4.6265894E3,6.826032E1,1.1774045E2,2.1490679E1,2.765085E1,3.15546E2,6.0078154E0,8.745629E0,2.8845612E2,6.2956707E1,2.629999E1,4.6002896E3,2.7961704E1,4.029862E1,7.87435E1,3.899695E1,1.9089659E1,2.401019E0,2.4404427E1,3.2464235E0,3.113961E2,4.1499023E0],"tree_param":{"num_deleted":"0","num_feature":"18","num_nodes":"31","size_leaf_vector":"0"}},{"base_weights":[-1.198063E0,1.4510242E0,-1.4071769E0,1.6967827E0,5.891366E-1,-1.6789436E0,1.1786109E0,-3.4853062E-1,1.7257184E0,1.1454149E-1,1.4460665E0,-1.7071943E0,1.1824571E0,1.5934762E-1,1.5666394E0,6.047623E-1,-1.1351997E0,1.7742226E0,2.0036289E-1,5.5909604E-1,-9.771572E-1,1.5734167E0,-0E0,1.4704534E0,-1.729596E0,-5.1933795E-1,1.5402857E0,4.9073872E-1,-1.0304886E0,7.49949E-1,1.6956149E0],"categories":[],"categories_nodes":[],"categories_segments":[],"categories_sizes":[],"default_left":[1,1,1,1,0,1,0,1,1,1,1,1,1,1,1,0,0,0,0,0,0,0,0,0,0,0,0,0,0,0,0],"id":2,"left_children":[1,3,5,7,9,11,13,15,17,19,21,23,25,27,29,-1,-1,-1,-1,-1,-1,-1,-1,-1,-1,-1,-1,-1,-1,-1,-1],"loss_changes":[3.046336E3,8.1910034E1,3.5824512E3,2.041632E1,3.5557865E1,3.7525195E2,1.8973889E2,4.7384815E0,2.0446045E1,2.9653612E1,6.1816025E0,3.2785254E2,2.9418972E1,5.3385315E1,3.3176453E1,0E0,0E0,0E0,0E0,0E0,0E0,0E0,0E0,0E0,0E0,0E0,0E0,0E0,0E0,0E0,0E0],"parents":[2147483647,0,0,1,1,2,2,3,3,4,4,5,5,6,6,7,7,8,8,9,9,10,10,11,11,12,12,13,13,14,14],"right_children":[2,4,6,8,10,12,14,16,18,20,22,24,26,28,30,-1,-1,-1,-1,-1,-1,-1,-1,-1,-1,-1,-1,-1,-1,-1,-1],"split_conditions":[-1.8019909E1,-1.0289146E1,1.1211695E1,-2.710202E2,3.234E-3,1.5541666E0,2.458E-3,-1.3688112E3,-2.2281792E1,2.7577997E2,-7.992585E-1,-1.7291665E0,1.0209774E3,1.3274148E3,1.8477E-2,3.0238116E-2,-5.6759983E-2,8.8711135E-2,1.0018145E-2,2.7954802E-2,-4.885786E-2,7.867084E-2,-0E0,7.352267E-2,-8.6479805E-2,-2.5966898E-2,7.701429E-2,2.4536936E-2,-5.152443E-2,3.749745E-2,8.4780745E-2],"split_indices":[10,4,10,11,2,6,2,1,10,13,17,6,12,14,15,0,0,0,0,0,0,0,0,0,0,0,0,0,0,0,0],"split_type":[0,0,0,0,0,0,0,0,0,0,0,0,0,0,0,0,0,0,0,0,0,0,0,0,0,0,0,0,0,0,0],"sum_hessian":[5.494583E3,4.0121454E2,5.0933687E3,3.1053864E2,9.0675896E1,4.609633E3,4.837358E2,3.6958206E0,3.068428E2,5.983692E1,3.0838976E1,4.565312E3,4.4320724E1,1.344786E2,3.492572E2,1.2007701E0,2.4950504E0,2.965928E2,1.0249997E1,4.3519188E1,1.6317736E1,2.8390518E1,2.448457E0,3.1194016E1,4.534118E3,7.1361156E0,3.718461E1,1.06300095E2,2.8178509E1,4.9620647E1,2.9963654E2],"tree_param":{"num_deleted":"0","num_feature":"18","num_nodes":"31","size_leaf_vector":"0"}},{"base_weights":[-1.1488997E0,-1.3729631E0,1.2721477E0,1.3084852E0,-1.6192349E0,6.403103E-1,1.6354543E0,1.5110618E0,2.5558013E-1,-1.6458789E0,1.0622752E0,8.656991E-1,-4.2618236E-1,9.580825E-1,1.6883309E0,-1.3467573E-2,1.6161447E0,-5.442132E-1,1.0715723E0,1.3650522E0,-1.6665523E0,-0E0,1.4921309E0,9.478084E-1,-1.3829802E0,6.8359363E-1,-1.2607249E0,1.3406423E0,-1.2883797E0,1.7078215E0,4.0353942E-1],"categories":[],"categories_nodes":[],"categories_segments":[],"categories_sizes":[],"default_left":[1,1,0,1,1,1,0,1,1,1,1,1,1,0,1,0,0,0,0,0,0,0,0,0,0,0,0,0,0,0,0],"id":3,"left_children":[1,3,5,7,9,11,13,15,17,19,21,23,25,27,29,-1,-1,-1,-1,-1,-1,-1,-1,-1,-1,-1,-1,-1,-1,-1,-1],"loss_changes":[2.9555923E3,3.2941074E3,1.025871E2,8.7325134E1,3.2856348E2,4.1933975E1,6.1692505E0,5.7825867E1,4.659121E1,2.8405273E2,1.9791954E1,2.7157562E1,2.8987549E1,2.3070047E1,3.8984985E0,0E0,0E0,0E0,0E0,0E0,0E0,0E0,0E0,0E0,0E0,0E0,0E0,0E0,0E0,0E0,0E0],"parents":[2147483647,0,0,1,1,2,2,3,3,4,4,5,5,6,6,7,7,8,8,9,9,10,10,11,11,12,12,13,13,14,14],"right_children":[2,4,6,8,10,12,14,16,18,20,22,24,26,28,30,-1,-1,-1,-1,-1,-1,-1,-1,-1,-1,-1,-1,-1,-1,-1,-1],"split_conditions":[1.3678844E1,-1.5868002E1,5.9155E-3,-2.5813744E1,1.2208335E0,3.2821E3,2.3689501E-2,-2.750401E2,-2.4865566E1,-2.0083334E0,3.0939028E3,4.0865507E0,-1.19375E-2,1.307735E-1,3.4636163E2,-6.7337864E-4,8.080723E-2,-2.7210658E-2,5.3578615E-2,6.8252616E-2,-8.3327614E-2,-0E0,7.4606545E-2,4.739042E-2,-6.914901E-2,3.4179684E-2,-6.303625E-2,6.703212E-2,-6.441899E-2,8.5391074E-2,2.0176971E-2],"split_indices":[10,10,2,10,6,3,15,11,1,6,3,15,16,16,11,0,0,0,0,0,0,0,0,0,0,0,0,0,0,0,0],"split_type":[0,0,0,0,0,0,0,0,0,0,0,0,0,0,0,0,0,0,0,0,0,0,0,0,0,0,0,0,0,0,0],"sum_hessian":[5.4440117E3,4.9836323E3,4.603798E2,4.1850522E2,4.565127E3,1.700886E2,2.902912E2,3.4981638E2,6.8688835E1,4.520965E3,4.416192E1,1.4134348E2,2.874511E1,2.3773539E1,2.6651767E2,2.1999907E1,3.2781647E2,3.4238045E1,3.4450794E1,3.0056599E1,4.490908E3,1.3383165E1,3.0778755E1,1.3735138E2,3.9920983E0,1.1901325E1,1.6843784E1,2.103907E1,2.7344694E0,2.6144388E2,5.0737658E0],"tree_param":{"num_deleted":"0","num_feature":"18","num_nodes":"31","size_leaf_vector":"0"}},{"base_weights":[-1.1297343E0,1.4483671E0,-1.3187929E0,1.6033995E0,6.0742944E-1,-1.5534601E0,1.0232635E0,-0E0,1.6307863E0,1.1175953E0,-9.037612E-1,-1.5789576E0,8.1614286E-1,4.6187374E-3,1.3650619E0,1.065737E0,-1.158433E0,1.6451995E0,4.3556812E-1,-1.1355696E0,1.2840282E0,-1.7217029E0,5.1347023E-1,1.3071415E0,-1.5954707E0,-3.7720272E-1,1.2582959E0,-6.000138E-1,5.506068E-1,6.920667E-1,1.5343527E0],"categories":[],"categories_nodes":[],"categories_segments":[],"categories_sizes":[],"default_left":[1,0,1,0,1,1,1,0,1,1,1,1,1,1,1,0,0,0,0,0,0,0,0,0,0,0,0,0,0,0,0],"id":4,"left_children":[1,3,5,7,9,11,13,15,17,19,21,23,25,27,29,-1,-1,-1,-1,-1,-1,-1,-1,-1,-1,-1,-1,-1,-1,-1,-1],"loss_changes":[2.600521E3,4.4321594E1,2.7327246E3,1.411499E1,4.6968437E1,2.749414E2,1.5623712E2,8.539436E0,2.3908691E0,1.859452E1,1.9519344E1,2.1537402E2,2.6853615E1,3.8400887E1,3.524536E1,0E0,0E0,0E0,0E0,0E0,0E0,0E0,0E0,0E0,0E0,0E0,0E0,0E0,0E0,0E0,0E0],"parents":[2147483647,0,0,1,1,2,2,3,3,4,4,5,5,6,6,7,7,8,8,9,9,10,10,11,11,12,12,13,13,14,14],"right_children":[2,4,6,8,10,12,14,16,18,20,22,24,26,28,30,-1,-1,-1,-1,-1,-1,-1,-1,-1,-1,-1,-1,-1,-1,-1,-1],"split_conditions":[-2.2845219E1,-1.0945001E-3,1.1214207E1,-1.9859749E-1,-6.0362303E-1,1.069713E0,4.993573E0,-7.765955E-1,-2.4255068E1,3.100584E3,-2.3773855E1,-1.7291665E0,3.0944983E3,3.14333E1,2.4597515E1,5.328685E-2,-5.7921648E-2,8.2259975E-2,2.1778407E-2,-5.677848E-2,6.420141E-2,-8.608515E-2,2.5673512E-2,6.535708E-2,-7.977354E-2,-1.8860137E-2,6.2914796E-2,-3.000069E-2,2.753034E-2,3.460334E-2,7.671764E-2],"split_indices":[10,2,10,16,17,6,4,5,10,3,1,6,3,10,10,0,0,0,0,0,0,0,0,0,0,0,0,0,0,0,0],"split_type":[0,0,0,0,0,0,0,0,0,0,0,0,0,0,0,0,0,0,0,0,0,0,0,0,0,0,0,0,0,0,0],"sum_hessian":[5.330706E3,3.6338965E2,4.9673164E3,3.0505493E2,5.8334705E1,4.5156274E3,4.5168878E2,4.8857465E0,3.001692E2,4.430117E1,1.4033538E1,4.468303E3,4.7324276E1,1.1447219E2,3.3721658E2,2.400118E0,2.4856284E0,2.9539386E2,4.7753305E0,2.233441E0,4.2067726E1,9.209264E0,4.824274E0,2.4631254E1,4.443672E3,1.2222281E1,3.5101997E1,5.340285E1,6.106934E1,6.998695E1,2.6722964E2],"tree_param":{"num_deleted":"0","num_feature":"18","num_nodes":"31","size_leaf_vector":"0"}},{"base_weights":[-1.0790955E0,9.652393E-1,-1.3035581E0,1.4288658E0,2.976921E-1,-1.5006862E0,1.1004138E0,2.3501096E-2,1.536588E0,-5.6374043E-1,1.449367E0,5.693808E-1,-1.5482416E0,4.7047195E-1,1.4885395E0,7.4579793E-1,-1.5098777E0,1.5860215E0,3.4638327E-1,-1.0064087E0,6.321433E-1,-0E0,1.5108734E0,1.4746642E0,7.847973E-2,1.1953746E0,-1.5637548E0,1.5271331E0,1.9446255E-1,6.0522777E-1,1.5489088E0],"categories":[],"categories_nodes":[],"categories_segments":[],"categories_sizes":[],"default_left":[1,1,1,0,1,1,0,1,0,0,0,0,1,1,1,0,0,0,0,0,0,0,0,0,0,0,0,0,0,0,0],"id":5,"left_children":[1,3,5,7,9,11,13,15,17,19,21,23,25,27,29,-1,-1,-1,-1,-1,-1,-1,-1,-1,-1,-1,-1,-1,-1,-1,-1],"loss_changes":[2.4319058E3,1.6005707E2,2.263975E3,4.5054443E1,2.1694832E2,4.36208E2,8.58309E1,2.6516666E1,1.4318054E1,6.683591E1,7.2002716E0,4.2479668E1,1.8584277E2,3.8936188E1,8.7734375E0,0E0,0E0,0E0,0E0,0E0,0E0,0E0,0E0,0E0,0E0,0E0,0E0,0E0,0E0,0E0,0E0],"parents":[2147483647,0,0,1,1,2,2,3,3,4,4,5,5,6,6,7,7,8,8,9,9,10,10,11,11,12,12,13,13,14,14],"right_children":[2,4,6,8,10,12,14,16,18,20,22,24,26,28,30,-1,-1,-1,-1,-1,-1,-1,-1,-1,-1,-1,-1,-1,-1,-1,-1],"split_conditions":[-2.7174063E1,-2.631538E1,1.5158211E1,-1.982165E-1,3.0034E-1,-1.1005612E1,6.783E-3,-9.545455E-1,-1.0225E-3,1.2900001E-4,-1.70791E-1,-2.6495E-3,-1.775E0,-1.1333334E0,2.7298103E1,3.72899E-2,-7.549389E-2,7.930108E-2,1.7319163E-2,-5.0320435E-2,3.1607166E-2,-0E0,7.554367E-2,7.373321E-2,3.9239866E-3,5.9768733E-2,-7.818774E-2,7.635666E-2,9.723128E-3,3.0261388E-2,7.744544E-2],"split_indices":[11,10,10,16,10,10,2,17,2,2,16,2,6,6,10,0,0,0,0,0,0,0,0,0,0,0,0,0,0,0,0],"split_type":[0,0,0,0,0,0,0,0,0,0,0,0,0,0,0,0,0,0,0,0,0,0,0,0,0,0,0,0,0,0,0],"sum_hessian":[5.2952114E3,5.231127E2,4.7720986E3,3.0715094E2,2.1596175E2,4.4111704E3,3.6092838E2,2.2614801E1,2.8453613E2,1.2334447E2,9.261728E1,9.8343124E1,4.312827E3,1.3942508E2,2.215033E2,1.6165728E1,6.449074E0,2.7206354E2,1.2472582E1,9.074788E1,3.259659E1,4.3127975E0,8.830448E1,3.3156784E1,6.518635E1,2.34587E1,4.2893687E3,2.7187147E1,1.1223794E2,1.5935073E1,2.0556822E2],"tree_param":{"num_deleted":"0","num_feature":"18","num_nodes":"31","size_leaf_vector":"0"}},{"base_weights":[-1.046801E0,-1.2546356E0,1.0139557E0,1.137156E0,-1.467677E0,1.9119783E-1,1.3258725E0,1.3584217E0,3.416796E-2,-1.4874139E0,1.1678897E0,-1.8437637E-2,1.7207284E0,7.139719E-1,1.4780009E0,1.5210887E0,4.5584545E-1,-8.917122E-1,8.8151693E-1,1.3487641E0,-1.5051033E0,-4.2474825E-2,1.5815197E0,-1.0092957E0,5.042185E-1,9.97791E-1,-1.1539742E0,-9.3525505E-1,1.4983546E0],"categories":[],"categories_nodes":[],"categories_segments":[],"categories_sizes":[],"default_left":[1,1,1,0,1,1,1,0,1,1,1,0,0,1,1,0,0,0,0,0,0,0,0,0,0,0,0,0,0],"id":6,"left_children":[1,3,5,7,9,11,13,15,17,19,21,23,-1,25,27,-1,-1,-1,-1,-1,-1,-1,-1,-1,-1,-1,-1,-1,-1],"loss_changes":[2.2149214E3,2.3945278E3,1.1976193E2,9.232617E1,2.2636621E2,4.4133152E1,2.8619995E1,4.4197998E1,5.2536686E1,2.1696387E2,1.7744919E1,6.1453865E1,0E0,3.885227E1,1.5321228E1,0E0,0E0,0E0,0E0,0E0,0E0,0E0,0E0,0E0,0E0,0E0,0E0,0E0,0E0],"parents":[2147483647,0,0,1,1,2,2,3,3,4,4,5,5,6,6,7,7,8,8,9,9,10,10,11,11,13,13,14,14],"right_children":[2,4,6,8,10,12,14,16,18,20,22,24,-1,26,28,-1,-1,-1,-1,-1,-1,-1,-1,-1,-1,-1,-1,-1,-1],"split_conditions":[1.1189243E1,-1.5185452E1,6.4737406E0,-2.10175E-2,2.0833335E0,1.5791665E0,2.7992989E1,-1.0945001E-3,-2.478365E1,-2.0083334E0,3.0999285E3,2.0049E-2,8.603642E-2,1.6362231E2,5.6099664E2,7.605444E-2,2.2792272E-2,-4.458561E-2,4.4075847E-2,6.743821E-2,-7.525517E-2,-2.1237412E-3,7.9075985E-2,-5.0464787E-2,2.5210926E-2,4.988955E-2,-5.7698708E-2,-4.6762753E-2,7.4917726E-2],"split_indices":[10,10,4,15,6,6,10,2,1,6,3,15,0,11,12,0,0,0,0,0,0,0,0,0,0,0,0,0,0],"split_type":[0,0,0,0,0,0,0,0,0,0,0,0,0,0,0,0,0,0,0,0,0,0,0,0,0,0,0,0,0],"sum_hessian":[5.1669355E3,4.694368E3,4.725672E2,3.8319955E2,4.3111685E3,1.3123125E2,3.4133594E2,3.1822385E2,6.497571E1,4.2799326E3,3.1235949E1,1.1570678E2,1.552447E1,7.0406975E1,2.7092896E2,2.6811035E2,5.0113487E1,3.0460102E1,3.451561E1,2.5712015E1,4.2542207E3,7.5685477E0,2.36674E1,4.0295773E1,7.541101E1,6.198938E1,8.417593E0,1.4790784E0,2.694499E2],"tree_param":{"num_deleted":"0","num_feature":"18","num_nodes":"29","size_leaf_vector":"0"}},{"base_weights":[-9.8866874E-1,-1.1791742E0,1.1696765E0,1.1968068E0,-1.3974075E0,5.7408625E-1,1.3774579E0,1.4102747E0,6.0035104E-1,-1.429943E0,7.526867E-1,1.0640144E0,1.6713463E-2,1.4018049E0,-2.9705415E-2,1.4690259E0,-3.5742626E-2,8.013611E-1,-1.5565659E0,1.2127964E0,-1.45171E0,-4.1746374E-2,1.1889156E0,1.2881542E0,-1.8008837E-1,1.176244E0,-4.9993297E-1,8.495117E-1,1.4949778E0,8.6028117E-1,-1.2506282E0],"categories":[],"categories_nodes":[],"categories_segments":[],"categories_sizes":[],"default_left":[1,1,1,1,1,1,1,0,1,1,1,1,0,1,1,0,0,0,0,0,0,0,0,0,0,0,0,0,0,0,0],"id":7,"left_children":[1,3,5,7,9,11,13,15,17,19,21,23,25,27,29,-1,-1,-1,-1,-1,-1,-1,-1,-1,-1,-1,-1,-1,-1,-1,-1],"loss_changes":[2.117891E3,2.4549136E3,4.893219E1,4.7834106E1,3.0491797E2,2.9200645E1,1.1952454E1,2.622644E1,4.7277344E1,2.4762598E2,2.3652897E1,1.7535858E1,3.3539867E1,1.1982361E1,7.456099E0,0E0,0E0,0E0,0E0,0E0,0E0,0E0,0E0,0E0,0E0,0E0,0E0,0E0,0E0,0E0,0E0],"parents":[2147483647,0,0,1,1,2,2,3,3,4,4,5,5,6,6,7,7,8,8,9,9,10,10,11,11,12,12,13,13,14,14],"right_children":[2,4,6,8,10,12,14,16,18,20,22,24,26,28,30,-1,-1,-1,-1,-1,-1,-1,-1,-1,-1,-1,-1,-1,-1,-1,-1],"split_conditions":[1.7193455E1,-1.6895464E1,6.398203E0,-1.0289146E1,7.458335E-1,2.5347098E2,3.6240594E2,-1.97995E-2,3.143909E2,-1.7416666E0,2.295833E0,1.95319E-1,-3.916E-3,2.58255E-2,-2.23967E-1,7.3451295E-2,-1.7871313E-3,4.0068056E-2,-7.7828296E-2,6.0639825E-2,-7.25855E-2,-2.0873188E-3,5.944578E-2,6.440771E-2,-9.004419E-3,5.88122E-2,-2.499665E-2,4.2475585E-2,7.4748896E-2,4.301406E-2,-6.253141E-2],"split_indices":[10,10,4,4,6,13,11,15,13,6,6,15,2,15,6,0,0,0,0,0,0,0,0,0,0,0,0,0,0,0,0],"split_type":[0,0,0,0,0,0,0,0,0,0,0,0,0,0,0,0,0,0,0,0,0,0,0,0,0,0,0,0,0,0,0],"sum_hessian":[5.1464297E3,4.729867E3,4.165628E2,3.971283E2,4.332739E3,1.09956375E2,3.066064E2,2.9021948E2,1.0690882E2,4.2689404E3,6.379812E1,5.7080105E1,5.287627E1,3.0209396E2,4.512454E0,2.7953763E2,1.0681862E1,9.879398E1,8.114838E0,3.4051678E1,4.234889E3,2.2122297E1,4.167582E1,4.901742E1,8.062682E0,1.6501085E1,3.6375187E1,4.6616924E1,2.5547705E2,2.3070624E0,2.2053914E0],"tree_param":{"num_deleted":"0","num_feature":"18","num_nodes":"31","size_leaf_vector":"0"}},{"base_weights":[-9.823702E-1,-1.1763406E0,9.6000475E-1,1.1500938E0,-1.3764119E0,1.4500168E-1,1.307207E0,1.3838135E0,5.572209E-1,-1.4052643E0,7.567136E-1,-4.0733692E-1,6.462871E-1,7.0236784E-1,1.3856615E0,-9.6021736E-1,1.4073125E0,8.3785677E-1,-3.8247672E-1,1.053122E0,-1.4217008E0,-2.4973123E-1,1.1572092E0,-6.2574184E-1,1.3897315E0,8.59568E-1,-5.210524E-1,1.0803411E0,-6.1459494E-1,1.4062129E0,-0E0],"categories":[],"categories_nodes":[],"categories_segments":[],"categories_sizes":[],"default_left":[1,1,0,1,1,1,1,0,1,1,1,1,1,1,1,0,0,0,0,0,0,0,0,0,0,0,0,0,0,0,0],"id":8,"left_children":[1,3,5,7,9,11,13,15,17,19,21,23,25,27,29,-1,-1,-1,-1,-1,-1,-1,-1,-1,-1,-1,-1,-1,-1,-1,-1],"loss_changes":[1.8949175E3,2.1291519E3,1.27509155E2,4.745993E1,2.607827E2,3.8804382E1,1.207959E1,1.5999756E1,2.8534893E1,1.6971973E2,2.3915264E1,2.580594E1,1.9174131E1,2.1104008E1,8.120911E0,0E0,0E0,0E0,0E0,0E0,0E0,0E0,0E0,0E0,0E0,0E0,0E0,0E0,0E0,0E0,0E0],"parents":[2147483647,0,0,1,1,2,2,3,3,4,4,5,5,6,6,7,7,8,8,9,9,10,10,11,11,12,12,13,13,14,14],"right_children":[2,4,6,8,10,12,14,16,18,20,22,24,26,28,30,-1,-1,-1,-1,-1,-1,-1,-1,-1,-1,-1,-1,-1,-1,-1,-1],"split_conditions":[1.1211695E1,-1.7116566E1,2.5755E-3,-1.4655201E1,7.2083354E-1,3.231935E1,1.7787E-2,-1.9563049E-1,2.806496E2,-1.7291665E0,3.0936682E3,2.0125E0,6.385215E-1,3.2675288E3,3.6240594E2,-4.8010867E-2,7.036563E-2,4.1892838E-2,-1.9123835E-2,5.2656103E-2,-7.108504E-2,-1.2486561E-2,5.786046E-2,-3.1287093E-2,6.948658E-2,4.2978402E-2,-2.6052622E-2,5.4017056E-2,-3.0729746E-2,7.0310645E-2,-0E0],"split_indices":[10,10,2,4,6,10,15,16,13,6,3,6,16,3,11,0,0,0,0,0,0,0,0,0,0,0,0,0,0,0,0],"split_type":[0,0,0,0,0,0,0,0,0,0,0,0,0,0,0,0,0,0,0,0,0,0,0,0,0,0,0,0,0,0,0],"sum_hessian":[5.0248926E3,4.569482E3,4.554106E2,3.6108054E2,4.2084014E3,1.3733528E2,3.1807532E2,2.568181E2,1.0426241E2,4.1530376E3,5.5363457E1,6.448042E1,7.285486E1,3.9127007E1,2.789483E2,1.7310363E0,2.5508708E2,8.1188446E1,2.3073969E1,2.6759514E1,4.1262783E3,1.5155994E1,4.0207462E1,5.8570393E1,5.910033E0,6.2547337E1,1.0307525E1,3.1131224E1,7.9957833E0,2.7493213E2,4.0161777E0],"tree_param":{"num_deleted":"0","num_feature":"18","num_nodes":"31","size_leaf_vector":"0"}},{"base_weights":[-9.436094E-1,9.1462815E-1,-1.1329786E0,1.3120172E0,3.5475063E-1,-1.3037711E0,1.0454532E0,-0E0,1.4145247E0,-2.9573318E-1,1.3785888E0,5.952702E-1,-1.3589183E0,1.1515254E0,-2.8037614E-1,5.871221E-1,-1.4312932E0,1.4359396E0,3.8111907E-1,-7.642065E-1,9.2200553E-1,5.763205E-1,1.4949156E0,9.0004706E-1,-2.8683466E-1,-1.3792632E0,1.2139965E0,4.275925E-1,1.276164E0,1.250263E0,-7.610383E-1],"categories":[],"categories_nodes":[],"categories_segments":[],"categories_sizes":[],"default_left":[1,1,1,1,1,1,1,1,0,1,0,1,1,1,1,0,0,0,0,0,0,0,0,0,0,0,0,0,0,0,0],"id":9,"left_children":[1,3,5,7,9,11,13,15,17,19,21,23,25,27,29,-1,-1,-1,-1,-1,-1,-1,-1,-1,-1,-1,-1,-1,-1,-1,-1],"loss_changes":[1.7374883E3,9.94064E1,1.6679331E3,3.698636E1,1.29274E2,4.3659424E2,4.700287E1,1.8075365E1,3.0997314E0,6.760846E1,4.0961304E0,3.243538E1,2.1318408E2,2.504483E1,1.8292713E1,0E0,0E0,0E0,0E0,0E0,0E0,0E0,0E0,0E0,0E0,0E0,0E0,0E0,0E0,0E0,0E0],"parents":[2147483647,0,0,1,1,2,2,3,3,4,4,5,5,6,6,7,7,8,8,9,9,10,10,11,11,12,12,13,13,14,14],"right_children":[2,4,6,8,10,12,14,16,18,20,22,24,26,28,30,-1,-1,-1,-1,-1,-1,-1,-1,-1,-1,-1,-1,-1,-1,-1,-1],"split_conditions":[-3.1632387E1,-3.329482E1,1.8253391E1,-2.750401E2,1.551329E0,-1.0772284E1,3.919313E2,-6.1111104E-1,3.4000003E-4,2.08335E-2,9.615385E-1,1.3293706E3,2.0708334E0,2.9606394E1,-7.921805E-1,2.9356105E-2,-7.156467E-2,7.1796976E-2,1.9055953E-2,-3.821033E-2,4.6100277E-2,2.8816028E-2,7.474578E-2,4.5002352E-2,-1.4341733E-2,-6.896316E-2,6.0699828E-2,2.1379625E-2,6.38082E-2,6.251315E-2,-3.8051914E-2],"split_indices":[11,10,10,11,10,10,11,17,2,6,5,14,6,10,6,0,0,0,0,0,0,0,0,0,0,0,0,0,0,0,0],"split_type":[0,0,0,0,0,0,0,0,0,0,0,0,0,0,0,0,0,0,0,0,0,0,0,0,0,0,0,0,0,0,0],"sum_hessian":[4.9329844E3,4.5537537E2,4.477609E3,2.645055E2,1.9086986E2,4.152877E3,3.2473184E2,1.8601786E1,2.4590372E2,1.1655342E2,7.431644E1,1.1640591E2,4.0364712E3,3.014965E2,2.3235352E1,1.316141E1,5.4403744E0,2.3958174E2,6.32197E0,8.5033875E1,3.1519547E1,1.1253747E1,6.306269E1,8.7341705E1,2.9064201E1,4.00565E3,3.0821436E1,4.6113197E1,2.5538329E2,4.6729717E0,1.856238E1],"tree_param":{"num_deleted":"0","num_feature":"18","num_nodes":"31","size_leaf_vector":"0"}},{"base_weights":[-9.2322534E-1,-1.1218158E0,8.994091E-1,1.0044291E0,-1.3116704E0,1.5427098E-2,1.2034991E0,1.2857696E0,2.4738729E-1,-1.3365469E0,4.6105313E-1,-9.642977E-1,3.782945E-1,1.2324654E0,-3.8445494E-1,1.3724403E0,4.1248572E-1,5.558075E-1,-9.075255E-1,9.949579E-1,-1.3502463E0,8.21957E-2,1.4268535E0,-1.4151142E0,8.685912E-1,6.8195343E-1,-4.9783918E-1,7.49081E-1,1.3530052E0,8.1371605E-1,-1.4717101E0],"categories":[],"categories_nodes":[],"categories_segments":[],"categories_sizes":[],"default_left":[1,1,0,0,1,1,1,1,1,1,0,1,1,1,1,0,0,0,0,0,0,0,0,0,0,0,0,0,0,0,0],"id":10,"left_children":[1,3,5,7,9,11,13,15,17,19,21,23,25,27,29,-1,-1,-1,-1,-1,-1,-1,-1,-1,-1,-1,-1,-1,-1,-1,-1],"loss_changes":[1.7423003E3,1.7529697E3,1.2582071E2,7.39223E1,1.7716943E2,4.344806E1,1.7459106E1,1.7189636E1,3.5271423E1,1.2720459E2,1.8614017E1,2.8825441E1,2.4760223E1,1.7010132E1,1.0230409E1,0E0,0E0,0E0,0E0,0E0,0E0,0E0,0E0,0E0,0E0,0E0,0E0,0E0,0E0,0E0,0E0],"parents":[2147483647,0,0,1,1,2,2,3,3,4,4,5,5,6,6,7,7,8,8,9,9,10,10,11,11,12,12,13,13,14,14],"right_children":[2,4,6,8,10,12,14,16,18,20,22,24,26,28,30,-1,-1,-1,-1,-1,-1,-1,-1,-1,-1,-1,-1,-1,-1,-1,-1],"split_conditions":[1.1231486E1,-1.5185452E1,1.5575001E-3,-3.132E-3,7.2083354E-1,1.8260868E1,3.4610602E2,-2.631538E1,2.8443234E2,-1.7416666E0,4.915E-4,9.04167E-1,1.312115E3,2.5508526E1,-6.0823E0,6.8622015E-2,2.0624286E-2,2.7790373E-2,-4.5376275E-2,4.9747895E-2,-6.751232E-2,4.109785E-3,7.134268E-2,-7.075571E-2,4.342956E-2,3.409767E-2,-2.489196E-2,3.745405E-2,6.765026E-2,4.0685803E-2,-7.35855E-2],"split_indices":[10,10,2,2,6,10,11,10,13,6,2,6,14,10,6,0,0,0,0,0,0,0,0,0,0,0,0,0,0,0,0],"split_type":[0,0,0,0,0,0,0,0,0,0,0,0,0,0,0,0,0,0,0,0,0,0,0,0,0,0,0,0,0,0,0],"sum_hessian":[4.8091436E3,4.3374746E3,4.7166898E2,3.5476688E2,3.9827078E3,1.218355E2,3.4983347E2,2.571737E2,9.7593185E1,3.928391E3,5.4316513E1,3.1736145E1,9.009936E1,3.444047E2,5.4287615E0,2.3239275E2,2.4780958E1,7.811669E1,1.9476498E1,2.2102762E1,3.9062883E3,4.0535892E1,1.3780622E1,2.609207E1,5.644074E0,6.792148E1,2.2177877E1,7.1837E1,2.725677E2,2.2647803E0,3.1639814E0],"tree_param":{"num_deleted":"0","num_feature":"18","num_nodes":"31","size_leaf_vector":"0"}},{"base_weights":[-9.0324956E-1,-1.086559E0,8.7732214E-1,1.0075793E0,-1.2868047E0,2.0746483E-1,1.1714159E0,1.1943771E0,8.6451836E-2,-1.3153788E0,5.565829E-1,4.9397963E-1,-9.83356E-1,3.2223962E-2,1.2214035E0,-0E0,1.3079894E0,-6.411591E-1,8.4146994E-1,1.1867294E0,-1.3301665E0,1.0915681E-1,1.2874297E0,1.0627112E0,2.1965134E-1,9.895915E-1,-1.4141513E0,1.3020519E0,-4.3405014E-1,1.2961473E0,5.991989E-1],"categories":[],"categories_nodes":[],"categories_segments":[],"categories_sizes":[],"default_left":[1,1,0,1,1,1,1,0,1,1,1,1,1,1,0,0,0,0,0,0,0,0,0,0,0,0,0,0,0,0,0],"id":11,"left_children":[1,3,5,7,9,11,13,15,17,19,21,23,25,27,29,-1,-1,-1,-1,-1,-1,-1,-1,-1,-1,-1,-1,-1,-1,-1,-1],"loss_changes":[1.517582E3,1.7683706E3,8.381726E1,6.19086E1,2.0409326E2,4.5910305E1,1.5797943E1,4.219049E1,3.5898506E1,1.4189893E2,1.7716997E1,1.5617405E1,2.3715107E1,1.00089655E1,1.0658691E1,0E0,0E0,0E0,0E0,0E0,0E0,0E0,0E0,0E0,0E0,0E0,0E0,0E0,0E0,0E0,0E0],"parents":[2147483647,0,0,1,1,2,2,3,3,4,4,5,5,6,6,7,7,8,8,9,9,10,10,11,11,12,12,13,13,14,14],"right_children":[2,4,6,8,10,12,14,16,18,20,22,24,26,28,30,-1,-1,-1,-1,-1,-1,-1,-1,-1,-1,-1,-1,-1,-1,-1,-1],"split_conditions":[1.1211695E1,-1.5490799E1,2.5755E-3,-2.512068E1,7.2083354E-1,1.3287302E3,1.1867E-2,-2.276985E-1,-2.4865566E1,-2.0875E0,3.353229E0,1.3725994E1,-1.15E0,1.1425158E1,2.0811051E-1,-0E0,6.539947E-2,-3.2057956E-2,4.20735E-2,5.9336472E-2,-6.650832E-2,5.4578404E-3,6.437149E-2,5.3135563E-2,1.0982567E-2,4.9479574E-2,-7.070757E-2,6.51026E-2,-2.1702508E-2,6.480737E-2,2.9959945E-2],"split_indices":[10,10,2,10,6,14,15,15,1,6,10,1,6,10,16,0,0,0,0,0,0,0,0,0,0,0,0,0,0,0,0],"split_type":[0,0,0,0,0,0,0,0,0,0,0,0,0,0,0,0,0,0,0,0,0,0,0,0,0,0,0,0,0,0,0],"sum_hessian":[4.6449536E3,4.2122544E3,4.326993E2,3.6684277E2,3.8454114E3,1.3357083E2,2.9912848E2,3.0384338E2,6.299941E1,3.7875303E3,5.7881096E1,1.0881466E2,2.4756174E1,1.3484012E1,2.8564447E2,2.5996851E1,2.7784653E2,3.148431E1,3.1515099E1,2.1390108E1,3.7661404E3,3.746349E1,2.0417604E1,3.328655E1,7.552811E1,3.7882788E0,2.0967896E1,3.7160645E0,9.767947E0,2.5260889E2,3.3035595E1],"tree_param":{"num_deleted":"0","num_feature":"18","num_nodes":"31","size_leaf_vector":"0"}},{"base_weights":[-8.7200904E-1,-1.0600652E0,8.5204303E-1,9.8237693E-1,-1.2505628E0,1.3488227E-1,1.1336621E0,1.2223833E0,3.913224E-1,-1.2757397E0,6.5856135E-1,5.3257746E-1,-7.6920176E-1,1.2161877E0,-2.563255E-1,-1.1916186E0,1.2553595E0,7.1546125E-1,-6.975971E-1,-1.16658226E-1,-1.3025352E0,1.2063309E-1,1.1880413E0,9.5110124E-1,-5.732825E-3,1.2251467E0,-1.1718961E0,-0E0,1.2448362E0,8.7423223E-1,-8.2328385E-1],"categories":[],"categories_nodes":[],"categories_segments":[],"categories_sizes":[],"default_left":[1,1,1,1,1,1,1,0,1,0,0,1,1,1,1,0,0,0,0,0,0,0,0,0,0,0,0,0,0,0,0],"id":12,"left_children":[1,3,5,7,9,11,13,15,17,19,21,23,25,27,29,-1,-1,-1,-1,-1,-1,-1,-1,-1,-1,-1,-1,-1,-1,-1,-1],"loss_changes":[1.4836865E3,1.606064E3,8.941556E1,4.783319E1,1.8281299E2,4.6538067E1,3.818634E1,2.1351562E1,3.733539E1,1.1411426E2,1.2576311E1,2.1433971E1,3.2732994E1,1.1477386E1,1.2323318E1,0E0,0E0,0E0,0E0,0E0,0E0,0E0,0E0,0E0,0E0,0E0,0E0,0E0,0E0,0E0,0E0],"parents":[2147483647,0,0,1,1,2,2,3,3,4,4,5,5,6,6,7,7,8,8,9,9,10,10,11,11,12,12,13,13,14,14],"right_children":[2,4,6,8,10,12,14,16,18,20,22,24,26,28,30,-1,-1,-1,-1,-1,-1,-1,-1,-1,-1,-1,-1,-1,-1,-1,-1],"split_conditions":[1.1214207E1,-1.7116566E1,2.9169653E1,-1.0289146E1,7.458335E-1,3.2586707E3,3.5957152E-1,-1.960115E-1,2.806496E2,-3.2415E-3,1.366E-3,2.611678E1,-1.5374999E0,4.398647E2,-2.333335E-1,-5.958093E-2,6.2767975E-2,3.5773065E-2,-3.4879856E-2,-5.8329115E-3,-6.512676E-2,6.0316543E-3,5.9402067E-2,4.7555063E-2,-2.8664127E-4,6.1257333E-2,-5.8594804E-2,-0E0,6.224181E-2,4.3711614E-2,-4.1164193E-2],"split_indices":[10,10,10,4,6,3,16,16,13,2,15,1,6,12,6,0,0,0,0,0,0,0,0,0,0,0,0,0,0,0,0],"split_type":[0,0,0,0,0,0,0,0,0,0,0,0,0,0,0,0,0,0,0,0,0,0,0,0,0,0,0,0,0,0,0],"sum_hessian":[4.571764E3,4.1230005E3,4.4876352E2,3.5094086E2,3.7720596E3,1.2795299E2,3.2081052E2,2.4762788E2,1.0331297E2,3.7238066E3,4.825283E1,8.9916756E1,3.8036236E1,3.0362814E2,1.7182379E1,2.4549413E0,2.4517294E2,8.0586174E1,2.2726797E1,8.510533E1,3.6387014E3,2.5481367E1,2.2771465E1,5.1200436E1,3.871632E1,5.629655E0,3.240658E1,6.4534388E0,2.971747E2,4.9686823E0,1.2213696E1],"tree_param":{"num_deleted":"0","num_feature":"18","num_nodes":"31","size_leaf_vector":"0"}},{"base_weights":[-8.471525E-1,-1.0269328E0,8.116013E-1,8.777182E-1,-1.2382509E0,2.6078166E-2,1.0736786E0,1.1124874E0,4.880528E-2,-1.2573038E0,9.592223E-1,-1.0990793E0,4.661631E-1,1.1413147E0,-0E0,3.521291E-2,1.2018975E0,-1.2409745E0,7.219692E-1,1.1957897E0,-1.271113E0,-1.7150202E-1,1.3918492E0,1.02147125E-1,-1.5765159E0,8.3427286E-1,-1.6053922E-1,-8.0464596E-1,1.1621963E0,1.1388667E0,-1.8971276E0],"categories":[],"categories_nodes":[],"categories_segments":[],"categories_sizes":[],"default_left":[1,1,1,0,1,0,0,0,1,1,1,1,1,0,1,0,0,0,0,0,0,0,0,0,0,0,0,0,0,0,0],"id":13,"left_children":[1,3,5,7,9,11,13,15,17,19,21,23,25,27,29,-1,-1,-1,-1,-1,-1,-1,-1,-1,-1,-1,-1,-1,-1,-1,-1],"loss_changes":[1.3148777E3,1.601685E3,8.756506E1,7.607611E1,1.5138037E2,5.422791E1,2.406955E1,2.8437714E1,7.8212456E1,1.218457E2,1.6568274E1,1.9138168E1,1.9318575E1,1.3625366E1,4.488084E1,0E0,0E0,0E0,0E0,0E0,0E0,0E0,0E0,0E0,0E0,0E0,0E0,0E0,0E0,0E0,0E0],"parents":[2147483647,0,0,1,1,2,2,3,3,4,4,5,5,6,6,7,7,8,8,9,9,10,10,11,11,12,12,13,13,14,14],"right_children":[2,4,6,8,10,12,14,16,18,20,22,24,26,28,30,-1,-1,-1,-1,-1,-1,-1,-1,-1,-1,-1,-1,-1,-1,-1,-1],"split_conditions":[1.1211695E1,-1.2584176E1,3.6638594E0,-1.97995E-2,2.0833335E0,1.95625E0,2.74398E-1,-1.960115E-1,-2.86945E-2,-1.9333334E0,3.0862803E3,7.455E-4,1.8566001E-2,9.455E-3,-2.16667E-1,1.7606457E-3,6.0094874E-2,-6.204873E-2,3.609846E-2,5.9789486E-2,-6.355565E-2,-8.575101E-3,6.959246E-2,5.1073562E-3,-7.8825794E-2,4.1713644E-2,-8.026961E-3,-4.0232297E-2,5.8109816E-2,5.6943335E-2,-9.485638E-2],"split_indices":[10,10,4,15,6,5,16,16,16,6,3,13,16,15,6,0,0,0,0,0,0,0,0,0,0,0,0,0,0,0,0],"split_type":[0,0,0,0,0,0,0,0,0,0,0,0,0,0,0,0,0,0,0,0,0,0,0,0,0,0,0,0,0,0,0],"sum_hessian":[4.4046978E3,3.9748735E3,4.298241E2,3.96176E2,3.5786975E3,1.08758354E2,3.2106577E2,3.075278E2,8.864817E1,3.5488108E3,2.9886728E1,2.9518698E1,7.9239655E1,3.0250262E2,1.856314E1,2.4531664E1,2.8299615E2,2.9601938E1,5.9046234E1,1.8980913E1,3.5298298E3,7.7979445E0,2.2088785E1,8.023408E0,2.149529E1,5.071521E1,2.8524445E1,2.3046799E0,3.0019794E2,1.1652849E1,6.9102917E0],"tree_param":{"num_deleted":"0","num_feature":"18","num_nodes":"31","size_leaf_vector":"0"}},{"base_weights":[-8.401548E-1,-1.0116765E0,7.7615297E-1,8.490023E-1,-1.2086667E0,2.4652435E-1,1.1804721E0,1.0965592E0,1.1367022E-1,-1.2358987E0,5.596819E-1,1.4071298E0,8.1499405E-2,5.069546E-1,1.2597144E0,1.2500768E0,3.9724648E-1,-5.982105E-1,1.0658046E0,1.0764959E0,-1.2525538E0,1.1501795E0,9.027177E-2,1.4562376E0,-0E0,-1.5305851E-1,1.1903596E0,1.0325835E0,-3.197695E-1,-2.1184592E-2,1.2791547E0],"categories":[],"categories_nodes":[],"categories_segments":[],"categories_sizes":[],"default_left":[1,1,0,1,1,1,0,0,1,1,0,1,1,0,1,0,0,0,0,0,0,0,0,0,0,0,0,0,0,0,0],"id":14,"left_children":[1,3,5,7,9,11,13,15,17,19,21,23,25,27,29,-1,-1,-1,-1,-1,-1,-1,-1,-1,-1,-1,-1,-1,-1,-1,-1],"loss_changes":[1.1953645E3,1.4293296E3,8.678989E1,6.65762E1,1.7105566E2,3.311448E1,1.0032959E1,2.7697815E1,6.6239044E1,1.352085E2,1.35053215E1,5.791855E-1,4.2968662E1,1.3008399E1,6.4276123E0,0E0,0E0,0E0,0E0,0E0,0E0,0E0,0E0,0E0,0E0,0E0,0E0,0E0,0E0,0E0,0E0],"parents":[2147483647,0,0,1,1,2,2,3,3,4,4,5,5,6,6,7,7,8,8,9,9,10,10,11,11,12,12,13,13,14,14],"right_children":[2,4,6,8,10,12,14,16,18,20,22,24,26,28,30,-1,-1,-1,-1,-1,-1,-1,-1,-1,-1,-1,-1,-1,-1,-1,-1],"split_conditions":[1.1214207E1,-1.2594572E1,5.8425E-3,-2.512068E1,7.2083354E-1,-1.775E0,2.2495E-2,-1.0695E-3,-1.185058E0,-2.0666666E0,-2.0649001E-2,5.4444447E0,7.75E-1,5.1819E-2,7.804811E2,6.250384E-2,1.9862324E-2,-2.9910525E-2,5.329023E-2,5.3824794E-2,-6.2627696E-2,5.7508975E-2,4.5135887E-3,7.281188E-2,-0E0,-7.652926E-3,5.951798E-2,5.1629175E-2,-1.5988475E-2,-1.0592296E-3,6.3957736E-2],"split_indices":[10,10,2,10,6,6,15,2,0,6,16,5,6,16,12,0,0,0,0,0,0,0,0,0,0,0,0,0,0,0,0],"split_type":[0,0,0,0,0,0,0,0,0,0,0,0,0,0,0,0,0,0,0,0,0,0,0,0,0,0,0,0,0,0,0],"sum_hessian":[4.307105E3,3.8947854E3,4.123197E2,3.7206296E2,3.5227224E3,1.8026663E2,2.3205309E2,2.769678E2,9.5095146E1,3.4701497E3,5.2572784E1,2.0749664E1,1.5951697E2,2.6535135E1,2.0551796E2,2.2529259E2,5.167522E1,5.402432E1,4.1070827E1,2.3930609E1,3.4462192E3,2.1697577E1,3.087521E1,1.9580616E1,1.1690482E0,1.3163274E2,2.788422E1,1.680876E1,9.726376E0,2.302154E0,2.032158E2],"tree_param":{"num_deleted":"0","num_feature":"18","num_nodes":"31","size_leaf_vector":"0"}},{"base_weights":[-8.021143E-1,7.247052E-1,-9.8850375E-1,1.0743369E0,2.671598E-1,-1.1616085E0,6.563181E-1,1.2019943E0,-0E0,-4.7399095E-1,1.2337884E0,5.943441E-1,-1.2069461E0,7.3896915E-2,9.862718E-1,-0E0,1.2170144E0,6.529051E-1,-1.5851842E0,-7.431543E-1,1.21828E0,-3.7490973E-1,1.2732083E0,9.3234795E-1,-4.0308967E-1,1.0309926E0,-1.2267745E0,1.1531435E0,-2.281346E-1,3.2937962E-1,1.1839103E0],"categories":[],"categories_nodes":[],"categories_segments":[],"categories_sizes":[],"default_left":[1,0,1,0,1,1,0,1,1,0,1,1,1,0,1,0,0,0,0,0,0,0,0,0,0,0,0,0,0,0,0],"id":15,"left_children":[1,3,5,7,9,11,13,15,17,19,21,23,25,27,29,-1,-1,-1,-1,-1,-1,-1,-1,-1,-1,-1,-1,-1,-1,-1,-1],"loss_changes":[1.1880869E3,7.097043E1,1.0600427E3,3.549756E1,1.440151E2,2.6925098E2,6.69294E1,4.8475037E0,3.0199419E1,5.183567E1,6.9110565E0,2.9501068E1,1.470791E2,4.3649017E1,2.729654E1,0E0,0E0,0E0,0E0,0E0,0E0,0E0,0E0,0E0,0E0,0E0,0E0,0E0,0E0,0E0,0E0],"parents":[2147483647,0,0,1,1,2,2,3,3,4,4,5,5,6,6,7,7,8,8,9,9,10,10,11,11,12,12,13,13,14,14],"right_children":[2,4,6,8,10,12,14,16,18,20,22,24,26,28,30,-1,-1,-1,-1,-1,-1,-1,-1,-1,-1,-1,-1,-1,-1,-1,-1],"split_conditions":[-2.3679247E1,-1.97995E-2,1.085178E1,-2.665E-4,3.0034E-1,-1.1005583E1,2.5755E-3,3.008497E3,-6.1111104E-1,1.5165E-3,3.0385498E3,1.3293904E3,-1.15E0,-3.893E-3,3.1420895E1,-0E0,6.085072E-2,3.2645255E-2,-7.925921E-2,-3.7157714E-2,6.0914E-2,-1.8745488E-2,6.366041E-2,4.66174E-2,-2.0154484E-2,5.1549632E-2,-6.1338723E-2,5.765718E-2,-1.140673E-2,1.6468981E-2,5.9195515E-2],"split_indices":[11,15,10,2,10,10,2,3,17,2,3,14,6,2,10,0,0,0,0,0,0,0,0,0,0,0,0,0,0,0,0],"split_type":[0,0,0,0,0,0,0,0,0,0,0,0,0,0,0,0,0,0,0,0,0,0,0,0,0,0,0,0,0,0,0],"sum_hessian":[4.1703896E3,4.5282175E2,3.717568E3,2.5467737E2,1.9814438E2,3.3643936E3,3.5317453E2,2.2782234E2,2.6855034E1,1.1185558E2,8.6288795E1,8.382021E1,3.2805732E3,1.2926166E2,2.2391289E2,2.34044E0,2.254819E2,1.9276678E1,7.5783567E0,9.749961E1,1.4355979E1,1.2535591E0,8.503523E1,6.3402584E1,2.041763E1,2.7920086E1,3.252653E3,2.8372261E1,1.008894E2,5.357422E1,1.7033867E2],"tree_param":{"num_deleted":"0","num_feature":"18","num_nodes":"31","size_leaf_vector":"0"}},{"base_weights":[-7.805303E-1,-9.615017E-1,7.609384E-1,6.3580006E-1,-1.186875E0,1.7461975E-1,1.0762712E0,1.0783083E0,-1.2948763E-2,6.7223036E-1,-1.2081767E0,4.7077802E-1,-5.6675255E-1,6.696678E-1,1.194266E0,-1.6815677E-1,1.1802872E0,-4.5957482E-1,9.560187E-1,2.1552124E0,-2.2670043E-1,6.032689E-1,-1.2254548E0,-3.3298552E-1,7.5925356E-1,-1.1282668E0,1.3164481E0,1.4165423E0,2.3672266E-2,-0E0,1.208248E0],"categories":[],"categories_nodes":[],"categories_segments":[],"categories_sizes":[],"default_left":[1,1,0,0,0,1,1,0,1,1,1,1,1,1,1,0,0,0,0,0,0,0,0,0,0,0,0,0,0,0,0],"id":16,"left_children":[1,3,5,7,9,11,13,15,17,19,21,23,25,27,29,-1,-1,-1,-1,-1,-1,-1,-1,-1,-1,-1,-1,-1,-1,-1,-1],"loss_changes":[1.1356646E3,1.3121477E3,7.757349E1,1.3036522E2,1.2775781E2,3.3492207E1,1.0606567E1,3.5361023E1,7.9005554E1,5.0769077E1,1.0016113E2,2.6173283E1,4.656591E1,3.0560797E1,4.058075E0,0E0,0E0,0E0,0E0,0E0,0E0,0E0,0E0,0E0,0E0,0E0,0E0,0E0,0E0,0E0,0E0],"parents":[2147483647,0,0,1,1,2,2,3,3,4,4,5,5,6,6,7,7,8,8,9,9,10,10,11,11,12,12,13,13,14,14],"right_children":[2,4,6,8,10,12,14,16,18,20,22,24,26,28,30,-1,-1,-1,-1,-1,-1,-1,-1,-1,-1,-1,-1,-1,-1,-1,-1],"split_conditions":[1.0305723E1,-7.908474E0,2.5755E-3,-2.1436E-2,-4.642E-3,-3.01542E-1,2.9333405E1,-2.398735E-1,-4.97804E-1,-4.41467E-1,-7.458335E-1,1.8260868E1,1.5791665E0,2.0978733E1,5.6099664E2,-8.407839E-3,5.901436E-2,-2.2978742E-2,4.7800936E-2,1.0776062E-1,-1.1335022E-2,3.0163446E-2,-6.127274E-2,-1.6649276E-2,3.796268E-2,-5.641334E-2,6.582241E-2,7.082712E-2,1.1836133E-3,-0E0,6.0412403E-2],"split_indices":[10,10,2,15,2,17,10,15,0,0,6,10,6,1,12,0,0,0,0,0,0,0,0,0,0,0,0,0,0,0,0],"split_type":[0,0,0,0,0,0,0,0,0,0,0,0,0,0,0,0,0,0,0,0,0,0,0,0,0,0,0,0,0,0,0],"sum_hessian":[4.0666973E3,3.640339E3,4.263581E2,4.4935306E2,3.190986E3,1.5076184E2,2.7559625E2,2.6766168E2,1.8169138E2,3.5270374E1,3.1557156E3,1.0895221E2,4.180963E1,6.539592E1,2.1020035E2,1.9451803E1,2.4820987E2,1.254332E2,5.6258175E1,1.32034E1,2.2066977E1,2.8948338E1,3.1267673E3,2.7819494E1,8.113271E1,3.2924435E1,8.885197E0,2.9058653E1,3.633727E1,2.0800726E0,2.0812027E2],"tree_param":{"num_deleted":"0","num_feature":"18","num_nodes":"31","size_leaf_vector":"0"}},{"base_weights":[-7.9536855E-1,8.0910474E-1,-9.458335E-1,1.0991111E0,2.5929737E-1,-1.1435049E0,6.395852E-1,1.1882763E0,4.1147092E-1,-4.7208745E-2,1.071375E0,-1.1673975E0,1.0315092E0,2.1826535E-2,1.0100093E0,-1.08821064E-1,1.2119004E0,-5.879536E-1,1.7495147E0,1.0070325E0,-4.786958E-1,1.1785806E0,-0E0,9.7227186E-1,-1.1825902E0,-7.400308E-2,1.3917948E0,2.2701466E-1,-1.0036439E0,5.272996E-1,1.155865E0],"categories":[],"categories_nodes":[],"categories_segments":[],"categories_sizes":[],"default_left":[1,1,1,1,0,1,0,1,1,1,1,1,1,1,1,0,0,0,0,0,0,0,0,0,0,0,0,0,0,0,0],"id":17,"left_children":[1,3,5,7,9,11,13,15,17,19,21,23,25,27,29,-1,-1,-1,-1,-1,-1,-1,-1,-1,-1,-1,-1,-1,-1,-1,-1],"loss_changes":[9.512134E2,5.2164978E1,1.1294219E3,1.136554E1,3.0703247E1,1.677251E2,9.028781E1,7.1314697E0,3.9639885E1,3.929336E1,4.9157906E0,1.0434033E2,1.5307709E1,3.1363089E1,1.5203339E1,0E0,0E0,0E0,0E0,0E0,0E0,0E0,0E0,0E0,0E0,0E0,0E0,0E0,0E0,0E0,0E0],"parents":[2147483647,0,0,1,1,2,2,3,3,4,4,5,5,6,6,7,7,8,8,9,9,10,10,11,11,12,12,13,13,14,14],"right_children":[2,4,6,8,10,12,14,16,18,20,22,24,26,28,30,-1,-1,-1,-1,-1,-1,-1,-1,-1,-1,-1,-1,-1,-1,-1,-1],"split_conditions":[-1.35149555E1,-9.499878E0,1.0305717E1,-2.631538E1,2.882E-3,2.0541668E0,2.9615E-3,-2.7300726E2,-2.2889946E1,-6.835206E0,3.328621E3,-1.7291665E0,3.0862803E3,1.3191536E3,2.5513E-2,-5.4410533E-3,6.0595017E-2,-2.9397681E-2,8.747574E-2,5.0351627E-2,-2.393479E-2,5.8929034E-2,-0E0,4.8613593E-2,-5.9129514E-2,-3.700154E-3,6.958974E-2,1.1350733E-2,-5.0182194E-2,2.636498E-2,5.779325E-2],"split_indices":[10,4,10,10,2,6,2,11,1,9,3,6,3,12,15,0,0,0,0,0,0,0,0,0,0,0,0,0,0,0,0],"split_type":[0,0,0,0,0,0,0,0,0,0,0,0,0,0,0,0,0,0,0,0,0,0,0,0,0,0,0,0,0,0,0],"sum_hessian":[3.9353892E3,3.3646747E2,3.5989216E3,2.1843294E2,1.1803454E2,3.200758E3,3.9816376E2,1.9142844E2,2.7004505E1,8.548138E1,3.255316E1,3.1668926E3,3.386545E1,1.5066208E2,2.4750168E2,2.6024604E0,1.8882597E2,1.5351353E1,1.1653152E1,2.3765154E1,6.171622E1,3.0265638E1,2.2875228E0,2.1419748E1,3.1454727E3,7.8370414E0,2.6028412E1,1.2700352E2,2.3658566E1,6.0093494E1,1.8740817E2],"tree_param":{"num_deleted":"0","num_feature":"18","num_nodes":"31","size_leaf_vector":"0"}},{"base_weights":[-7.542835E-1,7.063209E-1,-9.3704957E-1,1.1354342E0,3.6188796E-1,-1.105607E0,6.286194E-1,1.2244738E0,2.9504818E-1,-2.8171886E-2,1.3342061E0,5.313973E-1,-1.153457E0,-8.535369E-2,9.1494906E-1,-0E0,1.229747E0,-1.105644E0,7.3139167E-1,-5.665343E-1,3.2331657E-1,-0E0,1.3865777E0,8.7360513E-1,-4.0059012E-1,-1.1682663E0,7.9764676E-1,1.7738262E-1,-1.3620666E0,-9.680124E-1,9.4593054E-1],"categories":[],"categories_nodes":[],"categories_segments":[],"categories_sizes":[],"default_left":[1,0,1,0,0,1,0,1,1,1,1,1,1,1,1,0,0,0,0,0,0,0,0,0,0,0,0,0,0,0,0],"id":18,"left_children":[1,3,5,7,9,11,13,15,17,19,21,23,25,27,29,-1,-1,-1,-1,-1,-1,-1,-1,-1,-1,-1,-1,-1,-1,-1,-1],"loss_changes":[1.0266262E3,6.124626E1,9.027092E2,1.2224121E1,9.2289215E1,2.4288892E2,6.879768E1,6.222992E-1,1.2934139E1,3.2857407E1,5.3538055E0,2.8795572E1,8.7937256E1,3.328419E1,1.4784653E1,0E0,0E0,0E0,0E0,0E0,0E0,0E0,0E0,0E0,0E0,0E0,0E0,0E0,0E0,0E0,0E0],"parents":[2147483647,0,0,1,1,2,2,3,3,4,4,5,5,6,6,7,7,8,8,9,9,10,10,11,11,12,12,13,13,14,14],"right_children":[2,4,6,8,10,12,14,16,18,20,22,24,26,28,30,-1,-1,-1,-1,-1,-1,-1,-1,-1,-1,-1,-1,-1,-1,-1,-1],"split_conditions":[-2.3679247E1,-7.959E-3,1.1211695E1,-2.0235E-2,1.5165E-3,-1.07746525E1,1.5420001E-3,-2.6994873E1,3.1126978E3,3.1323164E3,3.5026855E1,1.3293904E3,2.0708334E0,2.8410065E2,9.4385E-3,-0E0,6.1487354E-2,-5.52822E-2,3.6569584E-2,-2.8326714E-2,1.6165828E-2,-0E0,6.932889E-2,4.3680258E-2,-2.0029506E-2,-5.8413316E-2,3.988234E-2,8.869131E-3,-6.8103336E-2,-4.840062E-2,4.7296528E-2],"split_indices":[11,2,10,15,2,10,2,0,3,3,14,14,6,13,15,0,0,0,0,0,0,0,0,0,0,0,0,0,0,0,0],"split_type":[0,0,0,0,0,0,0,0,0,0,0,0,0,0,0,0,0,0,0,0,0,0,0,0,0,0,0,0,0,0,0],"sum_hessian":[3.841434E3,4.2629477E2,3.4151394E3,1.8749875E2,2.3879602E2,3.0840479E3,3.3109134E2,1.6804704E2,1.9451704E1,1.7038579E2,6.841023E1,8.670671E1,2.9973413E3,9.39738E1,2.3711754E2,1.0351616E0,1.6701189E2,3.7115908E0,1.5740113E1,6.8184E1,1.0220179E2,2.3596082E0,6.605063E1,6.425071E1,2.2456005E1,2.9756692E3,2.1672096E1,7.799991E1,1.5973894E1,2.8262186E0,2.3429132E2],"tree_param":{"num_deleted":"0","num_feature":"18","num_nodes":"31","size_leaf_vector":"0"}},{"base_weights":[-7.5202113E-1,8.561262E-1,-8.960826E-1,1.2152888E0,3.3822194E-1,-1.0876669E0,6.254378E-1,-0E0,1.2359589E0,-6.660246E-2,1.1077167E0,-1.6792405E-1,-1.1393884E0,8.498652E-2,1.0803218E0,-2.9494175E-1,4.0106502E-1,1.1938516E0,2.5953434E0,-2.638184E-1,1.3339155E0,1.3318071E0,-5.471271E-1,-4.1201034E-1,1.0768992E0,6.8997777E-1,-1.1613697E0,-2.0743158E-1,1.3506477E0,1.1917158E0,5.78389E-1],"categories":[],"categories_nodes":[],"categories_segments":[],"categories_sizes":[],"default_left":[0,0,1,1,1,1,1,1,1,1,1,1,1,1,1,0,0,0,0,0,0,0,0,0,0,0,0,0,0,0,0],"id":19,"left_children":[1,3,5,7,9,11,13,15,17,19,21,23,25,27,29,-1,-1,-1,-1,-1,-1,-1,-1,-1,-1,-1,-1,-1,-1,-1,-1],"loss_changes":[8.655288E2,5.5107193E1,1.0000254E3,4.172058E0,4.1040844E1,1.4332642E2,9.296829E1,6.4763135E-1,3.2107239E0,2.2504223E1,1.8235073E1,4.9697422E1,1.1712866E2,6.7025116E1,9.115723E0,0E0,0E0,0E0,0E0,0E0,0E0,0E0,0E0,0E0,0E0,0E0,0E0,0E0,0E0,0E0,0E0],"parents":[2147483647,0,0,1,1,2,2,3,3,4,4,5,5,6,6,7,7,8,8,9,9,10,10,11,11,12,12,13,13,14,14],"right_children":[2,4,6,8,10,12,14,16,18,20,22,24,26,28,30,-1,-1,-1,-1,-1,-1,-1,-1,-1,-1,-1,-1,-1,-1,-1,-1],"split_conditions":[-3.6384999E-3,-2.6999999E-2,2.6075002E-3,3.026694E3,4.0205E-3,-1.4671601E1,1.8584E-2,2.08335E-2,-2.928875E-1,2.7290034E0,3.2753293E3,1.208335E-1,-7.4831796E-1,4.3884706E0,1.6814465E2,-1.4747088E-2,2.005325E-2,5.969258E-2,1.2976716E-1,-1.319092E-2,6.669577E-2,6.659036E-2,-2.7356356E-2,-2.0600518E-2,5.384496E-2,3.449889E-2,-5.8068484E-2,-1.037158E-2,6.753238E-2,5.958579E-2,2.891945E-2],"split_indices":[2,15,2,3,15,1,15,6,10,0,3,6,6,7,11,0,0,0,0,0,0,0,0,0,0,0,0,0,0,0,0],"split_type":[0,0,0,0,0,0,0,0,0,0,0,0,0,0,0,0,0,0,0,0,0,0,0,0,0,0,0,0,0,0,0],"sum_hessian":[3.7315242E3,3.0581787E2,3.4257063E3,1.7864888E2,1.2716899E2,3.043431E3,3.8227533E2,3.2275424E0,1.7542134E2,8.307687E1,4.4092117E1,1.6329012E2,2.8801409E3,1.7625298E2,2.0602235E2,1.6161487E0,1.6113938E0,1.7268619E2,2.7351553E0,7.415963E1,8.917245E0,3.953763E1,4.5544896E0,1.3775192E2,2.55382E1,3.3295353E1,2.8468455E3,1.4321144E2,3.3041534E1,1.6584892E2,4.0173428E1],"tree_param":{"num_deleted":"0","num_feature":"18","num_nodes":"31","size_leaf_vector":"0"}},{"base_weights":[-7.2520787E-1,6.367079E-1,-8.998836E-1,1.080397E0,3.203994E-1,-1.0767858E0,6.064982E-1,1.184177E0,3.5391295E-1,-4.543738E-3,1.174098E0,4.3997714E-1,-1.1262189E0,-0E0,8.8671E-1,-0E0,1.1960167E0,-1.262062E0,7.0190686E-1,4.6779573E-1,-5.3708357E-1,2.1214945E0,9.042621E-1,1.471372E0,-1.2897005E-2,6.270249E-1,-1.1455591E0,3.6424217E-1,-7.8124017E-1,9.800841E-1,-3.7786144E-1],"categories":[],"categories_nodes":[],"categories_segments":[],"categories_sizes":[],"default_left":[1,0,1,0,1,1,1,1,1,1,1,1,1,1,1,0,0,0,0,0,0,0,0,0,0,0,0,0,0,0,0],"id":20,"left_children":[1,3,5,7,9,11,13,15,17,19,21,23,25,27,29,-1,-1,-1,-1,-1,-1,-1,-1,-1,-1,-1,-1,-1,-1,-1,-1],"loss_changes":[8.6315015E2,5.6072998E1,8.5754297E2,1.0839691E1,6.865587E1,2.1689502E2,5.81734E1,2.3246307E0,1.373583E1,4.4677567E1,1.2418312E1,4.3929695E1,9.574194E1,3.1028236E1,2.8369232E1,0E0,0E0,0E0,0E0,0E0,0E0,0E0,0E0,0E0,0E0,0E0,0E0,0E0,0E0,0E0,0E0],"parents":[2147483647,0,0,1,1,2,2,3,3,4,4,5,5,6,6,7,7,8,8,9,9,10,10,11,11,12,12,13,13,14,14],"right_children":[2,4,6,8,10,12,14,16,18,20,22,24,26,28,30,-1,-1,-1,-1,-1,-1,-1,-1,-1,-1,-1,-1,-1,-1,-1,-1],"split_conditions":[-2.3679247E1,-7.9715E-3,1.1211695E1,-2.70215E-2,3.0034E-1,-9.647779E0,2.7298103E1,3.020001E3,3.1042563E3,-1.7116566E1,-2.200925E-1,-8.441326E0,-7.375E-1,3.2577861E3,3.983925E-1,-0E0,5.9800833E-2,-6.31031E-2,3.5095345E-2,2.3389786E-2,-2.6854178E-2,1.0607473E-1,4.5213107E-2,7.3568605E-2,-6.4485025E-4,3.1351246E-2,-5.7277955E-2,1.8212108E-2,-3.906201E-2,4.900421E-2,-1.8893072E-2],"split_indices":[11,2,10,15,10,10,10,3,3,10,0,4,6,3,16,0,0,0,0,0,0,0,0,0,0,0,0,0,0,0,0],"split_type":[0,0,0,0,0,0,0,0,0,0,0,0,0,0,0,0,0,0,0,0,0,0,0,0,0,0,0,0,0,0,0],"sum_hessian":[3.623788E3,4.109914E2,3.2127966E3,1.687321E2,2.422593E2,2.876002E3,3.3679468E2,1.4588548E2,2.2846626E1,1.7534215E2,6.691715E1,8.9886246E1,2.7861157E3,1.0577339E2,2.3102127E2,1.2686034E0,1.4461688E2,3.073582E0,1.9773045E1,9.199256E1,8.334959E1,1.2491442E1,5.442571E1,2.7413265E1,6.247298E1,2.9491404E1,2.7566243E3,7.174941E1,3.4023975E1,2.1608185E2,1.4939427E1],"tree_param":{"num_deleted":"0","num_feature":"18","num_nodes":"31","size_leaf_vector":"0"}},{"base_weights":[-7.336789E-1,6.669135E-1,-8.879923E-1,1.1768471E0,1.8744808E-1,-1.0936468E0,4.0993524E-1,-0E0,1.2108006E0,1.3175854E-4,1.5507188E0,-1.1262219E0,3.0131555E-1,-9.97103E-2,9.845583E-1,9.044349E-1,-1.1532391E0,2.5672107E0,1.1644634E0,-1.939739E-1,1.1467487E0,2.6589143E0,4.4196978E-1,1.0861497E-1,-1.1534748E0,7.958375E-1,-1.2344482E0,1.2321144E0,-4.557998E-1,-1.2389203E0,1.0354731E0],"categories":[],"categories_nodes":[],"categories_segments":[],"categories_sizes":[],"default_left":[0,0,1,1,1,1,1,1,1,1,1,1,1,1,1,0,0,0,0,0,0,0,0,0,0,0,0,0,0,0,0],"id":21,"left_children":[1,3,5,7,9,11,13,15,17,19,21,23,25,27,29,-1,-1,-1,-1,-1,-1,-1,-1,-1,-1,-1,-1,-1,-1,-1,-1],"loss_changes":[7.524801E2,8.278543E1,8.376106E2,7.010483E0,4.442781E1,1.24130615E2,1.26525764E2,6.7516956E0,3.4375458E0,3.6773792E1,2.1657162E1,9.0190186E1,4.7508183E1,1.07522446E2,2.4005478E1,0E0,0E0,0E0,0E0,0E0,0E0,0E0,0E0,0E0,0E0,0E0,0E0,0E0,0E0,0E0,0E0],"parents":[2147483647,0,0,1,1,2,2,3,3,4,4,5,5,6,6,7,7,8,8,9,9,10,10,11,11,12,12,13,13,14,14],"right_children":[2,4,6,8,10,12,14,16,18,20,22,24,26,28,30,-1,-1,-1,-1,-1,-1,-1,-1,-1,-1,-1,-1,-1,-1,-1,-1],"split_conditions":[-2.586E-3,-2.61075E-2,1.97E-3,-2.7300726E2,4.475051E0,3.804199E0,1.7787E-2,-1.2950334E3,8.453287E0,1.2458329E0,2.719538E2,-1.6895464E1,3.0612036E2,-4.9268255E0,7.549636E2,4.5221746E-2,-5.7661958E-2,1.2836054E-1,5.822317E-2,-9.6986955E-3,5.7337433E-2,1.3294572E-1,2.209849E-2,5.4307487E-3,-5.767374E-2,3.979188E-2,-6.172241E-2,6.160572E-2,-2.278999E-2,-6.1946016E-2,5.1773656E-2],"split_indices":[2,15,2,11,7,0,15,11,12,6,13,10,13,11,12,0,0,0,0,0,0,0,0,0,0,0,0,0,0,0,0],"split_type":[0,0,0,0,0,0,0,0,0,0,0,0,0,0,0,0,0,0,0,0,0,0,0,0,0,0,0,0,0,0,0],"sum_hessian":[3.4768418E3,3.440792E2,3.1327625E3,1.6502614E2,1.7905305E2,2.7050754E3,4.27687E2,4.3990045E0,1.6062714E2,1.5894702E2,2.0106035E1,2.644237E3,6.083844E1,2.2617433E2,2.0151268E2,2.4352975E0,1.9637071E0,2.796049E0,1.5783109E2,1.3589984E2,2.3047178E1,8.905221E0,1.1200814E1,5.624164E1,2.5879954E3,4.687685E1,1.3961591E1,4.660324E1,1.7957109E2,3.549067E0,1.9796361E2],"tree_param":{"num_deleted":"0","num_feature":"18","num_nodes":"31","size_leaf_vector":"0"}},{"base_weights":[-7.0331204E-1,-8.792423E-1,6.3581586E-1,5.284781E-1,-1.093298E0,2.388818E-1,1.0198369E0,9.6674746E-1,3.2409117E-2,-1.113198E0,9.1288865E-1,5.0100225E-1,-3.3143008E-1,1.0561801E0,-7.8694886E-1,-0E0,1.0986713E0,-3.8007337E-1,1.0017443E0,7.632919E-1,-1.1294914E0,-2.3077582E-1,1.3514203E0,7.811278E-1,-2.0869158E-1,2.5847223E-1,-9.799299E-1,3.9886987E-1,1.1520572E0,-0E0,-1.3097626E0],"categories":[],"categories_nodes":[],"categories_segments":[],"categories_sizes":[],"default_left":[1,1,0,1,1,1,1,1,1,1,1,1,1,1,1,0,0,0,0,0,0,0,0,0,0,0,0,0,0,0,0],"id":22,"left_children":[1,3,5,7,9,11,13,15,17,19,21,23,25,27,29,-1,-1,-1,-1,-1,-1,-1,-1,-1,-1,-1,-1,-1,-1,-1,-1],"loss_changes":[8.056743E2,9.113816E2,5.8956726E1,8.566449E1,1.0593384E2,2.9878414E1,1.4233856E1,2.6445389E1,7.663123E1,8.066553E1,1.4381332E1,2.7970356E1,2.4551083E1,1.0406845E1,2.4452958E0,0E0,0E0,0E0,0E0,0E0,0E0,0E0,0E0,0E0,0E0,0E0,0E0,0E0,0E0,0E0,0E0],"parents":[2147483647,0,0,1,1,2,2,3,3,4,4,5,5,6,6,7,7,8,8,9,9,10,10,11,11,12,12,13,13,14,14],"right_children":[2,4,6,8,10,12,14,16,18,20,22,24,26,28,30,-1,-1,-1,-1,-1,-1,-1,-1,-1,-1,-1,-1,-1,-1,-1,-1],"split_conditions":[9.854002E0,-7.768898E0,5.9155E-3,-3.3073982E1,2.0708334E0,3.2587256E3,3.4610602E2,-2.8344052E2,-4.94692E-1,-1.15E0,3.0934316E3,7.294001E-2,2.5192903E2,2.7298103E1,3.192225E3,-0E0,5.4933567E-2,-1.9003669E-2,5.0087214E-2,3.8164597E-2,-5.6474574E-2,-1.15387915E-2,6.7571014E-2,3.905639E-2,-1.0434579E-2,1.2923612E-2,-4.8996497E-2,1.9943494E-2,5.760286E-2,-0E0,-6.548813E-2],"split_indices":[10,10,2,10,6,3,11,10,0,6,3,16,13,10,3,0,0,0,0,0,0,0,0,0,0,0,0,0,0,0,0],"split_type":[0,0,0,0,0,0,0,0,0,0,0,0,0,0,0,0,0,0,0,0,0,0,0,0,0,0,0,0,0,0,0],"sum_hessian":[3.4153643E3,3.019732E3,3.9563226E2,3.9775928E2,2.6219727E3,1.9662335E2,1.9900891E2,2.096086E2,1.8815068E2,2.597154E3,2.4818462E1,1.3599419E2,6.062918E1,1.960346E2,2.9742985E0,2.5632809E1,1.8397578E2,1.316891E2,5.646157E1,2.1433834E1,2.5757205E3,6.3781204E0,1.8440342E1,9.844502E1,3.7549156E1,3.125644E1,2.9372742E1,2.6938793E1,1.6909581E2,1.1141435E0,1.8601551E0],"tree_param":{"num_deleted":"0","num_feature":"18","num_nodes":"31","size_leaf_vector":"0"}},{"base_weights":[-7.0165914E-1,-8.74067E-1,4.9493748E-1,4.8459592E-1,-1.0894781E0,3.2114197E-2,8.5295063E-1,9.346437E-1,-1.8700609E-2,1.7232336E0,-1.1033467E0,5.343977E-1,-8.5879666E-1,9.402134E-1,-8.086288E-1,1.0772815E0,2.1030097E-1,-3.701752E-1,1.0425965E0,-7.4124295E-1,3.0045335E0,9.570674E-1,-1.1192813E0,9.2866755E-1,-2.762269E-1,7.935673E-1,-1.1479635E0,5.094193E-1,1.0642067E0,-1.4083408E0,1.1625629E-1],"categories":[],"categories_nodes":[],"categories_segments":[],"categories_sizes":[],"default_left":[1,1,1,1,1,1,1,0,0,1,1,1,1,0,0,0,0,0,0,0,0,0,0,0,0,0,0,0,0,0,0],"id":23,"left_children":[1,3,5,7,9,11,13,15,17,19,21,23,25,27,29,-1,-1,-1,-1,-1,-1,-1,-1,-1,-1,-1,-1,-1,-1,-1,-1],"loss_changes":[6.780687E2,8.4124365E2,6.757616E1,8.992422E1,9.796802E1,8.1818E1,3.4501465E1,2.002594E1,6.8871414E1,4.3008015E1,8.224341E1,3.8642075E1,3.255004E1,9.7034E0,7.852225E0,0E0,0E0,0E0,0E0,0E0,0E0,0E0,0E0,0E0,0E0,0E0,0E0,0E0,0E0,0E0,0E0],"parents":[2147483647,0,0,1,1,2,2,3,3,4,4,5,5,6,6,7,7,8,8,9,9,10,10,11,11,12,12,13,13,14,14],"right_children":[2,4,6,8,10,12,14,16,18,20,22,24,26,28,30,-1,-1,-1,-1,-1,-1,-1,-1,-1,-1,-1,-1,-1,-1,-1,-1],"split_conditions":[7.06406E0,-7.768898E0,2.9606394E1,-1.0479734E1,-4.527762E0,3.2586707E3,4.069135E-1,-1.97995E-2,2.291E-3,3.0891826E3,-2.0083334E0,2.7149265E1,-3.4583348E-1,2.1394999E-3,7.3180003E-3,5.3864073E-2,1.0515048E-2,-1.850876E-2,5.2129824E-2,-3.706215E-2,1.5022668E-1,4.785337E-2,-5.5964064E-2,4.6433378E-2,-1.3811345E-2,3.9678365E-2,-5.7398178E-2,2.5470966E-2,5.3210337E-2,-7.041704E-2,5.8128145E-3],"split_indices":[10,10,10,4,0,3,16,15,2,3,6,1,6,2,2,0,0,0,0,0,0,0,0,0,0,0,0,0,0,0,0],"split_type":[0,0,0,0,0,0,0,0,0,0,0,0,0,0,0,0,0,0,0,0,0,0,0,0,0,0,0,0,0,0,0],"sum_hessian":[3.2818323E3,2.8694954E3,4.12337E2,3.9188242E2,2.4776128E3,1.8153702E2,2.3079999E2,2.0748193E2,1.8440048E2,1.1197873E1,2.466415E3,1.17061775E2,6.447524E1,2.2026794E2,1.0532035E1,1.7178598E2,3.5695957E1,1.3972166E2,4.4678818E1,3.7076135E0,7.490259E0,1.7993237E1,2.4484219E3,7.948839E1,3.7573387E1,8.827932E0,5.564731E1,5.2173447E1,1.680945E2,6.727985E0,3.80405E0],"tree_param":{"num_deleted":"0","num_feature":"18","num_nodes":"31","size_leaf_vector":"0"}},{"base_weights":[-6.7798376E-1,-8.420637E-1,5.8643866E-1,7.6881766E-1,-9.9937075E-1,2.4642202E-1,9.527945E-1,1.1128471E0,2.2551046E-1,-5.3182714E-2,-1.070254E0,5.2866846E-1,-1.6057768E-1,3.2846308E-1,1.0547613E0,-0E0,1.1371326E0,-4.9933188E-2,1.353478E0,-3.4660318E-1,1.079865E0,4.9964288E-1,-1.0891906E0,-1.2149775E0,6.092945E-1,1.152602E0,-3.6590266E-1,8.559569E-1,-4.527571E-1,-0E0,1.0835986E0],"categories":[],"categories_nodes":[],"categories_segments":[],"categories_sizes":[],"default_left":[1,1,0,0,1,1,1,1,1,0,1,1,1,0,1,0,0,0,0,0,0,0,0,0,0,0,0,0,0,0,0],"id":24,"left_children":[1,3,5,7,9,11,13,15,17,19,21,23,25,27,29,-1,-1,-1,-1,-1,-1,-1,-1,-1,-1,-1,-1,-1,-1,-1,-1],"loss_changes":[6.591387E2,7.130801E2,4.3958183E1,4.5138763E1,1.7058813E2,2.2481049E1,9.324524E0,3.322815E0,3.222526E1,5.9658512E1,7.193359E1,1.6289997E1,2.0623241E1,1.2002455E1,5.0226593E0,0E0,0E0,0E0,0E0,0E0,0E0,0E0,0E0,0E0,0E0,0E0,0E0,0E0,0E0,0E0,0E0],"parents":[2147483647,0,0,1,1,2,2,3,3,4,4,5,5,6,6,7,7,8,8,9,9,10,10,11,11,12,12,13,13,14,14],"right_children":[2,4,6,8,10,12,14,16,18,20,22,24,26,28,30,-1,-1,-1,-1,-1,-1,-1,-1,-1,-1,-1,-1,-1,-1,-1,-1],"split_conditions":[1.0491809E1,-1.0511906E1,5.9155E-3,-2.2551E-2,-7.7665052E0,2.0046E-2,2.7298103E1,-2.7823547E2,2.219E-3,2.9520001E-3,-7.458335E-1,-1.9498966E1,-1.4583335E0,5.1819E-2,7.549636E2,-0E0,5.6856632E-2,-2.4966595E-3,6.76739E-2,-1.733016E-2,5.399325E-2,2.4982145E-2,-5.445953E-2,-6.0748875E-2,3.0464724E-2,5.76301E-2,-1.8295133E-2,4.2797845E-2,-2.2637855E-2,-0E0,5.4179933E-2],"split_indices":[10,4,2,15,10,16,10,11,15,2,6,8,6,16,12,0,0,0,0,0,0,0,0,0,0,0,0,0,0,0,0],"split_type":[0,0,0,0,0,0,0,0,0,0,0,0,0,0,0,0,0,0,0,0,0,0,0,0,0,0,0,0,0,0,0],"sum_hessian":[3.1724744E3,2.8090747E3,3.6339948E2,2.4899818E2,2.5600767E3,1.9075813E2,1.7264136E2,1.5069025E2,9.830794E1,1.7952577E2,2.3805508E3,1.1391698E2,7.6841156E1,2.6207033E1,1.4643433E2,3.840344E0,1.468499E2,7.906892E1,1.9239025E1,1.4385019E2,3.5675587E1,2.744077E1,2.35311E3,3.8647318E0,1.10052246E2,9.107731E0,6.773343E1,1.6350956E1,9.856076E0,3.4652083E0,1.4296912E2],"tree_param":{"num_deleted":"0","num_feature":"18","num_nodes":"31","size_leaf_vector":"0"}},{"base_weights":[-6.640762E-1,6.169356E-1,-8.177818E-1,3.4247063E-2,8.5553527E-1,-9.783587E-1,5.053531E-1,1.0228219E0,-2.8801227E-1,1.0770179E0,-0E0,2.879055E-1,-1.0504636E0,1.0768412E-1,1.0220522E0,1.1364906E0,-0E0,-1.5333794E0,-2.4321472E-2,-6.559837E-1,1.1030973E0,-3.5436034E-1,7.489712E-1,1.3016865E0,-1.3612244E-1,9.368311E-1,-1.0705485E0,9.589039E-1,-1.2405881E-1,1.0836338E0,-0E0],"categories":[],"categories_nodes":[],"categories_segments":[],"categories_sizes":[],"default_left":[1,0,1,0,1,1,1,1,0,1,0,1,1,1,1,0,0,0,0,0,0,0,0,0,0,0,0,0,0,0,0],"id":25,"left_children":[1,3,5,7,9,11,13,15,17,19,21,23,25,27,29,-1,-1,-1,-1,-1,-1,-1,-1,-1,-1,-1,-1,-1,-1,-1,-1],"loss_changes":[6.1041943E2,4.5185783E1,5.886383E2,3.2441475E1,4.3377823E1,2.263689E2,6.0266365E1,3.5327492E0,2.2830168E1,9.534729E0,1.3878012E1,5.850784E1,9.436328E1,3.4757572E1,8.313187E0,0E0,0E0,0E0,0E0,0E0,0E0,0E0,0E0,0E0,0E0,0E0,0E0,0E0,0E0,0E0,0E0],"parents":[2147483647,0,0,1,1,2,2,3,3,4,4,5,5,6,6,7,7,8,8,9,9,10,10,11,11,12,12,13,13,14,14],"right_children":[2,4,6,8,10,12,14,16,18,20,22,24,26,28,30,-1,-1,-1,-1,-1,-1,-1,-1,-1,-1,-1,-1,-1,-1,-1,-1],"split_conditions":[-2.8529202E1,-1.4316499E-1,1.1211695E1,-6.711045E-1,-4.5256058E1,-7.908474E0,2.5718428E1,-3.6117035E1,5.4900396E-1,-7.9186145E2,1.4799999E-4,-8.462273E0,-1.7291665E0,-2.144705E-1,2.8861157E2,5.682453E-2,-0E0,-7.666897E-2,-1.2160736E-3,-3.2799184E-2,5.5154867E-2,-1.7718017E-2,3.7448563E-2,6.508433E-2,-6.8061217E-3,4.6841558E-2,-5.3527426E-2,4.7945198E-2,-6.202941E-3,5.418169E-2,-0E0],"split_indices":[11,16,10,17,11,10,4,1,17,11,2,4,6,6,11,0,0,0,0,0,0,0,0,0,0,0,0,0,0,0,0],"split_type":[0,0,0,0,0,0,0,0,0,0,0,0,0,0,0,0,0,0,0,0,0,0,0,0,0,0,0,0,0,0,0],"sum_hessian":[3.0955872E3,3.3061975E2,2.7649673E3,9.760107E1,2.3301869E2,2.466631E3,2.9833618E2,2.4222965E1,7.3378105E1,1.8406174E2,4.8956955E1,1.3198181E2,2.3346494E3,1.7036293E2,1.2797327E2,2.2164968E1,2.0579977E0,1.1317949E1,6.2060154E1,1.8022624E0,1.8225948E2,3.277847E1,1.6178484E1,3.9008186E1,9.2973625E1,2.2404604E1,2.3122446E3,3.670786E1,1.3365506E2,1.2081048E2,7.1627874E0],"tree_param":{"num_deleted":"0","num_feature":"18","num_nodes":"31","size_leaf_vector":"0"}},{"base_weights":[-6.3612396E-1,-7.9942626E-1,6.8846935E-1,7.5923455E-1,-9.6596307E-1,1.4052272E-1,9.448991E-1,1.1005704E0,2.7416334E-1,-1.0007255E0,7.08638E-1,6.291838E-1,-7.395164E-1,3.6183662E0,8.994903E-1,-7.468241E-1,1.1270957E0,-1.2395241E-1,1.0366226E0,7.092456E-1,-1.0296794E0,-0E0,1.3064957E0,9.5171666E-1,-6.0313696E-1,-1.131881E0,4.079889E-1,5.8770955E-1,1.1148227E0],"categories":[],"categories_nodes":[],"categories_segments":[],"categories_sizes":[],"default_left":[1,0,0,0,1,1,1,1,0,1,1,1,1,0,1,0,0,0,0,0,0,0,0,0,0,0,0,0,0],"id":26,"left_children":[1,3,5,7,9,11,13,15,17,19,21,23,25,-1,27,-1,-1,-1,-1,-1,-1,-1,-1,-1,-1,-1,-1,-1,-1],"loss_changes":[6.5133167E2,6.9635205E2,4.515161E1,4.113951E1,1.4196143E2,4.663734E1,1.9346527E1,8.584351E0,3.423417E1,1.1854932E2,2.1784704E1,2.8931837E1,1.836386E1,0E0,1.2503326E1,0E0,0E0,0E0,0E0,0E0,0E0,0E0,0E0,0E0,0E0,0E0,0E0,0E0,0E0],"parents":[2147483647,0,0,1,1,2,2,3,3,4,4,5,5,6,6,7,7,8,8,9,9,10,10,11,11,12,12,14,14],"right_children":[2,4,6,8,10,12,14,16,18,20,22,24,26,-1,28,-1,-1,-1,-1,-1,-1,-1,-1,-1,-1,-1,-1,-1,-1],"split_conditions":[2.814E-3,-3.639E-3,5.9165E-3,-1.97995E-2,7.0416653E-1,3.2731233E3,1.530774E1,-2.7361884E2,7.7680005E-3,-7.458335E-1,3.248955E0,1.4374664E1,4.12815E0,1.8091832E-1,2.357848E0,-3.7341204E-2,5.6354787E-2,-6.1976206E-3,5.1831134E-2,3.5462283E-2,-5.148397E-2,-0E0,6.532478E-2,4.7585834E-2,-3.0156849E-2,-5.659405E-2,2.0399446E-2,2.9385477E-2,5.574114E-2],"split_indices":[2,2,2,15,6,3,12,11,16,6,10,4,7,0,0,0,0,0,0,0,0,0,0,0,0,0,0,0,0],"split_type":[0,0,0,0,0,0,0,0,0,0,0,0,0,0,0,0,0,0,0,0,0,0,0,0,0,0,0,0,0],"sum_hessian":[3.0070571E3,2.6780461E3,3.290112E2,2.57594E2,2.4204521E3,1.0662322E2,2.2238797E2,1.4924355E2,1.0835044E2,2.3722078E3,4.824419E1,6.94699E1,3.7153328E1,2.0322428E0,2.2035573E2,1.1945143E0,1.4804903E2,7.087117E1,3.7479275E1,3.853218E1,2.3336758E3,2.1994373E1,2.6249819E1,5.5882946E1,1.3586951E1,2.8346071E1,8.807256E0,9.343872E1,1.2691701E2],"tree_param":{"num_deleted":"0","num_feature":"18","num_nodes":"29","size_leaf_vector":"0"}},{"base_weights":[-6.232875E-1,6.43955E-1,-7.8719425E-1,9.9273866E-1,2.9687485E-1,-9.720743E-1,3.92087E-1,-7.157137E-1,1.0554847E0,-3.370041E-1,1.0658506E0,3.760587E-1,-1.0489665E0,-6.0415207E-3,7.893858E-1,2.6969054E-1,-1.1941803E0,1.0760868E0,-0E0,-6.433923E-1,5.8823246E-1,1.4940757E0,2.0374297E-1,1.2956836E0,6.793078E-2,5.537868E-1,-1.0686738E0,-5.308606E-1,3.9613608E-1,8.79583E-1,-2.0062889E-1],"categories":[],"categories_nodes":[],"categories_segments":[],"categories_sizes":[],"default_left":[1,1,1,1,1,1,1,0,1,1,0,0,1,0,0,0,0,0,0,0,0,0,0,0,0,0,0,0,0,0,0],"id":27,"left_children":[1,3,5,7,9,11,13,15,17,19,21,23,25,27,29,-1,-1,-1,-1,-1,-1,-1,-1,-1,-1,-1,-1,-1,-1,-1,-1],"loss_changes":[6.0703015E2,3.887259E1,5.6481104E2,1.8764465E1,8.413422E1,2.329248E2,5.6224564E1,4.01437E0,4.3028717E0,2.6921288E1,2.6769875E1,3.2756645E1,6.797339E1,3.723783E1,1.6632729E1,0E0,0E0,0E0,0E0,0E0,0E0,0E0,0E0,0E0,0E0,0E0,0E0,0E0,0E0,0E0,0E0],"parents":[2147483647,0,0,1,1,2,2,3,3,4,4,5,5,6,6,7,7,8,8,9,9,10,10,11,11,12,12,13,13,14,14],"right_children":[2,4,6,8,10,12,14,16,18,20,22,24,26,28,30,-1,-1,-1,-1,-1,-1,-1,-1,-1,-1,-1,-1,-1,-1,-1,-1],"split_conditions":[-2.7355186E1,-3.3878105E1,6.853136E0,-1.3042319E3,-6.9415E-3,-7.906164E0,1.0230131E1,-7.8125E-1,3.3545225E3,1.41245E-2,-3.982E-2,-2.6495E-3,-7.458335E-1,1.6776985E0,2.696745E-1,1.3484527E-2,-5.9709013E-2,5.3804338E-2,-0E0,-3.2169618E-2,2.9411623E-2,7.470378E-2,1.0187148E-2,6.4784184E-2,3.396539E-3,2.7689341E-2,-5.3433694E-2,-2.654303E-2,1.9806804E-2,4.397915E-2,-1.0031445E-2],"split_indices":[11,10,10,11,15,10,4,5,3,6,16,2,6,17,16,0,0,0,0,0,0,0,0,0,0,0,0,0,0,0,0],"split_type":[0,0,0,0,0,0,0,0,0,0,0,0,0,0,0,0,0,0,0,0,0,0,0,0,0,0,0,0,0,0,0],"sum_hessian":[2.9183643E3,3.332004E2,2.5851638E3,1.6382745E2,1.6937296E2,2.2356904E3,3.4947327E2,4.870459E0,1.58957E2,9.243699E1,7.693597E1,1.1972281E2,2.1159678E3,1.7378906E2,1.7568422E2,1.0514096E0,3.8190496E0,1.5660664E2,2.350355E0,7.0482445E1,2.1954544E1,5.013832E1,2.6797646E1,2.8427858E1,9.129495E1,2.475625E1,2.0912114E3,7.633833E1,9.745072E1,1.6204263E2,1.364158E1],"tree_param":{"num_deleted":"0","num_feature":"18","num_nodes":"31","size_leaf_vector":"0"}},{"base_weights":[-6.166937E-1,-7.651262E-1,6.093591E-1,5.996824E-1,-9.5332116E-1,1.9894098E-1,9.777002E-1,1.0813117E0,1.9501562E-1,-9.918139E-1,8.110649E-1,5.727233E-1,-4.8097503E-1,5.6708443E-1,1.1224351E0,-1.9345187E-1,1.1285795E0,4.110306E-2,1.2696944E0,7.50674E-2,-1.0344882E0,1.5323628E-1,1.420808E0,1.32359E0,3.6598283E-1,7.451506E-1,-9.2320466E-1,8.079011E-1,-8.004902E-1,-0E0,1.1386427E0],"categories":[],"categories_nodes":[],"categories_segments":[],"categories_sizes":[],"default_left":[1,0,0,0,1,1,1,0,1,1,1,1,1,1,1,0,0,0,0,0,0,0,0,0,0,0,0,0,0,0,0],"id":28,"left_children":[1,3,5,7,9,11,13,15,17,19,21,23,25,27,29,-1,-1,-1,-1,-1,-1,-1,-1,-1,-1,-1,-1,-1,-1,-1,-1],"loss_changes":[5.164381E2,6.506151E2,4.4875443E1,5.824791E1,1.5202771E2,3.7785194E1,7.1640167E0,9.504272E0,2.6574463E1,1.0017456E2,1.7252209E1,1.2792217E1,2.8965996E1,1.5618526E1,2.2576904E0,0E0,0E0,0E0,0E0,0E0,0E0,0E0,0E0,0E0,0E0,0E0,0E0,0E0,0E0,0E0,0E0],"parents":[2147483647,0,0,1,1,2,2,3,3,4,4,5,5,6,6,7,7,8,8,9,9,10,10,11,11,12,12,13,13,14,14],"right_children":[2,4,6,8,10,12,14,16,18,20,22,24,26,28,30,-1,-1,-1,-1,-1,-1,-1,-1,-1,-1,-1,-1,-1,-1,-1,-1],"split_conditions":[2.799E-3,-2.5835E-3,8.264E-3,-2.6999999E-2,7.2083354E-1,3.2683323E3,1.5639045E0,-2.54675E-1,4.48501E0,-3.1632387E1,3.248955E0,-9.00256E0,-5.5059023E0,3.3045127E3,-1.1197546E2,-9.672593E-3,5.6428976E-2,2.055153E-3,6.348472E-2,3.7533701E-3,-5.172441E-2,7.6618143E-3,7.10404E-2,6.617951E-2,1.8299142E-2,3.7257534E-2,-4.6160232E-2,4.0395055E-2,-4.002451E-2,-0E0,5.6932133E-2],"split_indices":[2,2,2,15,6,3,0,15,7,11,10,1,10,3,7,0,0,0,0,0,0,0,0,0,0,0,0,0,0,0,0],"split_type":[0,0,0,0,0,0,0,0,0,0,0,0,0,0,0,0,0,0,0,0,0,0,0,0,0,0,0,0,0,0,0],"sum_hessian":[2.833369E3,2.5284524E3,3.049166E2,3.054921E2,2.2229602E3,1.4623338E2,1.5868323E2,1.3759044E2,1.6790167E2,2.1764817E3,4.64786E1,9.541023E1,5.0823143E1,4.443827E1,1.1424496E2,4.0524106E0,1.3353802E2,1.485898E2,1.9311869E1,8.2778656E1,2.0937031E3,2.3748545E1,2.2730055E1,1.838782E1,7.7022415E1,1.2690689E1,3.8132454E1,3.875445E1,5.6838164E0,1.5161233E0,1.12728836E2],"tree_param":{"num_deleted":"0","num_feature":"18","num_nodes":"31","size_leaf_vector":"0"}},{"base_weights":[-5.9921247E-1,-7.8972024E-1,3.8440368E-1,4.134956E-1,-1.0158215E0,-1.1566955E-1,7.395377E-1,8.4264714E-1,5.4099946E-3,-0E0,-1.051485E0,-8.2258075E-1,3.6029014E-1,1.2498769E0,5.0527596E-1,1.123372E0,3.1910384E-1,-1.9191086E-1,9.464047E-1,-1.1236497E0,1.5054091E0,7.521472E-1,-1.0740348E0,1.0270791E-2,-1.163835E0,1.397557E0,7.224728E-2,1.2812935E0,-9.861981E-2,-5.2625574E-2,9.5067275E-1],"categories":[],"categories_nodes":[],"categories_segments":[],"categories_sizes":[],"default_left":[1,1,1,1,1,0,1,0,1,1,1,1,1,1,1,0,0,0,0,0,0,0,0,0,0,0,0,0,0,0,0],"id":29,"left_children":[1,3,5,7,9,11,13,15,17,19,21,23,25,27,29,-1,-1,-1,-1,-1,-1,-1,-1,-1,-1,-1,-1,-1,-1,-1,-1],"loss_changes":[5.1750806E2,6.298959E2,8.0148506E1,6.318959E1,7.031091E1,6.3153942E1,2.9039505E1,2.4218887E1,3.6148575E1,1.1534372E2,7.762109E1,2.2700142E1,3.1496902E1,4.7270355E0,4.6467274E1,0E0,0E0,0E0,0E0,0E0,0E0,0E0,0E0,0E0,0E0,0E0,0E0,0E0,0E0,0E0,0E0],"parents":[2147483647,0,0,1,1,2,2,3,3,4,4,5,5,6,6,7,7,8,8,9,9,10,10,11,11,12,12,13,13,14,14],"right_children":[2,4,6,8,10,12,14,16,18,20,22,24,26,28,30,-1,-1,-1,-1,-1,-1,-1,-1,-1,-1,-1,-1,-1,-1,-1,-1],"split_conditions":[4.661E-3,-7.4760656E0,3.6862946E0,-1.0479734E1,-1.5300295E0,2.0689874E0,1.3075867E1,2.734E3,8.257246E2,3.0998657E3,-7.375E-1,-4.9324298E-1,-6.9818103E-1,3.3552292E3,3.62819E1,5.6168597E-2,1.5955193E-2,-9.595543E-3,4.7320236E-2,-5.6182485E-2,7.527046E-2,3.760736E-2,-5.370174E-2,5.135396E-4,-5.8191754E-2,6.9877855E-2,3.6123642E-3,6.4064674E-2,-4.9309907E-3,-2.6312787E-3,4.753364E-2],"split_indices":[15,10,4,4,0,5,11,17,8,3,6,17,0,3,10,0,0,0,0,0,0,0,0,0,0,0,0,0,0,0,0],"split_type":[0,0,0,0,0,0,0,0,0,0,0,0,0,0,0,0,0,0,0,0,0,0,0,0,0,0,0,0,0,0,0],"sum_hessian":[2.7569316E3,2.3106218E3,4.463098E2,3.6468265E2,1.9459392E3,1.8444566E2,2.6186414E2,1.7603995E2,1.8864272E2,6.623579E1,1.8797034E3,7.4769005E1,1.0967666E2,7.9679115E1,1.8218501E2,1.1260512E2,6.3434826E1,1.5572209E2,3.2920624E1,3.815248E1,2.808331E1,2.226371E1,1.8574397E3,2.1161829E1,5.3607174E1,2.2245413E1,8.7431244E1,7.8638435E1,1.0406816E0,8.027263E1,1.0191239E2],"tree_param":{"num_deleted":"0","num_feature":"18","num_nodes":"31","size_leaf_vector":"0"}},{"base_weights":[-6.122958E-1,-7.9537505E-1,4.40767E-1,3.5131636E-1,-9.997837E-1,2.7102342E-2,7.9379606E-1,7.603616E-1,-1.2818761E-1,-1.0435439E0,-4.893516E-2,4.739443E-1,-6.5866286E-1,-8.100935E-2,8.810811E-1,-1.8975648E-1,8.9389074E-1,-4.116984E-1,1.1148859E0,-1.0612801E0,1.0325923E0,-5.4857635E-1,1.6460416E0,8.8135594E-1,-3.388074E-1,-8.7186754E-1,1.192464E0,8.1796163E-1,-1.4129996E0,9.2858267E-1,-2.905927E-1],"categories":[],"categories_nodes":[],"categories_segments":[],"categories_sizes":[],"default_left":[1,1,1,0,1,1,1,1,1,1,1,1,1,0,1,0,0,0,0,0,0,0,0,0,0,0,0,0,0,0,0],"id":30,"left_children":[1,3,5,7,9,11,13,15,17,19,21,23,25,27,29,-1,-1,-1,-1,-1,-1,-1,-1,-1,-1,-1,-1,-1,-1,-1,-1],"loss_changes":[5.1369745E2,5.325842E2,5.668364E1,6.802757E1,7.898779E1,5.642505E1,1.6997833E1,2.4525902E1,5.5327328E1,6.887903E1,7.330202E1,3.8159996E1,2.914248E1,2.454615E1,1.1658371E1,0E0,0E0,0E0,0E0,0E0,0E0,0E0,0E0,0E0,0E0,0E0,0E0,0E0,0E0,0E0,0E0],"parents":[2147483647,0,0,1,1,2,2,3,3,4,4,5,5,6,6,7,7,8,8,9,9,10,10,11,11,12,12,13,13,14,14],"right_children":[2,4,6,8,10,12,14,16,18,20,22,24,26,28,30,-1,-1,-1,-1,-1,-1,-1,-1,-1,-1,-1,-1,-1,-1,-1,-1],"split_conditions":[6.853136E0,-7.4760656E0,2.9606394E1,-1.97995E-2,1.2454765E0,3.2493765E3,3.0791082E3,8.590465E2,4.416334E0,2.1166663E0,4.1989756E0,2.7625668E1,1.8458335E0,-2.859355E-1,1.3156968E3,-9.4878245E-3,4.469454E-2,-2.058492E-2,5.5744298E-2,-5.3064007E-2,5.1629614E-2,-2.7428819E-2,8.2302086E-2,4.4067796E-2,-1.694037E-2,-4.3593377E-2,5.96232E-2,4.089808E-2,-7.064998E-2,4.6429135E-2,-1.4529635E-2],"split_indices":[10,10,10,15,0,3,3,14,7,6,7,1,6,17,1,0,0,0,0,0,0,0,0,0,0,0,0,0,0,0,0],"split_type":[0,0,0,0,0,0,0,0,0,0,0,0,0,0,0,0,0,0,0,0,0,0,0,0,0,0,0,0,0,0,0],"sum_hessian":[2.6598323E3,2.2669143E3,3.929179E2,3.4211377E2,1.9248005E3,1.827217E2,2.101962E2,1.8543042E2,1.5668335E2,1.8390155E3,8.5785E1,1.1170334E2,7.101836E1,1.803703E1,1.9215918E2,2.1874409E1,1.6355602E2,1.2878444E2,2.7898912E1,1.8244004E3,1.4615138E1,6.723266E1,1.855235E1,7.5169014E1,3.6534325E1,6.464235E1,6.3760037E0,1.0551137E1,7.485893E0,1.8569188E2,6.467298E0],"tree_param":{"num_deleted":"0","num_feature":"18","num_nodes":"31","size_leaf_vector":"0"}},{"base_weights":[-5.746609E-1,-7.5599873E-1,4.9466267E-1,4.991087E-1,-9.5652777E-1,4.8271902E-2,9.0749717E-1,1.0465044E0,1.4594705E-1,-1.00241E0,3.2326028E-1,4.6267393E-1,-8.6303294E-1,3.2516613E0,8.5779226E-1,-1.3960541E0,1.1237869E0,-1.0526707E-1,8.590589E-1,-1.0259583E0,9.336279E-1,9.927997E-1,-7.559873E-1,3.0538085E-1,1.5497309E0,-1.0477089E0,4.977756E-1,1.059032E0,5.094758E-1],"categories":[],"categories_nodes":[],"categories_segments":[],"categories_sizes":[],"default_left":[1,0,0,0,1,1,1,0,1,1,1,1,1,0,0,0,0,0,0,0,0,0,0,0,0,0,0,0,0],"id":31,"left_children":[1,3,5,7,9,11,13,15,17,19,21,23,25,-1,27,-1,-1,-1,-1,-1,-1,-1,-1,-1,-1,-1,-1,-1,-1],"loss_changes":[5.0479846E2,5.6073694E2,6.843703E1,5.7883675E1,1.1367627E2,6.920517E1,1.5767441E1,2.3736588E1,3.461318E1,8.5548096E1,4.8977924E1,1.9451525E1,1.5365578E1,0E0,1.1369019E1,0E0,0E0,0E0,0E0,0E0,0E0,0E0,0E0,0E0,0E0,0E0,0E0,0E0,0E0],"parents":[2147483647,0,0,1,1,2,2,3,3,4,4,5,5,6,6,7,7,8,8,9,9,10,10,11,11,12,12,14,14],"right_children":[2,4,6,8,10,12,14,16,18,20,22,24,26,-1,28,-1,-1,-1,-1,-1,-1,-1,-1,-1,-1,-1,-1,-1,-1],"split_conditions":[1.898E-3,-2.177E-3,5.9165E-3,-2.6999999E-2,3.2473755E0,1.3208943E3,7.541109E0,-1.9859749E-1,4.200821E0,2.0708334E0,2.8083978E2,1.3050302E3,2.4349918E1,1.6258307E-1,5.5821E-2,-6.980271E-2,5.6189347E-2,-5.2633537E-3,4.2952947E-2,-5.1297914E-2,4.6681397E-2,4.9639985E-2,-3.7799366E-2,1.5269043E-2,7.7486545E-2,-5.2385446E-2,2.4888782E-2,5.29516E-2,2.5473792E-2],"split_indices":[2,2,2,15,0,14,12,16,7,6,13,12,10,0,16,0,0,0,0,0,0,0,0,0,0,0,0,0,0],"split_type":[0,0,0,0,0,0,0,0,0,0,0,0,0,0,0,0,0,0,0,0,0,0,0,0,0,0,0,0,0],"sum_hessian":[2.599001E3,2.2232126E3,3.757882E2,3.053786E2,1.9178341E3,1.8225658E2,1.9353165E2,1.1787663E2,1.8750197E2,1.8524203E3,6.541384E1,1.2637781E2,5.5878765E1,2.2630792E0,1.9126857E2,2.6950216E0,1.1518161E2,1.3824963E2,4.9252327E1,1.8311346E3,2.1285688E1,4.09908E1,2.4423044E1,1.12325554E2,1.4052251E1,5.005123E1,5.8275323E0,1.18115814E2,7.3152756E1],"tree_param":{"num_deleted":"0","num_feature":"18","num_nodes":"29","size_leaf_vector":"0"}},{"base_weights":[-5.706432E-1,4.543774E-1,-7.436387E-1,-2.7182895E-1,6.0551363E-1,-9.4762504E-1,2.1451312E-1,-7.6524496E-1,1.015245E0,8.0991346E-1,1.6865732E-1,3.520943E-1,-1.0203061E0,-9.751822E-2,7.478799E-1,5.318392E-1,-1.1391915E0,1.9013194E-2,1.9737738E0,1.0639851E0,4.795632E-1,-6.91097E-2,1.2765719E0,7.037453E-1,-5.827344E-1,7.232085E-1,-1.0416933E0,2.5475642E-1,-7.1268207E-1,-1.0762497E0,8.41422E-1],"categories":[],"categories_nodes":[],"categories_segments":[],"categories_sizes":[],"default_left":[1,1,1,1,1,1,1,0,1,0,1,1,1,1,1,0,0,0,0,0,0,0,0,0,0,0,0,0,0,0,0],"id":32,"left_children":[1,3,5,7,9,11,13,15,17,19,21,23,25,27,29,-1,-1,-1,-1,-1,-1,-1,-1,-1,-1,-1,-1,-1,-1,-1,-1],"loss_changes":[4.4241992E2,3.9961586E1,4.1780908E2,3.9576515E1,2.5589363E1,1.6724377E2,6.3022602E1,2.3321857E1,1.4115719E1,1.4893555E1,2.7150696E1,3.11688E1,6.3245605E1,5.175435E1,2.4467659E1,0E0,0E0,0E0,0E0,0E0,0E0,0E0,0E0,0E0,0E0,0E0,0E0,0E0,0E0,0E0,0E0],"parents":[2147483647,0,0,1,1,2,2,3,3,4,4,5,5,6,6,7,7,8,8,9,9,10,10,11,11,12,12,13,13,14,14],"right_children":[2,4,6,8,10,12,14,16,18,20,22,24,26,28,30,-1,-1,-1,-1,-1,-1,-1,-1,-1,-1,-1,-1,-1,-1,-1,-1],"split_conditions":[-1.9256073E1,3.0968489E3,4.141E-3,4.1665E-3,3.245607E3,-7.7540536E0,3.3808605E1,-1.7164749E-1,-9.811762E0,2.734E3,2.3183475E0,1.3293904E3,-8.952005E-1,3.258646E3,5.988528E2,2.659196E-2,-5.6959577E-2,9.5065974E-4,9.868869E-2,5.3199258E-2,2.397816E-2,-3.455485E-3,6.3828595E-2,3.5187267E-2,-2.9136721E-2,3.6160424E-2,-5.2084666E-2,1.2737821E-2,-3.5634104E-2,-5.3812485E-2,4.20711E-2],"split_indices":[11,3,15,6,3,10,10,17,10,17,10,14,6,3,12,0,0,0,0,0,0,0,0,0,0,0,0,0,0,0,0],"split_type":[0,0,0,0,0,0,0,0,0,0,0,0,0,0,0,0,0,0,0,0,0,0,0,0,0,0,0,0,0,0,0],"sum_hessian":[2.4904429E3,3.5855457E2,2.1318882E3,6.048936E1,2.9806522E2,1.7585544E3,3.733338E2,4.4581047E1,1.5908312E1,2.00916E2,9.714921E1,9.219919E1,1.6663552E3,2.3487123E2,1.3846257E2,9.283515E0,3.5297535E1,8.812393E0,7.0959187E0,1.1060333E2,9.031267E1,8.0012856E1,1.713635E1,6.795406E1,2.4245121E1,1.9228756E1,1.6471265E3,1.4868616E2,8.618509E1,5.72015E0,1.3274242E2],"tree_param":{"num_deleted":"0","num_feature":"18","num_nodes":"31","size_leaf_vector":"0"}},{"base_weights":[-5.7025033E-1,6.155007E-1,-7.193184E-1,8.791875E-1,4.7597382E-2,-9.147749E-1,5.563303E-1,7.65592E-1,1.6864033E0,-3.8729167E-1,7.0716697E-1,-9.749429E-1,-1.23723865E-1,8.1102157E-1,4.911283E-2,9.863324E-1,2.3994146E-1,2.1433945E0,1.618585E-1,6.3147265E-1,-7.610327E-1,-3.3414698E-1,1.0310286E0,8.460318E-2,-1.0158801E0,-7.6318383E-1,3.350897E-1,1.2189586E0,6.054275E-1,5.8120376E-1,-8.769019E-1],"categories":[],"categories_nodes":[],"categories_segments":[],"categories_sizes":[],"default_left":[0,1,1,1,1,1,1,1,1,1,1,1,0,1,1,0,0,0,0,0,0,0,0,0,0,0,0,0,0,0,0],"id":33,"left_children":[1,3,5,7,9,11,13,15,17,19,21,23,25,27,29,-1,-1,-1,-1,-1,-1,-1,-1,-1,-1,-1,-1,-1,-1,-1,-1],"loss_changes":[4.2988898E2,3.9620872E1,5.391637E2,1.3114731E1,2.589491E1,8.793506E1,3.6148224E1,1.7575874E1,1.1813107E1,2.0748093E1,1.3288984E1,7.646484E1,4.0210583E1,1.3334442E1,4.86212E1,0E0,0E0,0E0,0E0,0E0,0E0,0E0,0E0,0E0,0E0,0E0,0E0,0E0,0E0,0E0,0E0],"parents":[2147483647,0,0,1,1,2,2,3,3,4,4,5,5,6,6,7,7,8,8,9,9,10,10,11,11,12,12,13,13,14,14],"right_children":[2,4,6,8,10,12,14,16,18,20,22,24,26,28,30,-1,-1,-1,-1,-1,-1,-1,-1,-1,-1,-1,-1,-1,-1,-1,-1],"split_conditions":[-2.7115E-3,-3.62729E-1,2.69E-3,-1.960855E-1,1.9150995E0,6.2646847E0,-7.79261E-1,-2.7640608E1,1.8141666E1,-9.228502E0,-2.7615807E1,-1.6895464E1,2.05E0,4.9469447E0,3.2584482E3,4.9316622E-2,1.1997073E-2,1.07169725E-1,8.092925E-3,3.1573635E-2,-3.8051635E-2,-1.670735E-2,5.155143E-2,4.2301593E-3,-5.0794005E-2,-3.815919E-2,1.6754486E-2,6.0947932E-2,3.0271376E-2,2.9060189E-2,-4.38451E-2],"split_indices":[2,0,2,10,0,10,17,10,1,10,11,10,5,11,3,0,0,0,0,0,0,0,0,0,0,0,0,0,0,0,0],"split_type":[0,0,0,0,0,0,0,0,0,0,0,0,0,0,0,0,0,0,0,0,0,0,0,0,0,0,0,0,0,0,0],"sum_hessian":[2.427989E3,2.7005103E2,2.157938E3,1.8284439E2,8.7206635E1,1.8721515E3,2.857866E2,1.6308192E2,1.9762468E1,5.1889694E1,3.5316944E1,1.7384286E3,1.3372292E2,1.8854247E2,9.724412E1,1.1289448E2,5.018745E1,1.4387786E1,5.374682E0,1.3023703E1,3.886599E1,7.638225E0,2.7678719E1,6.3720005E1,1.6747086E3,5.649733E1,7.722559E1,5.989892E1,1.2864354E2,6.268016E1,3.4563957E1],"tree_param":{"num_deleted":"0","num_feature":"18","num_nodes":"31","size_leaf_vector":"0"}},{"base_weights":[-5.565805E-1,5.0194436E-1,-7.1709937E-1,-2.7464673E-1,6.4226466E-1,-8.8295364E-1,5.290169E-1,-1.0309101E0,2.5261554E-1,7.012119E-1,-8.962409E-1,-9.2197585E-1,1.0206466E0,1.1034755E0,3.0682543E-1,2.5072908E-1,-1.2672571E0,-7.937467E-2,1.0068958E0,9.2990947E-1,3.93713E-1,5.3782374E-1,-1.3808819E0,1.5571198E-1,-9.7636247E-1,-6.1693096E-1,1.1473669E0,-8.935246E-2,6.270475E-1],"categories":[],"categories_nodes":[],"categories_segments":[],"categories_sizes":[],"default_left":[1,1,1,0,1,1,1,0,1,1,0,1,1,0,1,0,0,0,0,0,0,0,0,0,0,0,0,0,0],"id":34,"left_children":[1,3,5,7,9,11,13,15,17,19,21,23,25,-1,27,-1,-1,-1,-1,-1,-1,-1,-1,-1,-1,-1,-1,-1,-1],"loss_changes":[4.0270636E2,3.4478157E1,4.2580017E2,1.9885906E1,2.4478966E1,1.3572705E2,2.9070274E1,7.511339E0,7.987335E0,1.6351334E1,8.255539E0,1.0532471E2,8.799088E0,0E0,2.3017242E1,0E0,0E0,0E0,0E0,0E0,0E0,0E0,0E0,0E0,0E0,0E0,0E0,0E0,0E0],"parents":[2147483647,0,0,1,1,2,2,3,3,4,4,5,5,6,6,7,7,8,8,9,9,10,10,11,11,12,12,14,14],"right_children":[2,4,6,8,10,12,14,16,18,20,22,24,26,-1,28,-1,-1,-1,-1,-1,-1,-1,-1,-1,-1,-1,-1,-1,-1],"split_conditions":[-1.7037052E1,3.0967422E3,1.5870491E1,-1.339745E-1,3.3450132E3,1.0791665E0,-1.1416664E0,-1.8023E-2,8.3335E-3,-5.2267914E1,-6.770835E-1,-1.6955565E0,3.0154922E3,5.5173773E-2,4.5923714E1,1.2536454E-2,-6.336286E-2,-3.968734E-3,5.034479E-2,4.6495475E-2,1.968565E-2,2.6891187E-2,-6.90441E-2,7.785599E-3,-4.8818123E-2,-3.084655E-2,5.7368346E-2,-4.467623E-3,3.1352375E-2],"split_indices":[1,3,10,16,3,6,6,2,6,1,17,0,3,0,10,0,0,0,0,0,0,0,0,0,0,0,0,0,0],"split_type":[0,0,0,0,0,0,0,0,0,0,0,0,0,0,0,0,0,0,0,0,0,0,0,0,0,0,0,0,0],"sum_hessian":[2.3656853E3,3.1040378E2,2.0552815E3,4.6265778E1,2.64138E2,1.8148275E3,2.4045404E2,1.939233E1,2.687345E1,2.5554123E2,8.596759E0,1.7793923E3,3.5435112E1,6.470287E1,1.7575116E2,2.3511004E0,1.704123E1,1.8361006E1,8.512444E0,1.4352248E2,1.1201875E2,1.6225308E0,6.974228E0,8.451186E1,1.6948805E3,1.7004707E0,3.3734642E1,7.748502E1,9.8266136E1],"tree_param":{"num_deleted":"0","num_feature":"18","num_nodes":"29","size_leaf_vector":"0"}},{"base_weights":[-5.2104294E-1,-1.1348333E-1,-9.5406914E-1,8.872005E-1,-2.9714406E-1,1.1284983E0,-9.998733E-1,9.2472625E-1,-8.8027793E-1,-4.5161855E-1,7.6974154E-1,1.3122939E0,-0E0,2.2699034E-1,-1.0580845E0,1.2377008E0,6.915246E-1,2.7488333E-1,-6.3556886E-1,-2.4759302E-1,1.1152444E0,4.9639034E-1,-5.268221E-1,1.1612448E0,-6.282095E-1,-1.0786126E0,1.2780136E0],"categories":[],"categories_nodes":[],"categories_segments":[],"categories_sizes":[],"default_left":[1,0,1,1,1,1,0,1,0,1,0,0,0,1,1,0,0,0,0,0,0,0,0,0,0,0,0],"id":35,"left_children":[1,3,5,7,9,11,13,15,-1,17,19,-1,21,23,25,-1,-1,-1,-1,-1,-1,-1,-1,-1,-1,-1,-1],"loss_changes":[4.0773798E2,2.1946808E2,1.0803491E2,1.3119705E1,1.6682388E2,4.023567E0,7.955383E1,1.0502838E1,0E0,1.1887483E2,4.5977974E1,0E0,1.5341979E0,4.107099E1,5.1537598E1,0E0,0E0,0E0,0E0,0E0,0E0,0E0,0E0,0E0,0E0,0E0,0E0],"parents":[2147483647,0,0,1,1,2,2,3,3,4,4,5,5,6,6,7,7,9,9,10,10,12,12,13,13,14,14],"right_children":[2,4,6,8,10,12,14,16,-1,18,20,-1,22,24,26,-1,-1,-1,-1,-1,-1,-1,-1,-1,-1,-1,-1],"split_conditions":[1.3190742E3,-3.7002E-1,-1.1791666E0,3.361829E3,2.625E-1,-1.696144E0,-2.5815E-3,1.1644631E3,-4.40139E-2,-4.906902E0,5.51396E-1,6.561469E-2,-8.79637E-1,-1.2226668E1,2.0037115E0,6.188504E-2,3.4576233E-2,1.3744167E-2,-3.1778444E-2,-1.2379651E-2,5.576222E-2,2.4819518E-2,-2.6341105E-2,5.8062237E-2,-3.1410474E-2,-5.393063E-2,6.390068E-2],"split_indices":[12,17,6,3,6,6,2,12,0,4,17,0,17,10,6,0,0,0,0,0,0,0,0,0,0,0,0],"split_type":[0,0,0,0,0,0,0,0,0,0,0,0,0,0,0,0,0,0,0,0,0,0,0,0,0,0,0],"sum_hessian":[2.3160027E3,1.1949243E3,1.1210784E3,1.8386298E2,1.01106134E3,2.3147884E1,1.0979304E3,1.810614E2,2.801576E0,8.845074E2,1.2655393E2,1.9193832E1,3.9540505E0,4.882445E1,1.049106E3,7.3637985E1,1.0742342E2,1.7751012E2,7.0699725E2,3.1421696E1,9.513224E1,2.7991421E0,1.1549083E0,2.3721544E1,2.5102907E1,1.0409254E3,8.180615E0],"tree_param":{"num_deleted":"0","num_feature":"18","num_nodes":"27","size_leaf_vector":"0"}},{"base_weights":[-5.371704E-1,-1.7341708E-1,-9.5054877E-1,-3.873899E-1,5.781498E-1,1.0618314E0,-1.0178288E0,6.5349084E-1,-6.940491E-1,5.6306936E-2,7.405285E-1,-0E0,1.1183224E0,-1.052488E0,2.9118785E-1,9.1558075E-1,7.426507E-2,-8.3876306E-1,5.6494493E-2,1.1037093E0,-2.6862907E-1,5.079712E-1,1.430268E0,1.2653688E0,4.2769453E-1,-1.075171E0,9.317922E-1,9.071856E-1,-1.2921898E0],"categories":[],"categories_nodes":[],"categories_segments":[],"categories_sizes":[],"default_left":[1,0,1,1,0,1,1,1,1,1,1,0,1,1,1,0,0,0,0,0,0,0,0,0,0,0,0,0,0],"id":36,"left_children":[1,3,5,7,9,11,13,15,17,19,21,-1,23,25,27,-1,-1,-1,-1,-1,-1,-1,-1,-1,-1,-1,-1,-1,-1],"loss_changes":[3.3088898E2,1.8940782E2,1.4083118E2,2.9359952E2,2.1220963E1,2.008442E0,4.644165E1,3.0631065E1,7.800223E1,2.3023996E1,2.8935791E1,0E0,9.878006E-1,4.5041016E1,2.5986431E1,0E0,0E0,0E0,0E0,0E0,0E0,0E0,0E0,0E0,0E0,0E0,0E0,0E0,0E0],"parents":[2147483647,0,0,1,1,2,2,3,3,4,4,5,5,6,6,7,7,8,8,9,9,10,10,12,12,13,13,14,14],"right_children":[2,4,6,8,10,12,14,16,18,20,22,-1,24,26,28,-1,-1,-1,-1,-1,-1,-1,-1,-1,-1,-1,-1,-1,-1],"split_conditions":[1.3278193E3,1.5565E-3,-1.0714664E0,-1.0514263E1,9.32927E-1,-2.213563E0,2.73695E-2,8.191397E1,3.2316484E0,-1.7958336E0,1.2584287E3,-0E0,-1.7291665E0,1.2166665E0,1.8106924E2,4.577904E-2,3.7132537E-3,-4.1938152E-2,2.8247247E-3,5.5185467E-2,-1.3431454E-2,2.5398562E-2,7.151341E-2,6.3268445E-2,2.1384727E-2,-5.375855E-2,4.658961E-2,4.535928E-2,-6.460949E-2],"split_indices":[14,2,6,4,5,0,15,8,10,6,12,0,6,6,10,0,0,0,0,0,0,0,0,0,0,0,0,0,0],"split_type":[0,0,0,0,0,0,0,0,0,0,0,0,0,0,0,0,0,0,0,0,0,0,0,0,0,0,0,0,0],"sum_hessian":[2.208102E3,1.1765939E3,1.0315082E3,9.172623E2,2.5933157E2,3.2411705E1,9.9909644E2,2.0774162E2,7.095207E2,6.33254E1,1.9600618E2,1.6843387E0,3.0727365E1,9.742606E2,2.4835852E1,1.4143674E2,6.6304886E1,5.958487E2,1.1367202E2,1.5155103E1,4.81703E1,1.4896605E2,4.704012E1,2.3453548E1,7.2738166E0,9.642006E2,1.00599985E1,1.8641985E1,6.193866E0],"tree_param":{"num_deleted":"0","num_feature":"18","num_nodes":"29","size_leaf_vector":"0"}},{"base_weights":[-5.1917416E-1,-7.008486E-1,4.2685217E-1,3.6945176E-1,-9.246673E-1,1.0472517E-1,7.180844E-1,7.472251E-1,-9.1847695E-2,8.862082E-1,-9.5090044E-1,7.514827E-1,-2.3263007E-1,8.01967E-1,-1.4815757E-1,9.356466E-1,1.482953E-1,-3.4917793E-1,1.0079256E0,-2.467597E-1,1.0639126E0,5.244859E-1,-9.7700447E-1,1.3084598E0,-1.1378579E-1,-4.484511E-1,1.100025E0,6.181673E-2,8.667315E-1,8.2672495E-1,-8.680362E-1],"categories":[],"categories_nodes":[],"categories_segments":[],"categories_sizes":[],"default_left":[1,1,1,0,1,1,1,0,1,0,0,1,1,1,1,0,0,0,0,0,0,0,0,0,0,0,0,0,0,0,0],"id":37,"left_children":[1,3,5,7,9,11,13,15,17,19,21,23,25,27,29,-1,-1,-1,-1,-1,-1,-1,-1,-1,-1,-1,-1,-1,-1,-1,-1],"loss_changes":[3.7121265E2,4.345771E2,3.1669872E1,5.52776E1,7.2085205E1,3.7269535E1,1.3889626E1,1.8346375E1,3.949525E1,5.381918E0,5.7886353E1,2.9641876E1,3.145557E1,6.965111E0,1.1797416E1,0E0,0E0,0E0,0E0,0E0,0E0,0E0,0E0,0E0,0E0,0E0,0E0,0E0,0E0,0E0,0E0],"parents":[2147483647,0,0,1,1,2,2,3,3,4,4,5,5,6,6,7,7,8,8,9,9,10,10,11,11,12,12,13,13,14,14],"right_children":[2,4,6,8,10,12,14,16,18,20,22,24,26,28,30,-1,-1,-1,-1,-1,-1,-1,-1,-1,-1,-1,-1,-1,-1,-1,-1],"split_conditions":[6.853136E0,-7.768898E0,3.2031437E1,-1.97995E-2,-1.15E0,2.266845E-1,3.575885E-1,-9.6850004E-4,4.9685E-2,-9.855505E-1,-4.642E-3,2.76505E1,8.3340204E-1,1.00450885E3,4.094327E0,4.678233E-2,7.414765E-3,-1.7458897E-2,5.0396282E-2,-1.2337985E-2,5.3195633E-2,2.6224295E-2,-4.8850223E-2,6.542299E-2,-5.6892894E-3,-2.2422556E-2,5.5001255E-2,3.0908366E-3,4.3336578E-2,4.133625E-2,-4.340181E-2],"split_indices":[10,10,10,15,6,0,16,2,6,17,2,1,6,14,9,0,0,0,0,0,0,0,0,0,0,0,0,0,0,0,0],"split_type":[0,0,0,0,0,0,0,0,0,0,0,0,0,0,0,0,0,0,0,0,0,0,0,0,0,0,0,0,0,0,0],"sum_hessian":[2.155526E3,1.8093713E3,3.4615457E2,3.1204666E2,1.4973246E3,1.6663536E2,1.7951923E2,1.7240582E2,1.3964085E2,2.0368711E1,1.4769559E3,5.7718163E1,1.089172E2,1.6479034E2,1.4728873E1,1.2944955E2,4.2956272E1,1.14452484E2,2.5188364E1,1.9459898E0,1.8422722E1,2.4679571E1,1.4522764E3,3.5506187E1,2.2211973E1,9.495352E1,1.3963674E1,1.4658876E1,1.5013147E2,5.603241E0,9.125632E0],"tree_param":{"num_deleted":"0","num_feature":"18","num_nodes":"31","size_leaf_vector":"0"}},{"base_weights":[-5.1227254E-1,-6.81319E-1,4.264619E-1,4.9462068E-1,-8.731147E-1,7.439256E-1,-1.7361695E-2,9.6521294E-1,1.9357887E-1,-9.111834E-1,5.5088985E-1,1.2079878E0,4.8413193E-1,-5.772318E-1,7.0646656E-1,-9.1723126E-1,1.0590968E0,-5.2665997E-1,4.7813064E-1,1.710834E-2,-9.583749E-1,-6.782176E-1,9.4184434E-1,5.4428625E-1,1.7419062E0,-1.2801985E-1,7.434873E-1,9.1508067E-1,-7.9615873E-1,9.936404E-1,-3.986056E-1],"categories":[],"categories_nodes":[],"categories_segments":[],"categories_sizes":[],"default_left":[1,0,1,1,1,1,1,0,0,1,1,1,1,1,0,0,0,0,0,0,0,0,0,0,0,0,0,0,0,0,0],"id":38,"left_children":[1,3,5,7,9,11,13,15,17,19,21,23,25,27,29,-1,-1,-1,-1,-1,-1,-1,-1,-1,-1,-1,-1,-1,-1,-1,-1],"loss_changes":[3.3214917E2,4.0047815E2,4.5628002E1,3.384454E1,8.351343E1,2.0276405E1,5.398151E1,1.796682E1,3.1772339E1,6.605591E1,1.9949097E1,1.9831123E1,2.0235708E1,2.545612E1,1.922811E1,0E0,0E0,0E0,0E0,0E0,0E0,0E0,0E0,0E0,0E0,0E0,0E0,0E0,0E0,0E0,0E0],"parents":[2147483647,0,0,1,1,2,2,3,3,4,4,5,5,6,6,7,7,8,8,9,9,10,10,11,11,12,12,13,13,14,14],"right_children":[2,4,6,8,10,12,14,16,18,20,22,24,26,28,30,-1,-1,-1,-1,-1,-1,-1,-1,-1,-1,-1,-1,-1,-1,-1,-1],"split_conditions":[1.899E-3,-2.6814998E-3,-8.440035E-1,-2.69145E-2,7.0416653E-1,5.857664E0,1.78455E-2,-2.49679E-1,5.59028E-1,-3.1632387E1,-2.2137451E-1,4.21876E-1,1.1376609E3,-1.7291665E0,1.489555E-1,-4.5861565E-2,5.295484E-2,-2.6332999E-2,2.3906533E-2,8.55417E-4,-4.7918748E-2,-3.391088E-2,4.7092218E-2,2.7214313E-2,8.709531E-2,-6.4009926E-3,3.7174366E-2,4.5754034E-2,-3.9807938E-2,4.968202E-2,-1.993028E-2],"split_indices":[2,2,17,15,6,11,15,16,5,11,0,0,14,6,16,0,0,0,0,0,0,0,0,0,0,0,0,0,0,0,0],"split_type":[0,0,0,0,0,0,0,0,0,0,0,0,0,0,0,0,0,0,0,0,0,0,0,0,0,0,0,0,0,0,0],"sum_hessian":[2.0886357E3,1.7710468E3,3.1758902E2,2.47399E2,1.5236478E3,1.8607089E2,1.3151814E2,9.436244E1,1.5303656E2,1.4850105E3,3.863726E1,6.408989E1,1.21980995E2,7.505122E1,5.6466908E1,3.560019E0,9.080242E1,4.2103016E1,1.1093354E2,7.084684E1,1.4141637E3,8.529393E0,3.0107866E1,3.0307587E1,3.3782303E1,3.5304085E1,8.667691E1,8.610472E0,6.644076E1,4.5617973E1,1.0848937E1],"tree_param":{"num_deleted":"0","num_feature":"18","num_nodes":"31","size_leaf_vector":"0"}},{"base_weights":[-5.10689E-1,-1.3316688E-1,-9.2023164E-1,-3.7581402E-1,4.468485E-1,4.536036E-1,-9.956266E-1,3.7225947E-1,-7.497153E-1,3.1296462E-1,1.3657758E0,-1.2879187E-1,1.3754629E0,1.1485889E0,-1.0367879E0,9.5112586E-1,8.051095E-2,-8.8459754E-1,-8.927286E-2,-2.0429311E-2,7.245145E-1,6.236382E-1,2.2412746E0,7.3893E-1,-7.7935445E-1,1.5859401E0,-4.2041236E-1,1.2770323E0,-0E0,-1.0599225E0,1.2233912E0],"categories":[],"categories_nodes":[],"categories_segments":[],"categories_sizes":[],"default_left":[1,1,0,0,1,1,1,0,1,1,1,0,1,1,1,0,0,0,0,0,0,0,0,0,0,0,0,0,0,0,0],"id":39,"left_children":[1,3,5,7,9,11,13,15,17,19,21,23,25,27,29,-1,-1,-1,-1,-1,-1,-1,-1,-1,-1,-1,-1,-1,-1,-1,-1],"loss_changes":[3.1277722E2,1.4914565E2,1.01730896E2,2.0999762E2,3.6231026E1,2.858664E1,8.2538086E1,4.097661E1,4.35094E1,3.8345493E1,2.0674171E1,1.8259916E1,9.519978E0,2.1714973E0,4.8535583E1,0E0,0E0,0E0,0E0,0E0,0E0,0E0,0E0,0E0,0E0,0E0,0E0,0E0,0E0,0E0,0E0],"parents":[2147483647,0,0,1,1,2,2,3,3,4,4,5,5,6,6,7,7,8,8,9,9,10,10,11,11,12,12,13,13,14,14],"right_children":[2,4,6,8,10,12,14,16,18,20,22,24,26,28,30,-1,-1,-1,-1,-1,-1,-1,-1,-1,-1,-1,-1,-1,-1,-1,-1],"split_conditions":[1.3187661E3,3.7071567E0,-9.534501E-3,-1.2765E-3,8.254189E2,2.08335E-2,-1.2E0,-2.68205E-2,2.8417978E0,1.0933485E0,4.161914E0,-2.2820001E-3,-1.2311281E1,-1.696144E0,2.0037115E0,4.7556292E-2,4.0255478E-3,-4.4229876E-2,-4.463643E-3,-1.0214656E-3,3.6225725E-2,3.1181911E-2,1.1206373E-1,3.69465E-2,-3.8967725E-2,7.9297006E-2,-2.102062E-2,6.385162E-2,-0E0,-5.2996125E-2,6.116956E-2],"split_indices":[12,4,15,2,8,6,6,15,10,0,7,2,1,6,6,0,0,0,0,0,0,0,0,0,0,0,0,0,0,0,0],"split_type":[0,0,0,0,0,0,0,0,0,0,0,0,0,0,0,0,0,0,0,0,0,0,0,0,0,0,0,0,0,0,0],"sum_hessian":[2.0295951E3,1.0580431E3,9.71552E2,7.474334E2,3.1060965E2,4.9593204E1,9.219588E2,2.481945E2,4.9923892E2,2.7322998E2,3.7379673E1,3.0254864E1,1.9338339E1,1.6400629E1,9.0555817E2,8.126556E1,1.6692896E2,4.1303186E2,8.620704E1,1.5013065E2,1.2309936E2,2.1775593E1,1.5604078E1,1.2246925E1,1.800794E1,1.7912695E1,1.4256432E0,1.4407906E1,1.9927241E0,8.973467E2,8.211515E0],"tree_param":{"num_deleted":"0","num_feature":"18","num_nodes":"31","size_leaf_vector":"0"}},{"base_weights":[-4.8523083E-1,-1.06021166E-1,-9.22229E-1,8.6865145E-1,-2.662442E-1,1.1989092E0,-9.6197605E-1,7.049121E-1,1.6086179E0,5.0131604E-2,-6.705127E-1,-0E0,1.2593895E0,-1.0056821E0,9.8714584E-1,9.7793967E-1,4.034944E-1,3.986313E-1,1.919383E0,-9.133649E-2,1.426287E0,-8.2270855E-1,6.027349E-1,4.2583346E-1,-1.0540782E0,1.229631E0,-1.7212857E-2],"categories":[],"categories_nodes":[],"categories_segments":[],"categories_sizes":[],"default_left":[1,0,1,1,1,1,1,1,1,1,1,0,0,1,1,0,0,0,0,0,0,0,0,0,0,0,0],"id":40,"left_children":[1,3,5,7,9,11,13,15,17,19,21,-1,-1,23,25,-1,-1,-1,-1,-1,-1,-1,-1,-1,-1,-1,-1],"loss_changes":[3.2778622E2,1.659491E2,7.85473E1,1.4691978E1,1.1785152E2,4.822445E-1,7.8095825E1,8.549854E0,6.4074097E0,1.0144996E2,7.895311E1,0E0,0E0,6.2460693E1,6.0674496E0,0E0,0E0,0E0,0E0,0E0,0E0,0E0,0E0,0E0,0E0,0E0,0E0],"parents":[2147483647,0,0,1,1,2,2,3,3,4,4,5,5,6,6,7,7,8,8,9,9,10,10,13,13,14,14],"right_children":[2,4,6,8,10,12,14,16,18,20,22,-1,-1,24,26,-1,-1,-1,-1,-1,-1,-1,-1,-1,-1,-1,-1],"split_conditions":[1.3190742E3,-4.96409E-1,-1.7291665E0,4.0890384E0,2.7210593E2,-6.6968303E0,1.0083334E0,-7.3333347E-1,5.7737594E0,4.456071E0,6.240895E-1,-0E0,6.2969476E-2,-1.5185452E1,1.6959685E0,4.8896983E-2,2.017472E-2,1.9931566E-2,9.5969155E-2,-4.5668245E-3,7.131436E-2,-4.1135427E-2,3.0136747E-2,2.1291673E-2,-5.2703913E-2,6.1481547E-2,-8.606428E-4],"split_indices":[12,17,6,7,13,1,6,6,9,7,6,0,0,10,7,0,0,0,0,0,0,0,0,0,0,0,0],"split_type":[0,0,0,0,0,0,0,0,0,0,0,0,0,0,0,0,0,0,0,0,0,0,0,0,0,0,0],"sum_hessian":[1.9838197E3,1.0640288E3,9.1979095E2,1.4871278E2,9.15316E2,1.5919312E1,9.0387164E2,1.2447343E2,2.4239363E1,5.125796E2,4.027364E2,1.2819768E0,1.4637335E1,8.8502344E2,1.8848188E1,6.2394062E1,6.2079365E1,6.0773535E0,1.816201E1,4.649862E2,4.759338E1,3.6075348E2,4.1982918E1,2.8011335E1,8.5701215E2,1.5803962E1,3.0442276E0],"tree_param":{"num_deleted":"0","num_feature":"18","num_nodes":"27","size_leaf_vector":"0"}},{"base_weights":[-4.903564E-1,-1.4480671E-1,-9.2150795E-1,-3.4966332E-1,5.1390797E-1,8.494492E-1,-9.922978E-1,4.05891E-1,-7.335315E-1,1.7553239E-1,8.139194E-1,-1.3126673E-2,1.0267025E0,-1.0321461E0,1.0649126E0,9.424335E-1,1.15902916E-1,-7.8891516E-1,1.2642589E0,9.4693863E-1,-1.12595424E-1,2.390592E0,5.588101E-1,5.7918465E-1,-9.0296715E-1,1.0960544E0,4.9361486E-2,3.1142354E-1,-1.061804E0,-0E0,1.2536097E0],"categories":[],"categories_nodes":[],"categories_segments":[],"categories_sizes":[],"default_left":[1,0,1,0,1,1,1,0,1,1,1,1,0,0,1,0,0,0,0,0,0,0,0,0,0,0,0,0,0,0,0],"id":41,"left_children":[1,3,5,7,9,11,13,15,17,19,21,23,25,27,29,-1,-1,-1,-1,-1,-1,-1,-1,-1,-1,-1,-1,-1,-1,-1,-1],"loss_changes":[2.845981E2,1.4404436E2,1.077937E2,2.3726276E2,2.4494652E1,6.0331783E0,6.830554E1,4.156387E1,6.0520172E1,2.794083E1,4.8793983E1,3.802043E0,7.075043E-1,3.318329E1,1.8906364E0,0E0,0E0,0E0,0E0,0E0,0E0,0E0,0E0,0E0,0E0,0E0,0E0,0E0,0E0,0E0,0E0],"parents":[2147483647,0,0,1,1,2,2,3,3,4,4,5,5,6,6,7,7,8,8,9,9,10,10,11,11,12,12,13,13,14,14],"right_children":[2,4,6,8,10,12,14,16,18,20,22,24,26,28,30,-1,-1,-1,-1,-1,-1,-1,-1,-1,-1,-1,-1,-1,-1,-1,-1],"split_conditions":[1.3280626E3,1.566E-3,-1.025E0,-1.2765E-3,6.2951696E-1,1.841678E0,1.2166665E0,-2.7252E-2,1.0705444E1,-2.423774E0,2.145355E-1,-2.1541665E0,-5.4879797E-1,-1.1038E-2,1.8791665E0,4.7121674E-2,5.795146E-3,-3.9445758E-2,6.3212946E-2,4.734693E-2,-5.6297714E-3,1.19529605E-1,2.7940506E-2,2.8959233E-2,-4.5148358E-2,5.4802723E-2,2.4680744E-3,1.5571177E-2,-5.3090204E-2,-0E0,6.268048E-2],"split_indices":[14,2,6,2,0,1,6,15,0,0,10,6,17,15,6,0,0,0,0,0,0,0,0,0,0,0,0,0,0,0,0],"split_type":[0,0,0,0,0,0,0,0,0,0,0,0,0,0,0,0,0,0,0,0,0,0,0,0,0,0,0,0,0,0,0],"sum_hessian":[1.9173088E3,1.0663389E3,8.5097E2,8.148975E2,2.5144133E2,3.1742355E1,8.192276E2,2.7363965E2,5.412579E2,1.2047678E2,1.3096454E2,4.607068E0,2.7135286E1,8.0462634E2,1.4601275E1,9.4007164E1,1.7963249E2,5.2773346E2,1.3524413E1,3.308426E1,8.7392525E1,1.6527506E1,1.1443704E2,2.3008518E0,2.3062165E0,2.4268547E1,2.86674E0,1.6444345E1,7.88182E2,3.1401732E0,1.14611025E1],"tree_param":{"num_deleted":"0","num_feature":"18","num_nodes":"31","size_leaf_vector":"0"}},{"base_weights":[-4.587772E-1,-6.534542E-1,2.9864842E-1,2.0531586E-1,-8.9264816E-1,7.0516326E-2,8.777094E-1,-7.009795E-1,4.4024238E-1,5.611538E-1,-9.2636687E-1,3.8421118E-1,-5.8544505E-1,9.529424E-1,-0E0,-9.816598E-1,4.5550302E-1,8.347697E-1,6.624532E-2,1.6214012E0,-6.661659E-2,7.248595E-1,-9.496839E-1,-1.112677E0,5.5463094E-1,9.339106E-1,-7.321628E-1,3.6689058E-1,1.0367448E0,8.178057E-1,-1.3101559E0],"categories":[],"categories_nodes":[],"categories_segments":[],"categories_sizes":[],"default_left":[1,0,0,1,1,1,1,1,0,1,1,1,1,0,1,0,0,0,0,0,0,0,0,0,0,0,0,0,0,0,0],"id":42,"left_children":[1,3,5,7,9,11,13,15,17,19,21,23,25,27,29,-1,-1,-1,-1,-1,-1,-1,-1,-1,-1,-1,-1,-1,-1,-1,-1],"loss_changes":[2.7959857E2,3.1039996E2,5.005897E1,6.992082E1,5.8713867E1,5.7568707E1,7.3347397E0,2.2743176E1,3.771858E1,1.9428375E1,4.5344177E1,4.8736683E1,2.050803E1,3.1095734E0,1.1135114E1,0E0,0E0,0E0,0E0,0E0,0E0,0E0,0E0,0E0,0E0,0E0,0E0,0E0,0E0,0E0,0E0],"parents":[2147483647,0,0,1,1,2,2,3,3,4,4,5,5,6,6,7,7,8,8,9,9,10,10,11,11,12,12,13,13,14,14],"right_children":[2,4,6,8,10,12,14,16,18,20,22,24,26,28,30,-1,-1,-1,-1,-1,-1,-1,-1,-1,-1,-1,-1,-1,-1,-1,-1],"split_conditions":[4.0555E-3,-6.0360003E-3,8.039501E-3,3.0967422E3,-2.753638E1,3.258413E3,2.8423233E2,1.2499999E-2,-2.5844E-2,-2.455445E-1,-1.15E0,2.975855E3,-1.6689579E1,2.2495E-2,-2.16667E-1,-4.908299E-2,2.277515E-2,4.1738488E-2,3.312266E-3,8.107006E-2,-3.3308293E-3,3.6242973E-2,-4.7484197E-2,-5.563385E-2,2.7731547E-2,4.669553E-2,-3.660814E-2,1.8344529E-2,5.1837243E-2,4.0890288E-2,-6.550779E-2],"split_indices":[15,15,2,3,11,3,11,6,15,0,6,3,1,15,6,0,0,0,0,0,0,0,0,0,0,0,0,0,0,0,0],"split_type":[0,0,0,0,0,0,0,0,0,0,0,0,0,0,0,0,0,0,0,0,0,0,0,0,0,0,0,0,0,0,0],"sum_hessian":[1.8914535E3,1.5058663E3,3.855872E2,3.2717645E2,1.17869E3,2.7865463E2,1.0693259E2,6.606636E1,2.611101E2,2.5691397E1,1.1529985E3,1.8981822E2,8.8836395E1,9.864018E1,8.292401E0,5.3980946E1,1.2085413E1,1.2516666E2,1.3594344E2,9.5583515E0,1.6133045E1,1.5038682E1,1.1379598E3,1.8236898E1,1.7158133E2,6.750411E0,8.208599E1,1.4506107E1,8.413407E1,5.2344813E0,3.0579202E0],"tree_param":{"num_deleted":"0","num_feature":"18","num_nodes":"31","size_leaf_vector":"0"}},{"base_weights":[-4.6474224E-1,-1.0681137E-1,-9.0317446E-1,-3.4648043E-1,5.424944E-1,1.1490699E0,-9.4191843E-1,3.0526462E-1,-7.393373E-1,3.6776218E-1,1.1362438E0,3.950138E-1,-9.976205E-1,8.9558065E-2,1.2016677E0,-8.5399884E-1,3.910079E-1,-6.081913E-2,6.92325E-1,1.9717396E0,4.6524858E-1,8.525475E-1,-7.458684E-1,-1.0264685E0,7.233158E-1],"categories":[],"categories_nodes":[],"categories_segments":[],"categories_sizes":[],"default_left":[1,0,1,1,1,0,0,1,1,1,1,0,1,0,0,0,0,0,0,0,0,0,0,0,0],"id":43,"left_children":[1,3,5,7,9,-1,11,13,15,17,19,21,23,-1,-1,-1,-1,-1,-1,-1,-1,-1,-1,-1,-1],"loss_changes":[2.849694E2,1.5654626E2,6.591266E1,1.892417E2,2.6140457E1,0E0,6.0857727E1,5.211261E1,6.0517334E1,3.0130573E1,3.0126564E1,1.7524364E1,3.94057E1,0E0,0E0,0E0,0E0,0E0,0E0,0E0,0E0,0E0,0E0,0E0,0E0],"parents":[2147483647,0,0,1,1,2,2,3,3,4,4,6,6,7,7,8,8,9,9,10,10,11,11,12,12],"right_children":[2,4,6,8,10,-1,12,14,16,18,20,22,24,-1,-1,-1,-1,-1,-1,-1,-1,-1,-1,-1,-1],"split_conditions":[1.3190742E3,1.571E-3,-2.0083334E0,-3.2411346E0,4.3966455E0,5.7453495E-2,-1.15290005E-2,4.414174E0,3.804199E0,9.569E-3,2.712373E2,-5.66E-4,1.0083334E0,4.4779032E-3,6.0083386E-2,-4.2699944E-2,1.9550396E-2,-3.0409566E-3,3.461625E-2,9.8586984E-2,2.326243E-2,4.2627376E-2,-3.729342E-2,-5.1323425E-2,3.616579E-2],"split_indices":[12,2,6,4,7,0,15,7,0,15,13,2,6,0,0,0,0,0,0,0,0,0,0,0,0],"split_type":[0,0,0,0,0,0,0,0,0,0,0,0,0,0,0,0,0,0,0,0,0,0,0,0,0],"sum_hessian":[1.8219701E3,1.0050135E3,8.169566E2,7.3552576E2,2.6948773E2,1.412816E1,8.028284E2,2.7574518E2,4.5978058E2,2.1076587E2,5.872187E1,3.1149529E1,7.716789E2,2.2404697E2,5.169822E1,4.1846127E2,4.131928E1,8.985068E1,1.209152E2,2.4627659E1,3.4094208E1,2.3039232E1,8.110295E0,7.599249E2,1.1753979E1],"tree_param":{"num_deleted":"0","num_feature":"18","num_nodes":"25","size_leaf_vector":"0"}},{"base_weights":[-4.364249E-1,-9.3734875E-2,-8.8957596E-1,-3.3591697E-1,4.7621924E-1,8.803655E-1,-9.6012557E-1,3.174663E-1,-7.761189E-1,7.050496E-1,-4.4384658E-1,9.783362E-1,-0E0,-9.8992413E-1,9.8601973E-1,-1.2240876E-1,6.1660844E-1,-9.1001403E-1,1.513201E-1,1.3942125E0,5.01971E-1,3.6869818E-1,-9.248929E-1,-0E0,1.028737E0,-5.555298E-1,4.668441E-1,3.5845914E-1,-1.0244268E0,1.249843E0,-0E0],"categories":[],"categories_nodes":[],"categories_segments":[],"categories_sizes":[],"default_left":[1,1,1,1,1,1,1,1,0,1,1,1,1,0,1,0,0,0,0,0,0,0,0,0,0,0,0,0,0,0,0],"id":44,"left_children":[1,3,5,7,9,11,13,15,17,19,21,23,25,27,29,-1,-1,-1,-1,-1,-1,-1,-1,-1,-1,-1,-1,-1,-1,-1,-1],"loss_changes":[2.7332425E2,1.392223E2,9.576001E1,2.0478973E2,6.3717644E1,2.1466904E0,4.3394775E1,3.8126198E1,5.3690918E1,3.119387E1,2.4145582E1,7.9805946E-1,1.3395414E0,3.459308E1,3.631422E0,0E0,0E0,0E0,0E0,0E0,0E0,0E0,0E0,0E0,0E0,0E0,0E0,0E0,0E0,0E0,0E0],"parents":[2147483647,0,0,1,1,2,2,3,3,4,4,5,5,6,6,7,7,8,8,9,9,10,10,11,11,12,12,13,13,14,14],"right_children":[2,4,6,8,10,12,14,16,18,20,22,24,26,28,30,-1,-1,-1,-1,-1,-1,-1,-1,-1,-1,-1,-1,-1,-1,-1,-1],"split_conditions":[1.3278093E3,3.231689E0,-1.045833E0,-4.832651E0,3.2587837E3,1.3824304E3,1.2166665E0,1.120666E3,1.3195E-3,6.2101297E0,2.4628479E2,-1.1432671E1,-2.9238024E0,-1.12175E-2,1.27934E0,-6.120438E-3,3.0830422E-2,-4.5500703E-2,7.566005E-3,6.971063E-2,2.5098551E-2,1.843491E-2,-4.6244647E-2,-0E0,5.143685E-2,-2.7776489E-2,2.3342205E-2,1.7922958E-2,-5.122134E-2,6.249215E-2,-0E0],"split_indices":[14,10,6,10,3,12,6,14,2,1,13,10,10,15,7,0,0,0,0,0,0,0,0,0,0,0,0,0,0,0,0],"split_type":[0,0,0,0,0,0,0,0,0,0,0,0,0,0,0,0,0,0,0,0,0,0,0,0,0,0,0,0,0,0,0],"sum_hessian":[1.7659539E3,1.00747595E3,7.584779E2,7.0856226E2,2.9891364E2,2.8090609E1,7.303873E2,2.8441605E2,4.241462E2,2.4043535E2,5.8478294E1,2.4798868E1,3.2917402E0,7.203626E2,1.0024694E1,1.1401299E2,1.7040306E2,3.7159564E2,5.255058E1,5.22685E1,1.8816685E2,2.1060068E1,3.7418224E1,1.7119007E0,2.3086967E1,1.05406E0,2.2376802E0,1.7015512E1,7.033471E2,8.186317E0,1.8383774E0],"tree_param":{"num_deleted":"0","num_feature":"18","num_nodes":"31","size_leaf_vector":"0"}},{"base_weights":[-4.0609226E-1,-6.5099E-2,-8.7513304E-1,-2.681048E-1,4.670042E-1,-9.63878E-1,4.0418234E-1,4.4411162E-1,-6.1395466E-1,9.363594E-1,2.5037405E-1,-1.0092055E0,7.27106E-1,7.5694644E-1,-4.0896526E-1,9.955397E-2,8.7670535E-1,1.2664454E-2,-7.72337E-1,7.2974014E-1,2.6781192E0,4.6843487E-1,-5.0290173E-1,7.69151E-1,-1.0319599E0,9.9164736E-1,-5.1302105E-1,-2.6019457E-1,9.11605E-1,7.1927255E-1,-9.598805E-1],"categories":[],"categories_nodes":[],"categories_segments":[],"categories_sizes":[],"default_left":[1,1,1,0,1,1,1,1,1,1,1,1,1,1,1,0,0,0,0,0,0,0,0,0,0,0,0,0,0,0,0],"id":45,"left_children":[1,3,5,7,9,11,13,15,17,19,21,23,25,27,29,-1,-1,-1,-1,-1,-1,-1,-1,-1,-1,-1,-1,-1,-1,-1,-1],"loss_changes":[2.7646097E2,1.0868212E2,8.3709595E1,1.804454E2,2.6747566E1,5.334314E1,1.4214144E1,3.448592E1,4.9723984E1,2.5467293E1,3.180095E1,2.800122E1,6.8359327E0,6.263792E0,9.689387E0,0E0,0E0,0E0,0E0,0E0,0E0,0E0,0E0,0E0,0E0,0E0,0E0,0E0,0E0,0E0,0E0],"parents":[2147483647,0,0,1,1,2,2,3,3,4,4,5,5,6,6,7,7,8,8,9,9,10,10,11,11,12,12,13,13,14,14],"right_children":[2,4,6,8,10,12,14,16,18,20,22,24,26,28,30,-1,-1,-1,-1,-1,-1,-1,-1,-1,-1,-1,-1,-1,-1,-1,-1],"split_conditions":[1.3278093E3,3.7043974E0,1.18575E-2,-1.73E-3,8.8803196E-1,1.3625E1,1.8424095E2,1.2461289E3,-9.372263E0,3.1273198E-1,3.2641772E3,-1.7291665E0,1.3851062E3,1.6674675E1,-1.0791664E0,4.977699E-3,4.3835267E-2,6.332227E-4,-3.861685E-2,3.648701E-2,1.3390596E-1,2.3421744E-2,-2.5145087E-2,3.845755E-2,-5.1597994E-2,4.958237E-2,-2.5651053E-2,-1.3009729E-2,4.558025E-2,3.596363E-2,-4.7994025E-2],"split_indices":[14,4,15,2,11,5,11,12,1,11,3,6,14,1,6,0,0,0,0,0,0,0,0,0,0,0,0,0,0,0,0],"split_type":[0,0,0,0,0,0,0,0,0,0,0,0,0,0,0,0,0,0,0,0,0,0,0,0,0,0,0,0,0,0,0],"sum_hessian":[1.733767E3,1.0058115E3,7.2795544E2,7.297687E2,2.7604282E2,6.816951E2,4.626035E1,2.3750133E2,4.9226736E2,8.4665764E1,1.9137704E2,6.648676E2,